svm_type c_svc
kernel_type rbf
gamma 1
nr_class 2
total_sv 3650
rho -0.15496405791361512
label 0 1
nr_sv 1928 1722
SV
0.81157691480596916 0:1 2:-1 3:-1 4:-1 5:-1 7:-1 8:-1 10:-1 11:-1 12:-1 13:-1 16:1 17:-1 18:-1 19:-1 22:-1 24:-1 
1.2980810195342423 0:0.3334 2:-1 3:-0.0588 4:0.0666 5:0.2 6:-0.125 8:-0.2728 10:0.1538 11:0.1034 12:0.3334 15:-0.2 16:-0.1666 17:0.1428 18:0.2308 19:-0.1818 21:0.1428 24:-0.2222 
0.34919050030979321 0:-0.0304 2:1 4:-0.1428 5:-0.3334 6:0.2 7:-1 10:-0.2308 11:0.0624 12:0.2 13:0.1666 15:-1 16:-0.077 17:0.0476 19:0.6666 21:0.1112 22:1 
0.83885480915999411 0:-0.0526 2:-1 3:0.2 4:0.091 5:-0.091 6:-0.1666 7:-1 8:0.3334 10:-0.4286 11:0.2728 12:-1 13:-1 15:-1 16:-1 17:1 18:1 19:-1 21:0.3334 22:1 24:-1 
0.2448797508416731 0:-0.2728 2:-1 3:-0.8 4:0.2308 5:-0.1428 7:0.3334 8:0.0666 10:-0.1764 11:-0.091 13:0.6 15:0.2 16:-0.3334 17:-0.3334 18:0.2728 19:0.091 21:0.25 22:-1 24:0.3334 
1.6720396008674294 0:-0.2728 2:-1 3:-0.8 4:0.1666 5:-0.1428 8:0.0666 10:-0.1112 11:-0.091 13:0.3334 15:0.2 16:-0.3334 18:0.2728 19:0.2 21:0.25 22:-1 24:0.3334 
1.4730108754439555 0:0.1818 2:-0.7142 3:0.3846 4:-0.3334 5:0.1112 7:0.1428 8:-0.1112 10:-0.2728 11:-0.0588 13:-0.0588 15:-0.3334 16:0.0588 17:0.2222 18:-0.1 19:0.125 21:0.2942 22:0.3334 
0.30322484808952299 0:-0.5238 2:0.6666 3:-0.0476 4:-0.3044 5:-0.2728 6:0.04 8:0.2308 10:0.0344 11:0.037 13:0.1428 15:0.6 17:0.091 18:0.1112 21:0.091 24:-0.0588 
0.95053609440347131 0:-0.1334 2:0.4286 3:-0.375 4:0.1 6:-0.1 7:-0.25 10:-0.2 12:0.6 13:0.3044 15:0.2 16:-0.375 17:0.1112 18:-0.1 19:0.6 21:-0.0666 22:-0.5 24:0.1 
0.5222694862863958 0:0.5556 2:-1 3:-0.4444 4:-0.28 6:0.6 7:1 8:0.6 10:0.1428 11:-0.25 12:0.1112 13:-1 16:-0.2 17:0.3334 18:-0.3334 19:-0.1428 21:0.7142 22:-1 
0.47715091551558092 2:-1 3:0.4286 4:0.091 5:-1 6:0.25 7:-1 10:0.077 12:-1 15:0.6 16:-1 17:1 18:-0.6666 19:0.3334 21:0.1112 
0.97655723976424658 0:0.3334 2:1 3:-0.5 4:-0.12 5:0.1112 6:0.5 7:-1 8:0.4 11:-0.375 12:0.3334 13:-1 15:-0.5 16:0.2 17:0.6 18:-0.5556 19:0.1428 21:0.6 22:-1 
0.83451143611371947 0:0.2728 3:-0.4444 4:-0.28 6:0.6 7:-1 8:0.4 10:0.1428 11:-0.2 12:0.1112 13:-1 15:1 16:0.3334 17:0.3334 18:-0.2 19:-0.1112 21:0.5 22:-1 
2 0:0.0624 2:-0.2 3:-0.04 4:0.1112 5:-0.12 6:0.0732 7:-0.6364 10:-0.2786 11:-0.014 12:-0.2728 13:0.027 15:0.1 16:0.091 17:-0.2 18:0.0566 19:0.2272 21:-0.0588 22:0.75 24:0.2174 
0.84522255487534881 0:-1 2:-1 3:-1 4:-1 5:-1 6:-1 7:-1 8:-1 10:1 11:1 12:-1 13:1 16:1 17:-1 18:1 19:-1 21:-1 22:-1 24:-1 
1.6906489302430745 0:0.2942 2:-0.6364 3:-0.1666 4:0.0666 6:0.3636 7:1 8:-0.091 10:0.6666 11:0.0666 13:-0.1666 15:-0.091 16:-0.2 17:-0.2858 18:-0.1112 19:-0.2858 21:-0.091 22:-1 24:0.3334 
0.29170057593123433 2:1 4:-0.8 5:0.3334 8:0.4286 10:0.1112 13:-1 16:0.1112 18:0.2 19:1 21:-0.3334 22:1 24:-0.5 
2 0:0.4376 2:0.3334 3:0.0526 4:0.4 5:0.1666 6:-0.0834 8:0.125 10:-0.4286 11:-0.238 12:0.2 13:-0.0344 15:-0.077 16:-0.0714 17:0.037 18:-0.36 19:0.238 22:0.5 24:-0.2308 
0.25672228562225202 2:0.25 3:-0.4286 4:0.2308 5:-0.5 6:-0.0526 7:0.3334 8:0.4546 10:0.04 11:-0.4286 12:0.6 13:0.1818 15:0.1112 16:-0.091 17:0.5 18:-0.1428 19:-0.2728 22:0.2 24:-0.375 
2 0:0.2 2:-0.1428 3:0.1428 4:-0.0666 5:-0.125 6:-0.0858 7:-0.2 8:-0.4 10:0.0714 11:0.077 12:0.6 13:0.077 15:0.1112 16:0.1304 17:-0.1112 19:0.1538 24:-0.25 
0.33748116906078462 0:0.091 2:1 3:0.5714 4:-0.4 5:0.25 6:-0.3334 7:-0.3334 8:-0.5 10:-0.3846 11:0.6 12:0.2 13:0.3334 15:0.3334 16:-0.6 17:1 18:0.2858 19:-0.3334 21:-0.2 22:-1 24:-0.6 
0.43013124470240038 0:-0.0106 2:-1 3:-0.4286 4:-0.1428 5:0.2728 6:0.5 7:-1 8:-0.5556 10:-0.2308 11:-0.125 12:1 13:0.2 15:-0.0588 16:0.3334 17:1 18:0.2728 19:-0.1852 21:0.3334 22:-1 24:-0.1428 
0.23856805968266365 0:-0.2 2:0.25 3:1 4:-1 5:-1 6:-0.4546 7:-1 10:-0.5 11:0.2 12:-1 13:0.1112 15:-0.3334 16:1 17:-0.5 18:0.1428 19:0.3334 21:0.4286 22:-1 
0.01641104530215241 0:0.1112 2:-1 3:-0.1764 4:0.1428 5:-0.1428 6:0.077 7:0.3334 8:-0.0666 10:-0.3334 11:0.2 12:0.3334 13:0.1428 15:0.2728 16:-0.3334 17:0.5 18:-0.1428 19:-0.1428 21:0.2858 22:-0.3334 
2 0:-0.1538 2:-0.4 3:-0.3334 4:-0.1428 5:-0.091 6:0.3044 8:0.1578 10:0.125 11:0.2 12:0.4286 13:0.091 15:0.3334 16:0.2728 17:0.3334 18:-0.12 19:-0.2728 21:-0.0476 22:-0.2 24:-0.4 
1.2724977469032503 0:0.0666 2:-0.3334 3:-0.25 4:0.1666 5:0.25 7:-0.2 8:-0.25 10:0.077 11:0.091 12:-1 13:-0.4286 15:0.2 16:0.5 17:0.3334 18:0.077 19:-0.091 24:-0.2 
2 0:-0.0176 2:-0.3334 3:-0.125 4:-0.2222 5:-0.375 6:0.0416 7:0.2632 10:-0.0666 11:0.2858 12:0.75 13:-0.5 15:0.0666 17:0.2 18:0.1628 19:0.0834 21:-0.0556 22:-0.3334 
0.82844968837055111 2:-1 3:-1 4:-1 5:-1 6:0.3334 7:-1 8:-0.3334 10:0.3334 12:-1 13:-1 15:-1 22:1 24:-1 
2 0:0.2942 3:0.2858 4:-0.0304 5:-0.3 6:-0.1578 7:-0.4286 8:-0.04 10:-0.1 11:-0.0624 13:-0.4118 15:0.7142 16:0.0666 17:-0.5714 18:-0.1052 19:0.4118 21:0.0968 22:-0.3334 24:0.4 
0.69858584479726737 0:0.125 2:1 3:0.2 4:-0.2728 5:-0.4 6:0.3334 7:1 8:0.3334 10:-0.3334 11:0.0588 12:-1 13:0.2 15:-0.3334 16:-0.2728 17:-0.125 18:-0.3334 19:0.3334 22:-1 24:1 
2 0:-0.125 2:-0.0286 3:0.1 4:-0.0508 6:0.2942 7:0.4118 8:0.4666 10:-0.0334 11:-0.2308 12:0.6 13:-0.1428 16:0.4 17:-0.077 18:-0.125 19:0.2352 21:-0.1578 22:0.3334 24:-0.0476 
0.37227307674527105 0:-0.25 2:0.2 4:0.0666 5:0.4 6:0.2858 8:0.4 10:-0.2858 11:-0.2174 12:0.6 13:-0.2 15:-1 16:-1 17:-0.6 18:-0.25 19:0.091 21:0.4 22:-1 24:0.7142 
1.1284170754074319 0:0.2 2:0.2 3:-0.1428 4:-0.4286 5:0.3334 6:0.4546 7:0.3334 8:0.5 10:0.2 11:-0.077 13:-0.3334 15:-0.2308 16:-0.4286 17:0.4286 18:-0.2 19:-0.25 21:-0.2728 22:-1 24:0.6 
2 0:0.3334 2:-0.2 3:-0.091 4:-0.0476 5:-0.5556 6:-0.2 8:-0.091 11:-0.0434 12:0.6 13:0.5 17:0.1112 19:0.2 21:-0.25 22:1 24:-0.5 
0.7872887863877075 0:-0.0588 2:-1 3:0.1666 4:-0.1428 5:0.091 6:-0.1428 8:-0.1112 11:-0.6 12:0.3334 13:0.25 15:-0.6 16:0.2 17:0.5 19:0.6 21:0.5556 22:-0.3334 24:0.3334 
0.46541029429422026 0:0.0344 2:-1 3:0.6 4:-0.3334 5:-0.1112 6:0.4 8:0.1112 10:-1 11:-0.091 12:-1 13:-0.1428 15:-0.5 17:0.6 18:0.077 21:-0.1666 22:-0.3334 24:1 
0.95629428012186202 0:-0.0588 2:0.5556 4:-0.2 5:0.3334 6:-0.2 8:-1 10:0.3334 11:0.1764 12:-0.3334 13:-1 15:-0.25 16:-0.3334 17:-0.1764 18:0.4286 19:0.3334 21:0.1764 22:-1 24:-1 
2 0:0.15 2:-0.0526 3:0.1666 6:0.0952 7:-0.25 8:-0.2174 10:-0.077 11:0.0714 13:-0.0286 15:0.091 16:0.3044 17:-0.0476 18:0.05 21:-0.04 24:-0.5 
1.9601931727128035 0:-0.1112 2:-0.7142 3:0.2942 4:0.1112 5:-0.4 6:0.0322 7:0.5 8:0.091 10:0.1112 12:0.3334 13:0.1428 15:0.2222 19:-0.1112 22:-0.3334 24:-0.4 
0.28259532842378549 2:-1 3:-0.5 4:0.2 5:-0.3334 6:-0.2858 8:-0.0588 10:0.25 11:0.2 12:1 13:0.2 16:0.3334 18:-0.077 19:0.6 22:-1 24:-0.4 
0.1101368715715987 2:-1 3:0.2 4:-0.2858 5:-0.7142 6:0.6 7:-1 8:-1 11:0.1112 12:-0.3334 13:0.3334 15:0.2 16:1 18:-0.4 19:0.75 21:0.1666 22:0.3334 24:-0.3334 
0.56652505683512488 0:-0.4286 3:0.3334 4:0.3334 5:-0.2 6:0.0666 8:-0.2 11:-0.1112 12:0.3334 13:0.3334 15:-0.5 17:-1 18:0.3334 19:0.077 21:0.1428 22:-1 24:1 
2 0:0.1304 2:-0.7142 4:-0.125 5:-0.091 6:0.0666 8:0.3846 11:0.1666 12:0.3334 15:-0.1764 17:-0.7142 18:-0.0588 19:0.125 22:0.3334 
1.3929421349317026 0:-0.0526 2:-0.3334 3:-0.1666 4:0.0588 5:-0.3334 6:-0.5 7:-1 8:0.7334 10:0.25 11:0.0556 12:1 15:-0.2 16:0.4286 17:-0.25 18:0.2174 19:-0.1666 21:-0.0588 24:-0.3334 
0.15260791558881492 0:-0.1764 2:-0.6 3:-0.0666 6:-0.1112 7:0.25 8:-0.1112 10:0.2308 11:0.375 12:1 13:0.5556 16:0.2 17:-0.3334 19:-0.6364 21:-0.1428 22:1 24:-0.1666 
0.61486978716717722 0:0.2 4:1 5:-1 6:0.1112 7:0.2 8:-0.1666 10:-0.1666 11:0.0666 12:1 13:-0.1112 15:0.3334 16:-0.75 17:0.2 18:0.238 22:-0.7142 24:1 
0.23923056906787363 0:0.1764 2:-0.3334 3:-0.091 4:-0.1112 5:-0.5384 6:-0.3846 7:-1 8:0.4286 10:0.2 11:0.0588 12:0.6 13:-0.091 15:-0.2 16:0.5 17:-0.7142 18:0.3334 19:0.2858 21:0.125 24:-0.5556 
2 0:-0.4546 2:-0.3334 3:-0.4 5:0.3334 6:-0.1666 7:-0.1428 8:0.5714 10:0.2632 11:0.0666 13:-0.2728 15:-0.6 16:-0.091 17:-0.25 19:0.1578 21:0.091 
1.2867316506616888 0:0.2 3:-0.0666 5:-0.1112 6:0.1428 7:0.2 8:-0.2 10:-0.077 11:0.1428 12:1 13:0.1666 16:-1 18:0.2142 19:0.3846 21:0.0526 22:-0.75 24:-0.091 
0.87742902105748288 0:0.0476 2:-1 5:-1 6:-0.0476 8:0.0526 10:-0.1428 11:0.6666 12:1 13:0.1112 15:-0.0588 16:-0.1 17:-1 19:-0.3334 21:-0.091 22:0.1428 24:-1 
2 0:0.1364 2:0.0286 3:0.1708 4:-0.12 5:0.0624 6:-0.0834 7:-0.5384 8:0.2572 11:0.0232 12:0.1 13:0.0588 16:0.0286 18:-0.1904 19:-0.1666 21:-0.1352 22:1 24:0.1 
1.5027625036349255 0:0.1428 2:-0.3334 3:0.3334 5:-0.4286 6:-0.0666 7:0.0588 8:-0.0526 10:-0.16 11:0.1 12:0.6364 13:-0.1428 15:-0.0588 16:-0.5556 17:-0.1034 18:-0.238 19:0.1034 21:0.2728 22:-0.3334 24:0.3334 
2 0:0.1304 2:0.5 3:-0.1818 4:-0.1666 5:-0.125 6:-0.2174 7:0.5 8:0.125 11:0.1052 12:0.3334 16:0.1764 17:-0.2142 18:-0.0588 19:0.1764 22:0.2 24:-0.1764 
0.69496145597918058 0:-0.0526 2:0.1112 3:-0.0526 4:-0.7142 5:-0.3334 6:0.8 7:1 8:0.4286 10:-1 11:-0.4118 12:1 13:0.5 15:0.3334 16:-0.2 17:0.3334 18:0.4286 21:-0.2222 22:-1 24:0.2 
2 2:-0.3334 3:0.2 4:-0.1364 5:-0.2 6:0.3142 7:-0.091 8:-0.2632 10:0.3334 11:0.1892 13:-0.0286 15:0.1428 17:-0.0698 18:-0.2308 21:0.0286 22:-0.3334 24:0.0526 
0.64453348415029332 0:-0.5 2:-1 3:-0.5384 4:-0.4546 5:0.1112 6:0.6 7:-1 8:0.2 10:-0.0588 11:0.7142 12:1 13:-0.5 17:0.6666 18:-0.5 22:-1 
1.4372504439750502 0:-0.3 2:-0.2 5:0.3334 6:0.125 7:0.6 8:-0.3334 10:1 12:0.2 13:-0.3334 15:0.091 16:-0.1428 17:-0.2308 18:0.1112 19:0.6666 21:-0.2858 22:0.3334 24:0.6666 
0.44140104084758369 0:0.2728 2:0.5 3:-1 5:-0.077 6:-0.4 7:-1 10:-1 11:0.0666 12:0.1428 13:0.3334 15:-0.091 16:-0.0466 18:-0.2174 19:0.5384 21:0.1428 22:1 24:0.6 
0.76356256890744845 0:-0.1578 2:-1 3:0.091 4:0.2858 5:1 6:-0.3334 7:-1 8:-0.1428 10:-0.077 11:-0.25 12:1 13:-0.6666 15:-0.2308 16:0.4286 17:0.3334 18:-0.3846 19:0.2858 21:0.0286 22:-1 24:0.2308 
0.70753380224336782 0:-0.1428 2:-0.2 3:-0.0588 4:0.4286 6:0.091 7:0.6666 8:0.4444 10:0.077 11:-0.4444 12:-1 13:-0.2308 15:0.091 16:0.1112 17:-0.2308 18:-0.1112 19:-0.1666 21:-0.2592 22:0.5 24:0.5 
2 0:0.282 2:-0.4286 3:-0.017 4:-0.0344 5:-0.091 6:0.1112 7:0.28 8:-0.0212 10:-0.2728 11:-0.2238 12:-0.125 13:0.0732 15:0.2258 16:0.12 17:-0.1516 18:-0.0182 19:0.149 21:0.0606 22:0.1428 24:-0.0944 
0.33347884902032904 0:-0.3142 3:-0.2858 4:0.0304 5:0.3 6:0.1578 7:0.4286 8:0.04 10:0.1 11:0.0624 12:0.0588 13:0.4118 15:-0.7142 16:-0.0666 17:0.4666 18:0.1052 19:-0.3334 21:-0.0968 22:0.3334 24:-0.4 
0.30111799550922996 0:-0.125 2:0.3334 3:0.4 4:-0.1428 5:1 7:-0.5 8:0.091 13:-0.3334 15:0.3334 16:-0.5 17:-0.3334 18:0.3334 19:1 21:-0.1764 22:-1 24:-1 
0.23313561167566352 0:-0.1428 2:-0.75 3:0.3334 4:0.1112 5:-0.3334 6:0.2 7:1 8:0.077 10:0.0526 11:-0.4 13:0.5 16:-0.3334 17:0.5 19:-0.3334 21:0.3334 22:-0.5 24:-0.7142 
0.74110210760850759 2:0.2 8:0.3334 10:-0.2858 11:-0.1 12:-0.3334 13:0.2 15:0.25 16:-0.5 17:1 18:0.4286 21:-0.1112 22:-1 24:0.5 
0.3387557799076637 0:0.091 2:-1 3:-0.5 4:0.2942 5:1 7:0.2 8:0.2 10:0.2858 11:-0.0526 15:-1 16:-0.2728 17:-1 18:-0.3334 21:-0.2 22:-1 
0.48128087635846822 2:-1 3:0.5 4:0.2 5:-0.6666 6:-0.25 7:1 8:-1 10:0.1666 11:-0.1428 13:-0.3334 15:0.4286 16:-1 17:0.5 18:0.2 19:-0.1112 21:0.5 22:-1 24:-1 
0.75012237981970953 0:-0.1 2:-1 3:0.5 5:0.2728 6:-0.2 7:0.1428 8:0.2 10:-0.3334 11:0.5384 12:0.3334 13:0.3334 15:-0.2728 16:-0.1666 17:-0.5 18:0.091 19:-0.1112 21:0.1112 
2 0:-0.1162 3:-0.1304 4:-0.3334 5:-0.3334 6:-0.04 7:-0.1428 10:-0.0526 11:0.2272 13:0.091 15:-0.1 16:0.0476 18:0.0454 19:0.2 21:0.125 22:-1 24:1 
0.022980505711996967 0:-0.1578 2:-1 3:-0.2728 5:-0.3334 6:0.5 7:0.2 8:0.5556 10:-0.1364 11:0.037 12:0.1428 13:-1 15:-1 16:-0.077 17:0.2728 19:0.3846 22:1 24:-0.5556 
2 0:-0.027 2:0.5 3:0.2904 4:-0.0256 6:-0.238 7:-0.125 10:0.1176 11:0.2 12:-0.5 13:-0.5 15:-0.0526 16:0.2 17:-0.1304 19:-0.1428 21:0.091 22:0.3846 24:0.0624 
0.65629859186831918 2:-1 3:-0.7142 4:0.1112 5:0.25 7:1 8:0.3334 11:0.2 13:0.3334 16:1 18:-0.25 19:-0.1428 21:-0.3334 22:-1 24:-0.5 
0.81043964093951693 0:-0.091 2:1 3:-0.4286 4:-0.0666 6:0.1428 7:0.5 8:0.5 10:-0.2 11:0.1112 13:0.2 16:1 17:-0.3334 18:-0.2 21:-0.4286 22:-1 24:0.1428 
1.2959567879526204 0:-0.3846 2:0.3334 3:0.3334 4:0.5 5:1 6:-0.3334 7:0.5 8:-0.2 10:-0.2 11:-0.1666 12:-0.2 13:0.091 15:-0.1428 16:0.6 17:0.1428 18:-0.1428 19:-0.2 22:0.3334 24:-0.5 
0.45836530873271625 0:0.2174 2:-0.3334 3:0.091 5:0.2 6:-0.1112 7:-1 8:-0.2 11:-0.5 12:1 13:-1 15:-1 16:1 17:-1 18:-0.6666 19:1 21:-0.3334 22:1 24:1 
0.90850018318211145 0:0.2728 2:0.3334 3:0.6 4:0.077 5:0.3334 6:-0.077 8:-0.75 10:0.5 11:0.1428 12:-1 13:-0.6666 15:-0.1112 16:-0.3334 17:-0.1112 18:-0.6 19:0.1112 22:1 24:-0.5 
1.1800524008953459 0:0.4286 2:0.3334 3:-1 5:-0.3334 8:-0.2308 10:1 11:0.125 13:-0.3334 15:0.2222 16:-0.1746 17:-0.3334 18:0.4546 19:-0.5 21:0.4286 22:1 24:0.2 
0.85372143535992817 0:0.0556 2:-1 3:0.3846 4:0.75 5:-1 6:0.1666 7:-1 8:-0.4546 10:-0.3334 11:0.3334 12:-1 13:-0.3334 15:-0.1112 17:-1 19:-0.52 21:0.375 22:-1 24:0.5 
0.68771166547831175 0:-0.091 2:-1 3:-0.25 4:0.4286 6:-0.125 7:1 8:0.5 10:-0.1428 11:-0.3334 12:1 15:-1 16:1 17:-1 18:0.3334 19:-1 22:-1 24:1 
0.49860712479112201 2:-1 4:0.0666 5:0.3334 6:-0.1428 7:-1 8:0.5 10:-0.3334 11:-0.2308 12:1 15:-0.3334 16:-1 18:0.1428 19:1 21:-0.3334 22:-1 24:1 
2 0:-0.228 2:-0.5 3:0.122 4:-0.1538 5:0.091 6:-0.0344 7:0.1666 8:-0.12 10:-0.1538 11:-0.1112 12:0.2728 13:0.122 15:0.125 16:-0.125 18:-0.2204 19:0.25 21:-0.0232 22:0.2728 24:0.394 
0.85639663815500067 0:-0.1764 2:-1 3:0.3334 4:-0.2728 5:-0.3334 6:-0.1428 7:-1 8:1 10:-0.6364 11:0.3334 12:0.3334 13:0.5 16:0.2858 17:0.3334 18:0.3334 19:1 21:0.091 22:-1 24:-1 
1.400840806974305 2:0.1764 3:-0.091 4:0.25 5:-0.6 6:-0.3334 7:1 8:-0.2 10:-0.0714 11:0.5 13:0.375 15:-0.25 16:-0.1112 17:0.25 18:-0.4286 19:-0.5 21:0.1112 
0.58463226503634058 0:-0.0118 2:1 4:-0.3334 5:-0.091 6:0.3334 7:-1 8:-0.2 10:-0.2174 11:0.1112 12:1 13:1 15:0.125 17:0.2 18:0.077 19:-0.4546 21:0.3044 22:-1 24:0.1112 
0.77782837037750852 0:-1 2:-1 3:1 5:-1 6:1 7:-1 8:1 11:1 12:-1 13:-1 15:1 16:-1 17:-1 18:-1 19:1 21:-1 22:-1 24:1 
0.1409497484426345 0:-0.1326 2:-1 3:-0.5 4:0.0476 5:0.4 6:0.0476 7:-1 8:-0.5556 10:-0.3846 11:0.5384 12:1 13:-0.2 15:0.25 16:0.6 17:1 18:0.2 19:-0.1538 21:0.4118 22:-1 24:0.3334 
0.84283314156950573 0:-0.2 2:-1 3:-0.3334 4:-1 5:1 6:-1 7:-1 8:-0.3334 10:-0.3334 11:-0.3334 12:-1 13:1 15:-0.3334 16:1 17:-1 18:1 19:1 21:0.5 22:-1 24:1 
0.75099623894362999 0:0.0666 2:-0.4286 3:-0.6 4:0.6 5:-0.3334 6:0.3684 7:0.5 8:0.3334 10:1 11:0.3334 15:-0.2858 16:0.6 17:-0.5 19:-0.5 21:-0.1764 22:1 
1.9522299874670392 0:-0.238 2:-1 3:-0.1538 4:0.0488 5:-0.1818 6:0.2432 7:0.4286 8:0.091 11:0.2272 12:-0.3334 13:0.05 15:-0.1612 16:0.017 18:-0.1162 19:0.0588 21:-0.4782 22:1 24:-0.0526 
1.2397049867130021 0:0.1428 2:-1 3:0.1666 5:-0.1428 6:0.2 7:0.1112 8:-0.091 10:0.2222 11:-0.0588 12:-0.5 13:0.2728 15:-0.3334 16:-0.4286 18:-0.5 19:-0.1112 21:0.4 22:-0.1428 
2 0:0.1334 2:1 3:0.4546 4:0.25 5:-0.3334 6:-0.0322 7:-1 8:0.4286 10:0.2308 11:-0.077 12:0.4286 15:0.1578 16:0.5 17:-0.3334 18:-0.238 21:-0.3 22:-0.3334 24:-0.1428 
2 0:-0.0166 2:-0.1304 3:0.0188 4:-0.0298 5:-0.3062 6:-0.0714 7:0.1186 8:0.1112 10:0.0342 11:0.1504 12:-0.2632 13:-0.1428 15:0.25 16:0.132 17:-0.2098 18:0.093 19:-0.082 21:0.0556 22:0.0476 24:0.0714 
0.89964622411464845 0:-0.7142 2:0.3334 3:0.4286 4:-0.3334 5:-0.6666 6:0.2 7:1 8:1 11:0.25 12:-1 13:1 15:-0.1428 18:-0.5 19:0.1428 21:0.1428 24:-0.3334 
0.97339697723058582 0:0.037 2:-0.091 3:-0.3044 5:-0.1666 6:0.1428 7:-0.091 8:-0.1428 10:0.3334 11:0.0434 13:-0.1612 15:-0.2308 17:0.077 19:0.28 21:0.2414 22:0.7142 24:-0.6666 
1.1216716133100719 0:0.1428 2:-0.5 3:-1 4:-0.6666 5:-0.2308 6:-0.6364 7:-0.3334 8:-0.2858 12:0.6666 15:0.2122 16:-0.0104 18:0.1724 19:0.6 22:1 24:-0.5 
0.90462529146828741 0:-0.1666 2:-0.5 4:-0.3334 6:-0.25 7:0.5 8:-0.1764 10:0.4286 11:0.25 12:0.3334 13:-0.3334 15:-0.3334 16:1 17:1 18:0.6666 19:0.4 21:-0.3334 22:-1 24:-1 
0.28615672575022444 0:-0.1428 2:-0.3334 3:1 5:-0.5 6:0.2 7:0.3334 10:-1 11:0.1538 12:0.3334 13:0.1428 15:0.3954 16:-0.0956 17:0.2 18:0.1764 19:0.2 21:-0.4286 22:-1 24:-0.25 
0.27732944162938933 0:-0.3846 2:0.3334 3:1 4:-0.3334 5:0.1666 6:-0.1428 7:0.2 8:0.3334 10:-1 11:-0.091 13:-0.1428 15:-0.4 16:0.2372 17:0.1428 18:-0.5714 19:0.2 21:0.2858 22:-1 24:-0.1112 
0.83386046887885834 0:0.3334 2:-1 3:1 4:-1 5:0.3334 7:-1 8:0.3334 10:-1 11:-0.5 12:-1 16:-1 17:1 18:0.3334 19:1 21:-0.2 22:-1 24:1 
0.53081807779599977 2:-0.1428 3:-1 5:0.091 6:-0.1428 7:-0.2 8:-0.375 10:-1 11:0.238 12:0.3334 13:-0.3334 15:-0.3024 16:0.0784 17:-0.3334 18:0.25 21:0.25 22:1 24:0.6 
1.0997755401594906 0:0.1428 2:0.3334 3:-1 4:-0.6 5:-0.2728 6:0.2 7:-0.25 8:-0.2858 10:-1 11:0.1 12:0.3334 13:-0.1428 15:0.2094 17:-0.5 18:-0.1112 21:0.4286 22:-1 24:-0.4 
0.40940843330427995 0:-0.1666 2:-0.3334 3:1 5:0.077 6:-0.4286 7:0.1112 8:-0.0666 10:-1 11:-0.3914 12:1 13:-0.1428 15:-0.0476 16:0.1042 17:0.2 18:-0.077 19:0.3334 21:0.1428 22:-1 24:0.3334 
0.72820191857660999 0:-0.1112 3:1 4:-0.2 5:-0.1112 6:-0.6 8:-0.077 11:-0.25 13:-0.6 15:-0.1112 16:0.1304 17:0.6 19:0.3334 21:0.1428 22:-1 24:0.1428 
0.76270996394381685 0:0.0526 2:1 3:0.2308 4:-0.3334 5:0.2 7:1 8:-0.2 11:-0.5556 12:0.3334 13:-1 15:1 16:1 17:-1 19:-0.3334 21:-0.2 22:-1 24:1 
0.60348678027529323 3:0.091 4:0.1112 5:0.091 6:0.2728 7:1 8:-0.1428 10:0.2 11:-0.6 12:1 13:-1 15:-1 16:1 17:-1 18:-1 19:1 21:-1 22:-1 24:-1 
0.69610072513858234 0:-0.4118 3:-0.3334 5:0.1112 6:0.2728 7:-1 10:0.4286 11:0.5 12:1 13:1 15:-1 16:-1 17:1 18:0.1428 19:-0.5 21:-0.3334 22:-1 24:-1 
0.39989308920734329 0:0.1 2:1 3:0.5 4:-0.25 5:0.1112 7:1 8:-0.1428 10:-0.2 11:-0.4546 12:0.3334 13:-1 15:1 16:1 17:-1 18:-0.5 19:0.3334 22:-1 24:-1 
1.6181169300917886 0:-0.1112 2:-1 4:0.4286 6:-0.3334 7:-1 10:0.25 16:1 19:-0.2 22:-1 24:-1 
0.84558001007452732 0:0.2142 2:-1 3:-1 5:-1 6:1 7:1 8:1 10:0.077 11:1 12:1 13:-1 15:-0.0434 17:-1 18:-0.3334 19:-0.1 21:-0.7142 22:-1 24:-1 
0.37020758588701819 2:-1 3:0.1666 4:0.2 5:0.2 6:-0.1428 7:-1 10:0.25 13:-1 15:-1 16:1 17:0.3334 18:-0.3334 19:0.3334 22:-1 
0.83652495534906779 0:0.3334 2:-1 3:-1 5:-1 6:1 7:-1 8:-1 10:-1 11:1 12:-1 13:-1 15:-1 16:1 17:-0.3334 18:1 19:1 21:1 22:-1 
0.15336919082622319 0:-0.5384 2:0.1112 3:1 4:1 5:-1 6:-0.6 7:1 8:0.6 10:-0.2 11:0.5 12:1 13:0.1112 15:-0.5 16:1 17:-1 19:0.4286 21:0.2 22:-1 
2 0:0.149 2:-0.25 3:-0.2 4:0.2 5:0.28 6:0.1428 7:-0.1428 8:-0.3334 10:-0.0732 11:-0.2666 12:0.25 13:-0.2592 15:0.1112 16:-0.0588 17:-0.091 18:0.2308 19:0.2122 21:0.0476 22:-0.4286 24:-0.3334 
0.86484038270713781 0:-0.2728 2:-1 3:0.6666 4:-0.6 5:-1 6:0.25 7:-1 8:-1 11:0.3334 12:1 13:-0.3334 15:-1 16:-0.091 17:1 18:0.4286 19:-0.25 22:-1 24:-1 
1.2197117690226054 0:0.3846 3:-0.1428 5:0.2 6:-0.2308 8:-0.3334 10:0.2308 11:-0.091 12:-0.2 13:0.2 15:0.2 16:-0.1428 17:-1 18:0.1428 19:-0.6 21:0.3334 22:-1 24:-1 
0.97511390193593783 0:-0.2858 2:-1 3:0.5714 5:0.5 7:1 8:0.4286 10:-0.375 12:0.3334 13:1 15:-0.6 16:0.2 17:-0.6 18:0.1428 22:1 24:-1 
0.877979184893664 0:0.5 2:-1 3:-0.4 4:-0.2 5:0.5 6:-0.5 7:1 8:-0.1428 10:-0.0666 11:-0.238 12:0.7142 13:0.6666 15:0.1428 16:-0.6 17:-1 18:0.6 19:0.7142 21:1 22:-1 24:-1 
2 0:0.0304 4:0.081 5:0.091 6:-0.0286 7:0.5 8:-0.2174 10:0.1578 11:-0.2106 12:0.5 13:-0.1 15:-0.1538 16:0.1764 17:-0.1034 18:-0.125 19:0.2222 21:0.1112 24:-0.091 
0.95364836277581133 2:-1 3:0.1666 4:-0.077 5:-1 6:-0.3334 10:0.625 11:0.3846 12:1 13:0.5 15:-0.5 16:-1 17:-1 18:-0.5 19:0.091 21:-0.091 22:-1 
0.48354354738302302 2:-0.3334 3:0.4286 4:0.1428 5:1 7:-1 8:-1 10:-0.2 11:0.1112 12:1 13:0.5 15:-0.3334 17:-0.2 18:0.2 19:0.2 21:-0.1112 22:-1 
0.42161048927749795 0:-0.25 2:-0.3334 3:0.25 4:0.25 5:1 6:-0.2 7:-1 8:-1 10:-0.3334 11:0.2308 12:1 13:0.5 15:-1 17:0.3334 18:0.5 21:-0.25 22:1 24:0.3334 
0.87141122743575383 0:-0.0304 3:0.1112 5:0.75 6:-0.077 7:0.1666 8:0.3846 10:-0.5294 11:-0.3334 12:1 13:0.6 15:0.2308 17:0.3334 18:-0.091 19:-0.2222 22:-0.4546 24:-0.1112 
0.93488723753792558 0:0.0526 2:-1 3:-0.5 4:1 5:-0.2 6:0.077 8:0.1428 10:-0.5 11:-0.1428 13:-1 15:0.1112 16:0.1112 17:-0.4286 18:0.4 19:-0.3334 21:0.2858 22:-1 24:-1 
2 0:-0.1334 2:0.091 4:-0.0526 5:-0.1724 6:-0.1876 7:0.3334 8:0.1666 10:0.0526 11:-0.1666 12:0.6666 13:0.1112 15:-0.1034 16:0.1836 17:-0.2414 18:0.1176 19:0.1112 21:0.2308 22:-0.3334 24:-0.2 
0.4841655312221938 2:-0.25 3:0.5556 4:-0.1666 5:0.5 6:0.1764 7:-0.3334 8:-0.5 10:-0.2 11:0.4546 12:-1 13:-0.238 15:-0.1112 16:0.2 17:-0.5 19:0.3334 21:0.1428 22:-0.2 24:0.3846 
0.84667101300371972 0:0.091 2:-1 3:-0.2 4:-0.2222 5:-0.1428 6:0.125 7:-1 8:0.4546 10:0.0526 11:-0.4 12:0.6 13:0.3334 15:1 16:1 18:-0.1112 19:0.1666 21:0.2728 22:-1 24:-0.4546 
0.26234459238943419 0:0.4 2:1 3:0.3334 4:-0.7778 5:-0.3334 7:-1 8:0.2308 10:0.3334 11:0.1112 12:0.3334 13:-1 15:-0.1428 17:0.3334 18:-0.6 19:0.4 21:-0.3334 22:1 24:-0.6 
2 0:-0.08 3:-0.1666 4:-0.1428 5:0.3334 6:0.027 7:0.5 8:-0.077 10:-0.1282 11:0.2 12:-0.1428 13:-0.0476 15:0.1112 17:-0.2632 18:0.0588 21:-0.1876 22:0.1428 24:0.2858 
0.24735836305331826 0:0.2 2:0.5 3:0.2632 4:-0.2 5:-0.4444 6:-0.2222 7:0.6666 8:-0.1428 10:0.1428 11:0.1666 12:-0.7142 13:0.4482 15:0.2 16:-0.077 17:-0.647 18:0.0588 19:0.125 21:-0.1304 22:-0.1112 24:0.0588 
0.030689179591370176 0:-0.2 2:-0.5 3:0.2858 4:-0.2728 5:-0.6 6:0.0666 7:-1 8:-0.125 10:0.2 11:-0.0546 12:1 13:0.2 15:0.5 16:0.2 17:0.7142 19:-0.4 21:-0.3334 22:1 24:0.3334 
0.91401671191086931 0:0.0526 2:0.8 3:-0.25 4:0.3334 5:-1 6:-0.125 7:-0.6 8:1 10:1 11:-0.1428 12:0.2 13:-0.3334 15:0.2728 16:-0.4286 17:-0.2308 18:0.3334 19:0.3334 21:-0.1428 22:-0.3334 24:-0.3334 
0.83568911338177199 0:-1 2:-1 3:0.5 6:1 7:-1 8:-0.2 10:-0.3334 12:-1 13:0.3334 15:-1 16:-1 19:1 21:1 22:-1 24:-1 
1.9214964932510157 0:-0.091 2:0.3334 3:0.5 4:-0.0834 5:-0.1112 7:0.3334 10:-0.12 12:0.6 13:0.1428 15:0.2 16:-0.375 18:-0.2942 19:0.625 21:-0.2 22:-1 24:0.1666 
0.84605693035238216 2:-1 3:-0.5 4:-0.1666 5:-1 6:-1 7:-1 8:-0.6666 10:-0.1428 11:-0.1428 12:1 13:1 15:-1 16:0.4286 17:1 18:0.2 19:-1 21:1 22:-1 24:0.3334 
0.47390702151365882 0:0.1428 2:0.2 3:-0.1428 4:0.2728 5:-0.2308 6:-0.2 7:1 8:0.4286 10:0.2728 11:0.2632 13:-0.6666 15:-0.2 16:-0.3334 17:0.1112 18:-0.3334 19:-0.1666 21:-0.125 22:1 24:0.3334 
2 0:-0.2308 2:0.2 4:0.4546 5:-0.077 6:0.1428 8:0.1428 10:-0.5384 11:0.1112 13:-0.1112 15:0.091 16:0.1428 17:-0.1112 18:-0.2308 19:0.091 21:-0.25 22:1 24:0.4286 
0.84487404669915434 2:-1 3:-1 4:-1 5:-1 7:-1 8:-1 10:1 11:-1 12:-1 13:-1 15:-0.3334 16:1 17:-1 18:-1 19:-1 21:-1 22:-1 24:1 
0.9031166853235908 0:-0.375 2:0.2 3:-0.3334 4:0.4286 6:0.0666 7:-1 10:0.077 11:0.3334 13:1 15:0.0476 16:1 17:-1 18:-0.3846 19:0.5 21:1 22:1 24:-0.3334 
0.65715458776563185 0:-0.1724 2:0.6666 3:0.0834 5:0.0322 6:0.2352 7:0.6666 8:-0.091 10:-0.2592 11:0.353 12:0.25 13:0.2222 15:-0.2 16:-0.2592 17:0.1112 18:0.0304 21:-0.3714 22:-0.6 
0.30093346235854423 0:0.0834 2:1 3:0.1428 4:-0.3334 5:0.2 6:-0.4 7:0.3334 10:-0.2 11:0.0666 12:-0.25 15:0.2 16:0.3334 18:-0.1666 19:0.2 21:-0.091 22:0.3334 
0.7506606696804351 0:0.2 2:0.5 3:-1 4:0.5 5:0.3334 6:0.5556 8:-0.5556 10:0.0666 11:-0.4286 12:0.3334 13:-1 15:-0.5 16:-1 17:-1 18:-0.2728 19:0.091 21:0.2 22:-1 
2 0:-0.0322 2:-0.3334 3:-0.25 4:0.2 5:-0.3334 6:-0.0204 7:0.0526 8:-0.04 10:-0.0256 11:-0.0556 12:0.7778 13:-0.1852 15:0.1428 16:-0.2 17:0.3334 18:0.0952 19:0.1538 21:-0.0952 22:-0.2 24:0.125 
0.85263604092449208 0:1 2:-1 3:-1 4:-1 5:-1 6:-1 7:-1 8:-1 10:-1 11:-1 12:-1 13:-1 15:-1 16:-1 17:-1 18:1 19:-1 21:-1 22:-1 24:-1 
2 2:-0.6 3:0.4 4:0.0322 5:0.2222 6:-0.1034 7:-0.2 10:0.2666 11:-0.1666 12:-0.25 13:-0.4286 15:0.1666 16:0.1112 17:0.1764 18:0.1818 19:-0.3 21:-0.0476 22:0.3334 24:-0.1666 
1.1824678894060128 0:-0.1112 2:0.25 3:0.1428 4:-0.1112 5:-1 6:0.2308 7:0.5 8:-0.6666 10:-0.1666 11:-0.077 13:1 15:0.1818 16:0.3334 17:-0.1112 18:0.1666 21:-0.2632 22:-1 24:1 
0.17113702782292242 0:-0.3334 3:0.3334 4:0.1666 5:-0.5 6:-0.4546 8:-0.4286 10:0.6364 11:0.2728 13:0.25 15:-0.2 16:0.3334 17:-0.3334 18:0.1428 19:-0.091 22:1 24:-0.2 
0.78283588062687337 0:-0.1428 2:-1 3:-0.077 4:-0.3334 5:-0.1428 6:0.1428 7:-1 10:-0.6 12:0.3334 13:1 15:1 16:-1 17:0.4286 22:-1 24:-1 
0.87618848469331423 0:1 2:-1 4:-1 5:-1 6:-1 7:-1 8:-1 10:-1 12:-1 13:-1 15:-1 17:-1 18:0.5 19:-1 21:1 22:-1 24:1 
0.47406139763048843 0:0.2632 2:1 3:0.2308 4:-0.1428 5:0.2 6:-0.1112 7:1 8:-0.4286 11:-0.5 13:-1 15:1 16:1 17:-1 18:-0.6666 19:0.3334 21:0.2 22:-1 24:-1 
2 0:-0.0714 2:-1 4:-0.125 5:-0.0666 6:-0.077 7:-0.25 8:0.1612 10:0.1428 11:0.037 12:0.3334 13:0.1428 15:0.1 16:-0.0638 17:0.0416 18:-0.2 19:-0.091 21:0.1852 24:0.4666 
0.65182994029621388 0:-0.3334 2:0.3334 3:0.1112 4:-0.077 5:0.5 6:0.3334 8:-0.3334 11:-0.75 15:-0.3334 16:0.5 17:0.6 21:-0.2 22:-1 24:0.2 
2 0:-0.2632 2:0.6 3:0.091 4:-0.1112 5:0.2728 6:-0.2174 7:0.5 10:-0.1666 11:-0.1818 13:0.3334 15:-0.1428 16:0.3334 17:0.3846 18:-0.077 19:-0.3636 21:0.3334 22:1 24:0.3334 
0.45719646129058167 0:-0.0476 2:1 3:-0.1666 4:-0.3334 5:0.4 6:-0.1112 10:0.0666 11:-0.2 12:-0.3334 13:-0.25 15:0.3334 16:0.2 17:-0.3334 18:-0.2858 19:0.5 22:1 
0.59268317424545591 0:0.1112 2:-1 3:-0.091 4:0.3334 5:0.1428 6:-0.1428 7:0.3334 8:-0.2 10:0.3334 12:0.3334 13:-0.3334 15:-1 16:1 17:-0.3334 19:-0.5 22:-1 24:-1 
0.61540590347718405 0:-0.1516 2:1 3:-0.5714 4:0.3334 5:0.4286 7:0.3334 8:0.2 10:0.0666 12:1 15:0.4286 16:0.1428 17:-0.5 18:-0.1666 19:0.2 21:-0.0834 22:-1 24:-0.1428 
0.88644116391648031 0:-0.0526 2:-0.3334 3:0.4286 5:-0.4286 6:0.3334 7:0.3334 8:-0.7142 11:0.3334 12:1 13:0.3334 15:0.2 16:1 17:1 18:-1 19:0.2 21:-0.0666 22:-1 24:-1 
0.83920534960530835 0:-0.3334 2:0.1112 3:0.6 4:-1 5:1 6:0.25 7:1 8:1 10:-1 11:-1 12:-1 13:-0.1428 15:0.2 16:1 17:0.6 18:-0.2 19:0.25 21:-0.3334 22:-1 24:-0.5556 
0.40995888685367166 0:-0.1516 2:-1 3:0.037 4:-0.2244 5:0.3334 6:0.6 7:-1 8:0.1112 10:-0.2258 11:0.2666 13:0.6 15:1 16:0.1428 17:0.0526 18:-0.1112 19:0.375 21:-0.25 22:-1 24:-0.1428 
0.87765618451832139 0:-0.2 2:-0.3334 3:0.1428 5:-0.3334 6:-0.2 7:-1 8:-0.6 10:0.6 11:-0.1666 12:1 13:0.1428 15:0.1112 17:-0.6 18:0.25 21:0.2 24:-1 
0.42033937888201811 0:-0.2728 2:0.2 3:0.4546 4:-0.6 5:1 7:-1 12:1 13:0.2 17:0.3334 19:0.4286 21:-0.1428 22:-1 24:-1 
0.84010025303498648 0:-0.2 2:0.25 3:-0.5 4:-1 5:-1 6:0.5556 7:-1 8:0.2 10:-0.5 12:0.3334 13:0.3334 15:1 16:0.6666 17:-0.6 19:-1 22:-1 
0.38469387925194365 0:0.2942 2:-0.3846 3:-0.1428 4:0.1112 5:0.2858 6:0.3044 7:0.2 8:0.12 10:0.0344 11:-0.12 12:-0.3334 13:0.0588 15:-0.6 17:-0.3846 18:-0.1578 19:0.3334 21:-0.0588 22:1 
0.8438074863164472 0:-0.2728 2:0.5 3:-1 4:0.3334 5:0.3334 7:-1 8:1 10:-0.6 11:-0.25 12:-1 13:-0.5 16:0.3334 17:1 18:-0.3334 21:1 22:-1 
0.18483254318647699 0:0.3334 2:-1 3:-0.5 4:-0.0666 5:-0.4286 6:-0.1666 7:-0.3334 8:-0.2858 10:0.375 11:0.3334 12:1 13:0.7142 15:-0.5 16:1 18:-0.2 19:0.25 21:0.2308 22:-1 24:-0.3334 
2 0:0.0322 2:0.0666 3:-0.077 5:0.125 6:-0.2432 8:-0.077 10:0.3334 11:-0.0526 12:0.5 13:0.2728 16:-0.5384 17:-0.3334 18:0.2308 21:0.2 22:0.7142 24:-0.375 
0.84476933714471503 0:-1 2:-1 4:-1 5:-1 6:-1 7:-1 8:1 10:1 11:-1 12:-1 13:1 15:1 16:-1 17:1 18:-1 19:-1 21:-1 22:-1 24:1 
0.91225428510578599 0:-0.4546 2:1 3:0.2 4:0.1666 5:-1 6:-0.0666 7:0.6 8:-0.1428 10:0.2308 11:0.4 12:0.2 13:-0.25 15:0.1428 16:-0.3334 17:-1 18:-0.2 21:-0.2728 22:-1 24:0.6 
0.51922448022958057 0:-0.3334 2:0.3334 3:0.5556 4:-0.25 5:1 6:-0.1112 7:-0.5 8:-0.091 10:0.1112 11:0.4286 12:-1 13:-0.2728 16:-0.3334 17:1 18:1 19:1 21:-0.1428 22:-1 24:-0.3334 
0.60175512145587973 0:-0.3334 2:0.2 3:1 4:-1 5:-1 6:-0.5556 7:-1 8:0.5 10:-0.4286 11:0.5556 12:1 13:0.6 15:-0.4286 16:0.3334 17:-1 18:-0.7142 19:0.5 21:0.1428 22:-1 
0.47594748510431367 0:-0.2858 2:-1 3:-0.6666 4:0.3846 6:0.0666 7:-1 10:-0.25 12:1 13:0.2 15:-0.3334 17:1 18:0.5 19:0.2728 21:0.1428 22:-1 24:0.3334 
0.85286691650538249 0:-0.1666 2:-1 3:0.3334 4:-0.2728 5:0.1112 6:0.1112 7:1 8:-0.5 10:0.25 11:-0.25 12:0.5 13:-1 15:1 16:-1 18:-0.7142 21:-0.1428 22:-1 24:1 
0.84164049134551799 0:1 2:-0.4 3:-1 4:-1 5:-0.2 6:0.2308 7:-1 8:1 10:0.1428 12:-1 13:1 15:-0.6666 16:-1 17:0.1428 18:-0.3334 19:-1 21:0.6 22:-1 24:-1 
0.78881577475582776 2:0.25 3:0.3334 5:-0.3334 6:-0.5 7:0.3334 8:0.3334 10:1 12:-0.3334 13:-0.4286 15:0.1666 16:0.25 17:-0.3334 18:-0.2308 19:-1 21:1 22:-1 24:0.3334 
2 0:-0.2156 2:-1 3:0.0968 4:0.0666 5:0.5714 6:0.1282 10:0.027 11:0.0526 12:0.5 13:0.125 15:-0.125 16:0.077 17:0.091 18:-0.0624 19:-0.238 21:-0.1034 22:0.2 24:-0.3334 
2 2:-0.25 3:-0.3044 4:0.2094 5:-0.0526 6:-0.1 8:0.1112 10:-0.0526 11:0.1708 12:0.5 13:0.2728 15:-0.2432 16:0.0638 17:-0.2258 18:0.0232 19:-0.1 21:-0.0858 24:0.25 
2 0:0.1112 2:0.5 3:-0.3334 4:0.0588 5:0.3334 7:-0.3334 8:-0.2308 10:-0.1428 11:0.25 15:-0.1764 18:-0.091 19:0.125 21:-0.1764 22:0.3334 24:0.5 
1.0148947741047494 0:-0.2728 2:-0.5 3:0.2858 4:-0.3334 5:-0.6 6:0.1428 7:-1 8:-0.125 10:0.2 11:-0.0546 12:1 13:0.2 15:0.5 16:0.2728 17:0.6666 19:-0.3334 21:-0.3334 22:1 24:0.3334 
0.86447328438466342 0:-0.091 2:1 4:-0.091 5:0.2 6:0.2 7:1 8:0.5 10:0.3334 11:0.6666 13:0.3334 15:-0.1112 16:-0.2 17:0.2 18:-0.4546 19:-0.2308 22:0.3334 24:1 
0.29415377338379939 2:1 3:0.1428 4:-0.6 5:-0.5 7:-0.2 8:0.3334 10:0.1428 11:-0.4286 12:0.5 13:-1 15:-0.1428 16:0.1428 17:0.3334 18:-1 19:0.7142 22:1 24:-0.5 
2 0:-0.0526 2:0.25 4:-0.1556 5:0.1112 6:-0.132 7:0.6666 10:-0.0666 11:0.0944 12:-0.1666 13:0.1334 15:0.0714 16:0.0434 17:0.1334 18:0.0204 19:-0.3684 21:0.098 22:-0.2 24:-0.0476 
0.66292311992718445 0:-0.1112 2:0.25 4:-1 5:-1 6:-0.75 7:-1 8:0.4286 10:-0.3334 11:0.3334 12:-1 13:0.1428 15:-0.5556 16:1 21:0.4286 22:-1 
1.5101882225433299 0:0.2858 2:0.25 5:-0.077 6:-0.1852 7:-1 8:0.6666 11:0.4286 12:1 13:-0.25 15:-0.3846 16:-0.1112 17:0.6 18:-0.1666 19:-0.4444 22:0.3334 24:0.4286 
2 0:0.1482 3:0.25 4:-0.0322 5:0.04 6:-0.1556 7:-0.2 8:0.1052 11:-0.1612 12:0.5556 13:-0.3076 15:0.3334 16:0.1112 17:-0.2858 18:0.2308 19:-0.3334 21:0.1112 22:-0.4286 24:-0.077 
2 0:0.04 2:-1 4:0.1428 5:-0.2728 7:0.25 8:-0.037 10:-0.1538 11:0.2 12:-0.3334 13:0.0476 15:-0.3334 16:-0.1428 18:0.081 19:-0.1538 21:0.0344 24:0.2 
2 3:0.125 4:-0.0182 5:0.125 6:0.1052 7:-0.25 8:-0.1428 10:-0.2592 11:0.1112 12:1 13:0.125 17:0.1112 18:-0.1304 19:-0.1 21:-0.0286 22:-0.6666 24:0.2 
0.88117161223715779 0:-0.4286 2:-1 3:0.2308 4:0.5 5:-0.1428 6:-0.1428 7:-0.5 8:0.3334 10:0.4118 11:0.1428 12:1 13:-0.2728 15:0.4286 16:-0.3334 17:-0.1428 18:-0.4 19:0.7778 22:-0.3334 24:-0.4286 
0.694545324464096 0:-0.4286 3:-0.7142 4:-0.091 5:0.1112 6:0.4286 7:0.3334 8:-0.091 10:0.1428 12:0.5 13:0.7778 15:-0.6666 16:0.1428 17:1 18:0.2308 19:-0.6666 21:-0.2 22:1 24:-0.4286 
0.33649716600961882 0:0.077 2:-0.6 3:0.2728 4:0.077 5:0.0666 6:0.5384 7:-1 8:-0.4286 10:-1 11:0.2942 13:0.125 15:0.3334 16:-0.037 17:-0.1818 18:-0.1428 19:-0.3334 24:-0.1428 
1.1306845586026537 0:-0.2728 2:-0.25 3:1 4:-0.1112 6:0.25 7:0.3334 8:-0.3334 10:1 11:-0.1112 12:0.1818 13:0.3334 15:-0.1428 16:0.2308 17:-0.125 18:0.25 19:-0.3334 21:0.2 22:-1 24:-1 
0.043130793060123324 0:-0.1176 2:-0.6666 3:0.037 4:0.0416 5:0.0666 6:0.1794 7:-0.6 10:-0.4546 11:-0.05 13:-0.0256 15:0.2 16:-0.098 17:0.0384 18:0.2222 21:-0.1112 22:0.3334 24:0.0526 
0.84399297873294854 2:-1 3:-1 5:1 6:0.5 7:-1 8:-1 10:-1 11:1 12:-1 13:-1 16:1 17:-1 19:0.3334 21:0.2 22:-1 24:-1 
0.99086064121245876 0:-0.0304 2:-1 3:-0.3334 4:-0.0204 5:-1 6:0.2 7:1 8:0.1428 10:-0.2904 11:0.037 12:0.2 13:0.1428 15:-1 17:0.0588 18:0.6364 19:-0.125 21:0.2728 22:1 24:0.4286 
0.7068157456999401 0:-0.2308 4:-0.75 5:0.2728 6:0.3636 7:1 8:-0.1428 11:-0.4286 12:-0.3334 13:0.2728 15:-0.0476 16:0.3334 17:-0.5 18:-0.3044 19:0.3334 21:0.2858 22:-0.3334 24:0.25 
0.26846307062397395 0:0.1112 2:1 3:-0.1428 4:-0.5 5:0.3334 6:-0.0588 7:-1 8:0.3334 10:0.3334 11:-0.091 12:0.4286 13:-0.6 15:-0.1428 16:-0.2 18:0.1428 19:0.6666 21:-0.1112 22:1 24:-0.3334 
2 0:-0.15 2:-1 4:-0.1428 5:-0.5556 6:0.037 7:0.2572 8:-0.091 11:0.0968 12:-0.1428 15:0.0476 16:0.2632 17:0.1612 18:-0.0164 19:0.04 21:-0.4118 22:-0.3334 
0.65469535888172681 0:-0.375 2:-0.6 3:0.4 4:0.5 7:-1 8:-0.2 10:1 11:-0.2728 12:-1 13:-0.25 15:0.3334 18:0.8 21:0.2 22:-1 24:-0.25 
0.86485031278221314 0:0.75 2:-1 3:-0.4444 4:-0.2174 5:0.1112 6:0.5556 7:-1 8:0.5556 10:-0.3334 11:-0.125 12:0.2 13:-1 15:-1 17:0.75 18:-0.3334 19:-0.1666 21:0.6 22:-1 24:-0.3334 
1.0249908200299787 0:0.0714 2:-0.7142 3:0.4286 4:-0.2222 5:0.2728 6:0.0526 7:0.1112 8:-0.091 10:-0.0666 11:0.1538 13:-0.28 15:-0.4546 16:-0.1112 17:0.1428 18:0.0834 19:0.25 21:0.1578 22:0.5 24:-0.1428 
2 0:-0.2632 2:0.7142 3:-0.3334 4:0.2 5:-0.3334 6:-0.1112 7:-0.4286 8:0.0666 10:0.2 11:-0.125 12:0.4286 13:0.3 15:0.3334 16:0.1112 18:-0.2 19:-0.077 21:-0.2 22:-0.5 24:0.2222 
2 0:0.037 3:0.1482 4:0.0714 5:-0.2106 6:-0.0448 7:0.2 10:0.0566 11:-0.1064 12:0.5 13:0.122 15:0.05 16:0.1764 17:0.28 18:-0.0476 19:-0.3334 21:-0.0182 22:-0.0434 24:-0.2 
0.79957858865395404 0:0.0454 2:-1 3:0.1428 4:0.1764 5:0.1666 7:1 8:0.1112 10:0.2 11:-0.2942 13:-0.6 15:-0.125 16:-0.3334 17:-1 18:1 19:0.1428 21:-0.3 22:-1 24:-0.6364 
0.83998886170847775 0:1 2:-1 4:0.3334 5:1 6:-1 7:1 8:-1 10:0.1112 11:1 12:-1 13:0.3334 15:-1 16:-1 17:-1 18:1 19:-0.3334 22:-1 
0.63460729496263424 0:-0.091 2:-1 3:-0.3334 4:0.6 5:1 6:-1 10:0.3334 12:-1 13:1 15:-0.5 16:1 17:-1 18:-1 19:1 21:0.2 22:-1 24:-1 
0.36896181342270679 2:-1 3:-0.7142 4:0.1112 5:0.25 7:1 8:0.2308 11:0.2 12:1 13:0.3334 16:1 18:-0.25 19:-0.1428 21:-0.3334 22:-1 24:-0.5 
0.83947029536344431 0:-0.3334 2:-0.5 3:0.3334 4:1 5:-1 7:-1 8:1 10:0.3334 12:-1 15:1 16:-1 17:-1 18:-0.5 19:1 21:-0.3334 22:-1 24:1 
0.44219827579964777 0:-0.4118 2:-0.6 3:0.1666 5:-0.1112 6:-0.2308 7:-1 8:-1 10:0.5556 12:1 13:-0.3334 16:0.2 18:0.2858 19:0.5714 21:0.4286 22:-1 
2 0:-0.1112 2:-0.6666 3:0.3044 4:0.1334 5:0.1764 6:-0.0344 7:-0.2 8:0.0666 10:0.2258 11:-0.2222 12:-0.1428 13:-0.5384 15:0.1666 16:0.091 17:0.0666 18:0.28 19:-0.238 21:-0.1 22:0.3334 24:-0.077 
0.4200598232727481 0:0.3846 2:0.2 3:-0.3334 4:-0.3334 5:0.3334 6:0.4546 7:-0.3334 8:0.3334 10:-0.5 12:-0.3334 13:-0.2 15:-0.2728 17:0.5556 18:-0.4286 19:-0.25 21:-0.2728 22:-1 24:0.6666 
2 0:-0.0556 2:-0.1 3:-0.3334 4:0.125 5:0.1428 6:-0.081 7:-0.0588 8:0.3124 10:0.1628 11:-0.125 12:0.1666 13:-0.1666 15:0.04 16:-0.1112 17:0.25 18:0.0526 19:-0.125 21:0.0968 22:-0.1428 24:0.091 
0.16351848178690717 0:0.1852 2:-0.2728 3:-0.3044 4:0.2 5:0.0666 6:0.1112 7:-0.2308 8:-0.1428 10:0.25 11:0.091 13:-0.091 15:-0.2858 16:0.3334 17:0.077 18:-0.1034 19:0.1304 21:0.1428 22:0.7142 24:-0.6 
0.82377870347452231 0:-0.5 2:0.2 3:-0.6666 4:1 5:-0.3334 6:-0.2 7:-1 8:1 11:0.6 12:1 17:0.5 18:0.3334 19:-0.4 21:1 22:0.3334 24:0.3334 
0.4583872872601058 0:-0.5294 2:0.1112 3:1 4:1 5:-1 6:-0.5556 7:1 8:0.3334 10:-0.4286 11:0.5 12:1 13:0.4 15:-0.4286 16:1 17:-1 18:-0.091 19:0.4286 21:0.2308 22:-1 
0.46518627376510691 0:-0.0526 2:-1 3:-0.2632 4:0.4118 5:-0.5556 7:-0.5 8:-0.0666 10:-0.0666 11:-0.3 12:-0.25 13:0.1112 16:0.6666 17:-0.4286 18:0.4546 19:0.75 21:0.36 22:-1 24:-1 
0.79493678097671683 0:-0.2 2:-1 3:0.2 4:-0.091 5:-1 6:-0.4286 7:-1 8:0.5 10:-0.3334 12:1 13:-0.5 15:0.2 16:-0.7142 17:1 19:0.5 21:0.7142 22:-1 24:0.3334 
0.61860892412143798 0:-0.1666 2:-0.3334 3:-0.1112 6:-0.1112 7:-1 8:-1 10:0.75 11:0.1112 12:1 13:-0.2 15:-0.3334 17:-0.3334 18:0.3334 19:0.5 21:-0.3334 22:-1 24:-0.2 
2 0:-0.1 2:0.0858 3:0.027 4:0.0164 6:0.0434 8:0.3334 10:0.0176 11:0.1212 12:-0.2 13:0.2858 16:-0.3334 17:-0.077 18:-0.125 19:-0.2 21:0.0476 24:0.091 
0.50396378784728424 0:-0.1112 2:-1 3:0.091 4:0.1428 5:0.1428 7:1 8:-0.3334 10:0.4286 11:-0.2 12:0.3334 13:-1 15:-1 16:1 17:-0.6 18:0.3334 19:-0.5 21:1 22:-1 24:-1 
1.3731259263824647 0:-0.5238 2:0.091 4:0.0588 5:-0.091 6:-0.0666 7:-0.25 8:0.0714 10:0.1578 11:-0.091 12:1 13:0.3684 15:-0.3846 16:0.0666 17:-0.25 18:0.1304 21:0.1352 22:0.3334 
0.23143029839141024 0:-0.4736 2:0.1112 3:1 4:-1 5:-1 6:-0.25 7:-1 8:0.6666 10:-0.6 11:0.5 12:0.3334 13:0.1112 15:-0.2 16:1 17:-0.5 18:-0.2 19:0.3334 21:0.1666 22:-1 24:0.3334 
0.83774169523151243 0:-0.4 2:-1 3:1 5:1 6:-1 7:-1 8:0.1428 10:-0.5 13:0.5 15:-0.3334 16:0.4286 17:1 18:0.1112 19:0.4666 22:-1 24:-1 
1.3373373207743675 0:-0.5 2:-0.5 3:0.25 4:0.3334 5:-0.1666 6:0.28 7:0.5 8:-0.1428 10:0.1666 11:0.6666 13:0.4286 15:-0.75 16:-0.6 17:0.1428 18:-0.091 19:-0.1666 22:-1 
0.08623135452566294 0:0.091 2:-1 3:-0.5556 4:0.1428 5:0.1428 6:0.077 10:-0.1112 12:1 13:-0.1428 15:-0.1428 16:0.3334 17:-0.3334 18:0.3846 19:0.2 21:-0.5 22:-1 24:0.25 
2 0:-0.1 2:-0.091 3:-0.1112 6:0.0588 7:-0.3334 8:-0.1428 10:0.1 11:0.2 12:-0.2 13:-0.1112 16:0.4286 17:-0.5 19:-0.1428 21:0.1428 22:-1 24:0.4286 
0.52077898843586212 0:-0.0588 2:-1 3:-0.0588 5:0.3334 6:-0.3334 7:0.3334 10:0.091 11:0.1 12:1 13:0.25 15:0.1666 16:-0.3334 17:-0.3334 18:0.1428 19:-0.25 21:-0.4 22:-0.2 24:0.1666 
0.051763262623633462 0:0.2 2:1 3:0.5556 4:-0.3334 5:-0.5 6:-0.3334 7:1 8:0.6 10:0.2 11:-0.3846 12:0.7142 15:-1 16:-0.2 17:0.6666 18:-0.1428 19:-1 21:-0.1112 22:-1 24:-0.3334 
0.57161254093747182 2:-0.7142 3:0.25 4:0.1578 5:-0.4 8:0.2 10:0.0714 11:-0.0666 12:0.3334 15:0.2 16:1 19:-0.0526 21:0.0526 22:-0.3334 24:-0.3334 
0.59452139325908926 0:-0.077 2:1 3:0.5714 4:-0.4 5:0.25 6:-0.3846 7:-0.3334 8:-0.4286 10:-0.3846 11:0.6 13:0.3334 15:0.3334 16:-0.6 17:1 18:0.2858 19:-0.3334 21:-0.1112 22:-1 24:-0.6 
0.84386575360550709 2:-1 3:1 5:-1 6:-0.5 7:1 8:1 10:1 11:-1 12:1 13:1 16:-1 17:-1 19:-0.3334 21:-0.2 22:-1 24:1 
0.8492495882548422 0:-0.3334 2:-1 3:1 4:1 5:-1 6:-1 7:-1 8:-1 10:-1 11:0.3334 12:-1 13:-0.5 15:-1 16:-1 17:-1 18:-1 19:-1 21:1 22:-1 24:-1 
0.84584437358570796 2:-1 3:-1 5:-1 6:-1 7:-1 8:-1 10:1 11:0.2 12:-1 13:-1 15:-1 16:1 17:0.3334 18:1 19:-0.3334 21:-1 22:-1 24:-1 
0.84662322062689255 2:-1 3:-1 5:-1 6:-1 7:-1 8:1 10:1 11:-1 12:-1 13:-1 15:-1 16:-1 17:-1 18:-1 19:-1 21:-1 22:-1 24:-1 
0.84588892665382986 2:-1 3:1 4:0.2 5:-1 6:-1 7:-1 8:1 10:-1 11:0.3334 12:-1 13:-1 15:-1 16:-1 17:-0.3334 18:-1 19:-1 21:-1 22:-1 24:-1 
2 0:-0.0732 2:0.25 4:0.375 5:-0.1112 6:-0.0714 8:-0.2 10:-0.5 13:0.3334 15:-0.0588 16:-0.1428 18:0.0666 19:-0.2 21:0.0526 22:-0.1428 24:0.3334 
0.80735593675028183 2:-1 3:-0.5 4:0.4286 5:-1 6:1 7:-1 8:-1 10:-0.6 12:-1 13:-1 15:-1 16:-1 17:1 18:1 19:1 22:-1 
0.043214485764281794 0:0.091 2:1 4:-0.3334 5:-0.5 6:0.0526 8:0.1112 10:0.1112 11:-0.2 12:0.75 13:-0.5 15:-0.6 16:-0.3334 18:-1 19:0.7142 21:-0.1112 22:1 24:-0.5 
0.40544216548031009 0:0.3846 2:1 3:-0.25 4:-0.5 5:-0.3334 6:-0.0526 8:0.4 10:0.25 12:0.6666 13:0.3334 15:-0.6 16:-0.1428 18:-1 19:0.4286 21:-0.5 22:1 24:-0.5 
0.69091522396603422 0:-0.091 2:-0.3334 3:1 4:-0.2 5:-0.091 6:-0.4286 8:-0.125 10:0.3334 11:-0.2308 12:0.3334 13:-0.1428 15:-0.1 16:0.1182 17:0.5 19:0.3334 21:0.0666 22:-1 24:0.3334 
2 0:-0.0732 4:0.3334 5:-0.1112 6:-0.077 7:0.2728 8:-0.091 10:-0.5 11:-0.0526 13:0.4546 19:-0.25 21:0.0476 22:-0.1428 24:0.3334 
0.83355191339924328 0:0.125 2:0.25 3:0.091 4:-0.4286 5:0.3334 6:1 7:-1 8:0.7778 10:0.125 11:-0.091 12:1 15:-0.1428 17:-0.4 18:0.5 19:-0.25 21:-0.4286 22:-1 24:-1 
0.74244049488715247 2:-1 3:-0.1666 4:0.1334 5:-1 6:1 7:-1 8:-1 10:-0.4 11:0.1 12:-1 13:-0.6 15:-1 17:0.2 18:0.5 19:0.25 21:0.5 22:-1 
0.93320986796194616 0:0.1112 2:0.1428 3:0.2 4:0.3334 6:0.1112 7:0.3334 8:-0.2 10:-0.1578 11:0.1428 13:0.2 16:1 17:1 18:-0.1666 19:-0.3846 21:0.091 22:-0.3334 24:0.5 
1.0348197982808434 0:-0.2 2:0.6666 3:-0.25 4:-0.1666 5:-1 7:0.6 8:0.5 10:0.077 11:0.375 12:1 13:-0.25 15:0.2 17:-0.5 19:-0.4286 21:-0.4546 22:1 24:-0.3334 
0.89569183788741125 0:0.3334 3:0.2 4:0.0666 5:-0.4286 6:0.5 7:-0.5 10:0.091 11:-0.0588 12:-1 13:-0.4 15:-0.3334 16:-0.1666 17:-0.0588 18:-0.3334 19:0.1428 21:-0.3334 22:1 24:0.6666 
0.79983660619132257 0:0.3334 2:-0.25 4:-1 5:-1 6:0.1112 7:-1 8:-0.3334 10:1 11:-0.4546 12:-0.3334 13:0.25 15:-0.1428 16:-0.3334 17:-0.1428 18:0.7778 19:1 21:0.091 22:-1 
1.061864691796923 2:-1 4:-0.6 5:-0.091 6:0.4546 7:-0.25 8:0.2858 10:-0.6 11:-0.091 12:-0.3334 13:0.3334 15:-0.5 17:0.2 18:-0.0666 19:0.1428 21:0.2 22:-0.3334 24:1 
2 0:-0.0714 2:-0.6 3:-0.1724 4:0.1358 5:0.0624 6:-0.3548 7:0.091 8:-0.0344 10:-0.0952 11:-0.0204 12:0.3334 13:0.0952 15:0.0858 17:0.0698 18:-0.149 19:0.4286 21:-0.0624 22:-0.3334 24:0.3334 
0.70341890868987378 0:-0.0666 2:-1 3:0.1112 4:-0.1 5:0.1666 7:1 8:0.125 11:-0.1 12:-1 13:0.0588 15:-0.5 16:-0.1764 17:0.4 18:0.2632 19:0.3334 21:-0.077 22:-1 24:-0.2 
0.056390354504959959 0:0.2728 2:-1 3:-0.5 5:-0.4286 6:-0.2308 7:-0.3334 8:-0.2858 10:0.375 11:0.3334 12:1 13:0.6666 15:-0.2 16:1 18:-0.2858 19:0.5 21:0.2308 22:-1 24:-0.3334 
2 0:-0.3334 2:0.25 3:-0.0666 4:0.0476 5:0.375 6:0.2858 7:1 8:0.3 10:0.1428 11:-0.0666 12:0.5 13:-0.3076 15:0.077 16:0.3334 17:-0.2858 19:0.125 21:-0.2592 22:-0.75 24:-0.1428 
2 0:0.25 3:0.1112 4:-0.3334 5:-0.1428 6:-0.2728 7:0.1428 8:-0.5 10:0.1112 12:0.3334 13:1 15:0.3334 16:0.1112 17:-0.3334 18:-0.5 19:0.6666 21:0.0666 
0.65217966348423051 0:0.3846 2:-0.3334 3:-0.5 4:0.6 5:-1 6:-0.1112 7:1 8:-0.1666 11:0.1112 12:-1 19:-0.4286 21:0.125 22:1 24:1 
2 3:0.1764 4:-0.4286 7:-0.4286 8:-0.1112 10:0.36 11:-0.077 12:0.2 13:0.1724 15:-0.2632 16:-0.125 17:0.091 18:0.0322 19:-0.3104 21:0.1724 22:0.5 24:-0.1428 
0.68656689618515543 0:-0.2 2:1 3:-0.4 4:0.4546 5:0.4 7:0.2 8:-0.0666 10:-0.125 11:-0.1428 12:1 15:-0.6666 16:-1 17:-1 18:0.1112 19:-0.3334 21:-0.2 22:-1 24:0.6 
0.89426764017923666 0:-0.0476 2:-1 3:0.0344 4:0.75 5:0.5 6:-0.2 8:0.1428 10:-0.2 11:-0.5714 12:-1 13:0.1818 15:1 16:-0.6 17:-0.3334 18:0.1334 19:0.2174 21:-0.1112 22:0.3334 
0.13670824301257806 0:0.125 2:-1 3:-0.1112 4:-0.2 6:0.1428 7:-0.2 8:-0.25 10:-0.3334 12:1 13:0.3334 15:-0.3334 17:0.3334 22:-0.3334 24:0.5 
0.44089055518475934 0:0.0968 2:-1 3:0.25 4:-0.2 6:0.25 7:-0.3334 10:-0.75 11:-0.1428 12:1 13:0.3334 15:-0.3334 16:-0.2 18:0.4666 19:-0.4286 21:-0.125 22:-0.3334 24:1 
0.61312342176335333 0:0.1428 2:-1 3:0.1428 4:0.5 5:-0.25 6:-0.25 7:-1 8:-0.5 10:-0.077 12:1 13:0.5 15:-1 16:0.2 17:-1 18:0.4 19:-0.0666 21:-0.125 22:-1 24:-0.3334 
0.5571825281814361 0:0.1516 2:-1 4:0.2 5:0.1112 6:0.1112 7:-0.2 8:0.1428 10:-0.75 11:-0.2 13:0.25 15:-0.3334 16:-0.5 17:0.3334 18:0.4666 19:-0.3334 21:-0.2 22:-0.3334 24:1 
0.68272830127175466 0:0.5 2:-1 4:0.3334 5:-1 6:-0.25 7:1 8:-1 10:0.091 12:-0.3334 13:0.2 15:0.3334 16:-1 17:0.3334 19:0.2728 21:0.25 22:-1 24:-1 
2 0:-0.1764 2:0.4546 3:0.0322 4:-0.077 5:-0.1304 6:0.2 7:0.037 8:0.2728 10:-0.36 11:-0.1852 12:0.0666 13:0.2222 15:-0.0588 16:-0.2858 17:-0.2308 18:-0.04 19:0.2682 21:-0.0588 22:0.3334 24:-0.0434 
0.52157097657501517 0:0.2222 2:1 3:0.2308 5:0.2 6:0.1112 7:1 8:-0.2 10:-0.077 11:-0.5556 12:1 13:-1 15:-1 16:1 17:-1 18:-1 19:0.7142 21:-0.6 22:-1 24:-1 
2 0:-0.1482 2:0.4286 3:-0.091 4:0.2 5:-0.12 6:-0.0732 8:0.1112 10:0.1612 11:0.1282 13:-0.2728 15:0.2106 17:0.12 18:-0.2122 19:0.0526 21:-0.2084 22:0.4546 24:0.091 
2 0:-0.2244 2:-0.1428 3:-0.0476 4:0.3334 5:0.0434 6:0.3334 7:-0.1428 8:-0.1334 10:-0.0322 11:-0.0244 12:0.1666 13:0.04 17:0.091 18:-0.0556 19:0.4736 21:0.0256 22:-0.4546 24:-0.3846 
1.3486936857675018 0:0.0588 2:0.091 3:-0.3334 4:-0.6666 6:0.2728 7:1 12:-0.3334 13:-0.3334 15:-0.1428 16:-0.4286 17:0.1428 19:0.3334 22:1 24:0.5 
1.2438453955683857 0:-0.091 2:-0.5 3:0.0834 4:0.0612 5:0.0834 6:0.1112 7:-0.2 8:-0.2 10:-0.3334 11:0.1176 12:-1 13:0.05 16:0.0434 17:-0.098 18:-0.0286 22:0.3334 
2 0:0.0222 2:-0.4286 3:0.2 4:-0.1304 5:0.28 6:0.1428 7:-0.1428 8:-0.12 10:-0.0344 11:-0.0698 12:-0.1428 13:0.28 15:-0.2 16:-0.0526 17:-0.091 18:0.2666 19:-0.1666 21:0.1708 22:-0.4546 24:-0.1538 
1.0123889107739907 0:-0.1666 3:0.2 4:0.3334 5:0.6 6:-0.0476 7:-1 8:1 10:-0.5 11:0.1112 12:-0.2 13:0.091 15:0.6 16:0.1428 17:0.2 18:0.0666 19:-0.7778 21:-1 22:0.3334 24:0.25 
0.78122552762224251 0:-0.1764 2:-1 3:0.1516 4:-0.122 5:0.3334 6:0.05 7:-1 8:0.1112 10:-0.0434 11:-0.4 13:0.1666 15:0.7142 16:-0.5 18:0.28 19:-0.3334 21:-0.091 22:-1 24:0.3334 
0.48814883556542032 0:-0.077 3:0.2 4:0.4286 5:0.3334 6:-0.0244 8:1 10:-0.25 11:-0.3334 12:-1 13:0.091 15:0.3334 16:-0.091 18:-0.077 19:-0.6666 21:-1 22:0.3334 24:0.5 
2 0:0.1034 2:0.2 3:-0.0322 4:0.1666 5:-0.1666 6:0.0834 7:-0.6666 8:0.0588 10:-0.2308 11:-0.1064 12:0.2 13:-0.1 15:-0.125 16:-0.5 17:0.0588 18:0.2414 19:0.1612 
0.73924102996941077 0:-0.1764 2:0.4286 3:0.2 4:-0.4736 5:0.6 6:0.1304 7:-0.5 8:0.25 10:0.6924 11:0.077 12:-0.6 13:-0.091 15:0.6 16:0.6666 17:-0.2 18:-0.1428 19:-0.6364 21:-0.3 22:-0.2 24:0.2 
0.64548722453025631 0:0.4286 2:-0.75 3:1 4:-0.7778 5:-0.2 6:0.5 7:0.4286 10:0.2 11:0.1034 12:-1 13:0.3334 15:0.0476 16:-0.0228 17:0.5 18:0.1666 19:0.1112 21:-0.2308 22:1 24:0.5 
2 0:0.0624 2:-0.1428 4:0.0698 6:-0.0794 7:0.1428 8:-0.077 10:-0.0834 11:0.1622 13:-0.1764 15:-0.122 16:0.3124 17:0.2142 18:-0.0546 19:-0.1526 21:0.087 22:0.2 24:-0.2196 
0.41239756801863003 0:-0.0588 2:-1 3:0.077 4:-0.1112 5:-1 6:0.0526 7:-1 10:0.3334 11:0.1112 16:0.2 17:0.5 18:-0.4286 19:-0.25 21:-0.6666 22:-1 24:0.6 
0.80490734068732483 0:0.1176 2:-1 3:0.1666 4:-0.3062 5:1 7:-1 8:-0.3334 10:-0.1666 11:-0.1428 12:0.4286 13:0.1666 15:-1 16:0.4118 17:0.2 19:-0.4286 21:0.6 22:1 
0.35096636262422848 2:-0.2 3:0.4286 4:0.3334 5:-0.5 6:0.2 7:-1 8:-0.3334 10:0.1428 11:-0.5556 13:0.1428 15:1 16:-1 17:1 18:0.091 19:-0.25 22:-1 24:-0.3334 
1.0898518774889108 0:-0.077 2:0.3334 3:-0.3334 4:0.1428 6:-0.1428 7:1 8:-0.2 10:0.3334 11:0.3846 12:0.2 13:-0.5 15:-0.5384 16:-0.091 17:0.1112 18:0.4 19:0.3334 21:-0.5556 22:-0.3334 24:0.3334 
1.2655504780053202 0:0.1428 2:0.2728 3:-0.2 4:-0.7142 5:-0.2 6:0.1112 7:1 8:0.3334 10:0.3334 12:-0.3334 13:-0.2 16:-0.2728 17:0.5 18:-0.4 21:0.077 24:0.3334 
0.84605417552845164 0:0.3334 2:-1 4:-1 5:-0.3334 6:1 7:-1 10:-1 11:1 12:-1 13:-1 15:0.5 16:-1 18:-1 19:-1 21:1 22:-1 24:-1 
0.0074949726925599008 0:-0.2728 2:0.3334 3:0.5556 4:-0.4286 5:1 7:-0.6 8:-0.091 11:0.6 13:-0.1428 16:-0.2 18:0.5 19:1 21:-0.2 22:-1 24:-0.3334 
0.12625294343922303 0:-0.1334 2:0.4286 3:-0.375 4:0.1 6:-0.1 7:-0.1428 10:-0.2 12:0.6 13:0.25 15:0.1112 16:-0.375 17:0.1112 18:-0.1 19:0.6364 21:-0.0666 22:-0.5 24:0.1 
0.57845696395734114 0:-0.2942 2:-0.1112 3:-0.0714 4:0.1112 7:0.7142 8:0.28 10:0.1578 11:0.1334 12:0.5 13:-0.36 15:0.125 16:-0.1666 17:-0.2 19:-0.3636 21:0.2858 22:-0.4286 24:0.6666 
2 0:-0.1516 2:-0.5 3:-0.1034 5:-0.0666 6:-0.0624 7:0.5 8:0.3334 10:-0.1 11:0.125 12:0.3334 13:-0.2592 15:0.125 17:-0.0526 18:0.2 19:-0.2728 21:0.1538 22:-0.4286 24:0.4286 
0.84492212471840988 0:0.5 2:-1 4:-1 5:-1 6:-1 8:-1 10:-1 11:-1 12:-1 13:1 15:1 16:-1 17:-1 18:-1 19:1 21:0.5 22:-1 24:-1 
0.39247004960846366 0:-0.3334 2:0.3334 3:0.5556 4:-0.1428 5:1 6:-0.1112 7:-0.5 8:-0.091 10:0.1112 11:0.4286 12:-1 13:-0.2 16:-0.3334 17:1 18:0.2 19:1 21:-0.1428 22:-1 24:-0.3334 
1.6250729381305298 0:-0.2 2:-0.1578 3:-0.0588 4:0.2308 5:0.2 6:-0.2222 8:-0.3334 10:0.077 11:-0.2858 13:0.1428 16:1 17:0.3334 21:0.1764 22:-1 24:0.3334 
0.84502459180607215 0:-1 2:-1 3:1 4:-1 5:-1 6:-1 7:-1 8:-1 10:-1 11:-1 12:-1 13:1 15:-1 16:-1 17:-1 18:1 19:1 21:1 22:-1 24:-1 
1.2100427186499507 0:0.1666 2:0.5 3:0.1112 4:-0.25 5:0.3334 10:0.04 11:0.8182 12:1 13:-0.6364 15:-0.4 16:-0.1428 17:-0.3334 18:0.0666 19:-0.091 22:0.3334 24:-0.6666 
0.5411553804298127 0:0.3846 2:-0.3334 3:0.25 4:0.6666 6:-0.4782 7:-1 8:-0.5556 10:-0.077 11:-0.25 13:0.4 15:-0.3334 16:1 17:1 18:0.1112 19:0.4 21:-0.1666 22:1 
2 0:0.15 2:-0.2 4:-0.2632 5:0.1818 6:0.15 7:-0.1112 8:-0.1334 10:-0.3334 11:-0.1666 13:0.0434 15:0.1282 16:0.0666 18:0.125 19:-0.1304 22:-0.1666 24:0.2308 
0.76166069360337307 2:0.3334 3:0.1666 4:0.3334 5:0.1428 6:-0.0526 7:-0.3334 8:0.4286 10:-0.1666 11:-0.4 12:0.6 13:-0.6666 15:-0.25 16:0.6 17:-0.3334 19:0.1666 21:-0.0476 22:0.3334 24:-0.5 
2 0:0.15 2:-0.2 4:-0.2632 5:0.1818 6:0.15 7:-0.1112 8:-0.1334 10:-0.3334 11:-0.1666 13:0.0434 15:0.1282 16:0.0666 18:0.091 19:-0.091 22:-0.1666 24:0.2308 
0.41044814626259368 0:0.091 2:-1 3:0.5556 5:-0.25 6:-0.1428 7:-0.5 8:-0.2308 10:0.2 12:-1 13:-0.3334 16:-1 17:0.3334 18:0.2728 19:-0.1112 21:0.3334 22:-1 24:-0.1428 
0.36737341188103395 0:-0.0426 2:-1 3:0.1112 4:-0.2308 5:0.0666 6:0.0476 7:-1 8:0.077 10:-0.5 11:-0.1112 12:0.3334 13:-0.3334 15:0.1428 16:0.5556 17:1 18:0.6666 19:-0.2 21:0.36 22:-1 
0.81970663971120339 0:-0.1304 2:-0.7142 3:0.1578 4:0.1666 5:-0.2 6:0.1538 7:0.3334 8:-0.3334 10:0.3846 11:-0.1428 12:-0.3334 13:0.7142 15:0.0588 17:0.1112 18:-0.3334 19:-0.091 21:0.6364 22:-1 24:-0.8 
0.40798830070746867 0:-0.2142 2:-0.125 3:-0.2858 4:1 5:0.25 6:-0.1818 7:-1 8:0.1428 10:0.3334 11:0.2308 12:1 13:0.1112 15:-0.091 16:-0.125 17:1 18:0.125 19:-0.1428 21:0.077 22:0.3334 24:0.091 
0.84525020679824059 0:-1 2:1 3:0.2 4:-0.5 5:-1 6:1 7:-1 8:-1 10:-0.25 11:-1 12:1 13:-0.3334 15:1 16:-1 17:-1 18:-1 19:0.3334 22:-1 
0.79022012580640644 0:-1 2:-1 3:-1 4:-1 6:-1 7:-1 8:-1 10:-1 11:-1 12:-1 13:-1 17:-1 19:-1 21:-1 22:-1 24:-1 
0.76637642085201407 0:-0.1428 2:-1 3:-0.3334 4:-0.0476 5:0.3334 6:0.0304 8:-0.0434 10:-0.1666 11:0.12 12:-0.1428 13:-0.1428 15:0.2858 16:0.2308 18:0.0286 19:-0.1 21:0.1176 24:0.2308 
1.1934945272638948 0:0.4194 2:-0.7142 3:-0.3846 4:-0.2 5:0.5 6:0.0624 8:0.0588 10:-0.0666 11:-0.3 12:-0.3334 13:0.1428 15:0.3334 16:-0.2 17:0.3334 18:0.0434 19:-0.5556 21:0.0476 22:-1 24:0.6364 
0.94759185277627789 0:0.1428 2:0.2 3:0.5 4:-0.0526 5:0.1112 6:-0.25 7:-0.6 8:-0.1666 10:-0.2858 11:-0.238 16:0.6 18:0.1428 19:0.4286 21:0.0476 22:1 24:-0.25 
0.67251536459018046 0:0.1112 2:1 3:0.125 4:0.0476 6:-0.3334 7:1 10:0.6 11:-0.4 12:-0.1428 13:-0.5 15:0.3334 16:0.3334 17:-0.3334 18:-0.1764 19:-0.25 21:-0.077 22:-1 24:1 
1.1243176219472542 2:0.3334 3:-0.0526 5:-0.6 6:0.1112 7:-0.0526 8:0.077 10:-0.1212 11:-0.0092 12:-0.0834 13:0.2142 15:1 16:0.012 17:-0.0134 18:0.1 19:-0.0322 21:0.1904 22:1 24:-0.5556 
2 0:-0.0786 2:-0.125 3:0.0322 4:0.1112 5:-0.1538 6:-0.0294 7:0.1112 8:0.1112 10:0.1636 11:0.0666 12:0.1034 13:-0.1482 15:0.012 16:-0.1506 17:0.1904 18:0.1666 21:-0.1482 22:-0.1428 24:-0.1724 
0.85956670951412872 0:-0.1112 2:1 3:0.5 4:0.091 5:0.5 6:0.0666 7:-0.2 8:0.2 10:-0.3334 11:-0.5 12:-1 13:-1 15:0.2 18:0.3334 19:-0.6666 21:0.091 22:-1 24:0.3334 
2 0:0.2 2:0.0588 3:-0.3684 5:0.2222 6:-0.0416 7:-0.2 10:0.1818 11:-0.3334 12:0.091 13:-0.2 15:0.0714 16:-0.3846 17:0.1764 18:0.2272 19:-0.0434 21:-0.081 24:0.1112 
0.052296266872997987 0:0.3334 2:-0.75 3:-0.4286 4:-0.2728 6:-0.2632 7:0.3334 8:0.091 10:0.3 11:0.1666 12:0.5 13:0.1764 15:0.4 16:0.077 17:-0.5 19:0.2 21:-0.1428 24:-0.4546 
1.0521342456820995 0:0.1112 2:0.25 3:-1 4:0.4 5:-0.3334 6:-0.2942 8:0.5 10:0.238 11:-0.5 12:0.7142 15:-0.2 17:0.2 18:-0.1428 19:0.077 21:-0.2308 22:0.2 24:-0.077 
2 0:-0.0732 2:0.25 4:0.2942 6:-0.0714 8:-0.2 10:-0.5 11:-0.0526 13:0.3334 15:-0.0588 18:0.0666 19:-0.2 21:0.0526 22:-0.1428 24:0.3334 
0.83729984259923196 0:-0.2 2:1 3:-0.4286 5:0.1428 6:0.1428 7:-0.2 8:0.25 10:-0.4118 12:1 13:0.1428 16:0.3334 18:0.1112 19:0.4286 21:-0.5556 22:-1 24:0.4286 
0.25651447104858138 0:-0.3334 2:-0.6 3:0.5 5:-0.1112 6:-0.3846 7:-1 8:-1 10:0.6666 11:-0.2728 12:1 13:-0.3334 15:0.2 16:0.5 18:0.3334 19:0.3846 21:0.3334 22:-1 
0.54219563485728006 0:-0.3334 2:-0.6 3:0.5 4:0.1428 5:-0.1428 6:-0.3846 7:-1 10:0.6666 11:-0.091 12:-1 13:-0.3334 15:0.2 16:-1 18:0.4286 19:0.375 22:-1 24:-0.1428 
0.6890963796885099 0:-0.2632 2:-0.6 3:-0.2308 4:0.5 5:-0.25 6:0.2 7:1 8:0.3334 11:0.2 13:-0.4286 15:0.5 16:-0.5 17:1 18:-0.0588 19:0.1428 21:0.1428 22:-1 24:0.2 
0.40791868508363771 2:-1 4:-0.2 5:1 6:0.25 7:-1 11:-0.6924 12:1 13:0.6666 15:0.5 16:0.3334 18:-0.1428 19:-0.3334 21:0.0588 22:-1 
2 0:-0.077 2:-0.6666 3:0.0286 4:0.0188 5:0.1428 6:-0.2682 7:-0.25 8:-0.1304 10:-0.125 11:0.3 15:0.3334 16:0.25 17:-0.0794 18:-0.0188 19:0.1 21:-0.1708 22:-0.2 
0.68472326326280408 0:0.091 2:-1 3:-0.4 4:0.077 5:0.2 6:0.1 7:-0.25 8:0.4 10:-0.2222 11:-0.2666 12:0.5 13:-0.5 15:0.6364 16:0.6364 17:-0.6 18:0.077 19:-0.5556 21:0.2858 22:0.4286 
0.67083800605140476 0:-0.3334 2:-1 3:0.7142 4:-0.0588 5:0.2 6:0.6 7:0.2 8:-0.2308 10:-0.1666 11:-0.4286 12:0.6666 15:1 16:0.3334 17:0.25 18:-1 19:-0.2 21:0.1112 22:-1 24:-1 
0.14375934038384613 0:-0.2 2:-0.5 3:0.6666 4:-0.1666 5:-0.3334 6:-0.1578 7:-0.4286 8:-0.077 10:0.2 11:0.7142 12:-0.3334 13:0.0834 15:-0.1112 16:-0.2 17:-0.6 18:0.4546 21:0.2858 22:0.6 24:-0.1112 
0.95026967171399046 0:-0.1112 2:0.5 3:-0.2 6:-0.2632 7:0.2 8:0.2942 10:0.0476 11:-0.3846 12:1 13:0.0434 15:-0.25 16:0.091 17:0.1112 18:-0.1428 19:0.0666 21:0.1666 22:0.2 24:-0.4546 
2 0:0.0698 2:0.6 3:-0.1034 4:0.2308 6:0.0358 7:0.1112 8:-0.3044 10:-0.2308 11:0.2632 12:0.2858 13:-0.1578 15:-0.25 16:0.2728 17:0.091 18:-0.1892 19:0.1852 22:-0.5 24:0.1666 
0.87108018252574881 0:-0.1112 2:-1 3:0.2 4:-0.2858 5:0.3334 6:0.25 7:-1 8:-0.6 10:0.1112 11:-0.0666 13:-1 15:1 16:-1 17:1 19:0.2 24:-1 
1.8894473848392082 0:-0.1666 2:-0.6 3:-0.5 4:-0.3334 5:0.6 6:-0.1764 7:0.3334 8:0.2 11:0.3334 12:-0.5 13:-0.25 15:-0.0666 16:-0.4286 18:0.4482 19:0.1428 21:-0.2 22:0.2 24:-0.2 
0.5042246569382377 0:0.4 2:-1 3:-0.4 4:0.077 6:-0.0666 7:-0.5 8:0.091 10:-0.125 12:1 13:1 15:-0.5 16:0.2 17:-1 18:-0.2 21:0.2 22:-1 24:0.6 
0.62666686073602995 0:0.3846 2:0.6 3:-0.091 5:0.25 6:0.2308 7:1 8:0.5 10:-0.7142 12:-1 13:0.1112 15:-0.2 16:-0.3334 18:-0.2308 19:-0.6 21:-0.2 22:1 24:0.1428 
0.44399529124034659 0:-0.2728 2:-1 3:-0.8 4:0.2308 5:-0.1428 7:-0.3334 8:0.0666 10:-0.1764 11:-0.2 13:0.6 16:-0.3334 18:0.4 19:0.1666 21:0.3334 22:-1 24:0.3334 
0.88752974187389466 0:0.2 3:0.4546 4:-0.6666 5:0.3334 7:0.5 8:-0.6666 10:0.5 13:0.1428 15:1 16:-0.2 17:-1 18:0.2 19:-0.3334 21:-1 22:-1 24:-1 
0.53976662485902416 2:0.5 3:0.3334 4:0.5 5:-0.2 6:0.2 7:-0.2 8:0.5 10:0.3334 11:-0.1666 12:-0.3334 13:-1 15:-0.3334 16:-0.12 17:0.1428 19:0.5 21:-0.4286 22:-1 24:1 
1.0686289326119245 0:-0.091 2:0.4286 3:-0.4546 4:0.2308 5:0.5 6:0.1666 8:-0.2 10:-0.0526 11:-0.091 13:1 15:-0.1428 16:-1 19:0.5 21:-0.077 22:-1 24:-0.25 
1.0060087432255052 0:-0.2174 4:-0.3334 5:0.1666 6:0.1818 7:1 10:-0.2308 11:-0.1764 12:-0.3334 13:-0.1112 15:-0.1578 16:0.4546 17:-0.5 18:-0.3914 19:0.4166 21:0.4546 24:0.25 
1.7805018897006855 0:0.1428 2:-0.25 3:0.2 4:0.2308 5:0.5 6:-0.25 7:1 8:-0.5 11:-0.3334 12:0.3334 15:0.75 17:0.0434 18:-0.3846 21:-0.6 24:0.3334 
1.6123373195599839 0:0.2632 2:0.077 3:-0.25 4:0.077 5:0.2 6:0.0434 7:0.3334 8:0.2632 10:0.0666 11:-0.1818 13:-0.2 15:-0.5 16:-0.2 17:-0.25 18:-0.4 19:0.0588 22:1 24:0.2942 
1.9077226237451625 2:-1 3:0.1112 5:-0.1112 6:0.2308 8:0.4286 10:0.2 11:-0.375 15:-0.04 18:0.1112 19:0.0476 22:-1 24:-0.4286 
0.49301068971735401 0:0.04 2:-1 4:0.1818 5:-0.2728 7:0.25 8:-0.037 10:-0.2 11:0.2 12:-0.3334 13:0.0476 15:-0.3334 16:-0.1428 18:0.081 19:-0.1538 21:0.0344 24:0.2 
1.4348884991066171 0:0.0878 3:-0.1428 4:0.1666 5:0.6 6:0.2272 7:-0.7142 8:0.375 10:0.2632 11:-0.1 12:-0.4286 13:-0.077 15:0.2 16:0.3334 17:-0.2 18:-0.2444 19:-0.1666 21:-0.1666 24:0.3334 
1.7526242480224674 0:-0.3636 3:-0.2 4:-0.5556 5:-0.1112 6:0.3794 7:-0.1428 8:0.2 10:-0.1666 11:0.077 12:0.5 13:0.091 15:0.077 16:-0.3334 17:0.2 18:-0.238 19:0.25 21:0.1578 22:-0.4286 24:-0.3334 
0.027464686644304393 0:0.1538 2:0.2632 3:0.0666 4:0.2 5:-0.077 6:0.0454 7:0.2 8:0.2308 10:-0.2 11:-0.4286 12:0.3334 13:-0.1666 15:-0.0526 16:-0.3846 17:0.4 18:-0.0526 19:-0.125 21:-0.1112 22:-0.5 24:0.1764 
0.26596052415171384 0:0.1428 2:-0.1428 3:-0.4 4:0.4286 5:-1 7:0.6 8:0.1666 10:-0.0666 11:-0.5556 16:0.2 17:0.3334 19:-1 21:0.1764 22:1 24:0.5 
2 0:-0.3334 2:-0.25 3:0.077 4:0.5 5:0.2858 7:-1 8:0.2728 10:-0.3334 11:-0.0434 12:0.3334 13:-0.4 15:0.2728 16:0.5 17:0.3334 18:0.04 21:-0.3334 22:0.3334 24:0.1428 
2 0:-0.1666 2:0.0858 3:0.0322 4:0.0144 5:0.0968 6:0.0476 7:-0.1112 8:0.3334 10:0.0188 11:0.0304 12:0.5 13:0.077 16:-0.3684 18:0.0588 19:-0.1852 21:0.1162 24:-0.0476 
1.4777205251099113 0:-0.1428 2:1 3:0.4 4:-0.3334 6:-0.25 7:1 8:-0.3334 10:-0.1112 11:0.0476 12:0.1428 13:0.5 16:-0.5 17:-0.375 18:0.4074 19:-0.1428 21:-0.4 22:-1 24:0.3334 
1.3153355144484513 0:0.0732 3:-0.2308 4:0.2728 5:0.7142 6:-0.4286 7:1 8:-0.4546 10:-0.5556 11:-0.6 12:0.5 15:0.0666 17:0.3334 18:0.0714 19:0.077 22:1 
0.12658728818993387 2:-1 3:0.5 4:0.3334 5:-0.1428 6:-0.3334 7:-1 10:0.0666 11:-0.3334 12:1 13:0.1428 16:0.2 17:-1 18:0.2728 21:-0.0666 22:-1 24:-0.3334 
1.4598808611847642 0:-0.25 2:-0.6 4:-0.091 5:0.1112 6:-0.1112 7:0.25 10:0.077 11:0.3846 12:1 13:0.5556 16:0.3334 17:-0.2 19:-0.5 21:-0.1112 22:1 24:-0.091 
0.45535770165470385 2:-1 3:0.2 4:-0.2858 5:-0.7142 6:0.4546 7:-1 8:-1 11:0.1112 12:-0.3334 13:0.3334 15:0.2 16:1 18:-0.3334 19:0.75 21:0.1666 22:0.3334 24:-0.3334 
0.96082511704027296 0:0.12 2:1 3:-0.3334 4:1 5:-0.0666 6:0.077 8:0.3334 10:-0.4 11:-0.4 12:0.5 15:0.3334 16:0.2 18:0.091 19:0.3334 22:-1 24:-1 
2 0:-0.1 2:0.1112 3:0.0286 4:0.1724 5:-0.1304 6:-0.0222 7:0.1428 8:0.091 10:0.3514 11:-0.1578 12:0.1764 13:-0.5556 15:-0.1304 16:-0.2 17:0.1666 18:0.238 19:-0.1304 21:-0.1112 22:-0.3334 
0.45603018650143734 0:-0.0624 2:1 3:-0.1304 4:-0.1072 5:-0.5 6:0.3334 7:-1 10:-0.2858 11:0.1516 12:0.2 13:0.2728 15:-1 16:0.077 17:0.091 18:0.1428 19:0.2308 22:1 24:0.3334 
0.67830599983478101 0:0.5 4:-0.1 5:0.077 6:0.7778 7:1 8:0.125 10:-0.1666 11:-0.25 12:-0.3334 13:-0.4546 15:0.5 16:-0.7142 17:-0.1112 18:-0.091 19:0.5 22:1 24:0.25 
2 0:0.2858 2:0.4286 3:0.1764 4:-0.3334 5:-1 6:-0.1112 8:-0.25 10:-0.0666 11:0.077 12:0.3334 13:0.25 15:-0.3334 16:0.1428 17:0.4286 18:-0.091 21:-0.091 22:0.5 24:-0.091 
2 0:-0.4194 2:0.3334 3:0.0526 4:-0.1428 6:-0.0566 8:-0.2122 10:0.2 11:0.2196 12:0.1112 13:0.0624 15:-0.1034 16:0.1058 18:0.3044 19:-0.238 21:0.0526 24:-0.077 
0.84994770164935995 0:-0.3334 2:1 3:1 4:-1 5:-1 6:1 7:0.2 8:-1 11:-0.12 12:1 13:-1 15:0.0588 16:0.3334 17:1 18:0.2 19:-0.3334 21:-0.2 24:-1 
2 0:0.0416 3:-0.1764 4:-0.1666 5:0.0588 6:-0.081 8:-0.2432 10:0.0256 11:0.2196 12:-0.6666 13:0.2592 15:-0.375 16:0.4118 17:0.28 18:0.0624 19:-0.027 22:-1 24:0.2728 
0.39427423376802195 0:0.2 2:1 3:0.5556 4:-0.4118 5:-0.5 7:1 8:0.6 10:0.2 11:-0.2858 12:0.7142 15:-1 16:-0.2 17:0.6666 18:-0.3334 19:-1 21:-0.1112 22:-1 24:-0.3334 
0.028820950219519186 0:-0.3334 3:0.3334 4:0.1666 5:-0.4286 6:-0.4 10:0.6 11:0.4 13:0.25 15:-0.2 16:0.3334 17:-0.4286 18:0.1428 19:-0.091 21:-0.3334 22:1 24:-0.3334 
0.29276306448041539 0:0.5 2:0.6 3:-0.091 4:0.2 5:-0.2 6:-0.1666 7:-0.6666 10:0.091 11:0.1112 12:-0.3334 13:0.6 15:-0.2 16:1 17:-0.4286 18:-0.2 19:0.6364 21:-0.6 22:-1 24:-0.25 
0.70352024501681742 0:0.1578 2:-1 3:-0.091 4:0.2728 6:-0.5384 7:-1 8:0.5 10:-0.1112 11:0.091 12:1 13:1 15:-0.2 16:-1 18:0.1428 19:-0.2 21:-0.1112 22:-1 24:1 
0.50994148591560362 0:-0.4286 2:-1 3:-0.3334 4:-0.0476 5:-1 6:0.5 7:0.5 10:-0.0476 13:-1 15:-1 17:0.2 18:-1 19:0.5 21:0.25 22:1 24:-0.5 
1.1978768084842832 2:-1 4:0.0526 5:-0.0526 6:-0.238 7:1 8:0.6 10:0.0952 11:-0.2 12:0.3334 13:-0.1428 15:-0.1428 16:-0.5 18:0.0526 19:0.2142 21:0.0714 22:-1 24:-0.2308 
0.047865005923166774 2:-1 3:0.4 4:0.1764 5:0.1666 7:1 8:0.1112 10:0.25 11:-0.25 13:-0.6666 15:-0.1764 16:-0.3334 17:-1 18:0.7142 19:0.2142 21:-0.2632 22:-1 24:-0.6364 
0.044618534759213319 0:0.091 2:0.3334 3:-1 4:-0.2 5:0.1666 6:0.1428 7:-0.2 8:-0.3334 10:-1 11:0.1428 12:0.3334 15:-0.1708 16:0.055 17:-0.6 18:0.1428 19:-0.1112 21:0.2858 22:1 24:-0.1112 
0.8419608331478402 0:-1 2:-0.6 3:0.3334 4:-1 5:-1 6:-0.2 7:-1 8:1 10:-1 12:-1 15:0.3334 16:1 17:1 21:-1 22:-1 24:-1 
0.64327258334848536 0:0.077 2:1 3:0.5 4:0.0666 6:-0.1428 7:-0.6 8:-0.3846 10:0.25 11:-0.091 12:0.3334 13:-0.25 15:0.1428 16:-1 17:0.3334 18:0.091 19:-0.25 21:0.3334 22:-1 24:-0.1428 
0.41679069053162648 0:-0.3636 2:-1 3:-0.2858 4:0.2 6:0.1112 7:-1 8:-0.5 11:0.5 12:0.3334 13:0.5 15:-1 16:-1 17:1 18:1 19:-0.3334 21:1 22:-1 24:-1 
0.89200099671844857 0:-0.0666 2:-1 5:-0.1112 6:0.5 12:1 13:-0.1428 15:1 16:0.6 17:0.3334 18:-0.25 19:-0.077 21:-0.4 22:-1 24:-1 
0.82199281186704265 0:0.2858 3:-0.091 4:-0.6 5:-0.1428 6:-0.2858 8:-0.077 10:0.25 11:0.5 13:-1 15:0.6 16:-0.2 17:1 18:0.2 19:-0.2 21:-0.077 22:-1 24:-1 
0.34187540420419171 0:-0.2858 3:0.091 4:0.6 5:0.1428 6:0.2858 8:0.077 10:-0.25 11:-0.5 12:0.3334 13:0.3334 15:-0.6 16:0.5 17:-1 18:-0.2 19:0.2 21:0.077 22:-1 24:1 
1.4382930861050793 0:0.238 2:-1 3:-0.125 4:0.2308 6:-0.091 7:-0.3334 8:-0.1764 10:-0.1428 11:0.0588 13:-0.3334 15:0.2 17:0.1112 18:-0.2858 19:0.2222 21:0.037 22:-1 
0.020469400658050089 0:-0.1666 2:-1 3:-0.5 5:0.25 6:0.1428 7:0.5 8:0.1428 10:-0.2 11:0.1112 16:1 17:-0.3334 18:-0.091 19:0.4286 21:-0.3334 22:-1 24:0.1428 
0.29836202722689859 0:0.1666 2:-1 3:0.4286 4:0.077 5:-0.25 6:-0.2 7:-0.5 8:-0.1428 10:0.2 11:-0.1112 12:1 16:-1 17:0.3334 18:0.091 19:-0.4286 21:0.3846 22:-1 24:-0.1428 
0.56623724858881641 0:0.2308 2:-1 3:0.5556 5:-0.1428 6:-0.1428 7:-0.5 8:-0.3846 10:0.2 12:1 13:-0.25 16:-1 17:0.3334 18:0.1666 19:-0.4286 21:0.3334 22:-1 24:-0.1428 
2 0:-0.0588 2:-0.6 3:-0.0666 4:-0.0666 5:0.25 6:0.0714 7:-0.25 8:0.2308 10:0.1764 12:0.4286 13:-0.25 15:-0.3334 16:-0.091 17:-0.25 18:0.1578 19:-0.125 21:0.1 22:1 24:-0.2 
1.1103538265977724 0:-0.0666 2:0.3334 3:-0.7648 4:-0.091 5:-0.5556 8:0.3334 11:-0.0588 12:1 13:0.7142 15:0.5 17:0.3334 18:0.5 19:-0.091 21:0.091 24:-0.091 
0.46491876073764826 0:0.0714 2:-1 4:0.0588 6:-0.3334 7:-1 8:-0.1428 10:0.3684 11:-0.04 12:-0.3334 15:-1 16:0.1666 17:-0.1112 18:-0.3846 19:-0.2308 21:0.1112 22:-1 24:0.2 
0.84325312066857716 0:-0.3334 2:-0.6 3:-1 4:1 5:-1 7:-1 8:-1 10:1 11:-0.2 12:1 13:1 15:-0.3334 17:1 18:1 19:-1 21:0.5 22:-1 
0.040806856343639113 0:-0.1112 2:-1 3:0.1666 4:0.2 5:0.4286 6:-0.1428 7:-1 8:-0.2 10:0.25 13:-1 15:-1 16:1 17:0.3334 18:0.2 19:-0.2 22:-1 24:-1 
0.63499322811033188 2:-1 3:0.1666 4:0.2 5:0.4286 6:-0.1428 7:-1 8:-0.2 10:0.25 13:-1 15:-1 16:1 17:0.3334 18:0.2 19:-0.3334 22:-1 24:-1 
0.57085483413449223 2:-1 3:-0.1666 4:-0.2 5:-0.2 6:0.1428 7:1 10:-0.25 12:0.3334 13:1 15:-1 16:-1 17:-0.3334 18:0.3334 19:-0.3334 22:-1 
0.32274584268701823 0:-0.25 2:-1 3:-0.091 5:-0.2 6:0.1428 7:1 10:-0.1428 12:0.3334 13:1 15:-1 16:-1 17:-0.5 18:0.3334 19:-0.3334 22:-1 
0.54429012402753851 0:0.238 2:0.8 3:-0.1428 5:-1 6:-0.2858 7:-0.5 8:0.3334 12:0.6666 13:-0.3334 15:-0.1428 16:-0.3334 17:-0.25 18:0.6 19:-0.3334 21:-0.0666 24:-0.4286 
1.6101211745493769 0:0.25 2:0.1578 3:-0.1666 4:0.077 5:-0.1428 6:-0.1 7:-0.3334 10:-0.2222 11:-0.4286 13:0.3334 15:-0.3334 16:-0.1428 17:1 18:0.4 21:-0.6 22:0.3334 24:0.3334 
0.9721195413805267 0:0.1428 2:1 3:0.5556 4:0.3334 5:-0.091 6:-0.3334 7:-1 8:-0.4286 10:0.1112 11:-0.6666 15:-1 16:-0.5 17:-0.6666 18:0.3334 19:0.2 21:0.1666 22:-1 24:-0.3334 
1.3949387505307231 0:0.077 2:0.2 3:-0.3334 6:0.4286 7:1 8:-0.3334 10:-0.1428 11:-0.2308 12:0.5 13:0.6666 15:-0.1428 16:-0.5 17:-0.3334 18:0.25 19:-0.1112 21:-0.2 22:-1 24:-1 
0.27605873025010863 0:-0.2858 3:0.091 4:0.6 5:0.1428 6:0.2858 8:0.1428 10:-0.2942 11:-0.5 12:0.3334 13:1 15:-0.6 16:0.5 17:-1 18:-0.2 19:0.2 22:-1 24:1 
2 0:0.0588 2:0.5 3:0.091 4:-0.5556 5:0.375 6:-0.1334 7:-0.2 8:0.0714 10:0.2592 11:0.3334 12:0.7142 15:0.1 16:-0.5 17:-0.077 18:-0.0714 19:-0.1764 21:-0.0714 22:-1 24:-0.3334 
0.170048664225395 0:-0.1034 2:-1 3:-0.1538 4:-0.1428 5:0.3334 6:1 7:-1 8:-0.2 10:-0.1852 11:0.1764 12:0.6666 13:0.3846 15:-1 17:0.1428 19:0.077 21:-0.25 22:-1 24:0.1428 
0.24861579778695536 0:0.3334 2:-0.1428 3:-0.4546 4:0.6 5:-1 7:1 10:-0.0666 11:-0.2 13:-0.2 18:0.5 19:-0.4286 22:1 24:0.3334 
0.55997431050959412 0:-0.1112 2:-1 3:-0.0834 4:-0.1154 7:-1 8:0.077 11:0.1034 12:0.6 13:0.75 15:-1 16:0.077 17:-0.1764 18:0.2 19:-0.125 21:0.2 22:-1 
0.67431446160233954 0:-0.0624 2:1 3:-0.1578 4:-0.1228 6:1 7:-1 10:-0.2592 11:0.1334 12:0.6 13:0.2308 15:-1 16:-0.0476 17:0.0526 18:0.5714 22:-1 
0.039972637498500156 2:-1 3:-0.037 4:-0.1836 6:0.4286 7:-1 8:0.3334 10:-0.1764 11:0.1334 13:0.5556 15:-1 16:0.0666 17:0.0588 21:-0.077 22:-1 
2 0:-0.0416 2:-0.1428 3:-0.1428 4:0.1428 5:-0.2 6:-0.0732 7:0.1112 8:0.2592 10:0.1516 12:-0.1666 13:-0.3044 15:0.1578 17:0.1304 18:-0.0858 19:-0.0476 21:-0.1428 22:0.4546 24:0.1578 
0.40580701618337972 0:-0.1724 4:-0.2084 6:0.5 7:-1 8:0.2 10:-0.2122 11:0.2 13:0.6 15:-1 16:0.1428 17:0.1112 18:-0.1428 19:0.5714 21:-0.1764 22:-1 24:-0.1428 
2 2:-0.4286 3:0.2728 4:-0.1818 5:0.28 6:0.0952 7:-0.1428 8:-0.1538 10:-0.0666 11:-0.1794 12:0.1666 13:0.25 15:-0.1794 16:0.0476 17:-0.091 18:0.2 21:0.1628 22:-0.4546 24:-0.1538 
0.77713038265308654 0:0.3334 2:-0.1428 3:-0.5 4:0.6 5:-1 7:0.6 8:0.1428 10:-0.0666 11:-0.3334 13:0.1112 18:0.5 19:-0.6666 21:-0.0588 22:1 24:0.3334 
0.12641781428705381 0:-0.2222 2:-1 3:0.1162 4:-0.1666 5:-0.4616 6:-0.1304 7:0.375 8:-0.0714 10:0.4616 11:0.1428 12:-1 13:0.3334 15:-0.3334 16:-0.3636 17:0.0588 19:0.1578 21:0.1876 22:-1 24:0.2308 
2 0:-0.0588 4:0.2 5:-0.2 7:0.1428 8:0.3044 10:0.3846 11:0.1034 12:-0.1666 13:-0.1 15:-0.1538 16:-0.091 17:-0.1 18:-0.36 19:0.1764 21:0.0286 22:0.4 24:-0.2728 
0.29331020368800587 0:-0.2142 3:-0.1034 4:-0.149 6:0.5 7:-1 8:0.2728 10:-0.2122 11:0.2414 13:0.6 15:-1 16:0.25 17:0.1112 18:-0.0666 19:0.2858 21:-0.2 22:-1 24:-0.1428 
0.69540805388745863 0:-0.2 2:1 3:-0.037 4:-0.1836 5:-0.5 6:0.6 7:-1 8:0.2 10:-0.1876 11:0.2258 13:0.5556 15:-1 16:0.2222 17:0.0526 18:-0.0666 19:0.3334 21:-0.2308 22:-1 24:0.2 
0.84527005859677196 0:1 2:-1 3:-1 4:1 5:1 6:1 7:-1 8:1 10:-1 12:-1 13:-1 15:0.3334 17:-1 19:-1 22:-1 24:-1 
0.84446903683154861 0:1 2:-1 3:-1 4:-1 5:-1 6:-1 7:-1 8:-1 10:-1 11:-1 12:-1 15:-1 16:-1 17:1 18:-1 19:1 21:1 22:-1 24:-1 
0.127457744841626 0:-0.0588 2:1 3:-1 4:-0.125 6:-0.125 7:-0.4286 8:0.2308 10:0.4118 12:0.3334 13:0.2 15:0.25 16:1 17:-1 18:-0.1112 19:0.25 22:-1 24:-0.5 
0.75405145940080354 0:1 2:-1 3:-1 4:-1 5:-1 6:-1 7:-1 8:-1 10:-1 11:0.3334 12:-1 16:1 17:0.5 19:-0.3334 21:1 22:-1 24:-1 
0.9903713048121342 0:0.1112 3:0.2728 4:-0.3334 5:-1 6:-0.2 7:-0.5 8:0.125 10:0.375 15:0.5 16:-0.2 17:-1 18:0.1428 21:-0.125 22:-1 24:-0.5 
1.8825763599083014 0:0.1304 3:-0.2 4:-0.2 5:-0.3334 6:0.0476 8:-1 10:0.5 11:-0.1112 12:0.3334 13:-0.091 15:-0.3334 17:-0.2 18:-0.125 19:0.7778 21:0.3334 22:-0.3334 24:-0.4286 
0.55897585895331159 0:0.1666 2:-1 3:-0.5 4:0.077 5:-0.2 7:-1 8:-0.077 10:-0.125 11:0.091 12:1 13:-0.2 15:-0.3334 16:1 18:0.0666 19:0.25 21:0.2858 22:-1 24:0.3334 
1.789715459327291 0:-0.1428 2:-0.6666 3:0.0834 4:0.04 5:0.1852 6:0.1352 7:-0.3334 8:-0.2 10:-0.2 11:0.077 12:1 13:0.0732 16:0.0434 17:-0.098 18:-0.0526 21:0.0344 22:0.3334 
0.23457340866643908 0:0.3334 2:0.2 3:-0.4286 4:-1 5:1 6:-0.2 7:-1 10:-0.0666 11:0.6364 12:-0.2 15:-1 16:1 17:-1 18:0.2728 19:-0.25 21:0.091 22:-1 24:-0.3334 
2 0:-0.1 2:0.091 3:-0.0304 4:0.2174 5:-0.1666 6:0.0666 7:0.4616 8:-0.077 10:-0.3636 11:0.0526 12:0.2 13:0.0244 15:-0.2632 16:-0.0434 17:-0.0588 18:-0.2308 19:-0.2 21:0.1034 22:0.1666 24:0.2308 
0.52587654892918978 0:0.25 2:0.2 3:-0.4286 4:-1 5:1 6:-0.2 7:-1 8:0.3334 10:-0.0666 11:0.6364 12:-0.2 13:-0.2 15:-1 16:1 17:-1 18:0.5 19:-0.3334 22:-1 24:-0.3334 
0.49455561323639663 0:0.05 2:-1 3:-0.25 4:-0.1764 6:-0.1112 7:-1 11:0.2 12:1 13:0.1428 15:0.2308 18:-0.3334 19:-0.2308 21:0.1112 22:-1 24:0.3334 
0.3357304885086061 0:0.0666 2:-0.3334 3:-0.25 4:0.1666 5:0.25 7:-0.2 8:-0.4286 10:0.077 11:0.091 12:-1 13:-0.4286 15:0.2 16:0.5 17:0.3334 18:0.077 19:-0.091 
1.7204092528296122 0:0.0232 2:0.1428 3:0.091 4:0.3334 5:0.1304 6:0.077 7:0.3334 8:-0.1764 10:-0.0434 11:-0.0256 12:0.2 13:-0.0256 15:-0.3124 16:0.0834 17:-1 18:0.0732 19:-0.0322 21:-0.125 22:0.3334 
0.84681374655430897 0:-0.5454 2:0.091 4:0.0588 5:-0.1304 6:-0.0968 7:-0.25 8:0.0344 10:0.1112 11:-0.0476 12:1 13:0.3684 15:-0.3846 16:0.0666 17:-0.1112 18:0.1818 19:0.0476 21:0.1666 22:0.3334 
0.7290731000587195 0:0.6666 2:0.2 3:0.3334 4:-1 5:-1 6:-0.4 7:-1 10:-0.1112 11:0.3846 12:0.3334 15:-0.1112 16:1 17:-0.5 18:-0.75 21:-0.4 22:-1 
0.20570736265238249 0:-0.5 2:-1 3:-1 4:-1 5:-1 6:1 7:-1 11:1 12:-1 13:1 16:-1 17:-1 18:1 21:-1 24:-1 
0.2729640701599611 0:-0.5 2:-1 3:-0.3334 4:-1 5:-1 6:1 7:-1 10:0.2 11:1 12:-1 13:1 15:-0.2 16:-1 17:-1 18:1 19:-0.3334 21:-1 24:-1 
0.85664104493162174 0:0.125 2:-1 4:0.3334 5:-1 6:-0.2 7:-1 8:0.5556 10:-0.5 11:-0.2 12:1 15:-0.1112 16:-0.1428 18:0.2728 19:-0.3334 21:0.2 22:-1 24:0.3334 
2 0:0.122 2:-0.2 4:-0.2632 5:0.1818 6:0.15 7:-0.1112 8:-0.1334 10:-0.3334 11:-0.2 13:0.0434 15:0.1794 16:0.0666 18:0.125 19:-0.1304 22:-0.1666 24:0.2308 
0.57068866205749269 0:0.2 2:-0.2 3:0.4286 4:0.3334 5:-0.6 6:0.2 7:-1 8:-0.3334 10:0.2 11:-0.4286 12:-0.2 13:0.3334 15:1 16:-1 17:1 18:-0.1666 19:-0.1428 21:-0.1112 22:-1 24:-0.3334 
0.66549005692454977 0:0.2 2:1 3:0.5556 4:-0.3334 5:-0.5 6:-0.3334 8:0.7778 10:0.2 11:-0.2858 12:0.5 15:-1 16:-0.2 17:1 18:-0.3334 19:-1 21:-0.1112 22:-1 24:-0.3334 
1.2806591222475325 0:-0.1428 2:-1 3:-0.1666 5:0.1428 6:-0.1428 7:-0.1112 8:0.2308 10:-0.2222 11:0.0588 12:0.5 13:-0.2728 15:0.1428 16:0.3334 18:0.5556 19:0.077 21:-0.4 22:0.1428 
0.84554265232384918 0:-1 2:-1 3:-1 4:-1 5:-1 6:1 7:-1 8:-1 10:-1 11:-1 12:1 13:-1 15:1 16:1 17:-1 19:-1 21:-1 22:-1 24:-1 
0.0738243739350707 2:1 3:-0.2 4:-0.4 6:-0.125 7:-0.5 8:0.5556 10:0.3334 11:-0.1112 12:0.4286 13:-0.2 16:0.1428 18:0.1112 19:0.4286 21:-0.5 22:1 24:-0.6 
0.26776905871783385 0:0.0538 2:-1 4:0.1428 5:-0.091 6:-0.3334 7:1 8:0.5 10:0.2142 11:-0.2858 13:-0.1428 15:-0.25 16:-0.4286 17:-1 18:-0.2308 19:0.36 21:-0.04 22:-1 24:-0.1428 
0.23561043133388268 0:-0.4118 2:0.1112 3:1 4:-1 5:-1 6:-0.4 7:1 10:-0.6 11:0.5 12:1 13:0.2 15:-0.3334 16:1 17:-0.5 18:-0.2 19:0.4 21:0.3334 22:-1 
1.8268171381318754 0:0.0588 3:-0.1428 4:-0.3334 5:1 6:-0.1428 7:1 11:-0.1428 13:0.4 15:0.1666 18:-0.2858 19:-0.3334 21:0.2728 24:-0.3334 
0.84488225084261492 0:-0.2 2:-1 3:-1 4:-0.1112 5:1 6:0.5 7:0.5 8:0.2 10:-0.6364 11:-0.3334 12:-1 13:-1 16:-1 17:-1 18:0.4286 19:0.6666 22:-1 24:1 
0.92573771173317465 2:-1 3:0.2 4:-0.2858 5:-0.7142 6:0.4546 7:-1 8:-1 10:0.1112 11:0.1112 12:-0.3334 13:0.3334 15:0.2 16:-1 18:-0.3334 19:0.75 21:0.1666 22:0.3334 24:-0.3334 
0.84896012642952146 2:-1 3:1 4:-1 5:-1 6:-1 7:-1 8:-1 10:-1 12:-1 13:-1 15:1 16:-1 17:-1 18:-1 19:-1 21:1 22:-1 24:-1 
1.1436841544499636 0:0.0188 3:0.1698 4:0.0714 5:-0.2308 6:-0.0588 7:0.1 8:-0.1112 10:0.0566 11:-0.087 12:0.5 13:0.1052 15:0.05 16:0.3334 17:0.3076 18:-0.0304 19:-0.3334 21:0.0546 22:-0.0434 24:-0.2 
0.44654449150002368 2:1 3:-0.4286 4:-0.25 6:-0.0526 7:-0.5 8:0.2728 10:0.1428 11:0.3334 12:0.6 15:-0.3334 16:0.1112 18:-0.1112 19:0.6666 21:-0.5556 22:1 24:-0.5 
0.84508640844456406 0:1 2:-1 3:-1 4:1 5:-1 6:-1 7:-1 8:-1 10:1 11:0.3334 12:1 13:1 15:1 16:-1 17:-1 18:-1 21:1 22:-1 24:-1 
1.8865210714706808 0:0.2728 2:-0.6 3:0.1428 5:-0.2 6:0.3684 7:-0.5 10:-0.1112 11:0.5 13:-0.6 15:-0.3334 16:-0.5 17:-0.1428 18:0.0434 19:0.3 21:-0.5 22:-0.5 24:-0.2 
0.80491573285378071 0:0.4286 2:0.7142 3:0.2 4:-0.2728 5:-1 6:-0.1112 7:-0.3334 8:0.1 10:-0.2 11:-0.1428 12:1 13:-0.2858 15:0.2 16:-0.25 17:-0.091 18:-0.091 19:-0.3334 21:0.1818 22:0.5 24:0.1112 
0.28768435089109262 0:0.1666 2:1 3:-0.3334 4:-0.2 5:-0.3334 8:0.4 10:0.25 11:-0.1428 12:0.6666 15:-0.1428 16:-0.3334 18:-0.3334 19:0.2 21:-0.3334 22:1 24:-0.5 
0.9869829157337805 0:-0.25 3:-0.2632 4:0.0588 5:0.3334 6:-0.0666 7:-1 8:0.3334 10:0.091 11:0.1112 12:-0.3334 13:0.4 15:0.3334 16:-0.3334 17:-0.2 18:-0.077 19:1 21:-0.4286 22:-1 24:-1 
1.0502346084557497 0:0.4546 2:0.6 3:-0.3334 5:0.25 6:0.25 7:1 8:-1 10:-0.3334 11:-0.091 12:1 13:0.25 15:-0.2 16:-0.5 17:-0.2 18:-0.2308 19:-0.7778 22:1 24:0.1428 
0.66041923608677899 0:0.2 2:0.6 3:-0.2 4:0.5 5:0.25 6:0.3334 7:1 8:1 10:-0.4286 11:0.091 13:0.4286 15:-0.2 16:-0.5 17:-0.3334 18:-0.1666 19:-0.6666 21:-0.3334 22:1 24:0.1428 
0.84335877051945818 0:1 2:-1 3:-1 4:-1 5:-1 6:-1 7:-1 8:-1 10:-1 11:0.3334 12:-1 13:1 15:-0.3334 16:0.1112 17:-1 18:1 19:-1 21:-1 22:-1 24:-0.3334 
0.476488235637819 0:-0.2858 2:0.25 3:0.2 4:-1 5:-1 6:-0.1112 7:1 11:0.4546 13:-0.4 15:0.1428 16:0.6666 17:-0.3334 18:-0.5 19:-0.5 21:0.3334 22:-1 24:0.3334 
0.37042036585279414 0:0.0588 2:-1 3:-0.75 4:0.0666 5:0.1428 6:0.077 7:-0.5 8:0.0588 10:-0.3334 11:0.1112 12:1 13:0.6 15:-0.3334 16:0.3334 18:0.091 19:0.3334 21:-0.4286 22:-1 24:0.4286 
0.52693773688206258 0:0.2 2:-0.25 3:-0.1666 4:0.3334 5:0.25 6:-0.1304 7:-1 8:-0.1428 10:-0.1112 11:0.1112 12:1 13:-0.1 15:0.4286 16:0.1112 17:0.5 19:-0.25 21:-0.25 22:0.3334 24:-0.5 
1.0143881696539316 0:-0.091 2:-1 3:0.375 4:-0.04 5:-0.2 6:-0.1724 8:0.1112 10:-0.1666 11:0.125 12:1 13:0.1764 15:-0.0666 17:0.0588 18:-0.0476 19:0.0666 21:-0.1516 22:1 
0.39402853330682891 2:-0.3334 3:1 4:-0.3334 5:1 6:-0.2 7:-1 8:-0.2 10:0.1428 11:-1 12:-0.5 13:-0.1428 16:1 19:0.3334 22:-1 24:1 
0.84654057752940559 2:0.2 3:1 4:-0.2 5:1 6:-0.1428 7:1 8:-0.2 10:0.3334 11:0.2858 12:0.3334 13:-0.75 15:-0.5714 16:-0.1112 17:0.3334 18:0.5 19:0.1112 21:-0.5 
0.27205937660051105 0:-0.1794 2:-1 3:-0.3142 4:-0.1112 5:-0.579 6:0.238 7:0.1428 8:-0.1 10:0.8888 11:0.0434 12:-1 13:0.2 15:-0.25 16:0.2632 17:0.0666 18:0.3334 21:0.1666 22:-1 24:-0.2 
0.84488647111976978 0:0.2 2:1 3:-1 4:-1 5:1 6:-1 7:1 8:-0.6 10:1 11:0.1428 12:1 13:-1 17:-1 18:-1 19:1 22:1 24:-1 
2 0:-0.1666 2:0.2 3:-0.125 4:-0.0304 5:0.2174 7:0.4286 8:-0.1666 10:-0.04 11:0.0556 12:0.2632 13:0.25 15:-0.6666 16:0.2 17:0.3334 18:-0.0588 19:-0.0344 21:-0.1304 24:-0.077 
0.20156724443766433 0:-0.091 2:1 3:-0.5 5:0.25 6:0.1428 7:0.5 8:0.4546 10:-0.25 11:0.1112 13:0.2 16:1 18:-0.4 19:0.1112 21:-0.4286 22:-1 24:0.1428 
0.33700059139013577 0:-0.0112 2:-1 4:0.2942 5:0.091 6:-0.1428 7:1 8:-0.2 10:0.2174 11:0.1112 13:-0.2 17:-1 19:0.091 21:-0.1112 22:-1 24:-0.4 
0.69219048619057111 0:-0.3334 2:-1 3:-0.4 4:-0.5384 6:0.4 7:-1 8:0.2 10:-0.1112 11:0.5556 12:1 13:-0.6 15:1 16:1 17:1 18:-0.3334 21:-0.0666 22:-1 24:0.3334 
1.3678075218888248 0:0.1334 2:1 3:0.3044 4:-0.2888 6:0.1428 7:-1 10:0.0858 11:-0.2858 12:0.2728 13:-0.077 15:-1 16:-0.1428 17:-0.0588 18:-0.2 19:0.4286 21:0.125 22:-1 24:0.6 
2 0:-0.4546 2:-0.2 3:0.0526 5:0.3334 6:0.238 8:-0.04 10:-0.1428 11:-0.1428 12:0.25 13:-0.3794 15:-0.3334 16:-0.091 17:0.238 18:0.1538 21:0.2728 22:0.1112 24:0.1428 
2 0:0.2 2:0.091 3:0.04 6:-0.077 7:-0.1666 8:-0.2778 10:-0.1794 11:-0.0624 12:0.4 13:0.125 16:0.1724 17:-0.1112 18:0.0244 19:0.1428 21:-0.0304 22:0.1428 24:-0.2728 
0.84275851412707414 2:0.6 3:0.1112 4:-0.3334 6:0.2 7:-0.6666 8:0.2 10:-0.25 11:-0.091 12:-1 13:0.3334 17:-0.1428 18:0.25 19:0.1666 21:0.3334 22:-1 24:-0.6666 
0.85045105750821803 0:0.25 2:-1 3:1 4:-1 5:-1 6:1 7:-1 8:-1 10:-1 11:-1 12:-1 13:-1 15:-0.3334 16:-1 17:-1 18:-1 19:-0.3334 21:-1 22:-1 24:-1 
2 0:-0.1724 2:0.091 3:-0.1764 4:-0.3658 5:-0.5 6:0.1666 8:0.2308 10:0.2 11:0.1352 12:0.1428 13:0.4054 15:-0.1034 16:0.0834 17:-0.037 18:-0.0588 24:-0.091 
0.18511745265438684 0:-0.1428 2:0.3334 4:-0.3334 5:-0.5 6:-0.1 8:0.2728 10:0.25 11:0.091 12:0.5 13:-1 16:-0.6 18:-0.2 19:0.7142 21:0.1112 22:1 24:-0.3334 
0.93395228217203508 0:-0.1578 2:-1 4:0.0454 5:-0.4546 6:0.091 7:0.1428 8:0.2858 10:0.091 11:-0.1666 12:-0.2 16:0.0588 17:-0.2 18:0.1 19:0.4286 21:0.1 22:1 24:-1 
0.84494717011146048 2:-1 3:-1 4:1 5:-1 7:-1 8:-1 10:-1 11:0.3334 12:-1 13:-1 15:1 16:1 17:-1 18:1 19:-1 21:-1 22:-1 24:-1 
0.77180005072925939 0:-0.04 2:-1 3:-0.1428 4:0.4286 5:0.3334 6:-0.2728 7:-1 8:0.3334 10:0.25 11:-0.2308 12:1 13:-0.3334 15:-0.5 16:-1 17:-1 18:0.3334 19:-1 22:-1 24:1 
2 0:0.0634 2:-0.0434 3:-0.0698 4:0.0054 5:0.1 6:-0.0488 8:-0.1538 10:0.1078 11:-0.0186 12:-0.091 13:-0.0434 15:0.0666 16:0.0448 17:0.0334 18:-0.0182 19:-0.054 21:-0.0208 22:-0.3684 24:-0.1612 
1.6848135373820168 0:-0.0526 2:1 3:-0.3846 4:-0.091 5:0.091 6:0.2728 7:0.4286 8:-0.1428 10:0.0434 11:0.25 12:-0.2 13:-0.091 15:0.1666 16:0.125 18:-0.2 19:0.3334 21:-0.2 22:1 24:-1 
1.0396103700199095 0:0.0666 3:-0.1428 5:-1 6:0.4546 7:-1 8:0.5 10:-0.2 11:-0.3846 13:1 15:0.077 16:0.1428 17:-0.3334 18:-0.1112 19:-0.7142 21:0.4546 22:1 24:0.6 
0.15828486302978995 0:-0.3684 2:0.2 3:1 4:-1 5:-1 6:-0.25 7:-1 8:0.2 10:-0.3334 11:0.5556 12:0.3334 13:0.091 15:-0.25 16:1 17:-1 18:-0.25 19:0.1428 21:0.2308 22:-1 
0.083992317842144115 0:-0.1428 2:-1 3:1 4:-0.5 5:0.6 6:-0.2308 7:-0.3334 8:-0.3334 10:0.6666 11:-0.1112 12:1 13:-1 15:-0.3334 16:0.3334 17:-0.3334 18:-0.091 19:0.2728 21:-0.1666 22:1 24:1 
0.16424862777003721 2:-1 4:0.2942 5:0.091 6:-0.1428 7:1 8:-0.2 10:0.2728 11:0.1112 13:-0.2 17:-1 19:0.04 21:-0.1578 22:-1 24:-0.4 
0.60449333196520627 0:-0.1666 2:-1 3:0.4 4:-0.2 6:0.2858 7:-0.1428 8:0.0666 10:-0.25 11:-0.2 12:-1 13:-0.5 15:-0.1428 17:1 18:0.4546 19:-0.5556 22:-1 24:0.5 
1.1862836959983567 2:1 4:-0.2942 6:0.2 7:-1 8:0.2 10:-0.2174 11:-0.3334 12:0.3334 13:0.2 15:-0.0666 16:-0.2 17:1 18:0.1428 21:0.2 22:-1 24:0.1666 
0.84389287076582764 0:-0.5714 2:-1 3:0.1428 4:0.4286 5:0.2 6:0.2 7:1 8:0.5 10:0.2 11:0.2308 12:1 13:0.3334 15:-0.5 17:-0.3334 18:-0.6666 19:0.4286 21:-1 22:-1 
0.57138801453521859 0:0.077 2:0.2 3:-0.1112 4:-0.6924 5:0.2 6:0.0588 7:1 8:-0.0588 10:0.077 11:-0.2942 12:1 13:0.2 15:0.4 16:0.2 17:0.091 18:-0.125 19:0.2728 22:-1 
0.64305863132876362 0:0.077 2:0.2 3:-0.1764 4:-0.5714 5:0.1428 6:0.0588 7:0.3334 8:-0.125 10:0.077 11:-0.1578 12:1 13:0.2 15:0.2728 16:0.2 19:0.4 21:-0.1428 22:-1 24:0.2 
2 0:0.1428 2:0.3334 3:-0.238 4:0.3334 5:-0.3334 6:-0.0232 7:0.7142 8:0.3572 10:0.1 11:-0.081 12:-0.2728 13:-0.1538 15:-0.091 16:-0.3 18:0.2432 19:-0.05 21:-0.2258 24:0.1428 
0.93606746570968702 4:-0.2728 6:0.2 7:-1 8:0.2 10:0.3334 11:0.1666 12:-0.1112 13:0.3334 15:0.3334 16:0.1 17:0.1764 18:-0.2 19:0.3334 21:-0.7142 22:-1 
2 0:-0.0188 3:0.1698 4:0.0344 5:-0.1892 6:-0.0724 7:0.1578 8:-0.081 10:0.0566 11:-0.1064 12:0.5 13:0.2106 15:0.05 16:0.1764 17:0.3076 18:-0.0448 19:-0.3142 21:0.0384 22:-0.0434 24:-0.2 
2 0:-0.0556 2:1 3:-0.3684 4:0.0834 5:-0.1112 6:0.0434 7:0.1428 8:-0.0476 10:0.0434 11:0.05 12:-0.1112 13:0.1112 16:0.2308 17:0.8182 19:-0.1612 21:-0.1578 24:-0.0588 
1.1015670502976231 0:0.5 2:0.4286 3:-1 4:0.3334 5:-0.091 8:0.1666 10:0.3334 11:-0.1428 12:-0.3334 13:1 15:-0.0666 16:-0.0392 17:-0.5 18:0.091 19:-1 22:1 24:0.3334 
0.6173037407286488 0:-0.5 2:-0.3334 3:1 4:-1 6:1 7:-0.4286 8:-0.1112 10:-0.25 11:0.4 12:0.3334 13:0.1428 15:0.25 16:0.3334 17:0.2 18:-0.12 19:0.3334 22:-1 24:-0.5 
2 0:0.1666 3:-0.125 4:-0.2 5:-0.091 6:0.4546 8:0.091 10:0.1764 11:-0.3 12:0.4 13:0.2 15:-0.077 18:0.1666 21:0.1666 22:0.3334 24:-0.5294 
1.1976638412383287 0:-0.1428 2:-0.1578 3:-0.0588 4:0.2308 5:0.2 6:-0.2222 10:0.1666 11:-0.2858 12:-0.2 13:0.1428 16:1 17:0.3334 18:0.077 22:-1 24:0.3334 
0.81569662117191033 0:0.5 2:1 3:-0.3334 4:0.3334 5:-1 6:1 7:-1 10:-0.5 11:-0.5 12:-1 13:-1 15:0.25 16:-1 17:-0.3846 19:0.4 21:-0.3334 22:-1 24:0.3334 
0.91122936612151073 2:-0.25 3:1 4:-0.3334 6:-0.1112 7:-1 8:-0.25 10:-1 11:-0.125 12:0.5 13:1 15:-0.0698 16:0.0968 17:-0.3334 18:0.1578 19:-0.25 21:0.0666 24:1 
0.37860747043042453 0:-0.6 3:0.3334 4:0.077 5:-0.5 6:-0.4 8:-0.2 10:0.5556 11:0.4 13:0.4286 15:-0.2 16:0.3334 17:-0.25 18:0.25 21:-0.25 22:1 24:-0.2 
1.4680703900565852 0:-0.1428 3:-0.5 4:-0.2 5:0.3334 6:0.1428 7:0.5 8:-0.6 10:-0.5 11:0.1112 13:0.2728 15:0.4546 16:-0.2 17:0.6666 18:0.5 19:-0.5 21:-0.3334 22:0.3334 24:-0.1428 
0.11916994371434526 2:-1 3:-0.4286 4:0.125 6:-0.125 7:-0.1428 10:-0.1764 12:1 13:0.6 15:0.1112 17:-1 18:-0.1428 19:0.3334 21:-0.1428 22:-1 24:0.3334 
0.66804738329991376 0:0.033 2:-1 4:0.1428 5:-0.091 6:-0.2 7:1 8:0.5 10:0.2142 11:-0.2858 12:0.3334 15:-0.25 16:-0.4286 17:-1 18:-0.2308 19:0.3076 21:-0.0834 22:-1 24:-0.1428 
1.4907546621692889 0:0.3334 2:1 3:-0.0588 4:-0.0588 5:-0.0666 6:-0.0434 7:-0.75 8:0.0434 10:-0.1304 11:0.2858 12:0.2 13:0.1112 15:0.2942 16:-0.6 17:0.25 18:0.2 19:-0.1538 21:-0.36 22:1 24:0.091 
0.84662023337110115 0:0.5 2:-1 3:-0.3334 4:-1 5:1 6:1 7:-1 8:-1 10:0.3334 11:1 12:-1 13:-1 15:-1 16:-1 17:-1 18:-1 19:0.3334 21:-1 22:-1 24:-1 
0.65461246420055652 0:-0.3334 2:-0.3334 3:0.3334 4:-0.5556 6:0.5 7:0.2 8:-0.1428 10:0.077 11:-0.25 12:1 15:-0.3334 16:0.2 17:0.3334 18:-0.2728 19:0.2 21:0.2728 22:-1 
0.041320847356905721 0:-0.4 2:0.3334 3:0.5 4:-0.6 5:1 6:0.1112 7:-1 8:0.1666 11:-0.1428 12:1 18:0.3334 19:0.4286 21:-0.2308 22:-1 24:-1 
0.68382572222901228 0:0.077 2:-1 4:0.1764 5:0.3334 6:0.125 7:-1 8:-0.1666 10:-0.6842 11:0.3334 12:0.3334 13:0.3334 15:0.3334 16:-1 17:-1 18:0.1428 19:0.4546 21:-0.1666 22:-1 24:-0.3334 
2 0:0.1034 2:0.3334 4:0.1538 5:-0.25 6:0.3684 7:-0.1428 8:-0.1 10:-0.2 11:0.027 12:0.3334 13:-0.3334 15:-0.1578 16:-0.125 17:0.1 18:0.125 19:0.1666 21:-0.3 22:-1 24:-0.1428 
0.069609451943054304 2:1 3:0.4286 4:-0.7778 8:0.3334 10:0.3334 12:0.2 13:-1 16:-0.1428 17:-0.3334 19:0.2 22:1 24:-0.6 
0.51413770546724935 0:0.2 3:0.077 4:-0.1112 5:0.077 6:0.7142 7:1 8:0.0666 10:-0.091 11:-0.1112 12:-1 13:-0.3334 15:0.5 16:-1 17:-0.1112 18:-0.2 19:0.5 22:1 24:0.25 
0.47397817635571049 0:0.1764 2:0.5 3:0.2728 4:-0.1428 5:0.091 8:-0.3334 10:-0.2308 11:-0.7142 12:1 13:-1 15:1 16:1 17:-1 18:-1 19:0.6 21:0.3334 22:-1 24:-1 
0.34623689452106338 0:-0.1428 2:0.5 3:0.2 4:0.7142 5:-0.2 6:0.2 7:0.2 8:0.5 10:0.3334 11:-0.2 12:-0.3334 13:-1 15:-0.375 16:-0.2 17:0.6 18:-0.1428 19:0.6 21:-0.25 22:-1 24:1 
0.08664189288810395 0:-0.1428 2:0.5 3:0.2 4:0.5 5:-0.2 6:0.5 8:0.5 10:0.3334 11:-0.091 12:-0.3334 13:-1 15:-0.375 16:-0.1666 17:0.3334 18:-0.1428 19:0.6 21:-0.4286 22:-1 24:1 
0.25336393791478484 0:-0.1428 3:-1 4:0.2 5:0.3334 6:0.5 7:-0.2 8:0.5 10:0.1112 11:0.3334 15:-0.5 16:0.0434 17:0.3334 18:0.1428 21:-0.7142 22:-1 24:1 
0.75811628372727036 0:0.2 2:1 3:0.3334 4:-0.7778 5:0.3334 7:-0.3334 8:0.1666 10:0.3334 11:0.1112 12:0.4286 13:-0.5 19:-0.1428 21:-0.25 22:1 24:-0.6 
0.18721968617192827 0:-0.3334 3:0.2 4:0.2728 5:-0.4286 6:-0.4 10:0.6 11:0.4 12:-0.3334 13:0.25 15:-0.4286 17:-0.4286 18:0.3334 21:-0.1428 22:1 24:-0.5 
2 0:0.1666 2:-0.0666 3:0.2308 4:-0.5 6:-0.36 7:0.2 8:0.3334 10:0.25 11:-0.2308 13:-0.0666 15:-0.2 16:0.7778 17:-0.6 18:0.1 19:-0.1666 21:-0.2 22:0.3334 24:0.5 
1.284518122217021 0:0.015 2:1 3:-0.037 4:-0.015 5:-0.3334 6:0.1428 7:-0.2 8:-0.1428 11:0.0358 12:-0.3334 13:0.1764 15:1 16:0.1052 17:0.0434 18:-0.1578 19:0.2 21:-0.1112 22:-1 24:-0.2 
0.4394315074001689 0:0.091 2:-1 3:-0.3334 4:0.375 5:0.2 6:0.1764 7:-1 8:-0.1666 10:-0.6666 11:0.4 12:1 13:0.3334 15:0.3334 16:-1 17:-1 19:0.3846 21:-0.3334 22:-1 24:-0.1428 
0.9311695757010402 0:-0.25 3:0.0526 4:-0.5294 5:0.0666 6:0.091 7:0.2 8:0.2858 10:-0.1428 11:-0.125 12:1 13:-0.1428 15:0.2 18:0.3334 19:0.1112 21:0.1428 24:-0.1428 
2 0:0.1666 2:-0.4286 3:-0.3044 5:-0.091 6:0.1428 7:-0.1666 8:-0.0526 10:0.2858 11:0.1578 12:-0.1112 13:-0.1516 15:-0.1666 16:0.1112 17:0.077 19:0.1666 21:0.12 22:0.7142 24:-0.6364 
2 0:-0.0526 2:0.3334 3:-0.2272 4:0.0344 5:-0.1428 6:-0.0526 8:0.0454 10:-0.102 11:-0.0476 12:0.3334 13:0.1334 15:0.3846 16:-0.1 17:-0.2258 18:-0.1052 19:0.0416 21:0.3684 22:1 24:0.091 
2 0:0.0666 2:0.5 3:0.1428 4:-0.4 5:0.1428 7:-1 8:0.2308 10:0.125 11:0.0666 12:1 13:-0.8 15:0.2 16:0.4 17:0.1428 18:-0.25 19:0.077 21:-0.0286 
2 0:0.3846 2:0.1764 3:-0.3334 4:-0.25 5:0.1428 6:-0.1428 7:0.3334 8:0.2858 10:-0.3334 11:-0.091 13:-0.2174 15:0.4286 16:0.077 17:-0.5 18:0.0286 19:-0.0588 21:0.1764 22:0.5 24:-0.5714 
2 0:-0.0244 2:0.3334 3:-0.1428 4:0.5 5:0.3846 6:-0.1892 8:0.1428 10:0.1428 11:-0.5 13:0.4286 15:-0.1538 16:0.3334 17:0.0434 18:0.1154 21:-0.0344 22:0.2728 24:-0.091 
2 0:-0.3334 2:-0.25 3:0.077 4:0.5 5:0.2858 6:-0.0526 7:-1 8:0.3334 10:-0.3334 11:-0.0434 12:0.3334 13:-0.4 15:0.2728 16:0.5 17:0.3334 18:0.037 21:-0.3334 22:0.3334 24:0.1428 
0.85881398106926954 4:0.1428 5:-0.2728 6:-0.25 7:-0.2 8:0.1428 10:-0.25 11:-1 12:-1 13:0.4546 15:-0.1428 18:0.25 19:0.6 21:-1 22:-1 24:1 
2 3:0.28 4:0.1764 5:-0.1764 6:-0.2414 7:-0.2 8:-0.1428 10:0.1428 13:0.1666 15:-0.5556 16:0.5556 17:0.25 18:-0.1334 19:0.12 21:-0.0588 
0.33006171181424532 0:-0.2666 2:-0.125 3:-0.3334 4:0.5 5:0.3334 6:-0.1 7:-1 8:-0.1428 10:0.2 11:0.2308 12:1 13:0.3334 15:0.1112 17:0.6 18:-0.0666 19:-0.2222 21:0.1428 22:0.3334 24:0.2 
0.55890637425454259 0:1 4:0.2728 6:-0.1428 7:1 8:-0.5 11:0.1428 12:0.25 13:-0.2 15:-0.5 16:-0.1 17:-0.125 21:0.5 22:-1 
2 0:-0.3846 2:0.75 3:0.4286 4:0.1666 6:0.238 7:-0.1428 8:0.0666 10:-0.238 11:-0.1428 12:-0.2 13:-0.125 15:-0.4 16:-0.077 17:0.2 19:-0.2 21:0.1112 24:0.2728 
0.71178194373888881 0:-0.091 2:0.6 4:0.3846 5:-0.5 6:-0.3334 7:0.1428 8:0.75 10:-0.1304 11:-0.3334 12:1 13:-0.1 15:-0.25 16:-0.3846 17:0.5 18:-0.077 19:-0.1666 21:0.0588 24:-0.091 
2 0:0.1724 3:0.3334 4:-0.3334 5:0.0476 6:0.2728 7:0.4 8:-0.0476 10:-0.1 11:-0.4286 12:0.2 13:-0.2174 15:-0.0666 16:-0.1578 18:0.2308 21:-0.1428 22:-0.2 24:0.0666 
1.0837561454979965 0:-0.3334 2:-0.2 3:0.25 4:-0.3334 5:-0.5 6:-0.375 7:0.3334 8:-0.3334 10:0.5 11:0.125 13:0.3334 15:0.2 16:0.7778 17:-0.2 18:-0.1724 21:0.2 22:-0.2 
0.24377024808921249 0:0.2308 2:1 4:-0.4 5:-0.5 6:0.0526 8:0.2 10:-0.1112 11:-0.3334 12:0.7778 13:-1 15:-0.3334 18:-1 19:0.6666 21:-0.4286 22:1 24:-0.5 
0.90002844208203325 0:0.3334 2:-1 3:-0.5 4:-0.3334 5:0.6666 6:0.25 7:-1 8:1 10:-0.2728 11:0.3334 13:0.3334 15:-0.4286 16:1 17:-0.5 18:-0.1428 19:0.3334 21:-0.6 22:1 24:1 
0.74132338173912138 0:0.1112 3:-0.4286 4:-0.1428 5:0.3334 6:0.2 7:-1 8:0.091 10:0.1112 15:-0.5 16:-0.5 17:-1 19:0.2 21:0.3334 
2 0:-0.0344 2:0.4 3:0.0666 5:0.4 7:0.2 8:-0.091 10:-0.1428 11:-0.1 12:0.3334 13:0.2 15:-0.25 16:0.091 17:-0.2728 19:0.1666 21:-0.3044 22:-0.2 24:0.2728 
2 0:-0.125 3:0.5 4:0.7142 7:-1 10:-0.5 12:0.3334 15:0.0666 16:0.1112 17:-0.25 18:-0.2 19:-0.3334 21:0.3334 22:-0.3334 
0.37884431990974904 0:0.1666 2:0.3334 3:-0.1818 4:-0.75 5:0.6 6:-0.04 7:0.5 8:0.1538 10:-0.0526 11:-0.0476 12:-0.4286 13:0.8 15:-0.4286 16:-0.6 17:0.25 18:0.1428 19:-0.0526 21:0.1 22:0.2 
1.2702538213883587 0:0.1764 2:0.6 3:-0.0304 5:-0.3334 6:-0.122 7:1 8:-0.5556 10:-0.1304 11:0.4 12:0.2 13:-0.077 15:0.4286 16:0.5 17:-0.5 19:0.2 21:0.1666 22:-1 24:-0.3334 
2 0:-0.25 2:0.5 3:0.0666 4:-0.1666 5:-0.5294 6:-0.0588 7:0.4 8:-0.1034 10:0.1578 11:-0.0344 12:-0.1428 13:0.1304 15:0.3334 16:-0.3334 17:-0.3334 18:0.1112 19:-0.0666 21:0.2308 22:-0.1112 24:0.2858 
2 0:0.0624 2:-1 3:0.1 4:-0.077 5:-0.1428 6:0.0666 7:0.6666 10:0.1818 12:0.5 13:0.1818 16:0.1428 17:-0.2858 18:-0.421 19:0.125 21:-0.1112 22:0.2 24:0.1428 
0.052278458283248674 0:-0.1666 4:-1 5:0.2308 6:0.1818 7:1 10:-0.25 11:-0.25 12:-0.3334 13:-0.25 15:-0.1 16:0.4 17:-0.2 18:-0.3334 19:0.4166 21:0.4 24:0.25 
1.5806859222264364 0:0.1112 2:1 6:0.0476 7:0.3334 8:0.3334 10:-0.2 12:-0.2 13:-0.2632 15:-0.2 16:-0.2 17:-0.7142 18:0.125 19:-0.2174 21:0.4286 22:-1 24:-0.2 
2 2:-0.3334 3:0.0304 4:-0.1304 5:0.1304 6:0.1112 7:-0.12 8:0.0588 10:0.4546 11:-0.1334 12:-0.1112 13:-0.15 15:0.3636 16:-0.091 17:0.1334 18:-0.12 19:0.1112 21:0.0344 22:-0.1666 24:-0.36 
0.58569512422864867 0:0.1612 3:-0.2592 4:0.375 5:-0.3334 6:0.0256 7:0.1112 8:-0.3124 10:-0.25 11:-0.2 12:0.5 15:-0.0588 16:0.5384 17:-0.3684 18:0.1666 19:0.2632 21:0.2 22:1 24:-0.6 
2 0:0.1666 2:0.5 3:0.1724 5:0.2 6:-0.027 7:-0.077 8:-0.1428 10:-0.1112 11:-0.3076 12:-0.1666 13:0.1304 15:0.0588 17:0.1112 18:-0.2632 19:0.2308 21:-0.2414 22:0.4 24:-0.3334 
2 0:0.2142 2:0.5 3:-0.1836 4:0.0256 5:-0.0232 6:-0.1876 7:0.0556 8:0.04 10:0.0212 11:-0.122 12:0.2728 13:-0.04 15:0.0588 16:0.1112 17:-0.1176 18:0.1334 19:-0.25 21:0.3658 24:-0.091 
1.0822513675480554 0:0.1304 3:0.1666 4:0.2 5:-0.5384 6:-0.0434 10:0.5556 11:0.4286 12:0.6 13:-0.1428 15:0.238 17:0.3334 18:0.2 19:-0.6522 21:-0.2 22:0.3334 24:-0.25 
0.55691362784410203 0:0.0588 2:-1 3:0.0666 4:-0.1864 6:0.2 7:-0.3334 8:-0.077 10:-0.037 11:-0.1538 12:0.2 13:0.1112 15:-1 16:0.3684 17:-0.0434 18:0.1428 21:0.3334 22:-1 
1.1939074799152325 0:0.3334 2:-1 3:-0.4 5:-0.5 7:-0.7142 8:0.2174 10:0.2308 12:0.6 13:-0.4286 15:-0.3334 16:-0.7142 18:0.1428 19:0.5556 22:-1 24:0.5 
2 0:-0.0188 3:0.1698 4:0.0344 5:-0.2106 6:-0.0724 7:0.1578 8:-0.081 10:0.0566 11:-0.1064 12:0.5 13:0.2106 15:0.05 16:0.1764 17:0.3076 18:-0.0304 19:-0.3142 21:0.0384 22:-0.0434 24:-0.2 
0.8576124226476004 0:-0.2308 2:-0.1112 4:-0.3334 5:-0.3334 6:-1 7:1 8:-0.5 10:0.4546 11:1 12:1 13:0.3334 16:-0.3334 18:-0.3334 21:0.3334 22:1 24:-0.2 
0.90594303741576743 0:0.0434 3:0.6666 4:0.077 5:-0.3334 6:-0.3334 7:1 8:-1 10:0.3334 11:-0.1428 12:0.4286 13:-1 15:0.1428 16:1 18:-0.1428 19:0.4286 21:-0.3334 22:-1 24:-1 
1.4247274651024735 0:-0.077 2:-0.6666 3:0.0322 4:-0.0834 5:0.2 6:-0.2 7:-0.3334 8:-0.12 10:-0.2 11:0.3334 13:0.037 15:0.3334 16:0.3334 17:-0.1034 18:-0.0384 19:0.0666 21:-0.1708 22:-0.2 
0.39946145353540125 0:-0.2728 3:0.25 4:0.1428 6:0.2 8:-0.1112 10:-0.077 11:-0.3334 12:0.3334 13:1 15:-0.5 16:0.3334 17:-1 18:-1 19:0.1428 22:-1 24:1 
1.561923258425143 0:-0.1876 2:-0.6 3:-0.0666 4:-0.2076 5:0.2666 6:0.1176 7:0.1428 8:0.0476 11:-0.0714 12:0.3334 13:0.091 15:-0.25 17:0.091 18:-0.125 19:0.75 21:0.1428 22:1 24:-0.1112 
1.7947871107710907 0:-0.077 3:-0.3334 4:-0.125 6:0.1428 7:0.5 8:0.5 10:-0.2 12:-0.3334 15:-0.1428 16:1 17:-0.3334 19:0.2 21:-0.3334 22:-1 24:0.1428 
1.0964359246644428 0:0.0588 2:1 3:1 4:0.7142 5:-0.2 6:-0.2 7:-0.6 8:0.2728 10:0.1428 11:-0.2 12:1 13:1 15:0.2728 16:0.25 19:-0.25 21:-0.1666 22:-1 24:-0.3334 
0.50078615468799048 0:1 2:-1 4:-0.5 5:-1 6:-0.3334 7:-1 8:1 10:-1 11:-1 12:-1 13:-1 15:-1 16:-1 17:-1 18:-0.3334 19:0.5 22:1 24:1 
0.8813419322053303 0:-1 2:-1 3:-1 4:1 6:1 7:-1 8:1 10:-1 11:-1 12:-1 13:-1 16:-1 17:-1 18:-1 19:-1 22:-1 24:-1 
0.27240044779233152 2:-1 3:-0.091 4:0.125 5:-0.5714 8:-0.1818 10:0.7142 11:0.2122 12:-1 13:0.091 16:-0.2728 17:0.2728 19:-0.4286 21:0.6364 22:-1 24:-0.1428 
0.85092072304816524 0:0.3334 2:-0.25 3:-1 4:-1 5:-1 6:0.25 7:-1 8:-0.6 10:0.5 11:-0.2 12:1 13:-0.1112 15:0.1112 16:-1 17:0.5 19:-0.2 22:-1 
0.84453920346764721 0:-1 2:-1 3:1 4:-0.5 5:-1 6:-0.3334 7:-1 8:1 10:-1 11:-1 12:-1 13:-1 15:-1 16:-1 17:-1 18:1 19:0.3334 22:1 24:1 
0.66162812319251563 0:0.5 2:-1 3:0.6666 4:0.091 5:-0.1112 6:-0.4 7:-1 8:-1 10:0.0588 11:-0.7142 12:1 13:0.5 16:-0.5 17:-0.6666 18:0.2 21:0.1764 22:-1 
1.0775838278548384 0:0.1666 2:-0.75 3:-0.4286 4:-0.2 5:0.3334 6:-0.0588 7:0.4286 8:-0.1666 10:0.3044 11:0.1666 12:0.5 13:-0.0588 15:0.25 16:0.077 17:-0.5 18:0.2 19:0.1112 24:-0.4546 
0.84674384464022256 0:0.3334 2:-1 4:0.5 5:-0.3334 6:-0.3334 7:-1 8:1 10:-1 11:1 12:-1 13:-1 15:-0.3334 16:-1 17:1 18:-1 19:-0.3334 21:-0.3334 22:-1 24:-0.3334 
0.22215729800244796 0:-0.1724 2:0.6666 3:0.0834 5:0.0322 6:0.2 7:0.6666 8:-0.1304 10:-0.2592 11:0.353 12:0.3334 13:0.2222 15:-0.2 16:-0.2592 17:0.1112 18:0.0304 21:-0.353 22:-0.6 
1.0849407374176185 0:0.1112 3:-0.3334 5:0.5 6:-0.3846 7:1 10:-0.2 11:-0.3334 12:0.3334 15:0.2 16:1 18:-0.077 19:0.1666 21:0.4286 22:1 24:-0.2 
2 3:-0.4166 4:0.2858 5:0.1112 6:-0.0732 7:-0.0666 8:0.1764 10:0.1578 11:0.122 12:0.6 13:0.1516 15:-0.4736 16:-0.0222 17:0.0304 18:0.1628 19:-0.1428 21:-0.1176 24:-0.0666 
1.0709300141471561 0:0.091 2:0.6 3:-0.1538 4:0.2222 5:-0.1112 6:0.0188 8:-0.4286 10:-0.1304 11:0.3 12:0.2308 13:-0.1578 15:-0.2308 16:0.4 17:0.0666 18:-0.081 22:-0.5 24:0.2308 
0.88777849481366888 0:0.1538 2:0.25 4:-1 5:-1 6:0.6 7:-1 8:-0.6666 10:1 11:0.1428 12:1 13:-0.4286 17:-0.1428 18:0.0666 19:-0.5 21:-0.2 22:-1 24:-1 
0.62988261648954535 0:-0.4782 2:-1 3:0.8 4:0.1666 6:-0.4166 7:0.5 8:0.7778 10:0.1428 11:0.1428 12:0.3334 13:-0.3334 15:-0.091 17:-1 18:0.091 24:-0.1112 
0.86235097593297694 0:0.3334 3:-1 5:-1 6:-0.2 7:0.3334 8:-0.3334 11:-0.4286 12:-1 15:0.5 16:-0.125 17:-0.3334 18:-0.5 21:0.7142 22:-1 24:-1 
0.84677133137121652 3:-1 4:1 6:1 8:1 10:0.3334 12:-1 13:-1 15:-0.5 16:-0.1428 17:0.3334 18:-0.3334 19:-1 21:-1 22:-1 24:-1 
0.7486478715126732 0:-0.3334 2:-1 3:-0.3334 4:-0.2308 5:-0.5 6:-0.2728 7:-1 8:0.3334 10:0.4666 11:0.2728 13:0.2 16:0.3334 17:0.3334 18:0.2728 21:0.2 22:-1 24:-0.3334 
2 0:-0.3334 2:0.5 3:-0.0566 4:0.125 5:0.2174 6:-0.0508 7:0.3334 8:0.12 10:0.0322 11:-0.0834 12:0.2 13:0.2414 15:0.2 16:-0.0834 17:-0.0344 18:-0.1724 19:-0.1282 21:-0.0588 22:1 24:0.1428 
2 0:0.0286 2:0.1666 3:0.0344 4:0.2122 5:0.2 6:-0.1176 7:0.077 8:-0.0834 10:-0.6842 11:0.0588 12:0.1112 13:-0.5 16:0.25 17:-0.0476 18:-0.0434 19:0.2122 21:0.0556 24:-0.1578 
2 0:-0.3 2:-0.077 3:-0.1112 4:-0.4546 5:0.1112 6:0.3104 7:-0.25 8:0.25 10:-0.2728 11:0.1724 12:0.4286 13:-0.091 15:0.2728 17:0.0476 18:-0.4444 19:0.0666 21:0.1818 22:-0.4286 24:-0.2 
1.6231751897453441 0:0.0344 2:-0.7778 3:0.1 4:0.125 5:-0.5 6:-0.077 7:0.3334 8:0.0666 10:0.2 11:-0.1428 12:-0.2 15:0.2222 17:0.2 18:0.0588 21:0.1112 22:-0.3334 24:-0.25 
0.18459240936952181 0:0.2632 3:0.1666 5:0.2 6:0.1112 7:1 8:-0.2 10:-0.1666 11:-0.5 13:-1 15:-1 16:1 17:-1 18:-0.2 21:-0.5 22:-1 24:-1 
0.23197853408741503 2:-1 3:-0.7142 4:0.2858 5:-0.2 6:-0.2 8:-0.0588 10:0.25 11:0.2 12:1 13:0.2 16:0.3334 18:-0.077 19:0.6 21:-0.2 22:-1 24:-0.4546 
2 0:0.0476 3:-0.4166 4:0.0556 5:0.25 6:-0.091 7:-0.6666 8:0.1428 10:-0.125 11:0.0344 13:0.1428 15:0.04 16:0.3334 18:0.087 19:-0.0624 21:0.0304 24:-0.1112 
2 2:-0.3334 3:-0.1538 4:0.087 5:-0.1578 6:0.0526 7:0.2728 8:0.091 10:0.25 12:1 13:0.0304 15:0.1764 16:0.0188 17:-0.1476 18:-0.2 19:0.2222 21:0.091 22:-0.3334 24:0.2 
0.98740381898201246 0:-0.3334 3:0.3334 4:-0.2 5:-0.3334 6:-0.1034 7:0.1112 8:-0.3334 11:0.091 12:1 13:0.4286 15:0.25 16:-0.3334 17:-0.5 19:0.2858 21:-0.2308 22:-1 24:1 
0.35924194322098596 0:0.1666 2:-1 3:-0.5556 4:0.2 5:-0.2 6:-0.2 7:0.1428 8:-0.0666 10:0.375 11:0.2 13:0.5 15:0.1428 17:-1 18:-0.4546 19:0.5556 22:-1 24:-0.4546 
0.84504699296343033 0:1 2:-1 3:-1 4:-0.2 5:1 6:1 7:-0.3334 8:1 10:-0.3334 11:0.4286 12:1 13:-1 15:-1 16:-1 17:-1 18:0.3334 21:-1 22:1 24:-1 
2 0:0.12 2:-0.3334 3:0.0968 4:-0.0476 5:0.0322 6:0.0624 7:-0.2728 8:0.1764 10:-0.1666 11:-0.0714 13:-0.3044 15:0.125 16:0.5 17:-0.1764 18:0.1764 19:-0.4444 21:0.0968 22:0.3334 24:-0.1112 
0.062321907635256378 0:0.1666 2:-1 3:-0.5556 4:0.0666 5:-0.4286 6:-0.3334 7:-0.3334 8:-0.2858 10:0.375 11:0.3334 12:1 13:0.6666 15:-0.5 16:1 18:-0.1428 19:0.5 21:0.2308 22:-1 24:-0.3334 
2 0:0.0598 2:-0.0556 3:0.0864 4:0.1176 5:-0.0196 6:-0.0344 7:-0.1914 8:-0.0196 10:0.129 11:-0.0206 12:0.0434 13:-0.079 15:-0.0682 16:0.0526 17:-0.0458 18:0.031 19:-0.099 22:-0.3334 24:-0.091 
1.0096863660009556 0:0.3334 2:0.2 3:0.3846 4:-0.027 6:-0.0286 7:-0.3334 8:-0.091 10:-0.091 11:-0.0968 12:-0.5556 13:0.04 15:0.2592 16:-0.1428 17:-0.012 18:0.027 19:0.125 21:0.0344 22:1 24:-0.3 
1.0400535529733763 0:-0.1428 2:-1 4:-0.2 5:-0.1428 6:0.1428 7:1 10:-0.6 12:0.3334 13:1 15:1 17:0.2 18:-0.2 19:0.2 21:-0.2 22:-1 24:-1 
0.11960772708305754 0:-0.0588 2:-1 3:-0.2942 5:-0.5556 6:0.3334 8:-0.1112 10:0.7142 11:0.0968 12:-1 13:0.091 15:-0.25 16:0.3334 18:0.3334 19:-0.1428 21:0.091 22:-1 24:-0.2 
0.83103638048682571 0:-0.1428 2:-1 3:0.1428 4:0.2728 5:0.1428 6:-0.1428 7:-1 8:-0.1428 10:0.3334 11:-0.2 12:0.3334 13:-1 15:-1 16:-1 17:-0.5 18:0.3334 21:0.3334 22:-1 24:-1 
0.17678001465080639 0:0.091 2:0.5 3:0.125 4:0.1 6:-0.1428 7:0.3334 8:0.1428 10:0.5384 11:-0.4 12:-0.1428 13:-0.5 16:0.3334 18:-0.2632 19:0.2 21:-0.1428 22:-1 24:1 
0.29231452340328695 2:1 3:-0.4286 4:-0.2 7:-0.5 8:0.2728 10:0.1428 11:0.1112 12:0.6 13:-1 15:-0.3334 16:0.1112 18:0.1428 19:0.6666 21:-0.5556 22:1 24:-0.5 
2 0:0.0434 2:-0.4286 3:0.1 4:-0.0434 5:-0.25 6:-0.027 7:-0.3334 10:0.2942 11:-0.1304 13:0.037 15:-0.1428 16:0.1428 17:-0.0666 18:0.1724 19:0.2142 21:-0.3846 22:-0.25 24:0.2728 
1.4063822371541848 0:0.0666 2:-1 6:-0.4546 7:-0.5 8:-0.3334 10:0.1 11:-0.2 12:0.3334 15:0.3334 21:0.3334 22:-0.3334 24:-0.25 
0.13508585182760349 2:1 3:0.3334 4:-0.5556 5:-0.2 6:-0.1764 7:-0.5 8:0.6 11:0.1112 12:0.3334 16:0.1428 18:-0.2 19:0.4286 21:-0.4 22:1 24:-0.5 
0.12056353883288799 0:0.2 3:-0.3334 4:-0.2728 5:0.4286 6:0.4 7:1 8:0.1428 10:-0.6 11:-0.2728 13:-0.25 15:0.4286 17:0.3334 19:-0.077 21:0.25 24:0.2 
0.47022437639512094 0:-0.3334 3:0.2 5:-0.5 6:-0.1034 7:0.1112 8:-0.25 10:-0.2 11:0.4 12:1 13:0.4286 15:0.1428 16:-0.3334 17:-0.5 19:0.2858 21:-0.2858 22:-1 24:1 
0.84498498409370304 0:-0.3334 2:-1 3:1 4:1 5:-1 7:-1 8:-0.3334 10:-1 11:-1 12:1 13:0.3334 16:-1 17:-0.3334 18:1 19:1 21:-1 22:-1 24:-1 
1.6667820861480942 0:0.2174 2:-0.25 3:0.5384 4:-0.2308 5:-0.1428 6:0.1764 7:0.5 8:-0.0588 10:0.5 12:-0.6 13:-0.3684 15:-0.1112 16:0.25 18:0.1666 19:-0.7778 22:0.6 24:-0.2222 
2 0:0.0858 2:0.2 3:0.0526 4:-0.3044 5:0.1112 6:-0.0588 7:-0.75 8:-0.4 10:-0.12 11:0.3334 12:1 13:0.2308 15:-0.238 16:-0.1112 17:0.1428 18:0.1578 19:0.1724 21:0.3104 22:-0.5 24:-0.5 
1.7897032304126603 2:-1 3:-0.1282 4:0.12 5:-0.3636 6:0.1 7:0.4 8:0.0304 10:0.4666 11:0.0588 12:-0.1428 13:0.125 15:-0.3 17:0.125 18:0.2 19:-0.5384 21:0.1034 22:-1 24:-0.077 
2 0:-0.1352 2:-1 3:0.04 4:-0.1428 6:0.3124 7:-0.091 8:-0.12 10:0.0222 11:0.1 12:0.238 13:0.1708 16:-0.25 17:-0.0304 18:-0.1852 19:0.238 21:-0.1526 24:0.0886 
1.7346785452951605 0:0.2222 3:0.25 4:0.1428 6:-0.1 7:0.6 8:0.6 10:-0.091 11:-0.25 12:0.5 13:-0.2222 15:-0.4546 16:-0.077 17:0.6 18:0.3334 21:-0.4546 24:-0.5556 
2 0:0.2632 2:0.7142 3:-0.2 4:-0.1112 5:0.4 7:-0.5 8:-0.091 10:-0.1538 11:0.2 15:-0.25 18:-0.2308 19:0.1112 21:-0.1764 22:0.3334 24:0.3334 
0.77535721240183086 0:-0.3334 2:-1 4:-0.3334 5:-1 6:1 7:-1 8:1 10:-0.2 11:1 12:-1 13:-1 15:1 16:-1 17:-1 18:-0.3334 19:1 21:-0.3334 22:-1 24:1 
2 0:-0.1538 2:-0.5 3:-0.0526 4:0.0666 5:-0.4286 6:0.1818 7:-0.5 8:0.3846 10:0.04 11:-0.0666 12:0.3334 13:-0.5 15:-0.091 16:0.5 17:0.2308 18:0.0588 19:-0.1112 21:0.1 22:0.5 
0.33542794339764698 0:-0.0448 2:-1 3:-0.25 4:0.2728 5:0.3334 6:-0.0588 7:0.5 8:-0.5556 10:0.2858 11:0.3 12:0.3334 13:-0.5 16:-0.25 17:0.04 19:0.1666 21:-0.25 24:-0.25 
1.0489147058193684 0:0.2766 2:-1 4:-0.3334 5:0.25 6:0.1666 7:-1 8:0.3334 10:-0.0666 11:0.2 12:-1 13:0.3334 16:-1 17:0.3334 18:-0.25 19:-0.5 21:-0.2858 22:-1 
0.7792382623453934 0:-0.5 2:0.25 3:-0.2308 4:1 5:0.5 6:0.3334 7:-0.3334 8:0.75 10:-0.3334 11:0.3846 12:-1 13:-0.25 16:0.3334 17:-1 18:-0.4286 19:-0.3334 22:-1 24:-0.5 
0.36252125231298082 0:-0.3334 2:-1 3:0.3334 4:0.1428 5:-1 6:-0.3334 8:0.2 10:-0.25 11:-0.5 12:0.3334 13:-1 15:0.2 17:-0.5 19:0.6 21:0.2308 22:1 24:-1 
0.077186634010460817 0:0.125 2:-0.7142 3:0.4546 4:-0.4286 5:0.3334 6:0.1112 7:0.4286 10:0.3334 12:-1 13:-0.25 15:-0.25 16:0.1428 18:0.2 21:0.2308 22:0.5 24:-0.375 
0.58252507379956942 0:0.3334 2:0.1428 3:0.5 4:0.6666 5:-0.5 6:-0.6666 7:-1 8:0.25 11:-0.3846 13:-0.5556 15:-0.4286 16:0.3334 17:0.2 18:-0.2 19:0.4286 21:0.1666 22:-1 24:0.3334 
0.79069977238776312 0:-0.1666 2:-1 4:0.6364 5:0.0666 6:-0.6666 7:0.3334 8:-0.3334 10:-0.125 11:0.3334 12:0.3334 13:-0.2858 15:-0.077 16:-0.2 17:-0.2 19:0.5 21:-0.3334 22:-0.5 24:0.5 
2 0:0.0624 2:0.5 3:-0.2 5:-0.0434 6:-0.1112 7:0.2 8:0.2632 10:0.3334 11:-0.1516 12:-1 13:-0.077 15:0.0344 16:0.0454 17:0.0358 19:0.2 21:-0.037 22:-0.3334 24:-0.0526 
2 0:-0.3684 2:0.3334 3:-0.0286 4:-0.0624 5:0.1112 6:0.1352 7:0.2942 8:0.0344 10:-0.1666 11:-0.1282 12:0.4666 13:0.1034 15:-0.102 16:0.2728 17:0.2308 18:0.2414 19:0.1612 21:-0.2728 22:-0.2308 24:-0.3684 
2 0:0.077 2:-0.75 3:0.0526 4:0.2 5:-0.1764 6:-0.2858 7:0.4286 8:0.2728 11:0.25 12:0.6666 13:-0.375 15:0.0588 16:0.1428 17:-0.2308 18:0.1818 19:0.125 21:-0.25 22:0.25 24:0.091 
0.45904866622256635 0:-0.3846 2:0.5 3:0.3334 4:-0.2 5:0.375 6:0.2174 7:-0.6 8:-0.091 11:-0.6364 12:0.1428 13:0.3334 15:-0.0588 17:0.4 18:-0.4166 19:0.2308 21:0.1428 22:-0.3334 
0.86983485556974161 0:0.6 2:1 3:-0.5556 4:-0.6 5:1 6:-0.1112 8:0.3334 11:0.3334 12:-1 13:-1 15:-0.3334 16:-1 17:-1 18:0.5 19:0.2 21:-0.25 22:1 24:0.3334 
0.6406513021012803 0:0.077 3:-0.1428 4:-0.0666 5:0.1428 6:-0.0666 7:0.5 8:0.2308 10:-0.25 12:1 16:1 17:-0.3334 19:0.1428 21:-0.3846 22:-1 24:0.1428 
1.1521512534496567 3:0.1428 4:0.0666 5:-0.1428 6:0.0666 7:-0.3334 8:-0.2308 10:0.25 12:-1 16:-1 19:-0.3334 21:0.3846 22:-1 24:-0.1428 
2 0:-0.0434 2:1 3:0.238 4:-0.081 5:-0.0666 6:-0.0526 7:-0.5 8:-0.3846 10:0.1428 11:0.1064 13:-0.091 15:0.4546 16:0.0304 17:-0.0322 18:0.091 19:-0.2728 21:0.1034 22:-1 24:-0.1666 
1.2860284950025254 0:-0.0344 3:0.7142 4:-1 5:0.3334 6:-0.3488 8:0.7778 10:0.2 11:0.1764 12:-0.1112 13:-0.077 15:-0.2308 16:-0.2 18:0.3076 19:-0.2308 21:-0.4 22:0.3334 24:0.6666 
0.22787451660813707 0:0.4 2:-1 3:-0.5556 4:0.0666 5:-0.4286 6:-0.2308 7:-0.1428 8:-0.2 10:0.375 11:0.3334 12:1 13:0.6666 15:-0.5 16:1 17:-1 18:-0.2308 19:0.25 21:0.2308 22:-1 24:-0.4 
0.17263657147645092 0:-0.1852 3:0.077 4:-0.75 5:0.2728 6:0.3636 7:1 8:-0.1428 10:0.091 11:-0.4286 12:-0.5 13:0.2 15:-0.1 16:0.4546 17:-1 18:-0.3044 19:0.3334 21:0.2308 22:-0.3334 24:0.25 
0.82575141827155873 0:-0.1112 2:0.1112 4:1 5:1 6:-0.6 7:-1 8:0.25 10:-1 11:-0.3334 15:-0.0434 16:1 17:1 18:0.2632 19:-0.3334 21:-0.2 22:-1 24:1 
0.75292281568391362 0:-0.4286 3:-1 4:0.2222 5:0.2 6:0.2 7:-1 8:-0.2 10:0.3334 11:-0.077 12:1 13:1 16:-0.2728 17:-0.125 18:0.2728 19:-1 21:0.1112 22:-1 24:-0.2 
0.80571838942895879 0:-0.2 2:1 3:-0.1666 4:0.091 5:0.1428 6:-0.2728 7:1 8:0.2728 10:0.3846 12:1 13:-1 15:0.1112 16:1 17:-0.2 18:-0.3846 19:0.3334 21:-0.5384 22:0.5 24:0.4286 
