svm_type c_svc
kernel_type rbf
gamma 0.040000000000000001
nr_class 2
total_sv 435
rho -0.94539874886590314
label 0 1
nr_sv 218 217
SV
1 1:0 2:0.018900344 3:0.060137457 4:0.080756014 5:0.04467354 6:0.063573883 7:0.027491409 8:0.053264605 9:0 10:0.056701031 11:0.10309278 12:0.025773196 13:0.049828179 14:0 15:0.032646048 16:0.054982818 17:0.048109966 18:0.054982818 19:0.049828179 20:0 21:0.063573883 22:0.012027491 23:0 24:0.034364261 25:0 
1 1:0 2:0.0086956522 3:0.061956522 4:0.066304348 5:0.042391304 6:0.066304348 7:0.027173913 8:0.048913043 9:0 10:0.059782609 11:0.093478261 12:0.02173913 13:0.045652174 14:0 15:0.054347826 16:0.042391304 17:0.072826087 18:0.081521739 19:0.05 20:0 21:0.05326087 22:0.0086956522 23:0 24:0.025 25:0 
1 1:0 2:0.019900498 3:0.059701493 4:0.059701493 5:0.037313433 6:0.05721393 7:0.012437811 8:0.059701493 9:0 10:0.042288557 11:0.12189055 12:0.02238806 13:0.027363184 14:0 15:0.032338308 16:0.044776119 17:0.064676617 18:0.099502488 19:0.047263682 20:0 21:0.069651741 22:0.0049751244 23:0 24:0.019900498 25:0 
1 1:0 2:0.025477707 3:0.033970276 4:0.063694268 5:0.036093418 6:0.059447983 7:0.021231423 8:0.04670913 9:0 10:0.078556263 11:0.097664544 12:0.014861996 13:0.036093418 14:0 15:0.070063694 16:0.048832272 17:0.074309979 18:0.091295117 19:0.040339703 20:0 21:0.048832272 22:0.01910828 23:0 24:0.027600849 25:0 
1 1:0 2:0 3:0.25 4:0 5:0.125 6:0.125 7:0 8:0.25 9:0 10:0 11:0 12:0 13:0 14:0 15:0 16:0 17:0 18:0 19:0.125 20:0 21:0.125 22:0 23:0 24:0 25:0 
1 1:0 2:0.023364486 3:0.060747664 4:0.051401869 5:0.023364486 6:0.11682243 7:0.065420561 8:0.014018692 9:0 10:0.018691589 11:0.079439252 12:0.051401869 13:0.0093457944 14:0 15:0.070093458 16:0.070093458 17:0.065420561 18:0.051401869 19:0.03271028 20:0 21:0.060747664 22:0 23:0 24:0.023364486 25:0 
1 1:0 2:0.012295082 3:0.058548009 4:0.1235363 5:0.016393443 6:0.032201405 7:0.022248244 8:0.036885246 9:0 10:0.10655738 11:0.11007026 12:0.026932084 13:0.067330211 14:0 15:0.023419204 16:0.072014052 17:0.048009368 18:0.080210773 19:0.043325527 20:0 21:0.048009368 22:0.0023419204 23:0 24:0.017564403 25:0 
1 1:0 2:0.021136063 3:0.067371202 4:0.060766182 5:0.021136063 6:0.050198151 7:0.022457067 8:0.040951123 9:0 10:0.060766182 11:0.079260238 12:0.021136063 13:0.059445178 14:0 15:0.075297226 16:0.042272127 17:0.048877147 18:0.093791281 19:0.06340819 20:0 21:0.068692206 22:0.015852048 23:0 24:0.014531044 25:0 
1 1:0 2:0.012682552 3:0.038816295 4:0.064181399 5:0.01537279 6:0.077248271 7:0.026902383 8:0.038047656 9:0 10:0.048808609 11:0.086087625 12:0.021137586 13:0.04765565 14:0 15:0.07763259 16:0.04727133 17:0.040353574 18:0.10453497 19:0.071483474 20:0 21:0.063412759 22:0.0038431975 23:0 24:0.011529593 25:0 
1 1:0 2:0.027027027 3:0.049049049 4:0.069069069 5:0.045045045 6:0.059059059 7:0.02002002 8:0.057057057 9:0 10:0.053053053 11:0.093093093 12:0.023023023 13:0.051051051 14:0 15:0.06006006 16:0.04004004 17:0.042042042 18:0.081081081 19:0.065065065 20:0 21:0.071071071 22:0.007007007 23:0 24:0.022022022 25:0 
1 1:0 2:0.062068966 3:0.04137931 4:0.062068966 5:0.04137931 6:0.062068966 7:0.0068965517 8:0.055172414 9:0 10:0.062068966 11:0.062068966 12:0.034482759 13:0.020689655 14:0 15:0.068965517 16:0.075862069 17:0.04137931 18:0.055172414 19:0.055172414 20:0 21:0.055172414 22:0.0068965517 23:0 24:0.04137931 25:0 
1 1:0 2:0 3:0.083333333 4:0 5:0 6:0.25 7:0 8:0.16666667 9:0 10:0 11:0.083333333 12:0 13:0 14:0 15:0 16:0 17:0 18:0 19:0 20:0 21:0.16666667 22:0 23:0 24:0.083333333 25:0 
1 1:0 2:0.018394649 3:0.06187291 4:0.066889632 5:0.018394649 6:0.046822742 7:0.015050167 8:0.04180602 9:0 10:0.060200669 11:0.13210702 12:0.035117057 13:0.046822742 14:0 15:0.036789298 16:0.053511706 17:0.048494983 18:0.081939799 19:0.035117057 20:0 21:0.056856187 22:0.008361204 23:0 24:0.040133779 25:0 
1 1:0 2:0.011398964 3:0.055958549 4:0.092227979 5:0.049740933 6:0.059067358 7:0.022797927 8:0.065284974 9:0 10:0.07357513 11:0.077720207 12:0.016580311 13:0.049740933 14:0 15:0.038341969 16:0.025906736 17:0.046632124 18:0.063212435 19:0.055958549 20:0 21:0.064248705 22:0.01761658 23:0 24:0.03626943 25:0 
1 1:0 2:0.016064257 3:0.016064257 4:0.096385542 5:0.024096386 6:0.060240964 7:0.024096386 8:0.032128514 9:0 10:0.064257028 11:0.10843373 12:0.02811245 13:0.048192771 14:0 15:0.032128514 16:0.088353414 17:0.072289157 18:0.068273092 19:0.040160643 20:0 21:0.048192771 22:0.012048193 23:0 24:0.032128514 25:0 
1 1:0 2:0.075144509 3:0.01734104 4:0.069364162 5:0.034682081 6:0.098265896 7:0.040462428 8:0.028901734 9:0 10:0.034682081 11:0.092485549 12:0.011560694 13:0.01734104 14:0 15:0.069364162 16:0.040462428 17:0.052023121 18:0.057803468 19:0.040462428 20:0 21:0.080924855 22:0.011560694 23:0 24:0.01734104 25:0 
1 1:0 2:0.020576132 3:0.014403292 4:0.043209877 5:0.055555556 6:0.072016461 7:0.0061728395 8:0.11111111 9:0 10:0.037037037 11:0.11728395 12:0.022633745 13:0.030864198 14:0 15:0.055555556 16:0.024691358 17:0.028806584 18:0.072016461 19:0.057613169 20:0 21:0.082304527 22:0.016460905 23:0 24:0.049382716 25:0 
1 1:0 2:0.029239766 3:0.038986355 4:0.058479532 5:0.037037037 6:0.070175439 7:0.06042885 8:0.04288499 9:0 10:0.031189084 11:0.095516569 12:0.019493177 13:0.04288499 14:0 15:0.056530214 16:0.04288499 17:0.076023392 18:0.066276803 19:0.050682261 20:0 21:0.052631579 22:0.021442495 23:0 24:0.04288499 25:0 
1 1:0 2:0.02247191 3:0.039325843 4:0.078651685 5:0.039325843 6:0.056179775 7:0.033707865 8:0.08988764 9:0 10:0.050561798 11:0.095505618 12:0.039325843 13:0.050561798 14:0 15:0.0056179775 16:0.04494382 17:0.056179775 18:0.061797753 19:0.078651685 20:0 21:0.073033708 22:0.028089888 23:0 24:0.02247191 25:0 
1 1:0 2:0.0082987552 3:0.045643154 4:0.095435685 5:0.033195021 6:0.12448133 7:0.024896266 8:0.058091286 9:0 10:0.033195021 11:0.078838174 12:0.033195021 13:0.0041493776 14:0 15:0.045643154 16:0.012448133 17:0.070539419 18:0.062240664 19:0.029045643 20:0 21:0.082987552 22:0.0082987552 23:0 24:0.029045643 25:0 
1 1:0 2:0.020304569 3:0.065989848 4:0.091370558 5:0.020304569 6:0.060913706 7:0.025380711 8:0.010152284 9:0 10:0.065989848 11:0.050761421 12:0.015228426 13:0.050761421 14:0 15:0.10152284 16:0.055837563 17:0.086294416 18:0.091370558 19:0.045685279 20:0 21:0.045685279 22:0.010152284 23:0 24:0.015228426 25:0 
1 1:0 2:0.018544936 3:0.037089872 4:0.038516405 5:0.022824536 6:0.05278174 7:0.017118402 8:0.057061341 9:0 10:0.02425107 11:0.088445078 12:0.002853067 13:0.094151213 14:0 15:0.079885877 16:0.04850214 17:0.035663338 18:0.10699001 19:0.088445078 20:0 21:0.069900143 22:0.018544936 23:0 24:0.039942939 25:0 
1 1:0 2:0.021084337 3:0.039156627 4:0.048192771 5:0.051204819 6:0.09939759 7:0.018072289 8:0.060240964 9:0 10:0.030120482 11:0.12048193 12:0.018072289 13:0.027108434 14:0 15:0.054216867 16:0.063253012 17:0.045180723 18:0.081325301 19:0.036144578 20:0 21:0.057228916 22:0.03313253 23:0 24:0.030120482 25:0 
1 1:0 2:0.022494888 3:0.049079755 4:0.051124744 5:0.057259714 6:0.059304703 7:0.018404908 8:0.059304703 9:0 10:0.061349693 11:0.10838446 12:0.014314928 13:0.034764826 14:0 15:0.071574642 16:0.049079755 17:0.030674847 18:0.09202454 19:0.063394683 20:0 21:0.063394683 22:0.012269939 23:0 24:0.036809816 25:0 
1 1:0 2:0.01446281 3:0.037190083 4:0.039256198 5:0.049586777 6:0.08677686 7:0.026859504 8:0.039256198 9:0 10:0.04338843 11:0.092975207 12:0.02892562 13:0.018595041 14:0 15:0.099173554 16:0.082644628 17:0.041322314 18:0.07231405 19:0.059917355 20:0 21:0.055785124 22:0 23:0 24:0.024793388 25:0 
1 1:0 2:0.016949153 3:0.062146893 4:0.062146893 5:0.062146893 6:0.050847458 7:0.033898305 8:0.10734463 9:0 10:0.06779661 11:0.073446328 12:0.016949153 13:0.039548023 14:0 15:0.039548023 16:0.02259887 17:0.028248588 18:0.062146893 19:0.04519774 20:0 21:0.084745763 22:0.02259887 23:0 24:0.050847458 25:0 
1 1:0 2:0.019230769 3:0.067307692 4:0.081730769 5:0.038461538 6:0.072115385 7:0.014423077 8:0.033653846 9:0 10:0.086538462 11:0.052884615 12:0.019230769 13:0.019230769 14:0 15:0.043269231 16:0.048076923 17:0.038461538 18:0.0625 19:0.067307692 20:0 21:0.072115385 22:0.043269231 23:0 24:0.028846154 25:0 
1 1:0 2:0.010062893 3:0.086792453 4:0.06918239 5:0.038993711 6:0.071698113 7:0.023899371 8:0.071698113 9:0 10:0.049056604 11:0.064150943 12:0.013836478 13:0.051572327 14:0 15:0.065408805 16:0.032704403 17:0.046540881 18:0.056603774 19:0.06163522 20:0 21:0.074213836 22:0.0050314465 23:0 24:0.035220126 25:0 
1 1:0 2:0.020100503 3:0.036850921 4:0.055276382 5:0.036850921 6:0.08040201 7:0.015075377 8:0.025125628 9:0 10:0.060301508 11:0.1038526 12:0.020100503 13:0.038525963 14:0 15:0.11725293 16:0.065326633 17:0.041876047 18:0.088777219 19:0.051926298 20:0 21:0.050251256 22:0.010050251 23:0 24:0.02680067 25:0 
1 1:0 2:0.022727273 3:0.045454545 4:0.056818182 5:0.022727273 6:0.10227273 7:0.045454545 8:0.011363636 9:0 10:0.056818182 11:0.13636364 12:0.011363636 13:0.068181818 14:0 15:0.034090909 16:0.068181818 17:0.045454545 18:0.068181818 19:0.10227273 20:0 21:0.034090909 22:0.011363636 23:0 24:0.022727273 25:0 
1 1:0 2:0.0048780488 3:0.053658537 4:0.068292683 5:0.024390244 6:0.097560976 7:0.014634146 8:0.034146341 9:0 10:0.07804878 11:0.082926829 12:0.024390244 13:0.058536585 14:0 15:0.053658537 16:0.063414634 17:0.068292683 18:0.048780488 19:0.07804878 20:0 21:0.048780488 22:0 23:0 24:0 25:0 
1 1:0 2:0.0086956522 3:0.07826087 4:0.095652174 5:0.043478261 6:0.060869565 7:0.026086957 8:0.017391304 9:0 10:0.052173913 11:0.11304348 12:0.052173913 13:0.017391304 14:0 15:0.034782609 16:0.052173913 17:0.060869565 18:0.086956522 19:0.017391304 20:0 21:0.060869565 22:0.017391304 23:0 24:0.026086957 25:0 
1 1:0 2:0.023809524 3:0.14285714 4:0.095238095 5:0 6:0.095238095 7:0.023809524 8:0.071428571 9:0 10:0.095238095 11:0.11904762 12:0.047619048 13:0.071428571 14:0 15:0 16:0 17:0.047619048 18:0 19:0.023809524 20:0 21:0.095238095 22:0 23:0 24:0.071428571 25:0 
1 1:0 2:0.0039525692 3:0.063241107 4:0.083003953 5:0.04743083 6:0.023715415 7:0.019762846 8:0.059288538 9:0 10:0.071146245 11:0.098814229 12:0.035573123 13:0.031620553 14:0 15:0.015810277 16:0.063241107 17:0.075098814 18:0.063241107 19:0.10671937 20:0 21:0.043478261 22:0.011857708 23:0 24:0.015810277 25:0 
1 1:0 2:0.018583043 3:0.051103368 4:0.094076655 5:0.025551684 6:0.078977933 7:0.037166086 8:0.030197445 9:0 10:0.055749129 11:0.067363531 12:0.015098722 13:0.018583043 14:0 15:0.083623693 16:0.040650407 17:0.080139373 18:0.087108014 19:0.042973287 20:0 21:0.059233449 22:0.0092915215 23:0 24:0.027874564 25:0 
1 1:0 2:0.0026666667 3:0.088 4:0.074666667 5:0.021333333 6:0.096 7:0.0026666667 8:0.056 9:0 10:0.077333333 11:0.093333333 12:0.013333333 13:0.029333333 14:0 15:0.053333333 16:0.048 17:0.029333333 18:0.066666667 19:0.08 20:0 21:0.088 22:0 23:0 24:0.0053333333 25:0 
1 1:0 2:0.018469657 3:0.073878628 4:0.058047493 5:0.055408971 6:0.042216359 7:0.029023747 8:0.058047493 9:0 10:0.08707124 11:0.13456464 12:0.031662269 13:0.073878628 14:0 15:0.063324538 16:0.021108179 17:0.039577836 18:0.063324538 19:0.044854881 20:0 21:0.044854881 22:0.0026385224 23:0 24:0.023746702 25:0 
1 1:0 2:0.027088036 3:0.056433409 4:0.079006772 5:0.051918736 6:0.076749436 7:0.020316027 8:0.036117381 9:0 10:0.029345372 11:0.074492099 12:0.047404063 13:0.0496614 14:0 15:0.042889391 16:0.0496614 17:0.054176072 18:0.072234763 19:0.058690745 20:0 21:0.069977427 22:0.011286682 23:0 24:0.033860045 25:0 
1 1:0 2:0.011494253 3:0.10344828 4:0.045977011 5:0.030651341 6:0.11111111 7:0.011494253 8:0.030651341 9:0 10:0.053639847 11:0.0651341 12:0.011494253 13:0.034482759 14:0 15:0.072796935 16:0.034482759 17:0.061302682 18:0.061302682 19:0.076628352 20:0 21:0.057471264 22:0.011494253 23:0 24:0.022988506 25:0 
1 1:0 2:0.030959752 3:0.074303406 4:0.058823529 5:0.046439628 6:0.06501548 7:0.027863777 8:0.068111455 9:0 10:0.040247678 11:0.092879257 12:0.055727554 13:0.043343653 14:0 15:0.024767802 16:0.06501548 17:0.052631579 18:0.037151703 19:0.037151703 20:0 21:0.034055728 22:0.0061919505 23:0 24:0.058823529 25:0 
1 1:0 2:0 3:0.033333333 4:0.046666667 5:0.013333333 6:0.053333333 7:0.033333333 8:0.073333333 9:0 10:0.12666667 11:0.1 12:0.033333333 13:0.0066666667 14:0 15:0.06 16:0.02 17:0.086666667 18:0.086666667 19:0.053333333 20:0 21:0.053333333 22:0.013333333 23:0 24:0.033333333 25:0 
1 1:0 2:0.021802326 3:0.050872093 4:0.072674419 5:0.030523256 6:0.0625 7:0.020348837 8:0.050872093 9:0 10:0.074127907 11:0.12063953 12:0.01744186 13:0.040697674 14:0 15:0.050872093 16:0.046511628 17:0.058139535 18:0.091569767 19:0.055232558 20:0 21:0.047965116 22:0.010174419 23:0 24:0.011627907 25:0 
1 1:0 2:0.021390374 3:0.032085561 4:0.042780749 5:0.021390374 6:0.10695187 7:0.032085561 8:0.021390374 9:0 10:0.085561497 11:0.053475936 12:0.032085561 13:0.037433155 14:0 15:0.090909091 16:0.032085561 17:0.064171123 18:0.10160428 19:0.080213904 20:0 21:0.037433155 22:0 23:0 24:0.032085561 25:0 
1 1:0 2:0.016008538 3:0.055496265 4:0.081109925 5:0.029882604 6:0.064034152 7:0.023479189 8:0.026680896 9:0 10:0.058697972 11:0.099252935 12:0.013874066 13:0.035218783 14:0 15:0.078975454 16:0.03094984 17:0.073639274 18:0.086446105 19:0.044823906 20:0 21:0.054429029 22:0.011739594 23:0 24:0.028815368 25:0 
1 1:0 2:0.021621622 3:0.059459459 4:0.07027027 5:0.037837838 6:0.059459459 7:0.010810811 8:0.086486486 9:0 10:0.086486486 11:0.10810811 12:0.037837838 13:0.054054054 14:0 15:0.027027027 16:0.048648649 17:0.048648649 18:0.059459459 19:0.037837838 20:0 21:0.054054054 22:0.027027027 23:0 24:0.021621622 25:0 
1 1:0 2:0.0028901734 3:0.034682081 4:0.066473988 5:0.028901734 6:0.089595376 7:0.014450867 8:0.052023121 9:0 10:0.075144509 11:0.089595376 12:0.060693642 13:0.049132948 14:0 15:0.052023121 16:0.028901734 17:0.031791908 18:0.078034682 19:0.075144509 20:0 21:0.075144509 22:0.0028901734 23:0 24:0.026011561 25:0 
1 1:0 2:0.01607717 3:0.035369775 4:0.073954984 5:0.032154341 6:0.061093248 7:0.032154341 8:0.028938907 9:0 10:0.07073955 11:0.1221865 12:0.032154341 13:0.032154341 14:0 15:0.064308682 16:0.054662379 17:0.041800643 18:0.073954984 19:0.045016077 20:0 21:0.061093248 22:0.019292605 23:0 24:0.028938907 25:0 
1 1:0 2:0.0053799597 3:0.060524546 4:0.07599193 5:0.020174849 6:0.066577001 7:0.020847344 8:0.035642233 9:0 10:0.07061197 11:0.071284465 12:0.026227303 13:0.039677202 14:0 15:0.065904506 16:0.052454607 17:0.055144586 18:0.11768662 19:0.053127102 20:0 21:0.061197041 22:0.0040349697 23:0 24:0.020174849 25:0 
1 1:0 2:0.027186761 3:0.040189125 4:0.06855792 5:0.028368794 6:0.063829787 7:0.028368794 8:0.039007092 9:0 10:0.053191489 11:0.088652482 12:0.016548463 13:0.048463357 14:0 15:0.067375887 16:0.054373522 17:0.043735225 18:0.095744681 19:0.062647754 20:0 21:0.072104019 22:0.026004728 23:0 24:0.035460993 25:0 
1 1:0 2:0 3:0.02 4:0.04 5:0.013333333 6:0.1 7:0.013333333 8:0.046666667 9:0 10:0.16 11:0.1 12:0.0066666667 13:0.033333333 14:0 15:0.066666667 16:0.02 17:0.06 18:0.046666667 19:0.033333333 20:0 21:0.073333333 22:0 23:0 24:0.026666667 25:0 
0.92462815062643788 1:0 2:0.0051546392 3:0.036082474 4:0.082474227 5:0.041237113 6:0.087628866 7:0.030927835 8:0.041237113 9:0 10:0.077319588 11:0.10824742 12:0.020618557 13:0.046391753 14:0 15:0.036082474 16:0.030927835 17:0.12886598 18:0.041237113 19:0.025773196 20:0 21:0.067010309 22:0.0051546392 23:0 24:0.036082474 25:0 
1 1:0 2:0.050147493 3:0.044247788 4:0.029498525 5:0.04719764 6:0.12979351 7:0.01179941 8:0.02359882 9:0 10:0.020648968 11:0.05899705 12:0.005899705 13:0.041297935 14:0 15:0.088495575 16:0.038348083 17:0.056047198 18:0.064896755 19:0.064896755 20:0 21:0.038348083 22:0.02359882 23:0 24:0.032448378 25:0 
1 1:0 2:0.0045248869 3:0.058823529 4:0.029411765 5:0.052036199 6:0.10520362 7:0.021493213 8:0.03280543 9:0 10:0.021493213 11:0.095022624 12:0.019230769 13:0.037330317 14:0 15:0.066742081 16:0.018099548 17:0.07239819 18:0.062217195 19:0.064479638 20:0 21:0.085972851 22:0.016968326 23:0 24:0.041855204 25:0 
1 1:0 2:0.0058823529 3:0.047058824 4:0.091176471 5:0.032352941 6:0.094117647 7:0.023529412 8:0.038235294 9:0 10:0.067647059 11:0.12647059 12:0.017647059 13:0.035294118 14:0 15:0.035294118 16:0.064705882 17:0.05 18:0.058823529 19:0.067647059 20:0 21:0.041176471 22:0.0058823529 23:0 24:0.029411765 25:0 
1 1:0 2:0.021989529 3:0.067015707 4:0.11204188 5:0.031413613 6:0.069109948 7:0.018848168 8:0.030366492 9:0 10:0.090052356 11:0.080628272 12:0.014659686 13:0.023036649 14:0 15:0.070157068 16:0.051308901 17:0.069109948 18:0.079581152 19:0.045026178 20:0 21:0.045026178 22:0.0094240838 23:0 24:0.0073298429 25:0 
1 1:0 2:0.021943574 3:0.072100313 4:0.059561129 5:0.042319749 6:0.087774295 7:0.02507837 8:0.028213166 9:0 10:0.02507837 11:0.084639498 12:0.021943574 13:0.02507837 14:0 15:0.059561129 16:0.036050157 17:0.076802508 18:0.094043887 19:0.037617555 20:0 21:0.065830721 22:0.012539185 23:0 24:0.017241379 25:0 
1 1:0 2:0.022641509 3:0.071698113 4:0.079245283 5:0.047169811 6:0.052830189 7:0.032075472 8:0.056603774 9:0 10:0.079245283 11:0.088679245 12:0.026415094 13:0.032075472 14:0 15:0.035849057 16:0.028301887 17:0.026415094 18:0.079245283 19:0.058490566 20:0 21:0.075471698 22:0.0094339623 23:0 24:0.039622642 25:0 
1 1:0 2:0.016483516 3:0.087912088 4:0.12087912 5:0.038461538 6:0.054945055 7:0.0054945055 8:0.027472527 9:0 10:0.13736264 11:0.071428571 12:0.027472527 13:0.038461538 14:0 15:0.038461538 16:0.027472527 17:0.043956044 18:0.071428571 19:0.038461538 20:0 21:0.049450549 22:0.021978022 23:0 24:0.010989011 25:0 
1 1:0 2:0.026217228 3:0.052434457 4:0.078651685 5:0.018726592 6:0.052434457 7:0.018726592 8:0.048689139 9:0 10:0.06741573 11:0.04494382 12:0.033707865 13:0.048689139 14:0 15:0.08988764 16:0.033707865 17:0.056179775 18:0.078651685 19:0.033707865 20:0 21:0.048689139 22:0.04494382 23:0 24:0.041198502 25:0 
1 1:0 2:0.034816248 3:0.042553191 4:0.058027079 5:0.040618956 6:0.067698259 7:0.01934236 8:0.02901354 9:0 10:0.044487427 11:0.10058027 12:0.017408124 13:0.03868472 14:0 15:0.075435203 16:0.050290135 17:0.071566731 18:0.079303675 19:0.056092843 20:0 21:0.067698259 22:0.013539652 23:0 24:0.021276596 25:0 
1 1:0 2:0.0128 3:0.056 4:0.0496 5:0.0448 6:0.048 7:0.0336 8:0.0464 9:0 10:0.0656 11:0.1056 12:0.032 13:0.0304 14:0 15:0.056 16:0.0512 17:0.0496 18:0.0736 19:0.0496 20:0 21:0.0704 22:0.0112 23:0 24:0.0384 25:0 
1 1:0 2:0.013245033 3:0.079470199 4:0.039735099 5:0.039735099 6:0.039735099 7:0.013245033 8:0.059602649 9:0 10:0.039735099 11:0.066225166 12:0.026490066 13:0.072847682 14:0 15:0.092715232 16:0.046357616 17:0.066225166 18:0.072847682 19:0.059602649 20:0 21:0.046357616 22:0.026490066 23:0 24:0.033112583 25:0 
1 1:0 2:0.015873016 3:0.047619048 4:0.083333333 5:0.037698413 6:0.063492063 7:0.015873016 8:0.047619048 9:0 10:0.06547619 11:0.099206349 12:0.029761905 13:0.025793651 14:0 15:0.069444444 16:0.03968254 17:0.069444444 18:0.055555556 19:0.043650794 20:0 21:0.06547619 22:0.01984127 23:0 24:0.03968254 25:0 
1 1:0 2:0.054298643 3:0.057315234 4:0.07239819 5:0.02413273 6:0.066365008 7:0.022624434 8:0.022624434 9:0 10:0.043740573 11:0.084464555 12:0.016591252 13:0.033182504 14:0 15:0.073906486 16:0.055806938 17:0.066365008 18:0.092006033 19:0.055806938 20:0 21:0.061840121 22:0.0090497738 23:0 24:0.027149321 25:0 
1 1:0 2:0.023880597 3:0.10447761 4:0.074626866 5:0.074626866 6:0.032835821 7:0.020895522 8:0.059701493 9:0 10:0.065671642 11:0.086567164 12:0.0059701493 13:0.035820896 14:0 15:0.056716418 16:0.047761194 17:0.041791045 18:0.07761194 19:0.050746269 20:0 21:0.050746269 22:0.020895522 23:0 24:0.032835821 25:0 
1 1:0 2:0.018348624 3:0.062385321 4:0.070642202 5:0.048623853 6:0.057798165 7:0.021100917 8:0.055045872 9:0 10:0.067889908 11:0.10091743 12:0.021100917 13:0.049541284 14:0 15:0.037614679 16:0.036697248 17:0.042201835 18:0.066972477 19:0.048623853 20:0 21:0.069724771 22:0.014678899 23:0 24:0.035779817 25:0 
1 1:0 2:0.03930131 3:0.059679767 4:0.077147016 5:0.04657933 6:0.088791849 7:0.016011645 8:0.045123726 9:0 10:0.053857351 11:0.059679767 12:0.018922853 13:0.049490539 14:0 15:0.0713246 16:0.027656477 17:0.037845706 18:0.062590975 19:0.048034934 20:0 21:0.07860262 22:0.020378457 23:0 24:0.04657933 25:0 
1 1:0 2:0 3:0.018987342 4:0.044303797 5:0.0063291139 6:0.13291139 7:0.012658228 8:0.044303797 9:0 10:0.13924051 11:0.10126582 12:0.0063291139 13:0.037974684 14:0 15:0.056962025 16:0.012658228 17:0.069620253 18:0.025316456 19:0.018987342 20:0 21:0.063291139 22:0 23:0 24:0.025316456 25:0 
1 1:0 2:0.0074119827 3:0.050030883 4:0.096355775 5:0.045089561 6:0.044471896 7:0.022235948 8:0.049413218 9:0 10:0.064237183 11:0.092032119 12:0.014823965 13:0.038295244 14:0 15:0.072884497 16:0.051883879 17:0.073502162 18:0.067943175 19:0.048177888 20:0 21:0.063619518 22:0.011735639 23:0 24:0.0284126 25:0 
1 1:0 2:0.023668639 3:0.094674556 4:0.035502959 5:0.047337278 6:0.059171598 7:0.0059171598 8:0.047337278 9:0 10:0.088757396 11:0.1183432 12:0.023668639 13:0.029585799 14:0 15:0.053254438 16:0.041420118 17:0.088757396 18:0.065088757 19:0.059171598 20:0 21:0.065088757 22:0.0059171598 23:0 24:0.01183432 25:0 
1 1:0 2:0.009569378 3:0.063397129 4:0.10885167 5:0.015550239 6:0.06937799 7:0.032296651 8:0.05861244 9:0 10:0.039473684 11:0.063397129 12:0.028708134 13:0.029904306 14:0 15:0.061004785 16:0.061004785 17:0.062200957 18:0.080143541 19:0.03708134 20:0 21:0.053827751 22:0.0023923445 23:0 24:0.034688995 25:0 
1 1:0 2:0.013605442 3:0.049319728 4:0.078231293 5:0.039115646 6:0.093537415 7:0.027210884 8:0.056122449 9:0 10:0.06122449 11:0.076530612 12:0.018707483 13:0.039115646 14:0 15:0.052721088 16:0.023809524 17:0.034013605 18:0.06462585 19:0.056122449 20:0 21:0.06292517 22:0.017006803 23:0 24:0.030612245 25:0 
1 1:0 2:0.018831169 3:0.051948052 4:0.075324675 5:0.024025974 6:0.084415584 7:0.020779221 8:0.023376623 9:0 10:0.057142857 11:0.088311688 12:0.017532468 13:0.02987013 14:0 15:0.085064935 16:0.051948052 17:0.054545455 18:0.11623377 19:0.058441558 20:0 21:0.051948052 22:0.0090909091 23:0 24:0.0084415584 25:0 
1 1:0 2:0.012048193 3:0.053356282 4:0.13080895 5:0.017211704 6:0.030981067 7:0.010327022 8:0.029259897 9:0 10:0.094664372 11:0.10671256 12:0.022375215 13:0.04302926 14:0 15:0.024096386 16:0.060240964 17:0.030981067 18:0.10671256 19:0.058519793 20:0 21:0.060240964 22:0.0051635112 23:0 24:0.008605852 25:0 
1 1:0 2:0.011594203 3:0.075362319 4:0.055072464 5:0.028985507 6:0.10724638 7:0.023188406 8:0.049275362 9:0 10:0.063768116 11:0.086956522 12:0.0057971014 13:0.020289855 14:0 15:0.046376812 16:0.037681159 17:0.031884058 18:0.08115942 19:0.072463768 20:0 21:0.084057971 22:0.023188406 23:0 24:0.037681159 25:0 
1 1:0 2:0.016632017 3:0.054054054 4:0.079002079 5:0.068607069 6:0.043659044 7:0.022869023 8:0.062370062 9:0 10:0.072765073 11:0.097713098 12:0.033264033 13:0.058212058 14:0 15:0.04989605 16:0.041580042 17:0.047817048 18:0.06029106 19:0.03950104 20:0 21:0.056133056 22:0.0083160083 23:0 24:0.037422037 25:0 
1 1:0 2:0.0035971223 3:0.053956835 4:0.061151079 5:0.039568345 6:0.068345324 7:0.021582734 8:0.053956835 9:0 10:0.050359712 11:0.050359712 12:0.028776978 13:0.050359712 14:0 15:0.043165468 16:0.035971223 17:0.043165468 18:0.12230216 19:0.082733813 20:0 21:0.086330935 22:0.0035971223 23:0 24:0.021582734 25:0 
1 1:0 2:0.015873016 3:0.043650794 4:0.071428571 5:0.027777778 6:0.091269841 7:0.0079365079 8:0.05952381 9:0 10:0.067460317 11:0.063492063 12:0.011904762 13:0.03968254 14:0 15:0.035714286 16:0.03968254 17:0.031746032 18:0.071428571 19:0.051587302 20:0 21:0.13492063 22:0.023809524 23:0 24:0.015873016 25:0 
1 1:0 2:0.009569378 3:0.055023923 4:0.098086124 5:0.055023923 6:0.043062201 7:0.016746411 8:0.033492823 9:0 10:0.10287081 11:0.12679426 12:0.023923445 13:0.038277512 14:0 15:0.019138756 16:0.04784689 17:0.043062201 18:0.055023923 19:0.050239234 20:0 21:0.064593301 22:0.011961722 23:0 24:0.028708134 25:0 
1 1:0 2:0 3:0.11111111 4:0 5:0.11111111 6:0.11111111 7:0 8:0 9:0 10:0 11:0 12:0 13:0 14:0 15:0 16:0 17:0 18:0.11111111 19:0.22222222 20:0 21:0.22222222 22:0.11111111 23:0 24:0 25:0 
1 1:0 2:0.026501767 3:0.030035336 4:0.056537102 5:0.044169611 6:0.042402827 7:0.026501767 8:0.051236749 9:0 10:0.098939929 11:0.12897527 12:0.024734982 13:0.049469965 14:0 15:0.038869258 16:0.061837456 17:0.054770318 18:0.072438163 19:0.054770318 20:0 21:0.065371025 22:0.0088339223 23:0 24:0.012367491 25:0 
1 1:0 2:0.032967033 3:0.065934066 4:0.058608059 5:0.018315018 6:0.14285714 7:0.036630037 8:0.047619048 9:0 10:0.025641026 11:0.1025641 12:0.018315018 13:0.036630037 14:0 15:0.04029304 16:0.06959707 17:0.058608059 18:0.054945055 19:0.043956044 20:0 21:0.06959707 22:0.0073260073 23:0 24:0.0036630037 25:0 
1 1:0 2:0.036423841 3:0.089403974 4:0.062913907 5:0.056291391 6:0.059602649 7:0.023178808 8:0.056291391 9:0 10:0.082781457 11:0.066225166 12:0.023178808 13:0.046357616 14:0 15:0.039735099 16:0.036423841 17:0.049668874 18:0.069536424 19:0.049668874 20:0 21:0.059602649 22:0.0066225166 23:0 24:0.029801325 25:0 
1 1:0 2:0.022357724 3:0.071138211 4:0.06504065 5:0.038617886 6:0.056910569 7:0.034552846 8:0.06097561 9:0 10:0.097560976 11:0.093495935 12:0.024390244 13:0.048780488 14:0 15:0.052845528 16:0.032520325 17:0.048780488 18:0.06300813 19:0.034552846 20:0 21:0.077235772 22:0.006097561 23:0 24:0.028455285 25:0 
1 1:0 2:0.0058780309 3:0.035268185 4:0.074944893 5:0.018368846 6:0.022042616 7:0.033063924 8:0.027920647 9:0 10:0.083027186 11:0.060249816 12:0.025716385 13:0.025716385 14:0 15:0.17340191 16:0.10800882 17:0.045554739 18:0.079353417 19:0.044819985 20:0 21:0.050698016 22:0.0036737693 23:0 24:0.013225569 25:0 
1 1:0 2:0.01216545 3:0.060827251 4:0.063260341 5:0.03892944 6:0.058394161 7:0.00486618 8:0.0486618 9:0 10:0.0486618 11:0.090024331 12:0.03163017 13:0.051094891 14:0 15:0.04379562 16:0.0243309 17:0.090024331 18:0.072992701 19:0.051094891 20:0 21:0.072992701 22:0.01459854 23:0 24:0.03892944 25:0 
1 1:0 2:0.014388489 3:0.050359712 4:0.079136691 5:0.035971223 6:0.079136691 7:0.0071942446 8:0.057553957 9:0 10:0.086330935 11:0.086330935 12:0.014388489 13:0.0071942446 14:0 15:0.079136691 16:0.050359712 17:0.014388489 18:0.079136691 19:0.086330935 20:0 21:0.064748201 22:0.014388489 23:0 24:0.021582734 25:0 
1 1:0 2:0.013422819 3:0.10067114 4:0.060402685 5:0.053691275 6:0.067114094 7:0.020134228 8:0.020134228 9:0 10:0.046979866 11:0.053691275 12:0.020134228 13:0.013422819 14:0 15:0.033557047 16:0.026845638 17:0.067114094 18:0.080536913 19:0.053691275 20:0 21:0.10067114 22:0.0067114094 23:0 24:0.020134228 25:0 
1 1:0 2:0.067073171 3:0.030487805 4:0.11585366 5:0.042682927 6:0.036585366 7:0.018292683 8:0.042682927 9:0 10:0.073170732 11:0.12195122 12:0.024390244 13:0.054878049 14:0 15:0.054878049 16:0.006097561 17:0.067073171 18:0.073170732 19:0.036585366 20:0 21:0.067073171 22:0.024390244 23:0 24:0.024390244 25:0 
1 1:0 2:0.022332506 3:0.022332506 4:0.11166253 5:0.027295285 6:0.05955335 7:0.0074441687 8:0.029776675 9:0 10:0.079404467 11:0.12903226 12:0.0099255583 13:0.034739454 14:0 15:0.049627792 16:0.099255583 17:0.037220844 18:0.079404467 19:0.037220844 20:0 21:0.042183623 22:0.024813896 23:0 24:0.027295285 25:0 
1 1:0 2:0.032258065 3:0.048387097 4:0.037634409 5:0.053763441 6:0.096774194 7:0 8:0.069892473 9:0 10:0.048387097 11:0.10752688 12:0.0053763441 13:0.080645161 14:0 15:0.075268817 16:0.032258065 17:0.037634409 18:0.075268817 19:0.043010753 20:0 21:0.080645161 22:0.0053763441 23:0 24:0.037634409 25:0 
1 1:0 2:0.010498688 3:0.078740157 4:0.062992126 5:0.039370079 6:0.052493438 7:0.020997375 8:0.039370079 9:0 10:0.078740157 11:0.099737533 12:0.026246719 13:0.036745407 14:0 15:0.062992126 16:0.01312336 17:0.047244094 18:0.086614173 19:0.047244094 20:0 21:0.089238845 22:0.010498688 23:0 24:0.031496063 25:0 
1 1:0 2:0.014981273 3:0.04494382 4:0.056179775 5:0.033707865 6:0.097378277 7:0.026217228 8:0.048689139 9:0 10:0.048689139 11:0.093632959 12:0.02247191 13:0.063670412 14:0 15:0.037453184 16:0.033707865 17:0.052434457 18:0.059925094 19:0.041198502 20:0 21:0.097378277 22:0.011235955 23:0 24:0.026217228 25:0 
1 1:0 2:0.04109589 3:0.04109589 4:0.02739726 5:0.04109589 6:0.082191781 7:0.04109589 8:0.047945205 9:0 10:0.047945205 11:0.095890411 12:0.020547945 13:0.061643836 14:0 15:0.068493151 16:0.04109589 17:0.089041096 18:0.061643836 19:0.061643836 20:0 21:0.061643836 22:0.0068493151 23:0 24:0.02739726 25:0 
1 1:0 2:0.016988417 3:0.057142857 4:0.084942085 5:0.042471042 6:0.048648649 7:0.023166023 8:0.042471042 9:0 10:0.067953668 11:0.10965251 12:0.026254826 13:0.032432432 14:0 15:0.040926641 16:0.057915058 17:0.056370656 18:0.073359073 19:0.041698842 20:0 21:0.064864865 22:0.012355212 23:0 24:0.03011583 25:0 
1 1:0 2:0.02173913 3:0.027950311 4:0.049689441 5:0.052795031 6:0.071428571 7:0.0093167702 8:0.093167702 9:0 10:0.062111801 11:0.1242236 12:0.02484472 13:0.037267081 14:0 15:0.034161491 16:0.02484472 17:0.01552795 18:0.068322981 19:0.071428571 20:0 21:0.093167702 22:0.01242236 23:0 24:0.031055901 25:0 
1 1:0 2:0 3:0.18181818 4:0.090909091 5:0 6:0.090909091 7:0 8:0.090909091 9:0 10:0 11:0 12:0 13:0 14:0 15:0 16:0 17:0 18:0.090909091 19:0.090909091 20:0 21:0.18181818 22:0 23:0 24:0 25:0 
1 1:0 2:0.006514658 3:0.042345277 4:0.052117264 5:0.03257329 6:0.061889251 7:0.058631922 8:0.045602606 9:0 10:0.03257329 11:0.1009772 12:0.022801303 13:0.061889251 14:0 15:0.045602606 16:0.058631922 17:0.048859935 18:0.06514658 19:0.068403909 20:0 21:0.06514658 22:0.016286645 23:0 24:0.061889251 25:0 
1 1:0 2:0.018893387 3:0.052631579 4:0.11740891 5:0.025641026 6:0.043184885 7:0.027665317 8:0.0317139 9:0 10:0.11336032 11:0.097165992 12:0.02294197 13:0.0317139 14:0 15:0.050607287 16:0.037786775 17:0.070175439 18:0.070850202 19:0.045209177 20:0 21:0.049932524 22:0.010796221 23:0 24:0.022267206 25:0 
1 1:0 2:0.016891892 3:0.013513514 4:0.097972973 5:0.043918919 6:0.057432432 7:0.010135135 8:0.10810811 9:0 10:0.054054054 11:0.084459459 12:0.047297297 13:0.054054054 14:0 15:0.074324324 16:0.037162162 17:0.027027027 18:0.10135135 19:0.050675676 20:0 21:0.040540541 22:0.010135135 23:0 24:0.023648649 25:0 
1 1:0 2:0.023489933 3:0.045302013 4:0.080536913 5:0.033557047 6:0.035234899 7:0.025167785 8:0.041946309 9:0 10:0.068791946 11:0.12919463 12:0.023489933 13:0.035234899 14:0 15:0.036912752 16:0.041946309 17:0.052013423 18:0.062080537 19:0.041946309 20:0 21:0.052013423 22:0.013422819 23:0 24:0.065436242 25:0 
1 1:0 2:0.012861736 3:0.059485531 4:0.048231511 5:0.024115756 6:0.099678457 7:0.04340836 8:0.049839228 9:0 10:0.067524116 11:0.093247588 12:0.035369775 13:0.033762058 14:0 15:0.046623794 16:0.022508039 17:0.028938907 18:0.059485531 19:0.054662379 20:0 21:0.081993569 22:0.0064308682 23:0 24:0.041800643 25:0 
1 1:0 2:0.032967033 3:0.074175824 4:0.041208791 5:0.052197802 6:0.063186813 7:0.019230769 8:0.071428571 9:0 10:0.068681319 11:0.093406593 12:0.032967033 13:0.038461538 14:0 15:0.071428571 16:0.032967033 17:0.038461538 18:0.046703297 19:0.052197802 20:0 21:0.043956044 22:0.024725275 23:0 24:0.049450549 25:0 
1 1:0 2:0.019329897 3:0.052835052 4:0.12757732 5:0.025773196 6:0.012886598 7:0.020618557 8:0.045103093 9:0 10:0.10309278 11:0.1056701 12:0.029639175 13:0.06185567 14:0 15:0.037371134 16:0.068298969 17:0.037371134 18:0.085051546 19:0.048969072 20:0 21:0.046391753 22:0.006443299 23:0 24:0.021907216 25:0 
1 1:0 2:0.014736842 3:0.054736842 4:0.086315789 5:0.037894737 6:0.082105263 7:0.023157895 8:0.052631579 9:0 10:0.046315789 11:0.088421053 12:0.023157895 13:0.061052632 14:0 15:0.056842105 16:0.027368421 17:0.050526316 18:0.073684211 19:0.035789474 20:0 21:0.050526316 22:0.018947368 23:0 24:0.04 25:0 
1 1:0 2:0 3:0.040609137 4:0.16751269 5:0 6:0.030456853 7:0.0050761421 8:0.045685279 9:0 10:0.17258883 11:0.07106599 12:0.020304569 13:0.020304569 14:0 15:0.07106599 16:0.010152284 17:0.030456853 18:0.035532995 19:0.025380711 20:0 21:0.065989848 22:0.010152284 23:0 24:0.010152284 25:0 
1 1:0 2:0.0091407678 3:0.056672761 4:0.08226691 5:0.026965265 6:0.052559415 7:0.027193784 8:0.042047532 9:0 10:0.083866545 11:0.076325411 12:0.019652651 13:0.037705667 14:0 15:0.06261426 16:0.043647166 17:0.040447898 18:0.11037477 19:0.075182815 20:0 21:0.063756856 22:0.0036563071 23:0 24:0.017824497 25:0 
1 1:0 2:0.027932961 3:0.05027933 4:0.078212291 5:0.011173184 6:0.05027933 7:0.016759777 8:0.061452514 9:0 10:0.055865922 11:0.1452514 12:0.027932961 13:0.027932961 14:0 15:0.022346369 16:0.067039106 17:0.05027933 18:0.067039106 19:0.044692737 20:0 21:0.072625698 22:0 23:0 24:0.022346369 25:0 
1 1:0 2:0.012755102 3:0.030612245 4:0.017857143 5:0.079081633 6:0.073979592 7:0.033163265 8:0.091836735 9:0 10:0.012755102 11:0.11989796 12:0.025510204 13:0.033163265 14:0 15:0.06377551 16:0.022959184 17:0.030612245 18:0.073979592 19:0.040816327 20:0 21:0.084183673 22:0.033163265 23:0 24:0.053571429 25:0 
1 1:0 2:0.016853933 3:0.056179775 4:0.039325843 5:0.04494382 6:0.095505618 7:0.016853933 8:0.011235955 9:0 10:0.02247191 11:0.073033708 12:0.033707865 13:0.04494382 14:0 15:0.073033708 16:0.039325843 17:0.078651685 18:0.061797753 19:0.06741573 20:0 21:0.11797753 22:0.011235955 23:0 24:0.04494382 25:0 
1 1:0 2:0.017416546 3:0.065312046 4:0.08563135 5:0.069666183 6:0.058055152 7:0.02467344 8:0.055152395 9:0 10:0.062409289 11:0.098693759 12:0.014513788 13:0.03628447 14:0 15:0.044992743 16:0.044992743 17:0.056603774 18:0.062409289 19:0.046444122 20:0 21:0.040638607 22:0.021770682 23:0 24:0.021770682 25:0 
1 1:0 2:0.010752688 3:0.062724014 4:0.089605735 5:0.035842294 6:0.039426523 7:0.02688172 8:0.073476703 9:0 10:0.064516129 11:0.10215054 12:0.028673835 13:0.039426523 14:0 15:0.03046595 16:0.032258065 17:0.051971326 18:0.068100358 19:0.043010753 20:0 21:0.064516129 22:0.014336918 23:0 24:0.062724014 25:0 
1 1:0 2:0.011538462 3:0.067307692 4:0.038461538 5:0.053846154 6:0.082692308 7:0.025 8:0.055769231 9:0 10:0.05 11:0.071153846 12:0.019230769 13:0.05 14:0 15:0.034615385 16:0.034615385 17:0.053846154 18:0.055769231 19:0.055769231 20:0 21:0.059615385 22:0.023076923 23:0 24:0.057692308 25:0 
1 1:0 2:0.011435832 3:0.054637865 4:0.069885642 5:0.033036849 6:0.080050826 7:0.011435832 8:0.057179161 9:0 10:0.063532402 11:0.099110546 12:0.016518424 13:0.044472681 14:0 15:0.07750953 16:0.052096569 17:0.06480305 18:0.07115629 19:0.050825921 20:0 21:0.049555273 22:0.0076238882 23:0 24:0.010165184 25:0 
1 1:0 2:0.012958963 3:0.036717063 4:0.13822894 5:0.017278618 6:0.019438445 7:0.028077754 8:0.036717063 9:0 10:0.10799136 11:0.12958963 12:0.0064794816 13:0.036717063 14:0 15:0.019438445 16:0.086393089 17:0.060475162 18:0.069114471 19:0.069114471 20:0 21:0.043196544 22:0.0043196544 23:0 24:0.023758099 25:0 
1 1:0 2:0.033333333 3:0.045454545 4:0.057575758 5:0.024242424 6:0.081818182 7:0.036363636 8:0.027272727 9:0 10:0.081818182 11:0.081818182 12:0.033333333 13:0.057575758 14:0 15:0.033333333 16:0.033333333 17:0.039393939 18:0.081818182 19:0.036363636 20:0 21:0.075757576 22:0.024242424 23:0 24:0.060606061 25:0 
1 1:0 2:0.016835017 3:0.060606061 4:0.057239057 5:0.050505051 6:0.084175084 7:0.013468013 8:0.033670034 9:0 10:0.03030303 11:0.070707071 12:0.033670034 13:0.060606061 14:0 15:0.070707071 16:0.070707071 17:0.026936027 18:0.094276094 19:0.050505051 20:0 21:0.074074074 22:0.023569024 23:0 24:0.026936027 25:0 
1 1:0 2:0 3:0.066666667 4:0 5:0.066666667 6:0.066666667 7:0 8:0.2 9:0 10:0.13333333 11:0 12:0 13:0.066666667 14:0 15:0 16:0 17:0 18:0 19:0.13333333 20:0 21:0 22:0 23:0 24:0.13333333 25:0 
1 1:0 2:0.0037453184 3:0.033707865 4:0.1011236 5:0.0074906367 6:0.02247191 7:0.026217228 8:0.048689139 9:0 10:0.13857678 11:0.12734082 12:0.041198502 13:0.074906367 14:0 15:0.026217228 16:0.063670412 17:0.033707865 18:0.08988764 19:0.059925094 20:0 21:0.041198502 22:0.0037453184 23:0 24:0.0074906367 25:0 
1 1:0 2:0.020661157 3:0.042699725 4:0.070247934 5:0.011019284 6:0.052341598 7:0.037190083 8:0.024793388 9:0 10:0.075757576 11:0.097796143 12:0.012396694 13:0.046831956 14:0 15:0.046831956 16:0.071625344 17:0.071625344 18:0.074380165 19:0.061983471 20:0 21:0.056473829 22:0.0041322314 23:0 24:0.011019284 25:0 
1 1:0 2:0.011042945 3:0.042944785 4:0.082208589 5:0.045398773 6:0.067484663 7:0.03803681 8:0.058895706 9:0 10:0.052760736 11:0.11165644 12:0.026993865 13:0.042944785 14:0 15:0.042944785 16:0.039263804 17:0.055214724 18:0.049079755 19:0.055214724 20:0 21:0.061349693 22:0.012269939 23:0 24:0.040490798 25:0 
1 1:0 2:0.022540984 3:0.030737705 4:0.079918033 5:0.028688525 6:0.086065574 7:0.0040983607 8:0.067622951 9:0 10:0.06147541 11:0.10655738 12:0.014344262 13:0.024590164 14:0 15:0.073770492 16:0.038934426 17:0.051229508 18:0.079918033 19:0.045081967 20:0 21:0.077868852 22:0.022540984 23:0 24:0.022540984 25:0 
1 1:0 2:0.023017903 3:0.070332481 4:0.052429668 5:0.047314578 6:0.10613811 7:0.028132992 8:0.028132992 9:0 10:0.040920716 11:0.086956522 12:0.028132992 13:0.025575448 14:0 15:0.060102302 16:0.017902813 17:0.062659847 18:0.051150895 19:0.038363171 20:0 21:0.093350384 22:0.02173913 23:0 24:0.025575448 25:0 
1 1:0 2:0 3:0.13333333 4:0.066666667 5:0 6:0.2 7:0 8:0.13333333 9:0 10:0 11:0.066666667 12:0 13:0.066666667 14:0 15:0.2 16:0 17:0 18:0 19:0 20:0 21:0.13333333 22:0 23:0 24:0 25:0 
1 1:0 2:0.020491803 3:0.036885246 4:0.045081967 5:0.040983607 6:0.16803279 7:0.0081967213 8:0.053278689 9:0 10:0.049180328 11:0.06147541 12:0.016393443 13:0.028688525 14:0 15:0.090163934 16:0.06147541 17:0.06147541 18:0.073770492 19:0.036885246 20:0 21:0.073770492 22:0.012295082 23:0 24:0.024590164 25:0 
1 1:0 2:0.01953125 3:0.0234375 4:0.01953125 5:0.1015625 6:0.0859375 7:0.01171875 8:0.0859375 9:0 10:0.04296875 11:0.1484375 12:0.02734375 13:0.0234375 14:0 15:0.02734375 16:0.0234375 17:0.02734375 18:0.08203125 19:0.04296875 20:0 21:0.06640625 22:0.01953125 23:0 24:0.0390625 25:0 
1 1:0 2:0 3:0.057142857 4:0.066666667 5:0.057142857 6:0.028571429 7:0.038095238 8:0.066666667 9:0 10:0.14285714 11:0.076190476 12:0.028571429 13:0.028571429 14:0 15:0.0095238095 16:0.038095238 17:0.085714286 18:0.085714286 19:0.047619048 20:0 21:0.047619048 22:0 23:0 24:0.019047619 25:0 
1 1:0 2:0.017676768 3:0.058080808 4:0.053030303 5:0.050505051 6:0.055555556 7:0.035353535 8:0.058080808 9:0 10:0.075757576 11:0.11616162 12:0.025252525 13:0.058080808 14:0 15:0.050505051 16:0.037878788 17:0.050505051 18:0.068181818 19:0.04040404 20:0 21:0.058080808 22:0.015151515 23:0 24:0.045454545 25:0 
1 1:0 2:0.017660044 3:0.048565121 4:0.050772627 5:0.035320088 6:0.081677704 7:0.026490066 8:0.061810155 9:0 10:0.06401766 11:0.10154525 12:0.015452539 13:0.061810155 14:0 15:0.039735099 16:0.04415011 17:0.030905077 18:0.070640177 19:0.041942605 20:0 21:0.057395143 22:0.011037528 23:0 24:0.050772627 25:0 
1 1:0 2:0.012345679 3:0.049382716 4:0.10493827 5:0.024691358 6:0.030864198 7:0.012345679 8:0.037037037 9:0 10:0.074074074 11:0.086419753 12:0.018518519 13:0.043209877 14:0 15:0.067901235 16:0.043209877 17:0.037037037 18:0.061728395 19:0.061728395 20:0 21:0.055555556 22:0 23:0 24:0.037037037 25:0 
1 1:0 2:0.011764706 3:0.035294118 4:0.08627451 5:0.02745098 6:0.045098039 7:0.023529412 8:0.052941176 9:0 10:0.08627451 11:0.076470588 12:0.023529412 13:0.058823529 14:0 15:0.068627451 16:0.025490196 17:0.049019608 18:0.090196078 19:0.07254902 20:0 21:0.056862745 22:0.0058823529 23:0 24:0.029411765 25:0 
1 1:0 2:0.019607843 3:0.052287582 4:0.098039216 5:0.058823529 6:0.039215686 7:0.019607843 8:0.11111111 9:0 10:0.08496732 11:0.11111111 12:0.019607843 13:0.026143791 14:0 15:0.0065359477 16:0.045751634 17:0.058823529 18:0.058823529 19:0.045751634 20:0 21:0.058823529 22:0.013071895 23:0 24:0.045751634 25:0 
1 1:0 2:0 3:0 4:0.1 5:0 6:0.2 7:0 8:0 9:0 10:0 11:0.2 12:0 13:0 14:0 15:0.1 16:0.1 17:0 18:0 19:0.1 20:0 21:0.2 22:0 23:0 24:0.1 25:0 
1 1:0 2:0.020253165 3:0.063291139 4:0.086075949 5:0.058227848 6:0.053164557 7:0.020253165 8:0.083544304 9:0 10:0.058227848 11:0.070886076 12:0.025316456 13:0.058227848 14:0 15:0.043037975 16:0.040506329 17:0.043037975 18:0.058227848 19:0.04556962 20:0 21:0.078481013 22:0.0075949367 23:0 24:0.053164557 25:0 
1 1:0 2:0.026113671 3:0.046082949 4:0.061443932 5:0.038402458 6:0.076804916 7:0.038402458 8:0.047619048 9:0 10:0.036866359 11:0.10291859 12:0.024577573 13:0.035330261 14:0 15:0.076804916 16:0.02764977 17:0.076804916 18:0.058371736 19:0.043010753 20:0 21:0.052227343 22:0.021505376 23:0 24:0.036866359 25:0 
1 1:0 2:0.012345679 3:0.037037037 4:0.037037037 5:0.020576132 6:0.086419753 7:0.032921811 8:0.061728395 9:0 10:0.016460905 11:0.10288066 12:0.0041152263 13:0.032921811 14:0 15:0.086419753 16:0.04526749 17:0.041152263 18:0.082304527 19:0.0781893 20:0 21:0.061728395 22:0.012345679 23:0 24:0.041152263 25:0 
1 1:0 2:0.099378882 3:0.0062111801 4:0.031055901 5:0.01242236 6:0.11180124 7:0.0062111801 8:0.034161491 9:0 10:0.049689441 11:0.046583851 12:0.01242236 13:0.046583851 14:0 15:0.21118012 16:0.043478261 17:0.01242236 18:0.093167702 19:0.065217391 20:0 21:0.02173913 22:0.02484472 23:0 24:0.031055901 25:0 
1 1:0 2:0.025423729 3:0.059322034 4:0.093220339 5:0.042372881 6:0.06779661 7:0.033898305 8:0.0084745763 9:0 10:0.033898305 11:0.11016949 12:0.016949153 13:0.042372881 14:0 15:0.016949153 16:0.042372881 17:0.042372881 18:0.06779661 19:0.033898305 20:0 21:0.06779661 22:0 23:0 24:0.016949153 25:0 
0.67232631829587719 1:0 2:0.0099206349 3:0.043650794 4:0.057539683 5:0.01984127 6:0.033730159 7:0.031746032 8:0.031746032 9:0 10:0.057539683 11:0.075396825 12:0.01984127 13:0.033730159 14:0 15:0.10119048 16:0.067460317 17:0.045634921 18:0.125 19:0.081349206 20:0 21:0.077380952 22:0.003968254 23:0 24:0.003968254 25:0 
1 1:0 2:0.0051813472 3:0.077720207 4:0.088082902 5:0.025906736 6:0.046632124 7:0.010362694 8:0.046632124 9:0 10:0.041450777 11:0.098445596 12:0.025906736 13:0.041450777 14:0 15:0.062176166 16:0.062176166 17:0.03626943 18:0.10362694 19:0.067357513 20:0 21:0.098445596 22:0 23:0 24:0.010362694 25:0 
1 1:0 2:0.058823529 3:0.058823529 4:0.058823529 5:0.058823529 6:0.11764706 7:0 8:0 9:0 10:0 11:0.11764706 12:0 13:0.058823529 14:0 15:0.058823529 16:0.058823529 17:0.058823529 18:0.058823529 19:0.11764706 20:0 21:0.058823529 22:0.058823529 23:0 24:0 25:0 
1 1:0 2:0.0085011186 3:0.038478747 4:0.045190157 5:0.017897092 6:0.11409396 7:0.028635347 8:0.025950783 9:0 10:0.036241611 11:0.05950783 12:0.044295302 13:0.034004474 14:0 15:0.11588367 16:0.089932886 17:0.036689038 18:0.11588367 19:0.032214765 20:0 21:0.031767338 22:0.0058165548 23:0 24:0.030872483 25:0 
1 1:0 2:0.0067567568 3:0.11486486 4:0.13513514 5:0.060810811 6:0.081081081 7:0.0067567568 8:0.027027027 9:0 10:0.047297297 11:0.067567568 12:0.060810811 13:0.033783784 14:0 15:0.013513514 16:0.027027027 17:0.074324324 18:0.040540541 19:0.067567568 20:0 21:0.074324324 22:0 23:0 24:0.0067567568 25:0 
1 1:0 2:0.015789474 3:0.068421053 4:0.14736842 5:0.031578947 6:0.042105263 7:0.010526316 8:0.036842105 9:0 10:0.15263158 11:0.057894737 12:0.026315789 13:0.052631579 14:0 15:0.031578947 16:0.015789474 17:0.047368421 18:0.078947368 19:0.036842105 20:0 21:0.047368421 22:0.021052632 23:0 24:0.026315789 25:0 
1 1:0 2:0.026755853 3:0.033444816 4:0.080267559 5:0.043478261 6:0.050167224 7:0.033444816 8:0.033444816 9:0 10:0.053511706 11:0.13377926 12:0.0066889632 13:0.033444816 14:0 15:0.040133779 16:0.063545151 17:0.063545151 18:0.073578595 19:0.060200669 20:0 21:0.070234114 22:0.0033444816 23:0 24:0.026755853 25:0 
1 1:0 2:0.0031347962 3:0.078369906 4:0.090909091 5:0.040752351 6:0.068965517 7:0.0094043887 8:0.056426332 9:0 10:0.068965517 11:0.11912226 12:0.02507837 13:0.018808777 14:0 15:0.015673981 16:0.037617555 17:0.059561129 18:0.065830721 19:0.072100313 20:0 21:0.05015674 22:0.0031347962 23:0 24:0.037617555 25:0 
1 1:0 2:0.0040322581 3:0.032258065 4:0.096774194 5:0.02016129 6:0.048387097 7:0.02016129 8:0.048387097 9:0 10:0.084677419 11:0.10887097 12:0.016129032 13:0.068548387 14:0 15:0.052419355 16:0.080645161 17:0.056451613 18:0.10080645 19:0.060483871 20:0 21:0.032258065 22:0.0080645161 23:0 24:0.02016129 25:0 
1 1:0 2:0.011235955 3:0.026217228 4:0.052434457 5:0.026217228 6:0.071161049 7:0.02247191 8:0.048689139 9:0 10:0.11235955 11:0.074906367 12:0.033707865 13:0.0074906367 14:0 15:0.071161049 16:0.04494382 17:0.018726592 18:0.097378277 19:0.078651685 20:0 21:0.078651685 22:0.0074906367 23:0 24:0.041198502 25:0 
1 1:0 2:0.021772939 3:0.044323484 4:0.050544323 5:0.021772939 6:0.078538103 7:0.034992224 8:0.046656299 9:0 10:0.041213064 11:0.078538103 12:0.018662519 13:0.052877138 14:0 15:0.076205288 16:0.034214619 17:0.035769829 18:0.10575428 19:0.060653188 20:0 21:0.089424572 22:0.01244168 23:0 24:0.034214619 25:0 
1 1:0 2:0.029126214 3:0.058252427 4:0.063106796 5:0.0097087379 6:0.11165049 7:0.014563107 8:0.058252427 9:0 10:0.053398058 11:0.082524272 12:0.024271845 13:0.048543689 14:0 15:0.058252427 16:0.048543689 17:0.063106796 18:0.063106796 19:0.04368932 20:0 21:0.067961165 22:0.019417476 23:0 24:0.053398058 25:0 
0.40304553107768504 1:0 2:0.064516129 3:0 4:0.032258065 5:0.064516129 6:0 7:0 8:0 9:0 10:0 11:0.064516129 12:0 13:0 14:0 15:0.032258065 16:0.4516129 17:0.096774194 18:0.096774194 19:0.032258065 20:0 21:0 22:0 23:0 24:0.032258065 25:0 
1 1:0 2:0.013729977 3:0.038901602 4:0.034324943 5:0.041189931 6:0.075514874 7:0.043478261 8:0.029748284 9:0 10:0.018306636 11:0.068649886 12:0.025171625 13:0.043478261 14:0 15:0.075514874 16:0.089244851 17:0.038901602 18:0.09382151 19:0.066361556 20:0 21:0.09610984 22:0.0091533181 23:0 24:0.022883295 25:0 
1 1:0 2:0.014851485 3:0.01980198 4:0.064356436 5:0.03960396 6:0.054455446 7:0.014851485 8:0.059405941 9:0 10:0.069306931 11:0.14851485 12:0.044554455 13:0.03960396 14:0 15:0.034653465 16:0.044554455 17:0.04950495 18:0.04950495 19:0.044554455 20:0 21:0.079207921 22:0.034653465 23:0 24:0.02970297 25:0 
1 1:0 2:0.026252983 3:0.062052506 4:0.081145585 5:0.033412888 6:0.045346062 7:0.019093079 8:0.035799523 9:0 10:0.064439141 11:0.10501193 12:0.040572792 13:0.035799523 14:0 15:0.050119332 16:0.050119332 17:0.050119332 18:0.057279236 19:0.047732697 20:0 21:0.076372315 22:0.0047732697 23:0 24:0.033412888 25:0 
1 1:0 2:0 3:0 4:0 5:0 6:0 7:0 8:0 9:0 10:0 11:0 12:0.012658228 13:0 14:0 15:0 16:1 17:0 18:0 19:0 20:0 21:0 22:0 23:0 24:0 25:0 
1 1:0 2:0.026748971 3:0.043209877 4:0.04526749 5:0.032921811 6:0.10288066 7:0.032921811 8:0.028806584 9:0 10:0.034979424 11:0.086419753 12:0.016460905 13:0.03909465 14:0 15:0.072016461 16:0.059670782 17:0.049382716 18:0.080246914 19:0.049382716 20:0 21:0.074074074 22:0.028806584 23:0 24:0.032921811 25:0 
1 1:0 2:0.027855153 3:0.04735376 4:0.061281337 5:0.050139276 6:0.052924791 7:0.036211699 8:0.072423398 9:0 10:0.075208914 11:0.094707521 12:0.013927577 13:0.038997214 14:0 15:0.055710306 16:0.038997214 17:0.044568245 18:0.086350975 19:0.04735376 20:0 21:0.050139276 22:0.019498607 23:0 24:0.04178273 25:0 
1 1:0 2:0.02303263 3:0.046065259 4:0.074856046 5:0.046065259 6:0.051823417 7:0.017274472 8:0.03646833 9:0 10:0.10172745 11:0.088291747 12:0.015355086 13:0.03646833 14:0 15:0.07293666 16:0.038387716 17:0.071017274 18:0.078694818 19:0.040307102 20:0 21:0.042226488 22:0.011516315 23:0 24:0.021113244 25:0 
1 1:0 2:0.034300792 3:0.065963061 4:0.031662269 5:0.034300792 6:0.084432718 7:0.029023747 8:0.047493404 9:0 10:0.029023747 11:0.08707124 12:0.01055409 13:0.050131926 14:0 15:0.029023747 16:0.042216359 17:0.068601583 18:0.11345646 19:0.068601583 20:0 21:0.071240106 22:0.023746702 23:0 24:0.021108179 25:0 
1 1:0 2:0.015812432 3:0.03653217 4:0.041984733 5:0.026172301 6:0.067611778 7:0.02780807 8:0.050708833 9:0 10:0.044165758 11:0.071973828 12:0.018538713 13:0.046892039 14:0 15:0.085605234 16:0.093238822 17:0.032715376 18:0.10305344 19:0.065430752 20:0 21:0.085059978 22:0.0049073064 23:0 24:0.014721919 25:0 
1 1:0 2:0.011428571 3:0.045714286 4:0.068571429 5:0.04 6:0.08 7:0.04 8:0.074285714 9:0 10:0.057142857 11:0.12 12:0.011428571 13:0.011428571 14:0 15:0.062857143 16:0.034285714 17:0.074285714 18:0.045714286 19:0.057142857 20:0 21:0.074285714 22:0 23:0 24:0.051428571 25:0 
1 1:0 2:0.01953337 3:0.054801953 4:0.077590884 5:0.039066739 6:0.036353771 7:0.013022246 8:0.045035269 9:0 10:0.12479653 11:0.089527944 12:0.01356484 13:0.060227889 14:0 15:0.045577862 16:0.041237113 17:0.042864894 18:0.10906131 19:0.066196419 20:0 21:0.051546392 22:0.005425936 23:0 24:0.015735214 25:0 
1 1:0 2:0.067729084 3:0.043824701 4:0.091633466 5:0.043824701 6:0.059760956 7:0.023904382 8:0.03187251 9:0 10:0.071713147 11:0.091633466 12:0.027888446 13:0.047808765 14:0 15:0.059760956 16:0.035856574 17:0.019920319 18:0.071713147 19:0.039840637 20:0 21:0.06374502 22:0.019920319 23:0 24:0.035856574 25:0 
1 1:0 2:0 3:0.11764706 4:0.11764706 5:0.058823529 6:0.058823529 7:0.058823529 8:0 9:0 10:0.11764706 11:0.058823529 12:0.058823529 13:0 14:0 15:0.058823529 16:0 17:0 18:0.11764706 19:0 20:0 21:0.058823529 22:0 23:0 24:0 25:0 
1 1:0 2:0.026143791 3:0.039215686 4:0.035947712 5:0.029411765 6:0.045751634 7:0.022875817 8:0.032679739 9:0 10:0.075163399 11:0.12418301 12:0.016339869 13:0.052287582 14:0 15:0.062091503 16:0.049019608 17:0.045751634 18:0.12091503 19:0.045751634 20:0 21:0.068627451 22:0.013071895 23:0 24:0.032679739 25:0 
1 1:0 2:0.015873016 3:0.055555556 4:0.068783069 5:0.03968254 6:0.060846561 7:0.010582011 8:0.047619048 9:0 10:0.068783069 11:0.10846561 12:0.023809524 13:0.071428571 14:0 15:0.029100529 16:0.037037037 17:0.066137566 18:0.060846561 19:0.03968254 20:0 21:0.068783069 22:0.013227513 23:0 24:0.023809524 25:0 
1 1:0 2:0.01659751 3:0.062240664 4:0.070539419 5:0.033195021 6:0.074688797 7:0.01659751 8:0.062240664 9:0 10:0.074688797 11:0.074688797 12:0.045643154 13:0.033195021 14:0 15:0.058091286 16:0.024896266 17:0.049792531 18:0.058091286 19:0.041493776 20:0 21:0.099585062 22:0.0041493776 23:0 24:0.029045643 25:0 
1 1:0 2:0.013513514 3:0.054054054 4:0.12162162 5:0.027027027 6:0.027027027 7:0.013513514 8:0.10810811 9:0 10:0.054054054 11:0.081081081 12:0.027027027 13:0.040540541 14:0 15:0.013513514 16:0.040540541 17:0.094594595 18:0.067567568 19:0.081081081 20:0 21:0.027027027 22:0.013513514 23:0 24:0.027027027 25:0 
1 1:0 2:0.01650165 3:0.075907591 4:0.0099009901 5:0.04620462 6:0.095709571 7:0.02640264 8:0.03630363 9:0 10:0.062706271 11:0.075907591 12:0.02970297 13:0.04620462 14:0 15:0.03960396 16:0.02310231 17:0.059405941 18:0.04290429 19:0.052805281 20:0 21:0.072607261 22:0.02640264 23:0 24:0.059405941 25:0 
1 1:0 2:0.012 3:0.152 4:0.224 5:0.028 6:0.064 7:0.008 8:0.024 9:0 10:0.068 11:0.132 12:0.012 13:0.052 14:0 15:0.028 16:0.008 17:0.04 18:0.044 19:0.028 20:0 21:0.044 22:0 23:0 24:0.012 25:0 
1 1:0 2:0.017344897 3:0.044029353 4:0.062041361 5:0.028685791 6:0.061374249 7:0.022681788 8:0.086724483 9:0 10:0.058038692 11:0.09006004 12:0.029352902 13:0.044696464 14:0 15:0.041360907 16:0.036024016 17:0.032021348 18:0.088725817 19:0.066044029 20:0 21:0.094062708 22:0.0060040027 23:0 24:0.020680454 25:0 
1 1:0 2:0.023454158 3:0.053304904 4:0.13006397 5:0.02771855 6:0.070362473 7:0.017057569 8:0.051172708 9:0 10:0.10660981 11:0.070362473 12:0.025586354 13:0.042643923 14:0 15:0.044776119 16:0.044776119 17:0.0554371 18:0.046908316 19:0.038379531 20:0 21:0.076759062 22:0.0085287846 23:0 24:0.029850746 25:0 
1 1:0 2:0.018181818 3:0.018181818 4:0.063636364 5:0.036363636 6:0.10909091 7:0.018181818 8:0.027272727 9:0 10:0.11818182 11:0.072727273 12:0.018181818 13:0.081818182 14:0 15:0.072727273 16:0.027272727 17:0.018181818 18:0.036363636 19:0.063636364 20:0 21:0.027272727 22:0.0090909091 23:0 24:0.054545455 25:0 
1 1:0 2:0.015873016 3:0.03968254 4:0.03968254 5:0.043650794 6:0.15873016 7:0.011904762 8:0.055555556 9:0 10:0.05952381 11:0.083333333 12:0.03968254 13:0.047619048 14:0 15:0.1031746 16:0.035714286 17:0.035714286 18:0.043650794 19:0.05952381 20:0 21:0.043650794 22:0.003968254 23:0 24:0.027777778 25:0 
1 1:0 2:0.021398003 3:0.071326676 4:0.05278174 5:0.037089872 6:0.10413695 7:0.031383738 8:0.031383738 9:0 10:0.02425107 11:0.10271041 12:0.025677603 13:0.015691869 14:0 15:0.051355207 16:0.02425107 17:0.055634807 18:0.059914408 19:0.029957204 20:0 21:0.081312411 22:0.0057061341 23:0 24:0.02853067 25:0 
1 1:0 2:0.018789144 3:0.035490605 4:0.073068894 5:0.054279749 6:0.073068894 7:0.033402923 8:0.052192067 9:0 10:0.066805846 11:0.13987474 12:0.016701461 13:0.029227557 14:0 15:0.052192067 16:0.027139875 17:0.045929019 18:0.083507307 19:0.03131524 20:0 21:0.070981211 22:0.010438413 23:0 24:0.029227557 25:0 
1 1:0 2:0.065263158 3:0.056842105 4:0.063157895 5:0.027368421 6:0.094736842 7:0.022105263 8:0.018947368 9:0 10:0.043157895 11:0.057894737 12:0.014736842 13:0.036842105 14:0 15:0.066315789 16:0.042105263 17:0.064210526 18:0.086315789 19:0.066315789 20:0 21:0.063157895 22:0.023157895 23:0 24:0.031578947 25:0 
1 1:0 2:0.020979021 3:0.13286713 4:0.090909091 5:0.013986014 6:0.11188811 7:0.013986014 8:0.055944056 9:0 10:0.11188811 11:0.06993007 12:0.027972028 13:0.041958042 14:0 15:0.020979021 16:0.027972028 17:0.06993007 18:0.006993007 19:0.020979021 20:0 21:0.06993007 22:0.006993007 23:0 24:0.034965035 25:0 
1 1:0 2:0.015686275 3:0.047058824 4:0.054901961 5:0.047058824 6:0.090196078 7:0.02745098 8:0.043137255 9:0 10:0.098039216 11:0.090196078 12:0.035294118 13:0.047058824 14:0 15:0.050980392 16:0.039215686 17:0.023529412 18:0.043137255 19:0.058823529 20:0 21:0.066666667 22:0.0039215686 23:0 24:0.031372549 25:0 
1 1:0 2:0.015923567 3:0.02866242 4:0.073248408 5:0.079617834 6:0.066878981 7:0.038216561 8:0.060509554 9:0 10:0.054140127 11:0.085987261 12:0.031847134 13:0.022292994 14:0 15:0.054140127 16:0.01910828 17:0.060509554 18:0.066878981 19:0.02866242 20:0 21:0.057324841 22:0.015923567 23:0 24:0.02866242 25:0 
1 1:0 2:0.01814882 3:0.069872958 4:0.058076225 5:0.04446461 6:0.058983666 7:0.0099818512 8:0.061705989 9:0 10:0.059891107 11:0.091651543 12:0.015426497 13:0.069872958 14:0 15:0.047186933 16:0.041742287 17:0.043557169 18:0.065335753 19:0.054446461 20:0 21:0.069872958 22:0.015426497 23:0 24:0.04446461 25:0 
1 1:0 2:0.071625344 3:0.066804408 4:0.053719008 5:0.026170799 6:0.1053719 7:0.036501377 8:0.038567493 9:0 10:0.027548209 11:0.087465565 12:0.011019284 13:0.04476584 14:0 15:0.024793388 16:0.031680441 17:0.057162534 18:0.087465565 19:0.047520661 20:0 21:0.075068871 22:0.039256198 23:0 24:0.011019284 25:0 
1 1:0 2:0.037181996 3:0.046966732 4:0.090019569 5:0.033268102 6:0.072407045 7:0.033268102 8:0.039138943 9:0 10:0.046966732 11:0.11154599 12:0.019569472 13:0.033268102 14:0 15:0.064579256 16:0.029354207 17:0.054794521 18:0.056751468 19:0.046966732 20:0 21:0.066536204 22:0.02739726 23:0 24:0.02739726 25:0 
1 1:0 2:0.016935484 3:0.054032258 4:0.067741935 5:0.041935484 6:0.07016129 7:0.015322581 8:0.07983871 9:0 10:0.068548387 11:0.094354839 12:0.022580645 13:0.048387097 14:0 15:0.04516129 16:0.041935484 17:0.045967742 18:0.058870968 19:0.058870968 20:0 21:0.082258065 22:0.0096774194 23:0 24:0.018548387 25:0 
1 1:0 2:0.0052173913 3:0.073043478 4:0.059130435 5:0.052173913 6:0.071304348 7:0.017391304 8:0.069565217 9:0 10:0.053913043 11:0.093913043 12:0.015652174 13:0.04173913 14:0 15:0.071304348 16:0.03826087 17:0.052173913 18:0.074782609 19:0.036521739 20:0 21:0.046956522 22:0.031304348 23:0 24:0.026086957 25:0 
1 1:0 2:0.01977644 3:0.044711952 4:0.061049011 5:0.048151333 6:0.058469475 7:0.01977644 8:0.071367154 9:0 10:0.05760963 11:0.10920034 12:0.021496131 13:0.051590714 14:0 15:0.030954428 16:0.042132416 17:0.042132416 18:0.067067928 19:0.063628547 20:0 21:0.071367154 22:0.01805675 23:0 24:0.035253654 25:0 
1 1:0 2:0.016032064 3:0.02004008 4:0.064128257 5:0.056112224 6:0.070140281 7:0.024048096 8:0.048096192 9:0 10:0.03006012 11:0.086172345 12:0.014028056 13:0.080160321 14:0 15:0.048096192 16:0.10621242 17:0.070140281 18:0.056112224 19:0.032064128 20:0 21:0.064128257 22:0.006012024 23:0 24:0.036072144 25:0 
1 1:0 2:0.014634146 3:0.05 4:0.074390244 5:0.03902439 6:0.065853659 7:0.024390244 8:0.058536585 9:0 10:0.043902439 11:0.10121951 12:0.043902439 13:0.035365854 14:0 15:0.03902439 16:0.042682927 17:0.054878049 18:0.082926829 19:0.046341463 20:0 21:0.062195122 22:0.017073171 23:0 24:0.031707317 25:0 
1 1:0 2:0.040909091 3:0.047727273 4:0.095454545 5:0.027272727 6:0.063636364 7:0.029545455 8:0.052272727 9:0 10:0.093181818 11:0.093181818 12:0.031818182 13:0.047727273 14:0 15:0.038636364 16:0.05 17:0.029545455 18:0.045454545 19:0.054545455 20:0 21:0.068181818 22:0.0045454545 23:0 24:0.022727273 25:0 
1 1:0 2:0.0094517958 3:0.024574669 4:0.037807183 5:0.071833648 6:0.058601134 7:0.018903592 8:0.077504726 9:0 10:0.052930057 11:0.15689981 12:0.024574669 13:0.04536862 14:0 15:0.039697543 16:0.020793951 17:0.035916824 18:0.10396975 19:0.041587902 20:0 21:0.075614367 22:0.017013233 23:0 24:0.030245747 25:0 
1 1:0 2:0.050295858 3:0.047337278 4:0.059171598 5:0.032544379 6:0.1035503 7:0.032544379 8:0.044378698 9:0 10:0.044378698 11:0.062130178 12:0.020710059 13:0.050295858 14:0 15:0.059171598 16:0.029585799 17:0.041420118 18:0.079881657 19:0.044378698 20:0 21:0.062130178 22:0.035502959 23:0 24:0.050295858 25:0 
1 1:0 2:0.0064935065 3:0.056277056 4:0.069264069 5:0.036796537 6:0.071428571 7:0.012987013 8:0.045454545 9:0 10:0.059163059 11:0.1038961 12:0.018759019 13:0.044733045 14:0 15:0.054834055 16:0.034632035 17:0.056277056 18:0.064213564 19:0.053391053 20:0 21:0.080808081 22:0.01010101 23:0 24:0.035353535 25:0 
1 1:0 2:0.0076045627 3:0.041825095 4:0.011406844 5:0.049429658 6:0.060836502 7:0.011406844 8:0.034220532 9:0 10:0.060836502 11:0.11026616 12:0.019011407 13:0.038022814 14:0 15:0.10646388 16:0.030418251 17:0.011406844 18:0.098859316 19:0.060836502 20:0 21:0.057034221 22:0.0076045627 23:0 24:0.030418251 25:0 
1 1:0 2:0.011560694 3:0.044315992 4:0.063583815 5:0.046242775 6:0.078998073 7:0.026974952 8:0.06743738 9:0 10:0.075144509 11:0.092485549 12:0.015414258 13:0.044315992 14:0 15:0.055876686 16:0.030828516 17:0.028901734 18:0.078998073 19:0.053949904 20:0 21:0.05973025 22:0.013487476 23:0 24:0.034682081 25:0 
1 1:0 2:0.0025188917 3:0.047858942 4:0.085642317 5:0.027707809 6:0.073047859 7:0.01511335 8:0.047858942 9:0 10:0.062972292 11:0.12594458 12:0.022670025 13:0.047858942 14:0 15:0.032745592 16:0.040302267 17:0.052896725 18:0.073047859 19:0.047858942 20:0 21:0.070528967 22:0.017632242 23:0 24:0.017632242 25:0 
1 1:0 2:0.029767442 3:0.057674419 4:0.051162791 5:0.023255814 6:0.073488372 7:0.048372093 8:0.028837209 9:0 10:0.03627907 11:0.14046512 12:0.015813953 13:0.048372093 14:0 15:0.039069767 16:0.025116279 17:0.04744186 18:0.064186047 19:0.055813953 20:0 21:0.055813953 22:0.0046511628 23:0 24:0.021395349 25:0 
1 1:0 2:0.01902497 3:0.05469679 4:0.079667063 5:0.043995244 6:0.049940547 7:0.01902497 8:0.052318668 9:0 10:0.052318668 11:0.1058264 12:0.033293698 13:0.049940547 14:0 15:0.03686088 16:0.029726516 17:0.049940547 18:0.090368609 19:0.035671819 20:0 21:0.061831153 22:0.01783591 23:0 24:0.034482759 25:0 
1 1:0 2:0.01384083 3:0.07266436 4:0.038062284 5:0.051903114 6:0.096885813 7:0.027681661 8:0.027681661 9:0 10:0.044982699 11:0.051903114 12:0.020761246 13:0.048442907 14:0 15:0.038062284 16:0.027681661 17:0.034602076 18:0.08650519 19:0.051903114 20:0 21:0.076124567 22:0.041522491 23:0 24:0.051903114 25:0 
1 1:0 2:0.012345679 3:0.043895748 4:0.050754458 5:0.020576132 6:0.04526749 7:0.063100137 8:0.046639232 9:0 10:0.076817558 11:0.080932785 12:0.023319616 13:0.035665295 14:0 15:0.056241427 16:0.056241427 17:0.035665295 18:0.15500686 19:0.063100137 20:0 21:0.050754458 22:0.0096021948 23:0 24:0.024691358 25:0 
1 1:0 2:0.014577259 3:0.037900875 4:0.06122449 5:0.026239067 6:0.099125364 7:0.014577259 8:0.055393586 9:0 10:0.06122449 11:0.10495627 12:0.014577259 13:0.034985423 14:0 15:0.049562682 16:0.014577259 17:0.04664723 18:0.072886297 19:0.06122449 20:0 21:0.084548105 22:0.0029154519 23:0 24:0.026239067 25:0 
1 1:0 2:0.012459016 3:0.06295082 4:0.12622951 5:0.0085245902 6:0.066885246 7:0.021311475 8:0.035737705 9:0 10:0.093442623 11:0.054098361 12:0.015409836 13:0.040983607 14:0 15:0.052459016 16:0.035081967 17:0.042622951 18:0.11606557 19:0.078360656 20:0 21:0.062622951 22:0.0006557377 23:0 24:0.0085245902 25:0 
1 1:0 2:0.02962963 3:0.059259259 4:0.037037037 5:0.014814815 6:0.081481481 7:0.02962963 8:0.066666667 9:0 10:0.15555556 11:0.051851852 12:0.014814815 13:0.022222222 14:0 15:0.066666667 16:0.037037037 17:0.051851852 18:0.066666667 19:0.044444444 20:0 21:0.066666667 22:0.0074074074 23:0 24:0.022222222 25:0 
1 1:0 2:0.046511628 3:0.07751938 4:0.069767442 5:0.023255814 6:0.069767442 7:0.031007752 8:0.031007752 9:0 10:0.046511628 11:0.07751938 12:0.031007752 13:0.015503876 14:0 15:0.046511628 16:0.023255814 17:0.07751938 18:0.085271318 19:0.015503876 20:0 21:0.093023256 22:0.007751938 23:0 24:0.03875969 25:0 
1 1:0 2:0.027624309 3:0.074585635 4:0.022099448 5:0.046961326 6:0.069060773 7:0.013812155 8:0.046961326 9:0 10:0.022099448 11:0.093922652 12:0.027624309 13:0.071823204 14:0 15:0.033149171 16:0.046961326 17:0.041436464 18:0.082872928 19:0.071823204 20:0 21:0.071823204 22:0 23:0 24:0.022099448 25:0 
1 1:0 2:0.020100503 3:0.055276382 4:0.12060302 5:0.030150754 6:0.08040201 7:0.035175879 8:0.0050251256 9:0 10:0.075376884 11:0.13065327 12:0.020100503 13:0.030150754 14:0 15:0.065326633 16:0.055276382 17:0.050251256 18:0.075376884 19:0.035175879 20:0 21:0.045226131 22:0 23:0 24:0.0050251256 25:0 
1 1:0 2:0.020053476 3:0.057486631 4:0.10561497 5:0.014705882 6:0.076203209 7:0.030748663 8:0.062834225 9:0 10:0.046791444 11:0.070855615 12:0.029411765 13:0.042780749 14:0 15:0.072192513 16:0.053475936 17:0.044117647 18:0.078877005 19:0.040106952 20:0 21:0.053475936 22:0.0040106952 23:0 24:0.029411765 25:0 
1 1:0 2:0.17391304 3:0.086956522 4:0.043478261 5:0.065217391 6:0.086956522 7:0.086956522 8:0 9:0 10:0.065217391 11:0 12:0 13:0.043478261 14:0 15:0 16:0.043478261 17:0.043478261 18:0.065217391 19:0.086956522 20:0 21:0.065217391 22:0 23:0 24:0 25:0 
1 1:0 2:0.013657056 3:0.034901366 4:0.074355083 5:0.063732929 6:0.042488619 7:0.013657056 8:0.062215478 9:0 10:0.06676783 11:0.13808801 12:0.031866464 13:0.040971168 14:0 15:0.036418816 16:0.036418816 17:0.042488619 18:0.054628225 19:0.04552352 20:0 21:0.065250379 22:0.016691958 23:0 24:0.050075873 25:0 
1 1:0 2:0.15789474 3:0.078947368 4:0 5:0.026315789 6:0.078947368 7:0.052631579 8:0.026315789 9:0 10:0.052631579 11:0 12:0 13:0.052631579 14:0 15:0.078947368 16:0.078947368 17:0.026315789 18:0.052631579 19:0.052631579 20:0 21:0.026315789 22:0.052631579 23:0 24:0.026315789 25:0 
1 1:0 2:0.016949153 3:0.06779661 4:0.04519774 5:0.033898305 6:0.06779661 7:0.016949153 8:0.039548023 9:0 10:0.079096045 11:0.11299435 12:0.02259887 13:0.033898305 14:0 15:0.039548023 16:0.033898305 17:0.04519774 18:0.079096045 19:0.056497175 20:0 21:0.056497175 22:0 23:0 24:0.056497175 25:0 
1 1:0 2:0.0068965517 3:0.045517241 4:0.08137931 5:0.017931034 6:0.042758621 7:0.016551724 8:0.028965517 9:0 10:0.12 11:0.059310345 12:0.023448276 13:0.024827586 14:0 15:0.10482759 16:0.049655172 17:0.04137931 18:0.10206897 19:0.046896552 20:0 21:0.062068966 22:0.0055172414 23:0 24:0.023448276 25:0 
1 1:0 2:0.028571429 3:0.057142857 4:0.071428571 5:0.042857143 6:0.057142857 7:0.014285714 8:0.1 9:0 10:0.071428571 11:0.11428571 12:0.014285714 13:0.057142857 14:0 15:0.057142857 16:0.042857143 17:0.057142857 18:0.057142857 19:0.028571429 20:0 21:0.1 22:0.014285714 23:0 24:0 25:0 
1 1:0 2:0.02742616 3:0.061181435 4:0.080168776 5:0.040084388 6:0.03164557 7:0.016877637 8:0.073839662 9:0 10:0.054852321 11:0.13924051 12:0.016877637 13:0.061181435 14:0 15:0.048523207 16:0.040084388 17:0.052742616 18:0.061181435 19:0.046413502 20:0 21:0.063291139 22:0.0063291139 23:0 24:0.010548523 25:0 
1 1:0 2:0.00625 3:0.0625 4:0.10625 5:0.03125 6:0.0125 7:0.00625 8:0.05625 9:0 10:0.125 11:0.08125 12:0.025 13:0.05 14:0 15:0.06875 16:0.03125 17:0.01875 18:0.04375 19:0.0375 20:0 21:0.05625 22:0.03125 23:0 24:0.0375 25:0 
1 1:0 2:0.0041753653 3:0.081121384 4:0.060244557 5:0.03877125 6:0.063525201 7:0.017297942 8:0.068893528 9:0 10:0.02356099 11:0.090366836 12:0.014315538 13:0.060244557 14:0 15:0.056665673 16:0.030718759 17:0.051297346 18:0.063525201 19:0.076349538 20:0 21:0.095138682 22:0.0044736057 23:0 24:0.033701163 25:0 
1 1:0 2:0.014792899 3:0.035502959 4:0.065088757 5:0.014792899 6:0.10650888 7:0.0088757396 8:0.065088757 9:0 10:0.068047337 11:0.11242604 12:0.023668639 13:0.023668639 14:0 15:0.053254438 16:0.020710059 17:0.068047337 18:0.056213018 19:0.023668639 20:0 21:0.065088757 22:0.0088757396 23:0 24:0.014792899 25:0 
1 1:0 2:0.014388489 3:0.050359712 4:0.057553957 5:0.057553957 6:0.055155875 7:0.019184652 8:0.081534772 9:0 10:0.069544365 11:0.083932854 12:0.019184652 13:0.050359712 14:0 15:0.06235012 16:0.035971223 17:0.033573141 18:0.083932854 19:0.052757794 20:0 21:0.095923261 22:0.0095923261 23:0 24:0.03117506 25:0 
1 1:0 2:0.02195122 3:0.036585366 4:0.087804878 5:0.043902439 6:0.046341463 7:0.024390244 8:0.046341463 9:0 10:0.090243902 11:0.1 12:0.012195122 13:0.034146341 14:0 15:0.06097561 16:0.041463415 17:0.036585366 18:0.063414634 19:0.06097561 20:0 21:0.036585366 22:0.012195122 23:0 24:0.048780488 25:0 
-1 1:0 2:0.0090497738 3:0.076923077 4:0.067873303 5:0.058823529 6:0.076923077 7:0.013574661 8:0.036199095 9:0 10:0.085972851 11:0.11312217 12:0.013574661 13:0.0090497738 14:0 15:0.067873303 16:0.022624434 17:0.054298643 18:0.045248869 19:0.0090497738 20:0 21:0.054298643 22:0.022624434 23:0 24:0.049773756 25:0 
-1 1:0 2:0.033898305 3:0.073446328 4:0.084745763 5:0.016949153 6:0.028248588 7:0.016949153 8:0.033898305 9:0 10:0.062146893 11:0.17514124 12:0.028248588 13:0.02259887 14:0 15:0.04519774 16:0.050847458 17:0.033898305 18:0.056497175 19:0.062146893 20:0 21:0.079096045 22:0.0056497175 23:0 24:0.011299435 25:0 
-1 1:0 2:0 3:0.0875 4:0.1375 5:0.0875 6:0.0875 7:0 8:0.0875 9:0 10:0.075 11:0.0625 12:0.0375 13:0.025 14:0 15:0.0125 16:0.0125 17:0.05 18:0.075 19:0.05 20:0 21:0.0375 22:0 23:0 24:0 25:0 
-1 1:0 2:0 3:0.070967742 4:0.077419355 5:0.051612903 6:0.090322581 7:0.012903226 8:0.064516129 9:0 10:0.10322581 11:0.077419355 12:0.0064516129 13:0.032258065 14:0 15:0.064516129 16:0.0064516129 17:0 18:0.090322581 19:0.064516129 20:0 21:0.064516129 22:0 23:0 24:0.032258065 25:0 
-1 1:0 2:0.015384615 3:0.053846154 4:0.061538462 5:0.015384615 6:0.15384615 7:0.015384615 8:0.084615385 9:0 10:0.046153846 11:0.069230769 12:0.046153846 13:0.023076923 14:0 15:0.061538462 16:0.061538462 17:0.015384615 18:0.030769231 19:0.053846154 20:0 21:0.084615385 22:0.015384615 23:0 24:0.038461538 25:0 
-1 1:0 2:0.011857708 3:0.04743083 4:0.090909091 5:0.071146245 6:0.059288538 7:0.023715415 8:0.071146245 9:0 10:0.043478261 11:0.086956522 12:0.019762846 13:0.043478261 14:0 15:0.071146245 16:0.015810277 17:0.043478261 18:0.043478261 19:0.063241107 20:0 21:0.098814229 22:0.019762846 23:0 24:0.015810277 25:0 
-1 1:0 2:0.02173913 3:0 4:0.01242236 5:0.040372671 6:0.034161491 7:0.046583851 8:0.043478261 9:0 10:0.0062111801 11:0.062111801 12:0.01242236 13:0.099378882 14:0 15:0.099378882 16:0.26086957 17:0.02484472 18:0.096273292 19:0.040372671 20:0 21:0.052795031 22:0.0031055901 23:0 24:0.01863354 25:0 
-1 1:0 2:0.03125 3:0.06875 4:0.075 5:0.05 6:0.0375 7:0.015625 8:0.028125 9:0 10:0.11875 11:0.075 12:0.021875 13:0.046875 14:0 15:0.05 16:0.05625 17:0.03125 18:0.05625 19:0.04375 20:0 21:0.071875 22:0.009375 23:0 24:0.046875 25:0 
-1 1:0 2:0.027777778 3:0.070707071 4:0.03030303 5:0.032828283 6:0.090909091 7:0.012626263 8:0.073232323 9:0 10:0.050505051 11:0.078282828 12:0.022727273 13:0.070707071 14:0 15:0.04040404 16:0.042929293 17:0.04040404 18:0.063131313 19:0.058080808 20:0 21:0.073232323 22:0.02020202 23:0 24:0.017676768 25:0 
-1 1:0 2:0.020231214 3:0.066473988 4:0.034682081 5:0.031791908 6:0.10115607 7:0.034682081 8:0.054913295 9:0 10:0.040462428 11:0.054913295 12:0.026011561 13:0.095375723 14:0 15:0.034682081 16:0.026011561 17:0.037572254 18:0.080924855 19:0.069364162 20:0 21:0.072254335 22:0.020231214 23:0 24:0.031791908 25:0 
-1 1:0 2:0.0037546934 3:0.062578223 4:0.13642053 5:0.017521902 6:0.080100125 7:0.012515645 8:0.027534418 9:0 10:0.095118899 11:0.09261577 12:0.015018773 13:0.02252816 14:0 15:0.038798498 16:0.048811014 17:0.091364205 18:0.068836045 19:0.048811014 20:0 21:0.048811014 22:0.0050062578 23:0 24:0.016270338 25:0 
-1 1:0 2:0.044776119 3:0.032835821 4:0.056716418 5:0.041791045 6:0.062686567 7:0.029850746 8:0.071641791 9:0 10:0.074626866 11:0.07761194 12:0.017910448 13:0.062686567 14:0 15:0.041791045 16:0.032835821 17:0.03880597 18:0.07761194 19:0.065671642 20:0 21:0.056716418 22:0.0029850746 23:0 24:0.053731343 25:0 
-1 1:0 2:0.0046948357 3:0.037558685 4:0.11737089 5:0.037558685 6:0.042253521 7:0.018779343 8:0.061032864 9:0 10:0.070422535 11:0.10798122 12:0.023474178 13:0.037558685 14:0 15:0.070422535 16:0.0657277 17:0.028169014 18:0.079812207 19:0.028169014 20:0 21:0.061032864 22:0.0093896714 23:0 24:0.046948357 25:0 
-1 1:0 2:0.0078125 3:0.078125 4:0.1015625 5:0.0703125 6:0.03125 7:0.0390625 8:0.0546875 9:0 10:0.078125 11:0.1484375 12:0.015625 13:0.0390625 14:0 15:0.0078125 16:0.03125 17:0.0625 18:0.03125 19:0.046875 20:0 21:0.046875 22:0 23:0 24:0.0078125 25:0 
-1 1:0 2:0.05 3:0.1 4:0 5:0 6:0 7:0 8:0.05 9:0 10:0 11:0.1 12:0 13:0 14:0 15:0.05 16:0.1 17:0 18:0.2 19:0.15 20:0 21:0.1 22:0 23:0 24:0.05 25:0 
-1 1:0 2:0.037037037 3:0.074074074 4:0.02962963 5:0.044444444 6:0.11851852 7:0.014814815 8:0.037037037 9:0 10:0.02962963 11:0.081481481 12:0 13:0.059259259 14:0 15:0.044444444 16:0.02962963 17:0.044444444 18:0.074074074 19:0.059259259 20:0 21:0.037037037 22:0.014814815 23:0 24:0.059259259 25:0 
-1 1:0 2:0.077586207 3:0.0086206897 4:0 5:0 6:0.094827586 7:0 8:0.060344828 9:0 10:0.068965517 11:0.086206897 12:0.025862069 13:0.060344828 14:0 15:0.060344828 16:0.034482759 17:0.017241379 18:0.077586207 19:0.077586207 20:0 21:0.086206897 22:0 23:0 24:0.017241379 25:0 
-1 1:0 2:0.084210526 3:0.021052632 4:0.010526316 5:0.010526316 6:0.094736842 7:0.021052632 8:0.021052632 9:0 10:0.042105263 11:0.094736842 12:0.042105263 13:0.010526316 14:0 15:0.052631579 16:0.073684211 17:0.042105263 18:0.063157895 19:0.042105263 20:0 21:0.063157895 22:0 23:0 24:0.031578947 25:0 
-1 1:0 2:0.019455253 3:0.11673152 4:0.17120623 5:0.019455253 6:0.11673152 7:0.011673152 8:0.031128405 9:0 10:0.097276265 11:0.046692607 12:0.015564202 13:0.023346304 14:0 15:0.027237354 16:0.019455253 17:0.023346304 18:0.085603113 19:0.031128405 20:0 21:0.054474708 22:0 23:0 24:0.015564202 25:0 
-1 1:0 2:0.11320755 3:0.056603774 4:0.037735849 5:0.037735849 6:0.094339623 7:0.018867925 8:0 9:0 10:0.056603774 11:0.056603774 12:0.037735849 13:0.094339623 14:0 15:0.056603774 16:0 17:0 18:0.075471698 19:0.094339623 20:0 21:0.075471698 22:0 23:0 24:0.056603774 25:0 
-1 1:0 2:0.014234875 3:0.056939502 4:0.097864769 5:0.028469751 6:0.067615658 7:0.028469751 8:0.037366548 9:0 10:0.048042705 11:0.080071174 12:0.0053380783 13:0.056939502 14:0 15:0.067615658 16:0.088967972 17:0.06405694 18:0.081850534 19:0.035587189 20:0 21:0.06227758 22:0.010676157 23:0 24:0.026690391 25:0 
-1 1:0 2:0.0099009901 3:0.04950495 4:0.059405941 5:0.04950495 6:0.02970297 7:0 8:0.069306931 9:0 10:0.099009901 11:0.02970297 12:0.0099009901 13:0.0099009901 14:0 15:0.03960396 16:0.04950495 17:0 18:0.02970297 19:0.089108911 20:0 21:0.079207921 22:0 23:0 24:0.03960396 25:0 
-1 1:0 2:0.0058651026 3:0.058651026 4:0.041055718 5:0.038123167 6:0.08797654 7:0.008797654 8:0.046920821 9:0 10:0.064516129 11:0.08797654 12:0.014662757 13:0.035190616 14:0 15:0.064516129 16:0.035190616 17:0.038123167 18:0.055718475 19:0.055718475 20:0 21:0.099706745 22:0.0029325513 23:0 24:0.020527859 25:0 
-1 1:0 2:0 3:0.076923077 4:0.025641026 5:0.051282051 6:0.076923077 7:0 8:0.076923077 9:0 10:0.076923077 11:0.076923077 12:0 13:0.025641026 14:0 15:0.076923077 16:0.025641026 17:0 18:0.076923077 19:0.025641026 20:0 21:0.1025641 22:0.051282051 23:0 24:0.051282051 25:0 
-1 1:0 2:0.046153846 3:0.061538462 4:0.069230769 5:0.015384615 6:0.076923077 7:0.038461538 8:0.053846154 9:0 10:0.1 11:0.061538462 12:0.0076923077 13:0.030769231 14:0 15:0.046153846 16:0.038461538 17:0.046153846 18:0.076923077 19:0.076923077 20:0 21:0.084615385 22:0 23:0 24:0.030769231 25:0 
-1 1:0 2:0.015267176 3:0.053435115 4:0.12977099 5:0.038167939 6:0.038167939 7:0.038167939 8:0.099236641 9:0 10:0.091603053 11:0.10687023 12:0.045801527 13:0.045801527 14:0 15:0.015267176 16:0.045801527 17:0.061068702 18:0.015267176 19:0.038167939 20:0 21:0.06870229 22:0 23:0 24:0.015267176 25:0 
-1 1:0 2:0 3:0.054187192 4:0.068965517 5:0.02955665 6:0.044334975 7:0 8:0.034482759 9:0 10:0.064039409 11:0.078817734 12:0.0049261084 13:0.02955665 14:0 15:0.064039409 16:0.034482759 17:0.02955665 18:0.064039409 19:0.068965517 20:0 21:0.17241379 22:0.0049261084 23:0 24:0.064039409 25:0 
-1 1:0 2:0.032894737 3:0.046052632 4:0.046052632 5:0.037280702 6:0.067982456 7:0.015350877 8:0.10087719 9:0 10:0.067982456 11:0.052631579 12:0.0087719298 13:0.10087719 14:0 15:0.028508772 16:0.048245614 17:0.019736842 18:0.10307018 19:0.048245614 20:0 21:0.078947368 22:0.013157895 23:0 24:0.028508772 25:0 
-1 1:0 2:0.016666667 3:0.075 4:0.025 5:0.058333333 6:0.091666667 7:0.058333333 8:0.066666667 9:0 10:0.075 11:0.016666667 12:0.025 13:0.0083333333 14:0 15:0.05 16:0.075 17:0.025 18:0.066666667 19:0.05 20:0 21:0.125 22:0.016666667 23:0 24:0.016666667 25:0 
-1 1:0 2:0.018469657 3:0.052770449 4:0.060686016 5:0.042216359 6:0.09762533 7:0.0079155673 8:0.058047493 9:0 10:0.044854881 11:0.060686016 12:0.015831135 13:0.071240106 14:0 15:0.036939314 16:0.036939314 17:0.039577836 18:0.07651715 19:0.073878628 20:0 21:0.068601583 22:0.021108179 23:0 24:0.058047493 25:0 
-1 1:0 2:0.04964539 3:0.070921986 4:0.042553191 5:0.04964539 6:0.078014184 7:0.035460993 8:0.078014184 9:0 10:0.09929078 11:0.092198582 12:0.014184397 13:0.035460993 14:0 15:0.035460993 16:0.014184397 17:0 18:0.063829787 19:0.078014184 20:0 21:0.085106383 22:0 23:0 24:0.021276596 25:0 
-1 1:0 2:0.019230769 3:0.0032051282 4:0.012820513 5:0.038461538 6:0.016025641 7:0.019230769 8:0.044871795 9:0 10:0.0064102564 11:0.083333333 12:0.012820513 13:0.022435897 14:0 15:0.13782051 16:0.36858974 17:0.016025641 18:0.054487179 19:0.032051282 20:0 21:0.044871795 22:0 23:0 24:0.025641026 25:0 
-1 1:0 2:0.0017921147 3:0.046594982 4:0.14157706 5:0.048387097 6:0.050179211 7:0.035842294 8:0.048387097 9:0 10:0.069892473 11:0.071684588 12:0.0035842294 13:0.0609319 14:0 15:0.059139785 16:0.091397849 17:0.064516129 18:0.071684588 19:0.021505376 20:0 21:0.048387097 22:0.0035842294 23:0 24:0.023297491 25:0 
-1 1:0 2:0.11538462 3:0 4:0.15384615 5:0.038461538 6:0.038461538 7:0 8:0.038461538 9:0 10:0 11:0.038461538 12:0 13:0.038461538 14:0 15:0.038461538 16:0.076923077 17:0.11538462 18:0.038461538 19:0.038461538 20:0 21:0.076923077 22:0 23:0 24:0.076923077 25:0 
-1 1:0 2:0 3:0.056603774 4:0.088050314 5:0.044025157 6:0.094339623 7:0.025157233 8:0.081761006 9:0 10:0.094339623 11:0.056603774 12:0.012578616 13:0.062893082 14:0 15:0.050314465 16:0.012578616 17:0.018867925 18:0.056603774 19:0.056603774 20:0 21:0.081761006 22:0 23:0 24:0.044025157 25:0 
-1 1:0 2:0.090909091 3:0 4:0 5:0 6:0.090909091 7:0 8:0.045454545 9:0 10:0.22727273 11:0.18181818 12:0 13:0 14:0 15:0 16:0 17:0 18:0.045454545 19:0.090909091 20:0 21:0.22727273 22:0 23:0 24:0 25:0 
-1 1:0 2:0.045801527 3:0.038167939 4:0.083969466 5:0.053435115 6:0.083969466 7:0.0076335878 8:0.061068702 9:0 10:0.076335878 11:0.076335878 12:0.022900763 13:0.061068702 14:0 15:0.053435115 16:0.022900763 17:0.045801527 18:0.045801527 19:0.083969466 20:0 21:0.053435115 22:0.0076335878 23:0 24:0.038167939 25:0 
-1 1:0 2:0.012578616 3:0.037735849 4:0.10062893 5:0.037735849 6:0.088050314 7:0.025157233 8:0.075471698 9:0 10:0.094339623 11:0.062893082 12:0.018867925 13:0.050314465 14:0 15:0.044025157 16:0.012578616 17:0.018867925 18:0.062893082 19:0.062893082 20:0 21:0.075471698 22:0 23:0 24:0.044025157 25:0 
-1 1:0 2:0.0093457944 3:0.13084112 4:0.046728972 5:0.093457944 6:0.074766355 7:0.0093457944 8:0.037383178 9:0 10:0.093457944 11:0.074766355 12:0.028037383 13:0.028037383 14:0 15:0 16:0.018691589 17:0.0093457944 18:0.074766355 19:0.028037383 20:0 21:0.046728972 22:0 23:0 24:0.0093457944 25:0 
-1 1:0 2:0.030395137 3:0.036474164 4:0.054711246 5:0.05775076 6:0.072948328 7:0.024316109 8:0.066869301 9:0 10:0.072948328 11:0.048632219 12:0.036474164 13:0.030395137 14:0 15:0.030395137 16:0.042553191 17:0.042553191 18:0.09118541 19:0.066869301 20:0 21:0.069908815 22:0.018237082 23:0 24:0.048632219 25:0 
-1 1:0 2:0.01875 3:0.03125 4:0.1 5:0.05 6:0.1 7:0.04375 8:0.08125 9:0 10:0.10625 11:0.0625 12:0.01875 13:0.03125 14:0 15:0.05 16:0.00625 17:0.00625 18:0.05625 19:0.05 20:0 21:0.0375 22:0 23:0 24:0.05 25:0 
-1 1:0 2:0.06993007 3:0.076923077 4:0.076923077 5:0.013986014 6:0.034965035 7:0.013986014 8:0.034965035 9:0 10:0.020979021 11:0.083916084 12:0.055944056 13:0.034965035 14:0 15:0.020979021 16:0.13986014 17:0.11888112 18:0.06993007 19:0.020979021 20:0 21:0.048951049 22:0 23:0 24:0.013986014 25:0 
-1 1:0 2:0.010335917 3:0.046511628 4:0.085271318 5:0.03875969 6:0.049095607 7:0.020671835 8:0.069767442 9:0 10:0.067183463 11:0.12919897 12:0.018087855 13:0.051679587 14:0 15:0.051679587 16:0.033591731 17:0.043927649 18:0.059431525 19:0.049095607 20:0 21:0.051679587 22:0.012919897 23:0 24:0.07751938 25:0 
-1 1:0 2:0.03649635 3:0.080291971 4:0.03649635 5:0.072992701 6:0.094890511 7:0.0072992701 8:0.02919708 9:0 10:0.051094891 11:0.065693431 12:0.0072992701 13:0.051094891 14:0 15:0.04379562 16:0.04379562 17:0.02189781 18:0.087591241 19:0.051094891 20:0 21:0.03649635 22:0.01459854 23:0 24:0.051094891 25:0 
-1 1:0 2:0.014792899 3:0.050295858 4:0.062130178 5:0.047337278 6:0.097633136 7:0.017751479 8:0.053254438 9:0 10:0.076923077 11:0.053254438 12:0.0059171598 13:0.038461538 14:0 15:0.065088757 16:0.026627219 17:0.038461538 18:0.053254438 19:0.071005917 20:0 21:0.079881657 22:0.01183432 23:0 24:0.035502959 25:0 
-1 1:0 2:0 3:0.020979021 4:0.073426573 5:0.034965035 6:0.073426573 7:0.006993007 8:0.027972028 9:0 10:0.097902098 11:0.038461538 12:0.0034965035 13:0.017482517 14:0 15:0.055944056 16:0.01048951 17:0.006993007 18:0.038461538 19:0.090909091 20:0 21:0.062937063 22:0 23:0 24:0.041958042 25:0 
-1 1:0 2:0.026923077 3:0.05 4:0.046153846 5:0.011538462 6:0.10384615 7:0.015384615 8:0.080769231 9:0 10:0.073076923 11:0.080769231 12:0.011538462 13:0.057692308 14:0 15:0.034615385 16:0.034615385 17:0.030769231 18:0.092307692 19:0.026923077 20:0 21:0.084615385 22:0.015384615 23:0 24:0.046153846 25:0 
-1 1:0 2:0.067669173 3:0.060150376 4:0.007518797 5:0.007518797 6:0.037593985 7:0.007518797 8:0.060150376 9:0 10:0.007518797 11:0.15789474 12:0.015037594 13:0.045112782 14:0 15:0.17293233 16:0.015037594 17:0.015037594 18:0.14285714 19:0.022556391 20:0 21:0.07518797 22:0 23:0 24:0.022556391 25:0 
-1 1:0 2:0.0026809651 3:0.053619303 4:0.032171582 5:0.042895442 6:0.067024129 7:0.010723861 8:0.058981233 9:0 10:0.040214477 11:0.10991957 12:0.021447721 13:0.064343164 14:0 15:0.058981233 16:0.034852547 17:0.053619303 18:0.096514745 19:0.050938338 20:0 21:0.061662198 22:0.016085791 23:0 24:0.042895442 25:0 
-1 1:0 2:0.0034246575 3:0.061643836 4:0.037671233 5:0.051369863 6:0.058219178 7:0 8:0.065068493 9:0 10:0.068493151 11:0.092465753 12:0.017123288 13:0.071917808 14:0 15:0.020547945 16:0.051369863 17:0.047945205 18:0.068493151 19:0.065068493 20:0 21:0.071917808 22:0.010273973 23:0 24:0.044520548 25:0 
-1 1:0 2:0.0035335689 3:0.067137809 4:0.2155477 5:0.0035335689 6:0.010600707 7:0.0070671378 8:0.042402827 9:0 10:0.13427562 11:0.12014134 12:0.024734982 13:0.024734982 14:0 15:0 16:0.053003534 17:0.049469965 18:0.038869258 19:0.028268551 20:0 21:0.024734982 22:0 23:0 24:0.021201413 25:0 
-1 1:0 2:0 3:0.10077519 4:0.085271318 5:0.069767442 6:0.07751938 7:0 8:0.03875969 9:0 10:0.13178295 11:0.054263566 12:0.015503876 13:0.031007752 14:0 15:0.015503876 16:0.031007752 17:0.046511628 18:0.031007752 19:0.093023256 20:0 21:0.12403101 22:0 23:0 24:0.031007752 25:0 
-1 1:0 2:0.027027027 3:0.081081081 4:0.027027027 5:0.040540541 6:0.094594595 7:0.054054054 8:0.033783784 9:0 10:0.10810811 11:0.060810811 12:0.0067567568 13:0.060810811 14:0 15:0.081081081 16:0.040540541 17:0.040540541 18:0.060810811 19:0.054054054 20:0 21:0.02027027 22:0.02027027 23:0 24:0.047297297 25:0 
-1 1:0 2:0.027548209 3:0.074380165 4:0.022038567 5:0.046831956 6:0.066115702 7:0.011019284 8:0.046831956 9:0 10:0.03030303 11:0.090909091 12:0.024793388 13:0.071625344 14:0 15:0.033057851 16:0.044077135 17:0.041322314 18:0.090909091 19:0.066115702 20:0 21:0.077134986 22:0 23:0 24:0.022038567 25:0 
-1 1:0 2:0.0075566751 3:0.055415617 4:0.04534005 5:0.062972292 6:0.062972292 7:0.01511335 8:0.032745592 9:0 10:0.050377834 11:0.1209068 12:0.022670025 13:0.025188917 14:0 15:0.04534005 16:0.052896725 17:0.035264484 18:0.10327456 19:0.052896725 20:0 21:0.078085642 22:0.0050377834 23:0 24:0.022670025 25:0 
-1 1:0 2:0 3:0.17391304 4:0 5:0 6:0.086956522 7:0.086956522 8:0.086956522 9:0 10:0.086956522 11:0.13043478 12:0 13:0 14:0 15:0 16:0 17:0 18:0.086956522 19:0.043478261 20:0 21:0.086956522 22:0 23:0 24:0 25:0 
-1 1:0 2:0.010335917 3:0.067183463 4:0.051679587 5:0.03875969 6:0.068475452 7:0.025839793 8:0.060723514 9:0 10:0.03875969 11:0.07881137 12:0.012919897 13:0.060723514 14:0 15:0.045219638 16:0.027131783 17:0.059431525 18:0.064599483 19:0.071059432 20:0 21:0.080103359 22:0.016795866 23:0 24:0.063307494 25:0 
-1 1:0 2:0 3:0.06918239 4:0.20754717 5:0.0062893082 6:0.012578616 7:0 8:0.031446541 9:0 10:0.088050314 11:0.12578616 12:0.0062893082 13:0.044025157 14:0 15:0 16:0.037735849 17:0.081761006 18:0.044025157 19:0.050314465 20:0 21:0.050314465 22:0 23:0 24:0.025157233 25:0 
-1 1:0 2:0.0022883295 3:0.046910755 4:0.16018307 5:0.0068649886 6:0.016018307 7:0.030892449 8:0.043478261 9:0 10:0.094965675 11:0.12471396 12:0.019450801 13:0.032036613 14:0 15:0.0011441648 16:0.089244851 17:0.077803204 18:0.052631579 19:0.044622426 20:0 21:0.050343249 22:0.0022883295 23:0 24:0.017162471 25:0 
-1 1:0 2:0 3:0.10280374 4:0.074766355 5:0.08411215 6:0.08411215 7:0 8:0.065420561 9:0 10:0.10280374 11:0.08411215 12:0 13:0.018691589 14:0 15:0 16:0.037383178 17:0.028037383 18:0.093457944 19:0.018691589 20:0 21:0.065420561 22:0 23:0 24:0.0093457944 25:0 
-1 1:0 2:0.028409091 3:0.096590909 4:0.056818182 5:0.039772727 6:0.073863636 7:0.045454545 8:0.051136364 9:0 10:0.045454545 11:0.125 12:0.017045455 13:0.039772727 14:0 15:0.028409091 16:0.056818182 17:0.034090909 18:0.085227273 19:0.028409091 20:0 21:0.051136364 22:0.017045455 23:0 24:0.028409091 25:0 
-1 1:0 2:0.088495575 3:0.026548673 4:0.044247788 5:0.026548673 6:0.14159292 7:0.0088495575 8:0.044247788 9:0 10:0.07079646 11:0.079646018 12:0.026548673 13:0.017699115 14:0 15:0.07079646 16:0 17:0.017699115 18:0.07079646 19:0.061946903 20:0 21:0.088495575 22:0 23:0 24:0.017699115 25:0 
-1 1:0 2:0.033472803 3:0.062761506 4:0.071129707 5:0.037656904 6:0.12552301 7:0.012552301 8:0.054393305 9:0 10:0.11715481 11:0.033472803 12:0.0083682008 13:0.025104603 14:0 15:0.071129707 16:0.0083682008 17:0.025104603 18:0.046025105 19:0.066945607 20:0 21:0.071129707 22:0.025104603 23:0 24:0.033472803 25:0 
-1 1:0 2:0.0062893082 3:0.050314465 4:0.088050314 5:0.044025157 6:0.088050314 7:0.025157233 8:0.075471698 9:0 10:0.094339623 11:0.056603774 12:0.012578616 13:0.06918239 14:0 15:0.050314465 16:0.012578616 17:0.018867925 18:0.056603774 19:0.050314465 20:0 21:0.094339623 22:0 23:0 24:0.044025157 25:0 
-1 1:0 2:0.025684932 3:0.032534247 4:0.11472603 5:0.042808219 6:0.089041096 7:0.023972603 8:0.042808219 9:0 10:0.042808219 11:0.065068493 12:0.015410959 13:0.039383562 14:0 15:0.034246575 16:0.092465753 17:0.10616438 18:0.054794521 19:0.032534247 20:0 21:0.053082192 22:0.0051369863 23:0 24:0.025684932 25:0 
-1 1:0 2:0.023148148 3:0.078703704 4:0.064814815 5:0.064814815 6:0.078703704 7:0.013888889 8:0.074074074 9:0 10:0.060185185 11:0.087962963 12:0.013888889 13:0.046296296 14:0 15:0.050925926 16:0.023148148 17:0.046296296 18:0.074074074 19:0.046296296 20:0 21:0.064814815 22:0.0092592593 23:0 24:0.023148148 25:0 
-1 1:0 2:0 3:0.041666667 4:0.09375 5:0.0625 6:0.083333333 7:0.010416667 8:0.03125 9:0 10:0.11458333 11:0.0625 12:0.020833333 13:0.03125 14:0 15:0.072916667 16:0.03125 17:0.041666667 18:0.072916667 19:0.0625 20:0 21:0.10416667 22:0.020833333 23:0 24:0.020833333 25:0 
-1 1:0 2:0.025423729 3:0.044491525 4:0.069915254 5:0.048728814 6:0.050847458 7:0.019067797 8:0.052966102 9:0 10:0.069915254 11:0.06779661 12:0.033898305 13:0.059322034 14:0 15:0.044491525 16:0.036016949 17:0.044491525 18:0.072033898 19:0.061440678 20:0 21:0.06779661 22:0.019067797 23:0 24:0.050847458 25:0 
-1 1:0 2:0.042857143 3:0.078571429 4:0.035714286 5:0.05 6:0.1 7:0.014285714 8:0.092857143 9:0 10:0.12142857 11:0.057142857 12:0.021428571 13:0.021428571 14:0 15:0.035714286 16:0.028571429 17:0.0071428571 18:0.035714286 19:0.071428571 20:0 21:0.085714286 22:0 23:0 24:0.0071428571 25:0 
-1 1:0 2:0.078125 3:0.0703125 4:0.0859375 5:0.0234375 6:0.0703125 7:0.0234375 8:0.0234375 9:0 10:0.015625 11:0.0546875 12:0.0625 13:0.0546875 14:0 15:0.0234375 16:0.1484375 17:0.1015625 18:0.0703125 19:0.015625 20:0 21:0.03125 22:0 23:0 24:0.015625 25:0 
-1 1:0 2:0 3:0.056962025 4:0.094936709 5:0.044303797 6:0.082278481 7:0.044303797 8:0.094936709 9:0 10:0.10126582 11:0.056962025 12:0.0063291139 13:0.037974684 14:0 15:0.025316456 16:0.012658228 17:0.0063291139 18:0.082278481 19:0.050632911 20:0 21:0.082278481 22:0 23:0 24:0.063291139 25:0 
-1 1:0 2:0.018518519 3:0.12222222 4:0.15555556 5:0.022222222 6:0.15185185 7:0.0037037037 8:0.033333333 9:0 10:0.085185185 11:0.037037037 12:0.018518519 13:0.048148148 14:0 15:0.025925926 16:0.014814815 17:0.014814815 18:0.096296296 19:0.037037037 20:0 21:0.044444444 22:0 23:0 24:0.011111111 25:0 
-1 1:0 2:0.046875 3:0.0703125 4:0.0546875 5:0.015625 6:0.0625 7:0.0390625 8:0.0859375 9:0 10:0.109375 11:0.046875 12:0.0078125 13:0.0546875 14:0 15:0.0625 16:0.0390625 17:0.015625 18:0.03125 19:0.03125 20:0 21:0.1171875 22:0.0078125 23:0 24:0.0234375 25:0 
-1 1:0 2:0.0058224163 3:0.072780204 4:0.050946143 5:0.061135371 6:0.04657933 7:0.048034934 8:0.036390102 9:0 10:0.065502183 11:0.058224163 12:0.030567686 13:0.059679767 14:0 15:0.052401747 16:0.034934498 17:0.048034934 18:0.03930131 19:0.030567686 20:0 21:0.08588064 22:0.0058224163 23:0 24:0.11499272 25:0 
-1 1:0 2:0.025575448 3:0.069053708 4:0.040920716 5:0.038363171 6:0.099744246 7:0.023017903 8:0.081841432 9:0 10:0.040920716 11:0.076726343 12:0.020460358 13:0.061381074 14:0 15:0.043478261 16:0.033248082 17:0.04859335 18:0.061381074 19:0.04859335 20:0 21:0.063938619 22:0.020460358 23:0 24:0.025575448 25:0 
-1 1:0 2:0.029585799 3:0.076923077 4:0.023668639 5:0.041420118 6:0.059171598 7:0.0059171598 8:0.071005917 9:0 10:0.1183432 11:0.094674556 12:0.01183432 13:0.035502959 14:0 15:0.023668639 16:0.047337278 17:0.01183432 18:0.10650888 19:0.035502959 20:0 21:0.071005917 22:0 23:0 24:0.029585799 25:0 
-1 1:0 2:0.036717063 3:0.041036717 4:0.034557235 5:0.03887689 6:0.10367171 7:0.010799136 8:0.047516199 9:0 10:0.047516199 11:0.071274298 12:0.023758099 13:0.05399568 14:0 15:0.060475162 16:0.028077754 17:0.036717063 18:0.095032397 19:0.049676026 20:0 21:0.079913607 22:0.017278618 23:0 24:0.03887689 25:0 
-1 1:0 2:0.0060851927 3:0.064908722 4:0.050709939 5:0.034482759 6:0.097363083 7:0.040567951 8:0.054766734 9:0 10:0.070993915 11:0.06693712 12:0.016227181 13:0.044624746 14:0 15:0.030425963 16:0.010141988 17:0.024340771 18:0.089249493 19:0.054766734 20:0 21:0.068965517 22:0.012170385 23:0 24:0.032454361 25:0 
-1 1:0 2:0 3:0.1 4:0.2 5:0 6:0 7:0 8:0 9:0 10:0 11:0.2 12:0.05 13:0.1 14:0 15:0 16:0.05 17:0.1 18:0.1 19:0 20:0 21:0.05 22:0 23:0 24:0 25:0 
-1 1:0 2:0.088888889 3:0.022222222 4:0 5:0 6:0.088888889 7:0 8:0.077777778 9:0 10:0.033333333 11:0.066666667 12:0 13:0.077777778 14:0 15:0.1 16:0.033333333 17:0.066666667 18:0.088888889 19:0.066666667 20:0 21:0.077777778 22:0 23:0 24:0.022222222 25:0 
-1 1:0 2:0.032967033 3:0.065934066 4:0.076923077 5:0.032967033 6:0.054945055 7:0 8:0.043956044 9:0 10:0.065934066 11:0.12087912 12:0.043956044 13:0.065934066 14:0 15:0.021978022 16:0.021978022 17:0.032967033 18:0.054945055 19:0.087912088 20:0 21:0.098901099 22:0 23:0 24:0.021978022 25:0 
-1 1:0 2:0.087719298 3:0.052631579 4:0.052631579 5:0.026315789 6:0.096491228 7:0.01754386 8:0.035087719 9:0 10:0.052631579 11:0.078947368 12:0.0087719298 13:0.035087719 14:0 15:0.035087719 16:0.043859649 17:0.0087719298 18:0.13157895 19:0.035087719 20:0 21:0.043859649 22:0.043859649 23:0 24:0.052631579 25:0 
-1 1:0 2:0.10810811 3:0.10810811 4:0.10810811 5:0.054054054 6:0.054054054 7:0.027027027 8:0 9:0 10:0.21621622 11:0.027027027 12:0.027027027 13:0.081081081 14:0 15:0.027027027 16:0 17:0 18:0.054054054 19:0.054054054 20:0 21:0.054054054 22:0 23:0 24:0.027027027 25:0 
-1 1:0 2:0.013245033 3:0.059602649 4:0.039735099 5:0.01986755 6:0.19205298 7:0.059602649 8:0.052980132 9:0 10:0.033112583 11:0.066225166 12:0.013245033 13:0.052980132 14:0 15:0.052980132 16:0.01986755 17:0.026490066 18:0.052980132 19:0.099337748 20:0 21:0.092715232 22:0 23:0 24:0.0066225166 25:0 
-1 1:0 2:0 3:0.07183908 4:0.086206897 5:0.048850575 6:0.048850575 7:0.040229885 8:0.043103448 9:0 10:0.12356322 11:0.07183908 12:0.031609195 13:0.077586207 14:0 15:0.031609195 16:0.045977011 17:0.031609195 18:0.066091954 19:0.051724138 20:0 21:0.043103448 22:0 23:0 24:0.045977011 25:0 
-1 1:0 2:0.023255814 3:0.053156146 4:0.066445183 5:0.03986711 6:0.066445183 7:0.026578073 8:0.073089701 9:0 10:0.033222591 11:0.053156146 12:0.016611296 13:0.07641196 14:0 15:0.033222591 16:0.053156146 17:0.059800664 18:0.066445183 19:0.033222591 20:0 21:0.049833887 22:0.013289037 23:0 24:0.066445183 25:0 
-1 1:0 2:0.018518519 3:0.092592593 4:0.083333333 5:0.083333333 6:0.083333333 7:0.037037037 8:0.055555556 9:0 10:0.14814815 11:0.092592593 12:0.018518519 13:0.027777778 14:0 15:0 16:0.018518519 17:0.0092592593 18:0.037037037 19:0.027777778 20:0 21:0.037037037 22:0 23:0 24:0 25:0 
-1 1:0 2:0 3:0.05 4:0.085714286 5:0.05952381 6:0.054761905 7:0.023809524 8:0.05952381 9:0 10:0.057142857 11:0.10714286 12:0.011904762 13:0.071428571 14:0 15:0.035714286 16:0.054761905 17:0.045238095 18:0.092857143 19:0.033333333 20:0 21:0.066666667 22:0.0023809524 23:0 24:0.030952381 25:0 
-1 1:0 2:0.016917293 3:0.054511278 4:0.039473684 5:0.033834586 6:0.084586466 7:0.037593985 8:0.035714286 9:0 10:0.043233083 11:0.12593985 12:0.015037594 13:0.039473684 14:0 15:0.092105263 16:0.028195489 17:0.058270677 18:0.065789474 19:0.054511278 20:0 21:0.052631579 22:0.026315789 23:0 24:0.041353383 25:0 
-1 1:0 2:0.064705882 3:0.029411765 4:0.041176471 5:0.029411765 6:0.052941176 7:0.011764706 8:0.017647059 9:0 10:0.017647059 11:0.11764706 12:0.035294118 13:0.029411765 14:0 15:0.094117647 16:0.064705882 17:0.047058824 18:0.058823529 19:0.047058824 20:0 21:0.076470588 22:0.011764706 23:0 24:0.035294118 25:0 
-1 1:0 2:0.0035335689 3:0.084805654 4:0.19787986 5:0.0035335689 6:0.010600707 7:0.0070671378 8:0.042402827 9:0 10:0.13427562 11:0.11660777 12:0.021201413 13:0.017667845 14:0 15:0 16:0.049469965 17:0.053003534 18:0.053003534 19:0.028268551 20:0 21:0.03180212 22:0 23:0 24:0.021201413 25:0 
-1 1:0 2:0 3:0.06360424 4:0.19081272 5:0.010600707 6:0.014134276 7:0.0035335689 8:0.021201413 9:0 10:0.098939929 11:0.11660777 12:0.028268551 13:0.060070671 14:0 15:0 16:0.060070671 17:0.074204947 18:0.053003534 19:0.03180212 20:0 21:0.049469965 22:0 23:0 24:0.014134276 25:0 
-1 1:0 2:0 3:0.10067114 4:0.073825503 5:0.040268456 6:0.020134228 7:0.020134228 8:0.020134228 9:0 10:0.10067114 11:0.093959732 12:0.0067114094 13:0.020134228 14:0 15:0.060402685 16:0.093959732 17:0 18:0.026845638 19:0.040268456 20:0 21:0.080536913 22:0 23:0 24:0.013422819 25:0 
-1 1:0 2:0.021798365 3:0.092643052 4:0.04359673 5:0.027247956 6:0.1253406 7:0.013623978 8:0.073569482 9:0 10:0.046321526 11:0.040871935 12:0.0081743869 13:0.046321526 14:0 15:0.027247956 16:0.019073569 17:0.013623978 18:0.13079019 19:0.10354223 20:0 21:0.073569482 22:0.013623978 23:0 24:0.024523161 25:0 
-1 1:0 2:0.045714286 3:0.04 4:0.051428571 5:0.0057142857 6:0.074285714 7:0.022857143 8:0.034285714 9:0 10:0.068571429 11:0.074285714 12:0.022857143 13:0.0057142857 14:0 15:0.12571429 16:0.034285714 17:0.051428571 18:0.068571429 19:0.057142857 20:0 21:0.10857143 22:0.0057142857 23:0 24:0.0057142857 25:0 
-1 1:0 2:0.021875 3:0.046875 4:0.06875 5:0.034375 6:0.0625 7:0.025 8:0.065625 9:0 10:0.0375 11:0.06875 12:0.01875 13:0.059375 14:0 15:0.03125 16:0.05625 17:0.05625 18:0.071875 19:0.053125 20:0 21:0.065625 22:0.0125 23:0 24:0.065625 25:0 
-1 1:0 2:0.050955414 3:0.063694268 4:0.089171975 5:0.01910828 6:0.044585987 7:0.01910828 8:0.01910828 9:0 10:0.012738854 11:0.10828025 12:0.025477707 13:0.044585987 14:0 15:0.050955414 16:0.14649682 17:0.12101911 18:0.070063694 19:0.0063694268 20:0 21:0.012738854 22:0.0063694268 23:0 24:0.031847134 25:0 
-1 1:0 2:0.010582011 3:0.015873016 4:0.063492063 5:0.037037037 6:0.015873016 7:0.015873016 8:0.068783069 9:0 10:0.052910053 11:0.068783069 12:0.021164021 13:0.042328042 14:0 15:0.11111111 16:0.079365079 17:0.026455026 18:0.074074074 19:0.08994709 20:0 21:0.068783069 22:0.0052910053 23:0 24:0.047619048 25:0 
-1 1:0 2:0.06097561 3:0.054878049 4:0.036585366 5:0.018292683 6:0.097560976 7:0.030487805 8:0.024390244 9:0 10:0.018292683 11:0.079268293 12:0.036585366 13:0.024390244 14:0 15:0.06097561 16:0.030487805 17:0.085365854 18:0.054878049 19:0.042682927 20:0 21:0.097560976 22:0.012195122 23:0 24:0.036585366 25:0 
-1 1:0 2:0.0041493776 3:0.078838174 4:0.049792531 5:0.062240664 6:0.070539419 7:0.020746888 8:0.095435685 9:0 10:0.12033195 11:0.070539419 12:0.0041493776 13:0.10373444 14:0 15:0.012448133 16:0.024896266 17:0.012448133 18:0.078838174 19:0.062240664 20:0 21:0.045643154 22:0.0041493776 23:0 24:0.062240664 25:0 
-1 1:0 2:0.0066666667 3:0.07 4:0.023333333 5:0.02 6:0.12333333 7:0.0066666667 8:0.046666667 9:0 10:0.033333333 11:0.07 12:0.02 13:0.056666667 14:0 15:0.04 16:0.026666667 17:0.033333333 18:0.12333333 19:0.09 20:0 21:0.073333333 22:0.026666667 23:0 24:0.043333333 25:0 
-1 1:0 2:0.026804124 3:0.041237113 4:0.068041237 5:0.045360825 6:0.051546392 7:0.018556701 8:0.051546392 9:0 10:0.07628866 11:0.068041237 12:0.035051546 13:0.06185567 14:0 15:0.045360825 16:0.037113402 17:0.043298969 18:0.072164948 19:0.057731959 20:0 21:0.070103093 22:0.018556701 23:0 24:0.051546392 25:0 
-1 1:0 2:0.036764706 3:0.080882353 4:0.036764706 5:0.058823529 6:0.095588235 7:0.0073529412 8:0.022058824 9:0 10:0.058823529 11:0.073529412 12:0.0073529412 13:0.044117647 14:0 15:0.036764706 16:0.036764706 17:0.029411765 18:0.10294118 19:0.073529412 20:0 21:0.044117647 22:0.014705882 23:0 24:0.051470588 25:0 
-1 1:0 2:0.012919897 3:0.041343669 4:0.085271318 5:0.059431525 6:0.051679587 7:0.018087855 8:0.062015504 9:0 10:0.064599483 11:0.093023256 12:0.049095607 13:0.062015504 14:0 15:0.031007752 16:0.012919897 17:0.031007752 18:0.087855297 19:0.074935401 20:0 21:0.059431525 22:0.010335917 23:0 24:0.033591731 25:0 
-1 1:0 2:0.011871114 3:0.061616733 4:0.071226682 5:0.037309214 6:0.044657999 7:0.022046354 8:0.058224986 9:0 10:0.078010175 11:0.089315998 12:0.037309214 13:0.061051441 14:0 15:0.046919163 16:0.033917467 17:0.046353872 18:0.084793669 19:0.062182024 20:0 21:0.072922555 22:0.01017524 23:0 24:0.027699265 25:0 
-1 1:0 2:0.0078125 3:0.06640625 4:0.05859375 5:0.0390625 6:0.07421875 7:0.0234375 8:0.046875 9:0 10:0.09765625 11:0.12109375 12:0.0078125 13:0.06640625 14:0 15:0.0234375 16:0.0390625 17:0.03125 18:0.05859375 19:0.08203125 20:0 21:0.046875 22:0.0078125 23:0 24:0.06640625 25:0 
-1 1:0 2:0.033175355 3:0.037914692 4:0.042654028 5:0.028436019 6:0.1042654 7:0.0047393365 8:0.08056872 9:0 10:0.071090047 11:0.028436019 12:0.014218009 13:0.047393365 14:0 15:0.052132701 16:0.033175355 17:0.028436019 18:0.08056872 19:0.042654028 20:0 21:0.066350711 22:0.023696682 23:0 24:0.066350711 25:0 
-1 1:0 2:0.020289855 3:0.063768116 4:0.034782609 5:0.031884058 6:0.10144928 7:0.034782609 8:0.055072464 9:0 10:0.04057971 11:0.055072464 12:0.026086957 13:0.092753623 14:0 15:0.034782609 16:0.026086957 17:0.037681159 18:0.07826087 19:0.069565217 20:0 21:0.075362319 22:0.020289855 23:0 24:0.031884058 25:0 
-1 1:0 2:0.15151515 3:0.090909091 4:0 5:0 6:0.15151515 7:0.060606061 8:0.060606061 9:0 10:0.03030303 11:0.060606061 12:0 13:0.060606061 14:0 15:0.090909091 16:0.060606061 17:0.03030303 18:0.12121212 19:0.060606061 20:0 21:0 22:0 23:0 24:0 25:0 
-1 1:0 2:0 3:0.058823529 4:0.075630252 5:0.067226891 6:0.10084034 7:0.0084033613 8:0.10084034 9:0 10:0.084033613 11:0.042016807 12:0.016806723 13:0.075630252 14:0 15:0.067226891 16:0.0084033613 17:0.016806723 18:0.067226891 19:0.058823529 20:0 21:0.075630252 22:0 23:0 24:0.033613445 25:0 
-1 1:0 2:0.11320755 3:0.075471698 4:0.018867925 5:0.056603774 6:0.056603774 7:0.018867925 8:0 9:0 10:0.075471698 11:0.075471698 12:0.018867925 13:0.056603774 14:0 15:0.075471698 16:0 17:0.018867925 18:0.11320755 19:0.075471698 20:0 21:0.075471698 22:0 23:0 24:0.056603774 25:0 
-1 1:0 2:0.011267606 3:0.073239437 4:0.061971831 5:0.047887324 6:0.078873239 7:0.025352113 8:0.047887324 9:0 10:0.095774648 11:0.098591549 12:0.030985915 13:0.042253521 14:0 15:0.036619718 16:0.047887324 17:0.047887324 18:0.036619718 19:0.05915493 20:0 21:0.056338028 22:0.0056338028 23:0 24:0.03943662 25:0 
-1 1:0 2:0 3:0.024475524 4:0.076923077 5:0.031468531 6:0.06993007 7:0.0034965035 8:0.027972028 9:0 10:0.1048951 11:0.038461538 12:0.0034965035 13:0.017482517 14:0 15:0.059440559 16:0.006993007 17:0.006993007 18:0.034965035 19:0.090909091 20:0 21:0.062937063 22:0 23:0 24:0.041958042 25:0 
-1 1:0 2:0.020689655 3:0.065517241 4:0.04137931 5:0.05862069 6:0.096551724 7:0.020689655 8:0.05862069 9:0 10:0.024137931 11:0.079310345 12:0.0034482759 13:0.065517241 14:0 15:0.044827586 16:0.020689655 17:0.05862069 18:0.072413793 19:0.068965517 20:0 21:0.068965517 22:0.017241379 23:0 24:0.034482759 25:0 
-1 1:0 2:0.021582734 3:0.068345324 4:0.035971223 5:0.017985612 6:0.089928058 7:0.014388489 8:0.089928058 9:0 10:0.068345324 11:0.068345324 12:0.025179856 13:0.043165468 14:0 15:0.057553957 16:0.043165468 17:0.032374101 18:0.086330935 19:0.071942446 20:0 21:0.071942446 22:0.017985612 23:0 24:0.035971223 25:0 
-1 1:0 2:0.025889968 3:0.051779935 4:0.051779935 5:0.029126214 6:0.090614887 7:0.045307443 8:0.03236246 9:0 10:0.012944984 11:0.064724919 12:0.012944984 13:0.038834951 14:0 15:0.055016181 16:0.022653722 17:0.045307443 18:0.097087379 19:0.080906149 20:0 21:0.061488673 22:0.022653722 23:0 24:0.029126214 25:0 
-1 1:0 2:0.071428571 3:0.053571429 4:0.0089285714 5:0 6:0.080357143 7:0.026785714 8:0.053571429 9:0 10:0.026785714 11:0.098214286 12:0.026785714 13:0.071428571 14:0 15:0.0625 16:0.053571429 17:0.0625 18:0.080357143 19:0.0089285714 20:0 21:0.098214286 22:0 23:0 24:0.017857143 25:0 
-1 1:0 2:0.0092592593 3:0.12037037 4:0.064814815 5:0.092592593 6:0.083333333 7:0.0092592593 8:0.064814815 9:0 10:0.11111111 11:0.074074074 12:0.018518519 13:0.018518519 14:0 15:0 16:0.018518519 17:0.0092592593 18:0.064814815 19:0.027777778 20:0 21:0.046296296 22:0 23:0 24:0 25:0 
-1 1:0 2:0.0074074074 3:0.066666667 4:0.13333333 5:0.059259259 6:0.022222222 7:0.0074074074 8:0.074074074 9:0 10:0.11111111 11:0.1037037 12:0.051851852 13:0.02962963 14:0 15:0 16:0.037037037 17:0.044444444 18:0.044444444 19:0.044444444 20:0 21:0.066666667 22:0.0074074074 23:0 24:0.022222222 25:0 
-1 1:0 2:0.013850416 3:0.052631579 4:0.063711911 5:0.049861496 6:0.094182825 7:0.022160665 8:0.055401662 9:0 10:0.069252078 11:0.058171745 12:0.011080332 13:0.03601108 14:0 15:0.058171745 16:0.024930748 17:0.038781163 18:0.052631579 19:0.08033241 20:0 21:0.08033241 22:0.011080332 23:0 24:0.033240997 25:0 
-1 1:0 2:0.013245033 3:0.059602649 4:0.039735099 5:0.01986755 6:0.19205298 7:0.059602649 8:0.052980132 9:0 10:0.033112583 11:0.066225166 12:0.013245033 13:0.052980132 14:0 15:0.052980132 16:0.01986755 17:0.026490066 18:0.052980132 19:0.086092715 20:0 21:0.092715232 22:0 23:0 24:0.0066225166 25:0 
-1 1:0 2:0.0034602076 3:0.027681661 4:0.058823529 5:0.041522491 6:0.051903114 7:0.0034602076 8:0.034602076 9:0 10:0.079584775 11:0.041522491 12:0.010380623 13:0.017301038 14:0 15:0.051903114 16:0.017301038 17:0.0034602076 18:0.024221453 19:0.089965398 20:0 21:0.08650519 22:0 23:0 24:0.041522491 25:0 
