svm_type c_svc
kernel_type rbf
gamma 512
nr_class 2
total_sv 3077
rho -0.024567191351536802
label 0 1
nr_sv 1605 1472
SV
1.0193828225632964 1:0 2:0.031446541 3:0.081761006 4:0.088050314 5:0.023060797 6:0.088050314 7:0.023060797 8:0.052410901 9:0 10:0.092243187 11:0.060796646 12:0.018867925 13:0.035639413 14:0 15:0.048218029 16:0.025157233 17:0.052410901 18:0.046121593 19:0.05870021 20:0 21:0.05870021 22:0.0083857442 23:0 24:0.031446541 25:0 
2.2443494345088135 1:0 2:0.0072463768 3:0.049689441 4:0.063146998 5:0.043478261 6:0.047619048 7:0.017598344 8:0.050724638 9:0 10:0.046583851 11:0.098343685 12:0.019668737 13:0.073498965 14:0 15:0.047619048 16:0.041407867 17:0.041407867 18:0.080745342 19:0.066252588 20:0 21:0.066252588 22:0.025879917 23:0 24:0.041407867 25:0 
0.42203144154935013 1:0 2:0.01156515 3:0.034695451 4:0.066306862 5:0.025443331 6:0.075558982 7:0.030069391 8:0.032382421 9:0 10:0.0092521203 11:0.090979183 12:0.017733231 13:0.043176561 14:0 15:0.077101002 16:0.055512722 17:0.087124133 18:0.12721665 19:0.064764842 20:0 21:0.047031611 22:0.01387818 23:0 24:0.021588281 25:0 
0.62128628427455934 1:0 2:0 3:0.053370787 4:0.12078652 5:0.02247191 6:0.058988764 7:0.053370787 8:0.030898876 9:0 10:0.095505618 11:0.1488764 12:0.0056179775 13:0.030898876 14:0 15:0.033707865 16:0.033707865 17:0.087078652 18:0.070224719 19:0.028089888 20:0 21:0.036516854 22:0.016853933 23:0 24:0.016853933 25:0 
0.95487323744839592 1:0 2:0.0048076923 3:0.033653846 4:0.024038462 5:0.028846154 6:0.10576923 7:0.028846154 8:0.052884615 9:0 10:0.0096153846 11:0.14903846 12:0.014423077 13:0.033653846 14:0 15:0.11538462 16:0.091346154 17:0.019230769 18:0.072115385 19:0.11057692 20:0 21:0.033653846 22:0 23:0 24:0 25:0 
6.7648177674245984 1:0 2:0.023529412 3:0.066666667 4:0.037254902 5:0.058823529 6:0.1 7:0.021568627 8:0.056862745 9:0 10:0.045098039 11:0.054901961 12:0.019607843 13:0.082352941 14:0 15:0.045098039 16:0.02745098 17:0.054901961 18:0.062745098 19:0.043137255 20:0 21:0.070588235 22:0.035294118 23:0 24:0.041176471 25:0 
0.15736935682823966 1:0 2:0.016831683 3:0.047524752 4:0.12178218 5:0.024752475 6:0.024752475 7:0.030693069 8:0.05049505 9:0 10:0.11683168 11:0.12475248 12:0.030693069 13:0.065346535 14:0 15:0.015841584 16:0.04950495 17:0.059405941 18:0.052475248 19:0.038613861 20:0 21:0.038613861 22:0.003960396 23:0 24:0.022772277 25:0 
0.41719025581587021 1:0 2:0.0080645161 3:0.12903226 4:0.22983871 5:0.016129032 6:0.068548387 7:0.0080645161 8:0.02016129 9:0 10:0.064516129 11:0.12903226 12:0.0080645161 13:0.064516129 14:0 15:0.028225806 16:0.012096774 17:0.044354839 18:0.048387097 19:0.032258065 20:0 21:0.048387097 22:0 23:0 24:0.024193548 25:0 
0.66564520894656254 1:0 2:0.012 3:0.152 4:0.224 5:0.028 6:0.064 7:0.008 8:0.024 9:0 10:0.068 11:0.132 12:0.012 13:0.052 14:0 15:0.028 16:0.008 17:0.04 18:0.044 19:0.028 20:0 21:0.044 22:0 23:0 24:0.012 25:0 
0.80163974948117966 1:0 2:0.014981273 3:0.11610487 4:0.2659176 5:0.018726592 6:0.06741573 7:0 8:0.033707865 9:0 10:0.052434457 11:0.12734082 12:0.014981273 13:0.063670412 14:0 15:0.02247191 16:0.018726592 17:0.029962547 18:0.052434457 19:0.02247191 20:0 21:0.029962547 22:0 23:0 24:0.02247191 25:0 
0.42186284093410192 1:0 2:0.010781671 3:0.03638814 4:0.053908356 5:0.045822102 6:0.080862534 7:0.018867925 8:0.022911051 9:0 10:0.016172507 11:0.11725067 12:0.017520216 13:0.030997305 14:0 15:0.059299191 16:0.047169811 17:0.066037736 18:0.064690027 19:0.039083558 20:0 21:0.070080863 22:0.035040431 23:0 24:0.040431267 25:0 
0.63788507217912638 1:0 2:0.015037594 3:0.022556391 4:0.060150376 5:0.022556391 6:0.10526316 7:0.037593985 8:0.015037594 9:0 10:0.045112782 11:0.15037594 12:0.030075188 13:0.007518797 14:0 15:0.067669173 16:0.060150376 17:0.097744361 18:0.12030075 19:0.045112782 20:0 21:0.045112782 22:0.007518797 23:0 24:0.007518797 25:0 
0.93873138569549275 1:0 2:0.024 3:0.04 4:0.04 5:0.008 6:0.136 7:0.016 8:0.008 9:0 10:0.104 11:0.16 12:0.016 13:0.024 14:0 15:0.08 16:0.032 17:0.08 18:0.064 19:0.024 20:0 21:0.016 22:0.008 23:0 24:0.008 25:0 
0.30646375599477599 1:0 2:0.013157895 3:0.052631579 4:0.059210526 5:0.039473684 6:0.078947368 7:0.0065789474 8:0.0065789474 9:0 10:0.026315789 11:0.14473684 12:0.032894737 13:0.039473684 14:0 15:0.078947368 16:0.032894737 17:0.085526316 18:0.11184211 19:0.039473684 20:0 21:0.046052632 22:0.013157895 23:0 24:0.013157895 25:0 
1.1584105139777681 1:0 2:0.04109589 3:0.04109589 4:0.02739726 5:0.04109589 6:0.082191781 7:0.04109589 8:0.047945205 9:0 10:0.047945205 11:0.095890411 12:0.020547945 13:0.061643836 14:0 15:0.068493151 16:0.04109589 17:0.089041096 18:0.061643836 19:0.061643836 20:0 21:0.061643836 22:0.0068493151 23:0 24:0.02739726 25:0 
0.2989244515869463 1:0 2:0.0087145969 3:0.047930283 4:0.089324619 5:0.039215686 6:0.050108932 7:0.032679739 8:0.067538126 9:0 10:0.082788671 11:0.10457516 12:0.010893246 13:0.069716776 14:0 15:0.041394336 16:0.058823529 17:0.041394336 18:0.082788671 19:0.054466231 20:0 21:0.041394336 22:0.019607843 23:0 24:0.039215686 25:0 
0.09326096390444083 1:0 2:0.017283951 3:0.04691358 4:0.04691358 5:0.034567901 6:0.083950617 7:0.044444444 8:0.019753086 9:0 10:0.039506173 11:0.11604938 12:0.017283951 13:0.024691358 14:0 15:0.056790123 16:0.088888889 17:0.071604938 18:0.079012346 19:0.044444444 20:0 21:0.04691358 22:0.024691358 23:0 24:0.012345679 25:0 
0.13036926394012383 1:0 2:0.014925373 3:0.042643923 4:0.057569296 5:0.021321962 6:0.108742 7:0.036247335 8:0.0063965885 9:0 10:0.019189765 11:0.1130064 12:0.012793177 13:0.014925373 14:0 15:0.066098081 16:0.066098081 17:0.091684435 18:0.057569296 19:0.031982942 20:0 21:0.059701493 22:0.029850746 23:0 24:0.031982942 25:0 
0.2663766790803489 1:0 2:0.020120724 3:0.040241449 4:0.080482897 5:0.036217304 6:0.070422535 7:0.034205231 8:0.048289738 9:0 10:0.064386318 11:0.10462777 12:0.034205231 13:0.07444668 14:0 15:0.022132797 16:0.07444668 17:0.044265594 18:0.054325956 19:0.068410463 20:0 21:0.032193159 22:0.016096579 23:0 24:0.040241449 25:0 
0.36815695959831651 1:0 2:0.018181818 3:0.050505051 4:0.074747475 5:0.032323232 6:0.054545455 7:0.016161616 8:0.054545455 9:0 10:0.074747475 11:0.090909091 12:0.034343434 13:0.074747475 14:0 15:0.02020202 16:0.078787879 17:0.028282828 18:0.078787879 19:0.066666667 20:0 21:0.050505051 22:0.02020202 23:0 24:0.04040404 25:0 
0.25352316246339185 1:0 2:0.017928287 3:0.033864542 4:0.055776892 5:0.021912351 6:0.059760956 7:0.027888446 8:0.023904382 9:0 10:0.045816733 11:0.1374502 12:0.025896414 13:0.049800797 14:0 15:0.029880478 16:0.10956175 17:0.06374502 18:0.083665339 19:0.051792829 20:0 21:0.047808765 22:0.015936255 23:0 24:0.025896414 25:0 
0.80225848008761858 1:0 2:0.010330579 3:0.051652893 4:0.045454545 5:0.045454545 6:0.05785124 7:0.02892562 8:0.02892562 9:0 10:0.04338843 11:0.14256198 12:0.024793388 13:0.030991736 14:0 15:0.051652893 16:0.061983471 17:0.035123967 18:0.066115702 19:0.064049587 20:0 21:0.078512397 22:0.01446281 23:0 24:0.016528926 25:0 
0.19202541400582609 1:0 2:0.0091407678 3:0.056672761 4:0.08226691 5:0.026965265 6:0.052559415 7:0.027193784 8:0.042047532 9:0 10:0.083866545 11:0.076325411 12:0.019652651 13:0.037705667 14:0 15:0.06261426 16:0.043647166 17:0.040447898 18:0.11037477 19:0.075182815 20:0 21:0.063756856 22:0.0036563071 23:0 24:0.017824497 25:0 
0.53772155818803924 1:0 2:0.01572327 3:0.056603774 4:0.10691824 5:0.022012579 6:0.050314465 7:0.028301887 8:0.047169811 9:0 10:0.11006289 11:0.12893082 12:0.022012579 13:0.044025157 14:0 15:0.034591195 16:0.025157233 17:0.053459119 18:0.031446541 19:0.050314465 20:0 21:0.059748428 22:0.0094339623 23:0 24:0.022012579 25:0 
0.29008596877475318 1:0 2:0.008356546 3:0.069637883 4:0.097493036 5:0.013927577 6:0.072423398 7:0.04178273 8:0.033426184 9:0 10:0.066852368 11:0.11977716 12:0.025069638 13:0.025069638 14:0 15:0.04735376 16:0.04735376 17:0.066852368 18:0.030640669 19:0.050139276 20:0 21:0.058495822 22:0.011142061 23:0 24:0.0055710306 25:0 
0.35051014472752284 1:0 2:0.040909091 3:0.047727273 4:0.095454545 5:0.027272727 6:0.063636364 7:0.029545455 8:0.052272727 9:0 10:0.093181818 11:0.093181818 12:0.031818182 13:0.047727273 14:0 15:0.038636364 16:0.05 17:0.029545455 18:0.045454545 19:0.054545455 20:0 21:0.068181818 22:0.0045454545 23:0 24:0.022727273 25:0 
0.30521568829352297 1:0 2:0.027777778 3:0.075 4:0.075 5:0.05 6:0.047222222 7:0.025 8:0.061111111 9:0 10:0.075 11:0.075 12:0.033333333 13:0.038888889 14:0 15:0.033333333 16:0.019444444 17:0.038888889 18:0.055555556 19:0.063888889 20:0 21:0.086111111 22:0.013888889 23:0 24:0.052777778 25:0 
2.3770165486893262 1:0 2:0.022641509 3:0.071698113 4:0.079245283 5:0.047169811 6:0.052830189 7:0.032075472 8:0.056603774 9:0 10:0.079245283 11:0.088679245 12:0.026415094 13:0.032075472 14:0 15:0.035849057 16:0.028301887 17:0.026415094 18:0.079245283 19:0.058490566 20:0 21:0.075471698 22:0.0094339623 23:0 24:0.039622642 25:0 
1.132979565903464 1:0 2:0.025445293 3:0.063613232 4:0.06870229 5:0.048346056 6:0.045801527 7:0.030534351 8:0.058524173 9:0 10:0.083969466 11:0.066157761 12:0.040712468 13:0.038167939 14:0 15:0.045801527 16:0.025445293 17:0.040712468 18:0.063613232 19:0.055979644 20:0 21:0.086513995 22:0.012722646 23:0 24:0.048346056 25:0 
0.88153286043603507 1:0 2:0.013657056 3:0.034901366 4:0.074355083 5:0.063732929 6:0.042488619 7:0.013657056 8:0.062215478 9:0 10:0.06676783 11:0.13808801 12:0.031866464 13:0.040971168 14:0 15:0.036418816 16:0.036418816 17:0.042488619 18:0.054628225 19:0.04552352 20:0 21:0.065250379 22:0.016691958 23:0 24:0.050075873 25:0 
0.017939984278226104 1:0 2:0.02090209 3:0.04510451 4:0.067106711 5:0.062706271 6:0.04730473 7:0.01980198 8:0.085808581 9:0 10:0.064906491 11:0.088008801 12:0.02640264 13:0.04950495 14:0 15:0.04620462 16:0.03850385 17:0.050605061 18:0.051705171 19:0.051705171 20:0 21:0.062706271 22:0.02090209 23:0 24:0.050605061 25:0 
0.3281453523716098 1:0 2:0.033412888 3:0.047732697 4:0.057279236 5:0.033412888 6:0.095465394 7:0.052505967 8:0.033412888 9:0 10:0.026252983 11:0.097852029 12:0.011933174 13:0.059665871 14:0 15:0.045346062 16:0.040572792 17:0.035799523 18:0.097852029 19:0.059665871 20:0 21:0.054892601 22:0.0095465394 23:0 24:0.016706444 25:0 
0.18967916535472101 1:0 2:0.012396694 3:0.080766341 4:0.1066867 5:0.024793388 6:0.050338092 7:0.022539444 8:0.021036814 9:0 10:0.12133734 11:0.069872276 12:0.011645379 13:0.022539444 14:0 15:0.080015026 16:0.033809166 17:0.061983471 18:0.097295267 19:0.037941397 20:0 21:0.041322314 22:0.0060105184 23:0 24:0.01878287 25:0 
0.12210463607718815 1:0 2:0.013100437 3:0.069383794 4:0.10917031 5:0.025230471 6:0.025715672 7:0.029112082 8:0.041727317 9:0 10:0.12760796 11:0.077147016 12:0.017467249 13:0.047064532 14:0 15:0.052886948 16:0.044638525 17:0.044153324 18:0.11984474 19:0.053857351 20:0 21:0.043182921 22:0.0033964095 23:0 24:0.018922853 25:0 
0.24511680236285013 1:0 2:0.036111111 3:0.066666667 4:0.052777778 5:0.0083333333 6:0.083333333 7:0.052777778 8:0.030555556 9:0 10:0.044444444 11:0.13611111 12:0.022222222 13:0.022222222 14:0 15:0.033333333 16:0.041666667 17:0.069444444 18:0.044444444 19:0.052777778 20:0 21:0.047222222 22:0.011111111 23:0 24:0.019444444 25:0 
0.24614531208610937 1:0 2:0.016447368 3:0.055921053 4:0.065789474 5:0.019736842 6:0.072368421 7:0.049342105 8:0.023026316 9:0 10:0.069078947 11:0.12828947 12:0.0098684211 13:0.036184211 14:0 15:0.052631579 16:0.049342105 17:0.088815789 18:0.029605263 19:0.032894737 20:0 21:0.075657895 22:0.016447368 23:0 24:0.013157895 25:0 
0.13010317805218152 1:0 2:0.02851711 3:0.063688213 4:0.046577947 5:0.021863118 6:0.070342205 7:0.045627376 8:0.038973384 9:0 10:0.044676806 11:0.12452471 12:0.019011407 13:0.065589354 14:0 15:0.033269962 16:0.02756654 17:0.035171103 18:0.068441065 19:0.057984791 20:0 21:0.060836502 22:0.0047528517 23:0 24:0.023764259 25:0 
0.512903400720641 1:0 2:0.049450549 3:0.076923077 4:0.038461538 5:0.010989011 6:0.082417582 7:0.06043956 8:0.027472527 9:0 10:0.032967033 11:0.12637363 12:0.016483516 13:0.021978022 14:0 15:0.049450549 16:0.038461538 17:0.065934066 18:0.087912088 19:0.038461538 20:0 21:0.032967033 22:0.0054945055 23:0 24:0.021978022 25:0 
0.24462483186141018 1:0 2:0.019073569 3:0.057220708 4:0.084468665 5:0.040871935 6:0.049046322 7:0.0081743869 8:0.029972752 9:0 10:0.046321526 11:0.11171662 12:0.019073569 13:0.054495913 14:0 15:0.10081744 16:0.059945504 17:0.057220708 18:0.068119891 19:0.049046322 20:0 21:0.059945504 22:0.0054495913 23:0 24:0.019073569 25:0 
0.84839784945125729 1:0 2:0.032258065 3:0.0625 4:0.061491935 5:0.02016129 6:0.065524194 7:0.052419355 8:0.047379032 9:0 10:0.052419355 11:0.12399194 12:0.014112903 13:0.066532258 14:0 15:0.030241935 16:0.028225806 17:0.038306452 18:0.049395161 19:0.05141129 20:0 21:0.063508065 22:0.0060483871 23:0 24:0.016129032 25:0 
0.12085322701300219 1:0 2:0.017316017 3:0.056277056 4:0.051948052 5:0.047619048 6:0.077922078 7:0.03030303 8:0.051948052 9:0 10:0.03030303 11:0.14285714 12:0.012987013 13:0.051948052 14:0 15:0.017316017 16:0.056277056 17:0.073593074 18:0.077922078 19:0.051948052 20:0 21:0.060606061 22:0.0086580087 23:0 24:0.021645022 25:0 
0.45832525863915569 1:0 2:0.0084033613 3:0.079831933 4:0.096638655 5:0.021008403 6:0.050420168 7:0.046218487 8:0.033613445 9:0 10:0.054621849 11:0.12605042 12:0.012605042 13:0.06302521 14:0 15:0.033613445 16:0.042016807 17:0.050420168 18:0.058823529 19:0.071428571 20:0 21:0.042016807 22:0.021008403 23:0 24:0.025210084 25:0 
0.17097401710471163 1:0 2:0.023411371 3:0.076923077 4:0.066889632 5:0.016722408 6:0.090301003 7:0.040133779 8:0.02006689 9:0 10:0.030100334 11:0.13377926 12:0.016722408 13:0.026755853 14:0 15:0.043478261 16:0.056856187 17:0.086956522 18:0.056856187 19:0.046822742 20:0 21:0.043478261 22:0.0033444816 23:0 24:0.0066889632 25:0 
3.8806662788411477 1:0 2:0.017278618 3:0.051835853 4:0.082073434 5:0.058315335 6:0.045356371 7:0.010799136 8:0.051835853 9:0 10:0.079913607 11:0.097192225 12:0.028077754 13:0.051835853 14:0 15:0.045356371 16:0.028077754 17:0.049676026 18:0.075593952 19:0.056155508 20:0 21:0.069114471 22:0.010799136 23:0 24:0.025917927 25:0 
1.0698903147295711 1:0 2:0.030959752 3:0.074303406 4:0.058823529 5:0.046439628 6:0.06501548 7:0.027863777 8:0.068111455 9:0 10:0.040247678 11:0.092879257 12:0.055727554 13:0.043343653 14:0 15:0.024767802 16:0.06501548 17:0.052631579 18:0.037151703 19:0.037151703 20:0 21:0.034055728 22:0.0061919505 23:0 24:0.058823529 25:0 
0.098149519749165082 1:0 2:0.011904762 3:0.049603175 4:0.049603175 5:0.029761905 6:0.11309524 7:0.0079365079 8:0.045634921 9:0 10:0.047619048 11:0.073412698 12:0.033730159 13:0.035714286 14:0 15:0.125 16:0.045634921 17:0.053571429 18:0.067460317 19:0.045634921 20:0 21:0.037698413 22:0.001984127 23:0 24:0.049603175 25:0 
0.24780396162583038 1:0 2:0.012698413 3:0.082539683 4:0.092063492 5:0.025396825 6:0.06984127 7:0.0063492063 8:0.050793651 9:0 10:0.098412698 11:0.11111111 12:0.015873016 13:0.028571429 14:0 15:0.0063492063 16:0.053968254 17:0.06031746 18:0.06031746 19:0.050793651 20:0 21:0.044444444 22:0.0031746032 23:0 24:0.034920635 25:0 
2.6978440110714716 1:0 2:0.011594203 3:0.075362319 4:0.075362319 5:0.031884058 6:0.057971014 7:0.014492754 8:0.060869565 9:0 10:0.092753623 11:0.098550725 12:0.026086957 13:0.037681159 14:0 15:0.023188406 16:0.037681159 17:0.055072464 18:0.055072464 19:0.063768116 20:0 21:0.055072464 22:0.0028985507 23:0 24:0.031884058 25:0 
0.6895726092952692 1:0 2:0.01183432 3:0.088757396 4:0.065088757 5:0.020710059 6:0.056213018 7:0.01183432 8:0.068047337 9:0 10:0.094674556 11:0.10059172 12:0.026627219 13:0.029585799 14:0 15:0.020710059 16:0.038461538 17:0.062130178 18:0.076923077 19:0.053254438 20:0 21:0.053254438 22:0.0029585799 23:0 24:0.056213018 25:0 
0.51910477622139706 1:0 2:0.0031347962 3:0.078369906 4:0.090909091 5:0.040752351 6:0.068965517 7:0.0094043887 8:0.056426332 9:0 10:0.068965517 11:0.11912226 12:0.02507837 13:0.018808777 14:0 15:0.015673981 16:0.037617555 17:0.059561129 18:0.065830721 19:0.072100313 20:0 21:0.05015674 22:0.0031347962 23:0 24:0.037617555 25:0 
0.88967637557751844 1:0 2:0.0089285714 3:0.084821429 4:0.081845238 5:0.037202381 6:0.066964286 7:0.019345238 8:0.069940476 9:0 10:0.077380952 11:0.098214286 12:0.03125 13:0.022321429 14:0 15:0.022321429 16:0.040178571 17:0.0625 18:0.05952381 19:0.056547619 20:0 21:0.038690476 22:0.0029761905 23:0 24:0.03422619 25:0 
0.35355157996389702 1:0 2:0.01026694 3:0.045174538 4:0.047227926 5:0.041067762 6:0.11909651 7:0.0041067762 8:0.04312115 9:0 10:0.028747433 11:0.063655031 12:0.032854209 13:0.024640657 14:0 15:0.10061602 16:0.069815195 17:0.055441478 18:0.084188912 19:0.049281314 20:0 21:0.04312115 22:0.0020533881 23:0 24:0.059548255 25:0 
0.94502848489375924 1:0 2:0.012269939 3:0.061349693 4:0.088957055 5:0.027607362 6:0.064417178 7:0.018404908 8:0.070552147 9:0 10:0.082822086 11:0.10122699 12:0.033742331 13:0.027607362 14:0 15:0.018404908 16:0.036809816 17:0.04601227 18:0.085889571 19:0.064417178 20:0 21:0.039877301 22:0.009202454 23:0 24:0.042944785 25:0 
0.13315991942981009 1:0 2:0.011627907 3:0.061046512 4:0.063953488 5:0.031976744 6:0.052325581 7:0.014534884 8:0.049418605 9:0 10:0.037790698 11:0.13372093 12:0.014534884 13:0.029069767 14:0 15:0.026162791 16:0.087209302 17:0.069767442 18:0.072674419 19:0.061046512 20:0 21:0.058139535 22:0.0058139535 23:0 24:0.020348837 25:0 
0.014447793362859404 1:0 2:0.027874564 3:0.054006969 4:0.038327526 5:0.040069686 6:0.057491289 7:0.034843206 8:0.052264808 9:0 10:0.067944251 11:0.11149826 12:0.019163763 13:0.059233449 14:0 15:0.059233449 16:0.055749129 17:0.034843206 18:0.088850174 19:0.043554007 20:0 21:0.055749129 22:0.024390244 23:0 24:0.031358885 25:0 
0.24575628728209925 1:0 2:0.010596026 3:0.039735099 4:0.046357616 5:0.050331126 6:0.083443709 7:0.042384106 8:0.033112583 9:0 10:0.018543046 11:0.1218543 12:0.010596026 13:0.034437086 14:0 15:0.079470199 16:0.046357616 17:0.058278146 18:0.075496689 19:0.039735099 20:0 21:0.083443709 22:0.017218543 23:0 24:0.035761589 25:0 
1.9049979903904612 1:0 2:0.01312336 3:0.044619423 4:0.045931759 5:0.06167979 6:0.083989501 7:0.036745407 8:0.030183727 9:0 10:0.018372703 11:0.10104987 12:0.017060367 13:0.034120735 14:0 15:0.076115486 16:0.049868766 17:0.053805774 18:0.070866142 19:0.047244094 20:0 21:0.07480315 22:0.018372703 23:0 24:0.039370079 25:0 
1.3634139874292381 1:0 2:0.01734104 3:0.038535645 4:0.080924855 5:0.026974952 6:0.080924855 7:0.02504817 8:0.053949904 9:0 10:0.05973025 11:0.10019268 12:0.030828516 13:0.032755299 14:0 15:0.055876686 16:0.02504817 17:0.05973025 18:0.038535645 19:0.06743738 20:0 21:0.077071291 22:0.021194605 23:0 24:0.044315992 25:0 
0.59799736088404198 1:0 2:0.004415011 3:0.052980132 4:0.037527594 5:0.045253863 6:0.066225166 7:0.0088300221 8:0.023178808 9:0 10:0.041942605 11:0.077262693 12:0.028697572 13:0.028697572 14:0 15:0.11368653 16:0.03200883 17:0.016556291 18:0.10706402 19:0.086092715 20:0 21:0.055187638 22:0.0055187638 23:0 24:0.0099337748 25:0 
0.32128546310462142 1:0 2:0.019933555 3:0.073089701 4:0.12624585 5:0.023255814 6:0.066445183 7:0.016611296 8:0.023255814 9:0 10:0.056478405 11:0.089700997 12:0.023255814 13:0.049833887 14:0 15:0.026578073 16:0.049833887 17:0.07641196 18:0.11295681 19:0.053156146 20:0 21:0.029900332 22:0.0099667774 23:0 24:0.026578073 25:0 
0.0093421631541639859 1:0 2:0.016877637 3:0.061181435 4:0.069620253 5:0.028481013 6:0.04535865 7:0.010548523 8:0.053797468 9:0 10:0.065400844 11:0.12447257 12:0.026371308 13:0.04535865 14:0 15:0.05907173 16:0.042194093 17:0.03164557 18:0.065400844 19:0.052742616 20:0 21:0.082278481 22:0.0063291139 23:0 24:0.028481013 25:0 
0.31087625526541957 1:0 2:0.0071090047 3:0.04028436 4:0.090047393 5:0.049763033 6:0.056872038 7:0.023696682 8:0.071090047 9:0 10:0.075829384 11:0.082938389 12:0.028436019 13:0.045023697 14:0 15:0.047393365 16:0.026066351 17:0.052132701 18:0.085308057 19:0.04028436 20:0 21:0.090047393 22:0.014218009 23:0 24:0.04028436 25:0 
0.71462018352806989 1:0 2:0.0047393365 3:0.037914692 4:0.082938389 5:0.05450237 6:0.056872038 7:0.016587678 8:0.068720379 9:0 10:0.078199052 11:0.090047393 12:0.021327014 13:0.037914692 14:0 15:0.047393365 16:0.033175355 17:0.047393365 18:0.097156398 19:0.04028436 20:0 21:0.099526066 22:0.011848341 23:0 24:0.037914692 25:0 
0.68870053785459051 1:0 2:0.025477707 3:0.063694268 4:0.10191083 5:0.057324841 6:0.038216561 7:0.0063694268 8:0.044585987 9:0 10:0.089171975 11:0.14649682 12:0.050955414 13:0.012738854 14:0 15:0.012738854 16:0.044585987 17:0.063694268 18:0.057324841 19:0.01910828 20:0 21:0.063694268 22:0.012738854 23:0 24:0.044585987 25:0 
0.68038856077770127 1:0 2:0.025641026 3:0.051282051 4:0.11538462 5:0.057692308 6:0.032051282 7:0.0064102564 8:0.070512821 9:0 10:0.096153846 11:0.1474359 12:0.019230769 13:0.019230769 14:0 15:0.019230769 16:0.051282051 17:0.051282051 18:0.044871795 19:0.038461538 20:0 21:0.057692308 22:0.012820513 23:0 24:0.044871795 25:0 
0.83846666259485825 1:0 2:0.019607843 3:0.052287582 4:0.098039216 5:0.058823529 6:0.039215686 7:0.019607843 8:0.11111111 9:0 10:0.08496732 11:0.11111111 12:0.019607843 13:0.026143791 14:0 15:0.0065359477 16:0.045751634 17:0.058823529 18:0.058823529 19:0.045751634 20:0 21:0.058823529 22:0.013071895 23:0 24:0.045751634 25:0 
0.35212734585901917 1:0 2:0.016055046 3:0.050458716 4:0.050458716 5:0.02293578 6:0.066513761 7:0.04587156 8:0.032110092 9:0 10:0.052752294 11:0.11238532 12:0.0091743119 13:0.064220183 14:0 15:0.094036697 16:0.048165138 17:0.052752294 18:0.089449541 19:0.04587156 20:0 21:0.052752294 22:0.004587156 23:0 24:0.027522936 25:0 
0.77399674134134366 1:0 2:0.013824885 3:0.039170507 4:0.064516129 5:0.048387097 6:0.059907834 7:0.016129032 8:0.085253456 9:0 10:0.087557604 11:0.066820276 12:0.029953917 13:0.046082949 14:0 15:0.039170507 16:0.046082949 17:0.062211982 18:0.073732719 19:0.043778802 20:0 21:0.085253456 22:0.011520737 23:0 24:0.032258065 25:0 
0.96477188362542077 1:0 2:0.021276596 3:0.056737589 4:0.085106383 5:0.078014184 6:0.021276596 7:0.028368794 8:0.063829787 9:0 10:0.063829787 11:0.10638298 12:0.028368794 13:0.070921986 14:0 15:0 16:0.042553191 17:0.056737589 18:0.014184397 19:0.042553191 20:0 21:0.10638298 22:0.0070921986 23:0 24:0.056737589 25:0 
0.47645604011045195 1:0 2:0.0091491308 3:0.056724611 4:0.081427264 5:0.028362306 6:0.045745654 7:0.015553522 8:0.06221409 9:0 10:0.085086917 11:0.099725526 12:0.02378774 13:0.046660567 14:0 15:0.044830741 16:0.042086002 17:0.038426349 18:0.10704483 19:0.053979872 20:0 21:0.068618481 22:0.0054894785 23:0 24:0.021043001 25:0 
1.2756696190554817 1:0 2:0.0095923261 3:0.047961631 4:0.055155875 5:0.055155875 6:0.057553957 7:0.023980815 8:0.071942446 9:0 10:0.064748201 11:0.083932854 12:0.026378897 13:0.043165468 14:0 15:0.064748201 16:0.038369305 17:0.038369305 18:0.074340528 19:0.071942446 20:0 21:0.10071942 22:0.0095923261 23:0 24:0.028776978 25:0 
0.15541175767150628 1:0 2:0.020833333 3:0.052083333 4:0.078125 5:0.052083333 6:0.057291667 7:0.026041667 8:0.09375 9:0 10:0.0625 11:0.10416667 12:0.03125 13:0.078125 14:0 15:0.036458333 16:0.036458333 17:0.03125 18:0.057291667 19:0.03125 20:0 21:0.078125 22:0 23:0 24:0.026041667 25:0 
0.21505157105826561 1:0 2:0.02480916 3:0.041984733 4:0.051526718 5:0.028625954 6:0.085877863 7:0.028625954 8:0.022900763 9:0 10:0.02480916 11:0.12022901 12:0.0095419847 13:0.013358779 14:0 15:0.10496183 16:0.04389313 17:0.062977099 18:0.13740458 19:0.04389313 20:0 21:0.036259542 22:0.0076335878 23:0 24:0.0095419847 25:0 
0.84194591910864169 1:0 2:0.02739726 3:0.04109589 4:0.12328767 5:0.034246575 6:0.061643836 7:0.04109589 8:0.075342466 9:0 10:0.054794521 11:0.11643836 12:0.01369863 13:0.02739726 14:0 15:0.034246575 16:0.054794521 17:0.054794521 18:0.020547945 19:0.034246575 20:0 21:0.04109589 22:0.020547945 23:0 24:0.02739726 25:0 
0.19657286396094417 1:0 2:0.018485915 3:0.042253521 4:0.079225352 5:0.036971831 6:0.045774648 7:0.028169014 8:0.050176056 9:0 10:0.071302817 11:0.13644366 12:0.025528169 13:0.036971831 14:0 15:0.037852113 16:0.04665493 17:0.025528169 18:0.097711268 19:0.053697183 20:0 21:0.066021127 22:0.0079225352 23:0 24:0.032570423 25:0 
0.15095330689853853 1:0 2:0.011061947 3:0.046460177 4:0.057522124 5:0.046460177 6:0.084070796 7:0.030973451 8:0.030973451 9:0 10:0.028761062 11:0.1460177 12:0.013274336 13:0.019911504 14:0 15:0.064159292 16:0.044247788 17:0.07079646 18:0.12610619 19:0.030973451 20:0 21:0.079646018 22:0.0066371681 23:0 24:0.024336283 25:0 
0.84687465240093063 1:0 2:0.023945268 3:0.037628278 4:0.061573546 5:0.022805017 6:0.080957811 7:0.023945268 8:0.0057012543 9:0 10:0.014823261 11:0.21094641 12:0.0091220068 13:0.0068415051 14:0 15:0.091220068 16:0.049030787 17:0.062713797 18:0.049030787 19:0.034207526 20:0 21:0.055872292 22:0.014823261 23:0 24:0.014823261 25:0 
1.0834625554468233 1:0 2:0.022494888 3:0.049079755 4:0.051124744 5:0.057259714 6:0.059304703 7:0.018404908 8:0.059304703 9:0 10:0.061349693 11:0.10838446 12:0.014314928 13:0.034764826 14:0 15:0.071574642 16:0.049079755 17:0.030674847 18:0.09202454 19:0.063394683 20:0 21:0.063394683 22:0.012269939 23:0 24:0.036809816 25:0 
0.47506928317874847 1:0 2:0.015075377 3:0.050251256 4:0.070351759 5:0.045226131 6:0.055276382 7:0.035175879 8:0.020100503 9:0 10:0.015075377 11:0.18592965 12:0.015075377 13:0.020100503 14:0 15:0.070351759 16:0.060301508 17:0.095477387 18:0.050251256 19:0.040201005 20:0 21:0.055276382 22:0.010050251 23:0 24:0.0050251256 25:0 
0.67387615555339286 1:0 2:0.009569378 3:0.063397129 4:0.10885167 5:0.015550239 6:0.06937799 7:0.032296651 8:0.05861244 9:0 10:0.039473684 11:0.063397129 12:0.028708134 13:0.029904306 14:0 15:0.061004785 16:0.061004785 17:0.062200957 18:0.080143541 19:0.03708134 20:0 21:0.053827751 22:0.0023923445 23:0 24:0.034688995 25:0 
0.46197452407856748 1:0 2:0.025684932 3:0.047945205 4:0.077054795 5:0.039383562 6:0.051369863 7:0.044520548 8:0.049657534 9:0 10:0.068493151 11:0.11815068 12:0.01369863 13:0.037671233 14:0 15:0.011986301 16:0.049657534 17:0.044520548 18:0.070205479 19:0.023972603 20:0 21:0.068493151 22:0.0085616438 23:0 24:0.059931507 25:0 
0.41686183798348525 1:0 2:0.016304348 3:0.054347826 4:0.048913043 5:0.032608696 6:0.054347826 7:0.032608696 8:0.070652174 9:0 10:0.059782609 11:0.059782609 12:0.027173913 13:0.048913043 14:0 15:0.065217391 16:0.059782609 17:0.070652174 18:0.076086957 19:0.092391304 20:0 21:0.059782609 22:0.016304348 23:0 24:0.032608696 25:0 
0.97507464931504773 1:0 2:0.14457831 3:0.048192771 4:0.036144578 5:0.036144578 6:0.060240964 7:0.060240964 8:0.036144578 9:0 10:0.084337349 11:0.048192771 12:0.048192771 13:0.048192771 14:0 15:0.048192771 16:0.072289157 17:0.024096386 18:0.012048193 19:0.012048193 20:0 21:0.072289157 22:0.072289157 23:0 24:0 25:0 
0.94947979998645204 1:0 2:0 3:0.12328767 4:0.1369863 5:0 6:0.054794521 7:0.01369863 8:0.054794521 9:0 10:0.04109589 11:0.10958904 12:0.02739726 13:0.054794521 14:0 15:0.082191781 16:0.054794521 17:0.04109589 18:0.02739726 19:0.04109589 20:0 21:0.054794521 22:0.02739726 23:0 24:0.02739726 25:0 
0.97495587594491318 1:0 2:0.0083333333 3:0.175 4:0.19166667 5:0.025 6:0.025 7:0.016666667 8:0.025 9:0 10:0.016666667 11:0.058333333 12:0.05 13:0.058333333 14:0 15:0.05 16:0.091666667 17:0.016666667 18:0.058333333 19:0.033333333 20:0 21:0.041666667 22:0.025 23:0 24:0.016666667 25:0 
0.98002762372400221 1:0 2:0.0091743119 3:0.036697248 4:0.091743119 5:0.055045872 6:0.10091743 7:0.0091743119 8:0.0091743119 9:0 10:0.055045872 11:0.091743119 12:0.027522936 13:0 14:0 15:0.04587156 16:0.04587156 17:0.036697248 18:0.16513761 19:0.036697248 20:0 21:0.073394495 22:0.0091743119 23:0 24:0.018348624 25:0 
0.86098786334153943 1:0 2:0.029239766 3:0.038986355 4:0.058479532 5:0.037037037 6:0.070175439 7:0.06042885 8:0.04288499 9:0 10:0.031189084 11:0.095516569 12:0.019493177 13:0.04288499 14:0 15:0.056530214 16:0.04288499 17:0.076023392 18:0.066276803 19:0.050682261 20:0 21:0.052631579 22:0.021442495 23:0 24:0.04288499 25:0 
0.017034544017469455 1:0 2:0.013370866 3:0.052076003 4:0.073539761 5:0.01653765 6:0.051724138 7:0.023574947 8:0.040464462 9:0 10:0.070021112 11:0.072132301 12:0.020056298 13:0.055594652 14:0 15:0.062983814 16:0.054187192 17:0.057353976 18:0.15341309 19:0.058761436 20:0 21:0.039760732 22:0.0049261084 23:0 24:0.017593244 25:0 
0.43505212594404735 1:0 2:0.022082019 3:0.059936909 4:0.075709779 5:0.028391167 6:0.078864353 7:0.018927445 8:0.025236593 9:0 10:0.09148265 11:0.11671924 12:0.0094637224 13:0.034700315 14:0 15:0.066246057 16:0.031545741 17:0.05362776 18:0.063091483 19:0.034700315 20:0 21:0.047318612 22:0.022082019 23:0 24:0.03785489 25:0 
0.50425495700779155 1:0 2:0.011363636 3:0.037878788 4:0.026515152 5:0.079545455 6:0.087121212 7:0.015151515 8:0.068181818 9:0 10:0.011363636 11:0.14393939 12:0.015151515 13:0.0075757576 14:0 15:0.034090909 16:0.018939394 17:0.056818182 18:0.087121212 19:0.037878788 20:0 21:0.098484848 22:0.022727273 23:0 24:0.037878788 25:0 
0.35694563954257996 1:0 2:0.01953125 3:0.0234375 4:0.01953125 5:0.1015625 6:0.0859375 7:0.01171875 8:0.0859375 9:0 10:0.04296875 11:0.1484375 12:0.02734375 13:0.0234375 14:0 15:0.02734375 16:0.0234375 17:0.02734375 18:0.08203125 19:0.04296875 20:0 21:0.06640625 22:0.01953125 23:0 24:0.0390625 25:0 
0.16227696821809681 1:0 2:0.036939314 3:0.039577836 4:0.036939314 5:0.063324538 6:0.068601583 7:0.015831135 8:0.039577836 9:0 10:0.026385224 11:0.10817942 12:0.036939314 13:0.026385224 14:0 15:0.036939314 16:0.021108179 17:0.052770449 18:0.089709763 19:0.071240106 20:0 21:0.084432718 22:0.023746702 23:0 24:0.052770449 25:0 
0.28583928361041755 1:0 2:0.023529412 3:0.064705882 4:0.1 5:0.019607843 6:0.066666667 7:0.025490196 8:0.047058824 9:0 10:0.064705882 11:0.076470588 12:0.017647059 13:0.064705882 14:0 15:0.062745098 16:0.056862745 17:0.047058824 18:0.10196078 19:0.056862745 20:0 21:0.041176471 22:0.0058823529 23:0 24:0.021568627 25:0 
0.12438919739376067 1:0 2:0.023622047 3:0.059055118 4:0.12992126 5:0.031496063 6:0.049868766 7:0.030183727 8:0.040682415 9:0 10:0.05511811 11:0.077427822 12:0.035433071 13:0.036745407 14:0 15:0.04855643 16:0.049868766 17:0.049868766 18:0.043307087 19:0.049868766 20:0 21:0.073490814 22:0.0065616798 23:0 24:0.034120735 25:0 
0.28930725370528571 1:0 2:0 3:0.060150376 4:0.11278195 5:0.030075188 6:0.041353383 7:0.022556391 8:0 9:0 10:0.082706767 11:0.15413534 12:0.015037594 13:0.018796992 14:0 15:0.037593985 16:0.071428571 17:0.063909774 18:0.060150376 19:0.045112782 20:0 21:0.056390977 22:0.018796992 23:0 24:0.026315789 25:0 
0.86530498723034077 1:0 2:0.02020202 3:0.02020202 4:0.1010101 5:0.04040404 6:0.04040404 7:0 8:0.02020202 9:0 10:0.1010101 11:0.15151515 12:0.02020202 13:0.01010101 14:0 15:0.04040404 16:0.070707071 17:0.02020202 18:0.070707071 19:0.080808081 20:0 21:0.080808081 22:0 23:0 24:0.04040404 25:0 
0.67095867552561406 1:0 2:0 3:0.048101266 4:0.12405063 5:0.030379747 6:0.040506329 7:0.020253165 8:0.012658228 9:0 10:0.070886076 11:0.14177215 12:0.015189873 13:0.040506329 14:0 15:0.030379747 16:0.10886076 17:0.065822785 18:0.04556962 19:0.037974684 20:0 21:0.058227848 22:0.0025316456 23:0 24:0.017721519 25:0 
0.10307742282222691 1:0 2:0.002739726 3:0.049315068 4:0.084931507 5:0.030136986 6:0.060273973 7:0.038356164 8:0.016438356 9:0 10:0.04109589 11:0.13150685 12:0.024657534 13:0.01369863 14:0 15:0.052054795 16:0.10136986 17:0.071232877 18:0.060273973 19:0.04109589 20:0 21:0.054794521 22:0.01369863 23:0 24:0.01369863 25:0 
0.98098381504236254 1:0 2:0.053001979 3:0.02903013 4:0.061139213 5:0.0041785793 6:0.069056521 7:0.027050803 8:0.012975588 9:0 10:0.0054981306 11:0.032548933 12:0.018033868 13:0.04376512 14:0 15:0.10754344 16:0.051022652 17:0.060259512 18:0.080272707 19:0.11282164 20:0 21:0.061139213 22:0.020892896 23:0 24:0.072355399 25:0 
0.92606632204021777 1:0 2:0.0073597056 3:0.038638454 4:0.1849126 5:0.0082796688 6:0.1425943 7:0.015639374 8:0.0073597056 9:0 10:0.022079117 11:0.063477461 12:0.013799448 13:0.0073597056 14:0 15:0.052437902 16:0.04875805 17:0.074517019 18:0.065317387 19:0.04875805 20:0 21:0.046918123 22:0.017479301 23:0 24:0.004599816 25:0 
4.2071297353440142 1:0 2:0.0052608505 3:0.051293292 4:0.065103025 5:0.049101271 6:0.045374836 7:0.02498904 8:0.062911004 9:0 10:0.078035949 11:0.11749233 12:0.017316966 13:0.053704516 14:0 15:0.03748356 16:0.050635686 17:0.032880316 18:0.086146427 19:0.065541429 20:0 21:0.054800526 22:0.0081104779 23:0 24:0.033537922 25:0 
0.79331278800630833 1:0 2:0 3:0.048780488 4:0.097560976 5:0.048780488 6:0.036585366 7:0 8:0.048780488 9:0 10:0.1097561 11:0.14634146 12:0.024390244 13:0.012195122 14:0 15:0.048780488 16:0.036585366 17:0.048780488 18:0.1097561 19:0.036585366 20:0 21:0.085365854 22:0.012195122 23:0 24:0 25:0 
0.79055448185364752 1:0 2:0 3:0.04 4:0.08 5:0.04 6:0.05 7:0 8:0.01 9:0 10:0.06 11:0.15 12:0.03 13:0.01 14:0 15:0.05 16:0.08 17:0.02 18:0.09 19:0.1 20:0 21:0.07 22:0.01 23:0 24:0.05 25:0 
0.97243153227752599 1:0 2:0 3:0.071428571 4:0.051020408 5:0.040816327 6:0.030612245 7:0.010204082 8:0 9:0 10:0.06122449 11:0.1122449 12:0.030612245 13:0 14:0 15:0.030612245 16:0.06122449 17:0.040816327 18:0.12244898 19:0.051020408 20:0 21:0.091836735 22:0.030612245 23:0 24:0.020408163 25:0 
0.60215862417759014 1:0 2:0.047619048 3:0.055555556 4:0.03968254 5:0.031746032 6:0.063492063 7:0.015873016 8:0.0079365079 9:0 10:0.063492063 11:0.16666667 12:0.031746032 13:0.015873016 14:0 15:0.063492063 16:0.047619048 17:0.079365079 18:0.071428571 19:0.055555556 20:0 21:0.047619048 22:0.03968254 23:0 24:0.015873016 25:0 
0.81208530449136385 1:0 2:0.0063291139 3:0.034810127 4:0.12658228 5:0.012658228 6:0.056962025 7:0.0063291139 8:0.0063291139 9:0 10:0.041139241 11:0.12974684 12:0.025316456 13:0.003164557 14:0 15:0.025316456 16:0.10126582 17:0.10759494 18:0.044303797 19:0.037974684 20:0 21:0.075949367 22:0.025316456 23:0 24:0.012658228 25:0 
1.4427571464798699 1:0 2:0.066860465 3:0.040697674 4:0.058139535 5:0.058139535 6:0.066860465 7:0.01744186 8:0.046511628 9:0 10:0.087209302 11:0.058139535 12:0.014534884 13:0.040697674 14:0 15:0.093023256 16:0.011627907 17:0.029069767 18:0.066860465 19:0.078488372 20:0 21:0.058139535 22:0.014534884 23:0 24:0.040697674 25:0 
0.066463343243899395 1:0 2:0.01754386 3:0.055555556 4:0.084795322 5:0.023391813 6:0.067251462 7:0.0087719298 8:0.023391813 9:0 10:0.084795322 11:0.12573099 12:0.01754386 13:0.029239766 14:0 15:0.01754386 16:0.038011696 17:0.067251462 18:0.052631579 19:0.076023392 20:0 21:0.061403509 22:0.01754386 23:0 24:0.023391813 25:0 
0.76955759719854122 1:0 2:0.032085561 3:0.037433155 4:0.07486631 5:0.053475936 6:0.069518717 7:0.032085561 8:0.048128342 9:0 10:0.042780749 11:0.11229947 12:0.032085561 13:0.042780749 14:0 15:0.064171123 16:0.042780749 17:0.042780749 18:0.064171123 19:0.064171123 20:0 21:0.032085561 22:0.016042781 23:0 24:0.037433155 25:0 
0.63114125476476157 1:0 2:0.011235955 3:0.026217228 4:0.052434457 5:0.026217228 6:0.071161049 7:0.02247191 8:0.048689139 9:0 10:0.11235955 11:0.074906367 12:0.033707865 13:0.0074906367 14:0 15:0.071161049 16:0.04494382 17:0.018726592 18:0.097378277 19:0.078651685 20:0 21:0.078651685 22:0.0074906367 23:0 24:0.041198502 25:0 
0.54934129784207619 1:0 2:0.010152284 3:0.030456853 4:0.055837563 5:0.040609137 6:0.081218274 7:0.0050761421 8:0.040609137 9:0 10:0.081218274 11:0.10659898 12:0.015228426 13:0.025380711 14:0 15:0.076142132 16:0.065989848 17:0.035532995 18:0.091370558 19:0.030456853 20:0 21:0.07106599 22:0.020304569 23:0 24:0.065989848 25:0 
0.97553369579870808 1:0 2:0 3:0 4:0.041666667 5:0 6:0.125 7:0.027777778 8:0.013888889 9:0 10:0 11:0.083333333 12:0.013888889 13:0 14:0 15:0.097222222 16:0.069444444 17:0.055555556 18:0.083333333 19:0.027777778 20:0 21:0.013888889 22:0.23611111 23:0 24:0 25:0 
0.83495557471822168 1:0 2:0.037735849 3:0.018867925 4:0.056603774 5:0.056603774 6:0.056603774 7:0 8:0.018867925 9:0 10:0.11320755 11:0.13207547 12:0.018867925 13:0.056603774 14:0 15:0.075471698 16:0.056603774 17:0.094339623 18:0.056603774 19:0.037735849 20:0 21:0.018867925 22:0 23:0 24:0 25:0 
0.097931517167027499 1:0 2:0.016759777 3:0.05027933 4:0.072625698 5:0.044692737 6:0.094972067 7:0.011173184 8:0.039106145 9:0 10:0.044692737 11:0.16201117 12:0.011173184 13:0.0055865922 14:0 15:0.061452514 16:0.039106145 17:0.067039106 18:0.061452514 19:0.033519553 20:0 21:0.072625698 22:0.0055865922 23:0 24:0.022346369 25:0 
0.30203110831324748 1:0 2:0.014925373 3:0.048507463 4:0.02238806 5:0.048507463 6:0.10074627 7:0.018656716 8:0.085820896 9:0 10:0.029850746 11:0.12313433 12:0.01119403 13:0.041044776 14:0 15:0.026119403 16:0.029850746 17:0.041044776 18:0.085820896 19:0.055970149 20:0 21:0.082089552 22:0.014925373 23:0 24:0.018656716 25:0 
0.10324218618375272 1:0 2:0.0058651026 3:0.014662757 4:0.038123167 5:0.055718475 6:0.1026393 7:0.032258065 8:0.061583578 9:0 10:0.026392962 11:0.1026393 12:0.04398827 13:0.035190616 14:0 15:0.061583578 16:0.023460411 17:0.038123167 18:0.070381232 19:0.055718475 20:0 21:0.093841642 22:0.023460411 23:0 24:0.032258065 25:0 
1.0100474352205293 1:0 2:0.0061728395 3:0.086419753 4:0.11111111 5:0.086419753 6:0.037037037 7:0.018518519 8:0.049382716 9:0 10:0.043209877 11:0.12962963 12:0.037037037 13:0.037037037 14:0 15:0.018518519 16:0.037037037 17:0.030864198 18:0.080246914 19:0.049382716 20:0 21:0.037037037 22:0 23:0 24:0.043209877 25:0 
0.33247964773902527 1:0 2:0.014851485 3:0.01980198 4:0.064356436 5:0.03960396 6:0.054455446 7:0.014851485 8:0.059405941 9:0 10:0.069306931 11:0.14851485 12:0.044554455 13:0.03960396 14:0 15:0.034653465 16:0.044554455 17:0.04950495 18:0.04950495 19:0.044554455 20:0 21:0.079207921 22:0.034653465 23:0 24:0.02970297 25:0 
0.47453822101072046 1:0 2:0.022222222 3:0.044444444 4:0.053333333 5:0.062222222 6:0.088888889 7:0.013333333 8:0.04 9:0 10:0.026666667 11:0.11111111 12:0.022222222 13:0.022222222 14:0 15:0.075555556 16:0.017777778 17:0.062222222 18:0.097777778 19:0.044444444 20:0 21:0.053333333 22:0.031111111 23:0 24:0.017777778 25:0 
0.76871368575957233 1:0 2:0.061403509 3:0.039473684 4:0.026315789 5:0.035087719 6:0.087719298 7:0.026315789 8:0.048245614 9:0 10:0.035087719 11:0.13596491 12:0.021929825 13:0.061403509 14:0 15:0.061403509 16:0.065789474 17:0.030701754 18:0.048245614 19:0.078947368 20:0 21:0.039473684 22:0.013157895 23:0 24:0.013157895 25:0 
0.39323371894008102 1:0 2:0.020348837 3:0.058139535 4:0.087209302 5:0.052325581 6:0.059593023 7:0.030523256 8:0.04505814 9:0 10:0.078488372 11:0.11046512 12:0.034883721 13:0.026162791 14:0 15:0.04505814 16:0.046511628 17:0.063953488 18:0.059593023 19:0.031976744 20:0 21:0.052325581 22:0.010174419 23:0 24:0.031976744 25:0 
0.77834770312636881 1:0 2:0.037735849 3:0.04851752 4:0.04851752 5:0.037735849 6:0.07277628 7:0.032345013 8:0.04851752 9:0 10:0.070080863 11:0.075471698 12:0.018867925 13:0.040431267 14:0 15:0.037735849 16:0.021563342 17:0.045822102 18:0.099730458 19:0.053908356 20:0 21:0.070080863 22:0.035040431 23:0 24:0.016172507 25:0 
0.45691523413181112 1:0 2:0.0060240964 3:0.072289157 4:0.12650602 5:0.060240964 6:0.042168675 7:0.024096386 8:0.048192771 9:0 10:0.054216867 11:0.078313253 12:0.030120482 13:0.030120482 14:0 15:0.036144578 16:0.060240964 17:0.030120482 18:0.042168675 19:0.060240964 20:0 21:0.072289157 22:0.018072289 23:0 24:0.048192771 25:0 
0.21536121778138698 1:0 2:0.012658228 3:0.04556962 4:0.11392405 5:0.020253165 6:0.075949367 7:0.032911392 8:0.027848101 9:0 10:0.053164557 11:0.091139241 12:0.012658228 13:0.017721519 14:0 15:0.073417722 16:0.070886076 17:0.06835443 18:0.058227848 19:0.040506329 20:0 21:0.065822785 22:0.025316456 23:0 24:0.037974684 25:0 
0.79364422192276773 1:0 2:0.023904382 3:0.043824701 4:0.09561753 5:0.023904382 6:0.067729084 7:0.023904382 8:0.047808765 9:0 10:0.083665339 11:0.055776892 12:0.023904382 13:0.047808765 14:0 15:0.055776892 16:0.035856574 17:0.055776892 18:0.10756972 19:0.03187251 20:0 21:0.06374502 22:0 23:0 24:0.039840637 25:0 
0.50890730330444367 1:0 2:0.0055555556 3:0.061111111 4:0.066666667 5:0.044444444 6:0.077777778 7:0.016666667 8:0.061111111 9:0 10:0.061111111 11:0.12222222 12:0.033333333 13:0.072222222 14:0 15:0.016666667 16:0.038888889 17:0.061111111 18:0.027777778 19:0.061111111 20:0 21:0.061111111 22:0.022222222 23:0 24:0.027777778 25:0 
0.49545056811784882 1:0 2:0.0055555556 3:0.061111111 4:0.066666667 5:0.033333333 6:0.077777778 7:0.016666667 8:0.066666667 9:0 10:0.072222222 11:0.12777778 12:0.033333333 13:0.072222222 14:0 15:0.016666667 16:0.033333333 17:0.055555556 18:0.027777778 19:0.061111111 20:0 21:0.061111111 22:0.022222222 23:0 24:0.027777778 25:0 
0.27707108860188912 1:0 2:0.011494253 3:0.074712644 4:0.045977011 5:0.028735632 6:0.08045977 7:0.017241379 8:0.08045977 9:0 10:0.074712644 11:0.097701149 12:0.028735632 13:0.045977011 14:0 15:0.028735632 16:0.040229885 17:0.068965517 18:0.034482759 19:0.074712644 20:0 21:0.063218391 22:0.022988506 23:0 24:0.040229885 25:0 
1.1913789788825286 1:0 2:0.014814815 3:0.061728395 4:0.069135802 5:0.044444444 6:0.088888889 7:0.014814815 8:0.012345679 9:0 10:0.064197531 11:0.051851852 12:0.012345679 13:0.051851852 14:0 15:0.049382716 16:0.049382716 17:0.04691358 18:0.1308642 19:0.051851852 20:0 21:0.061728395 22:0.037037037 23:0 24:0.017283951 25:0 
0.34664363641313606 1:0 2:0.011538462 3:0.05 4:0.073076923 5:0.036538462 6:0.075 7:0.017307692 8:0.032692308 9:0 10:0.069230769 11:0.069230769 12:0.025 13:0.036538462 14:0 15:0.042307692 16:0.057692308 17:0.057692308 18:0.12115385 19:0.042307692 20:0 21:0.048076923 22:0.013461538 23:0 24:0.015384615 25:0 
1.2756242412978029 1:0 2:0.017475728 3:0.066019417 4:0.06407767 5:0.036893204 6:0.05631068 7:0.013592233 8:0.036893204 9:0 10:0.083495146 11:0.062135922 12:0.019417476 13:0.042718447 14:0 15:0.046601942 16:0.044660194 17:0.046601942 18:0.14368932 19:0.052427184 20:0 21:0.05631068 22:0.013592233 23:0 24:0.027184466 25:0 
1.1842197354483579 1:0 2:0.0058823529 3:0.047058824 4:0.091176471 5:0.032352941 6:0.094117647 7:0.023529412 8:0.038235294 9:0 10:0.067647059 11:0.12647059 12:0.017647059 13:0.035294118 14:0 15:0.035294118 16:0.064705882 17:0.05 18:0.058823529 19:0.067647059 20:0 21:0.041176471 22:0.0058823529 23:0 24:0.029411765 25:0 
0.91306523395851702 1:0 2:0.04 3:0.06 4:0.065 5:0.03 6:0.075 7:0.01 8:0.055 9:0 10:0.08 11:0.1 12:0.025 13:0.03 14:0 15:0.02 16:0.04 17:0.05 18:0.06 19:0.08 20:0 21:0.08 22:0.015 23:0 24:0.04 25:0 
0.84169645359009793 1:0 2:0.014492754 3:0.045548654 4:0.17805383 5:0.016563147 6:0.089026915 7:0.022774327 8:0.026915114 9:0 10:0.031055901 11:0.082815735 12:0.01863354 13:0.016563147 14:0 15:0.072463768 16:0.082815735 17:0.045548654 18:0.089026915 19:0.037267081 20:0 21:0.039337474 22:0.01242236 23:0 24:0.010351967 25:0 
0.49033934548969182 1:0 2:0.0093457944 3:0.059190031 4:0.059190031 5:0.028037383 6:0.11214953 7:0.024922118 8:0.07165109 9:0 10:0.074766355 11:0.10280374 12:0.012461059 13:0.028037383 14:0 15:0.07165109 16:0.015576324 17:0.040498442 18:0.062305296 19:0.068535826 20:0 21:0.07788162 22:0.0062305296 23:0 24:0.028037383 25:0 
0.97415262673615177 1:0 2:0 3:0.025735294 4:0.19852941 5:0.011029412 6:0.014705882 7:0.011029412 8:0.047794118 9:0 10:0.12132353 11:0.0625 12:0.011029412 13:0.018382353 14:0 15:0.011029412 16:0.0625 17:0.19485294 18:0.10294118 19:0.022058824 20:0 21:0.033088235 22:0 23:0 24:0 25:0 
0.60632758013437416 1:0 2:0.019417476 3:0.083495146 4:0.07961165 5:0.050485437 6:0.042718447 7:0.025242718 8:0.062135922 9:0 10:0.067961165 11:0.081553398 12:0.031067961 13:0.046601942 14:0 15:0.038834951 16:0.066019417 17:0.066019417 18:0.048543689 19:0.023300971 20:0 21:0.05631068 22:0.023300971 23:0 24:0.036893204 25:0 
0.28617671038062581 1:0 2:0.016574586 3:0.05801105 4:0.071823204 5:0.035911602 6:0.093922652 7:0.022099448 8:0.03038674 9:0 10:0.033149171 11:0.10220994 12:0.027624309 13:0.016574586 14:0 15:0.033149171 16:0.049723757 17:0.052486188 18:0.085635359 19:0.041436464 20:0 21:0.05801105 22:0.0027624309 23:0 24:0.038674033 25:0 
0.092145020636453773 1:0 2:0.0070052539 3:0.034150613 4:0.044658494 5:0.018388792 6:0.10814361 7:0.019702277 8:0.02408056 9:0 10:0.032837128 11:0.060420315 12:0.039404553 13:0.040718039 14:0 15:0.1295972 16:0.095884413 17:0.038091068 18:0.10858144 19:0.045096322 20:0 21:0.029334501 22:0.0056917688 23:0 24:0.034150613 25:0 
0.40672235410517232 1:0 2:0.0085011186 3:0.038478747 4:0.045190157 5:0.017897092 6:0.11409396 7:0.028635347 8:0.025950783 9:0 10:0.036241611 11:0.05950783 12:0.044295302 13:0.034004474 14:0 15:0.11588367 16:0.089932886 17:0.036689038 18:0.11588367 19:0.032214765 20:0 21:0.031767338 22:0.0058165548 23:0 24:0.030872483 25:0 
0.40236215792132191 1:0 2:0.057553957 3:0.071942446 4:0.10071942 5:0.028776978 6:0.079136691 7:0.032374101 8:0.037769784 9:0 10:0.064748201 11:0.071942446 12:0.028776978 13:0.053956835 14:0 15:0.03057554 16:0.052158273 17:0.04676259 18:0.044964029 19:0.035971223 20:0 21:0.052158273 22:0.021582734 23:0 24:0.044964029 25:0 
0.98094588476775635 1:0 2:0.056910569 3:0.06097561 4:0.095528455 5:0.030487805 6:0.032520325 7:0.038617886 8:0.028455285 9:0 10:0.056910569 11:0.075203252 12:0.024390244 13:0.048780488 14:0 15:0.040650407 16:0.069105691 17:0.056910569 18:0.06097561 19:0.034552846 20:0 21:0.056910569 22:0.018292683 23:0 24:0.054878049 25:0 
0.24542550722160442 1:0 2:0.014492754 3:0.072463768 4:0.13577422 5:0.019832189 6:0.042715484 7:0.014492754 8:0.040427155 9:0 10:0.11594203 11:0.061022121 12:0.012204424 13:0.050343249 14:0 15:0.051106026 16:0.03051106 17:0.045003814 18:0.10983982 19:0.04805492 20:0 21:0.060259344 22:0.0068649886 23:0 24:0.019832189 25:0 
0.27487870685657512 1:0 2:0.021212121 3:0.03030303 4:0.075757576 5:0.045454545 6:0.081818182 7:0.039393939 8:0.027272727 9:0 10:0.036363636 11:0.11212121 12:0.03030303 13:0.033333333 14:0 15:0.045454545 16:0.045454545 17:0.063636364 18:0.054545455 19:0.057575758 20:0 21:0.048484848 22:0.018181818 23:0 24:0.039393939 25:0 
0.66915346931271213 1:0 2:0.02617801 3:0.052356021 4:0.057591623 5:0.036649215 6:0.078534031 7:0.015706806 8:0.036649215 9:0 10:0.094240838 11:0.12041885 12:0.031413613 13:0.047120419 14:0 15:0.02617801 16:0.057591623 17:0.041884817 18:0.052356021 19:0.073298429 20:0 21:0.073298429 22:0.015706806 23:0 24:0.020942408 25:0 
0.55572334392067768 1:0 2:0.016393443 3:0.076502732 4:0.06010929 5:0.032786885 6:0.076502732 7:0.016393443 8:0.076502732 9:0 10:0.06010929 11:0.15300546 12:0.021857923 13:0.043715847 14:0 15:0.016393443 16:0.043715847 17:0.06557377 18:0.071038251 19:0.054644809 20:0 21:0.032786885 22:0.027322404 23:0 24:0.010928962 25:0 
0.021416574881918136 1:0 2:0.015706806 3:0.041884817 4:0.068062827 5:0.031413613 6:0.068062827 7:0.02617801 8:0.073298429 9:0 10:0.10471204 11:0.10994764 12:0.020942408 13:0.041884817 14:0 15:0.036649215 16:0.036649215 17:0.036649215 18:0.062827225 19:0.068062827 20:0 21:0.068062827 22:0.010471204 23:0 24:0.02617801 25:0 
0.13973316822583665 1:0 2:0.02247191 3:0.039325843 4:0.078651685 5:0.039325843 6:0.056179775 7:0.033707865 8:0.08988764 9:0 10:0.050561798 11:0.095505618 12:0.039325843 13:0.050561798 14:0 15:0.0056179775 16:0.04494382 17:0.056179775 18:0.061797753 19:0.078651685 20:0 21:0.073033708 22:0.028089888 23:0 24:0.02247191 25:0 
0.0094149851815020918 1:0 2:0.016216216 3:0.07027027 4:0.048648649 5:0.037837838 6:0.059459459 7:0.027027027 8:0.081081081 9:0 10:0.091891892 11:0.12972973 12:0.021621622 13:0.043243243 14:0 15:0.027027027 16:0.048648649 17:0.043243243 18:0.081081081 19:0.043243243 20:0 21:0.064864865 22:0.016216216 23:0 24:0.016216216 25:0 
0.29065062489717181 1:0 2:0.021621622 3:0.059459459 4:0.07027027 5:0.037837838 6:0.059459459 7:0.010810811 8:0.086486486 9:0 10:0.086486486 11:0.10810811 12:0.037837838 13:0.054054054 14:0 15:0.027027027 16:0.048648649 17:0.048648649 18:0.059459459 19:0.037837838 20:0 21:0.054054054 22:0.027027027 23:0 24:0.021621622 25:0 
0.16668894913895249 1:0 2:0.027837259 3:0.032119914 4:0.062098501 5:0.019271949 6:0.093147752 7:0.016059957 8:0.020342612 9:0 10:0.0085653105 11:0.16167024 12:0.0085653105 13:0.010706638 14:0 15:0.099571734 16:0.034261242 17:0.083511777 18:0.072805139 19:0.039614561 20:0 21:0.047109208 22:0.010706638 23:0 24:0.0064239829 25:0 
0.24392241474926565 1:0 2:0.038 3:0.062 4:0.058 5:0.024 6:0.066 7:0.032 8:0.046 9:0 10:0.046 11:0.112 12:0.022 13:0.028 14:0 15:0.03 16:0.07 17:0.052 18:0.062 19:0.048 20:0 21:0.072 22:0.006 23:0 24:0.006 25:0 
0.051808858372948512 1:0 2:0.025380711 3:0.035532995 4:0.07106599 5:0.040609137 6:0.040609137 7:0.025380711 8:0.035532995 9:0 10:0.020304569 11:0.14720812 12:0.015228426 13:0.045685279 14:0 15:0.07106599 16:0.065989848 17:0.065989848 18:0.081218274 19:0.040609137 20:0 21:0.060913706 22:0 23:0 24:0.020304569 25:0 
0.63342911051915285 1:0 2:0.014814815 3:0.037037037 4:0.066666667 5:0.037037037 6:0.051851852 7:0.0074074074 8:0.014814815 9:0 10:0.12592593 11:0.081481481 12:0.0074074074 13:0.022222222 14:0 15:0.059259259 16:0.066666667 17:0.12592593 18:0.059259259 19:0.051851852 20:0 21:0.051851852 22:0 23:0 24:0.014814815 25:0 
0.84460591824750519 1:0 2:0 3:0.063063063 4:0.09009009 5:0.018018018 6:0.063063063 7:0.018018018 8:0.009009009 9:0 10:0.14414414 11:0.072072072 12:0.036036036 13:0.018018018 14:0 15:0.09009009 16:0.063063063 17:0.036036036 18:0.063063063 19:0.045045045 20:0 21:0.036036036 22:0 23:0 24:0.027027027 25:0 
0.1841004694536871 1:0 2:0.012330456 3:0.03945746 4:0.061652281 5:0.022194821 6:0.072749692 7:0.014796547 8:0.036991369 9:0 10:0.044389642 11:0.061652281 12:0.027127004 13:0.044389642 14:0 15:0.091245376 16:0.11220715 17:0.053020962 18:0.12823674 19:0.055487053 20:0 21:0.045622688 22:0.0036991369 23:0 24:0.027127004 25:0 
0.49586272947169407 1:0 2:0 3:0.059210526 4:0.085526316 5:0.039473684 6:0.059210526 7:0.013157895 8:0.032894737 9:0 10:0.065789474 11:0.098684211 12:0.019736842 13:0.052631579 14:0 15:0.032894737 16:0.046052632 17:0.072368421 18:0.065789474 19:0.039473684 20:0 21:0.092105263 22:0.0065789474 23:0 24:0.013157895 25:0 
0.95610514253432632 1:0 2:0.01650165 3:0.047854785 4:0.090759076 5:0.031353135 6:0.069306931 7:0.02310231 8:0.03960396 9:0 10:0.041254125 11:0.11881188 12:0.024752475 13:0.037953795 14:0 15:0.064356436 16:0.067656766 17:0.059405941 18:0.066006601 19:0.02310231 20:0 21:0.059405941 22:0.0099009901 23:0 24:0.03630363 25:0 
1.7716863541008863 1:0 2:0.020253165 3:0.063291139 4:0.086075949 5:0.058227848 6:0.053164557 7:0.020253165 8:0.083544304 9:0 10:0.058227848 11:0.070886076 12:0.025316456 13:0.058227848 14:0 15:0.043037975 16:0.040506329 17:0.043037975 18:0.058227848 19:0.04556962 20:0 21:0.078481013 22:0.0075949367 23:0 24:0.053164557 25:0 
1.6512992499751533 1:0 2:0.0066889632 3:0.066889632 4:0.076923077 5:0.063545151 6:0.046822742 7:0.036789298 8:0.050167224 9:0 10:0.08361204 11:0.076923077 12:0.023411371 13:0.053511706 14:0 15:0.030100334 16:0.02006689 17:0.056856187 18:0.060200669 19:0.056856187 20:0 21:0.080267559 22:0 23:0 24:0.040133779 25:0 
1.0415419483635768 1:0 2:0.02259887 3:0.050847458 4:0.06779661 5:0.050847458 6:0.050847458 7:0.0056497175 8:0.062146893 9:0 10:0.10169492 11:0.084745763 12:0.033898305 13:0.056497175 14:0 15:0.073446328 16:0.056497175 17:0.039548023 18:0.050847458 19:0.050847458 20:0 21:0.028248588 22:0.011299435 23:0 24:0.050847458 25:0 
0.88687752006703557 1:0 2:0.011976048 3:0.023952096 4:0.11377246 5:0.065868263 6:0.011976048 7:0.02994012 8:0.077844311 9:0 10:0.077844311 11:0.089820359 12:0.047904192 13:0.047904192 14:0 15:0.023952096 16:0.02994012 17:0.071856287 18:0.071856287 19:0.035928144 20:0 21:0.089820359 22:0 23:0 24:0.017964072 25:0 
1.1282065831308938 1:0 2:0.0066666667 3:0.086666667 4:0.06 5:0.026666667 6:0.08 7:0.0066666667 8:0.04 9:0 10:0.093333333 11:0.08 12:0.026666667 13:0.053333333 14:0 15:0.026666667 16:0.04 17:0.04 18:0.086666667 19:0.033333333 20:0 21:0.093333333 22:0.0066666667 23:0 24:0.02 25:0 
1.1980631050751622 1:0 2:0.016786571 3:0.074340528 4:0.083932854 5:0.038369305 6:0.055155875 7:0.021582734 8:0.035971223 9:0 10:0.083932854 11:0.10071942 12:0.011990408 13:0.045563549 14:0 15:0.071942446 16:0.023980815 17:0.057553957 18:0.040767386 19:0.064748201 20:0 21:0.088729017 22:0 23:0 24:0.03117506 25:0 
0.28989410106379593 1:0 2:0.020671835 3:0.059431525 4:0.072351421 5:0.03875969 6:0.062015504 7:0.018087855 8:0.051679587 9:0 10:0.069767442 11:0.10077519 12:0.015503876 13:0.028423773 14:0 15:0.056847545 16:0.041343669 17:0.041343669 18:0.080103359 19:0.056847545 20:0 21:0.10335917 22:0.0025839793 23:0 24:0.025839793 25:0 
0.40203943464895536 1:0 2:0.029644269 3:0.051383399 4:0.037549407 5:0.043478261 6:0.11264822 7:0.035573123 8:0.015810277 9:0 10:0.015810277 11:0.13438735 12:0.019762846 13:0.015810277 14:0 15:0.098814229 16:0.035573123 17:0.045454545 18:0.057312253 19:0.057312253 20:0 21:0.049407115 22:0.0059288538 23:0 24:0.031620553 25:0 
32 1:0 2:0.016917293 3:0.054511278 4:0.039473684 5:0.033834586 6:0.084586466 7:0.037593985 8:0.035714286 9:0 10:0.043233083 11:0.12593985 12:0.015037594 13:0.039473684 14:0 15:0.092105263 16:0.028195489 17:0.058270677 18:0.065789474 19:0.054511278 20:0 21:0.052631579 22:0.026315789 23:0 24:0.041353383 25:0 
0.33362153255141436 1:0 2:0.030405405 3:0.043918919 4:0.04222973 5:0.048986486 6:0.11317568 7:0.054054054 8:0.032094595 9:0 10:0.025337838 11:0.10641892 12:0.02027027 13:0.032094595 14:0 15:0.064189189 16:0.037162162 17:0.054054054 18:0.059121622 19:0.054054054 20:0 21:0.055743243 22:0.021959459 23:0 24:0.025337838 25:0 
0.21418949708790957 1:0 2:0.028911565 3:0.045918367 4:0.044217687 5:0.045918367 6:0.091836735 7:0.049319728 8:0.042517007 9:0 10:0.027210884 11:0.13095238 12:0.030612245 13:0.028911565 14:0 15:0.06292517 16:0.035714286 17:0.051020408 18:0.06292517 19:0.049319728 20:0 21:0.066326531 22:0.027210884 23:0 24:0.022108844 25:0 
0.74316008532195299 1:0 2:0.028862479 3:0.052631579 4:0.045840407 5:0.044142615 6:0.089983022 7:0.040747029 8:0.045840407 9:0 10:0.037351443 11:0.11205433 12:0.025466893 13:0.030560272 14:0 15:0.066213922 16:0.030560272 17:0.056027165 18:0.073005093 19:0.056027165 20:0 21:0.064516129 22:0.022071307 23:0 24:0.032258065 25:0 
0.96808386754317854 1:0 2:0.014084507 3:0.047535211 4:0.047535211 5:0.036971831 6:0.098591549 7:0.031690141 8:0.042253521 9:0 10:0.031690141 11:0.091549296 12:0.01584507 13:0.035211268 14:0 15:0.065140845 16:0.044014085 17:0.075704225 18:0.065140845 19:0.059859155 20:0 21:0.045774648 22:0.029929577 23:0 24:0.049295775 25:0 
2.1642795518887858 1:0 2:0.0093457944 3:0.041121495 4:0.046728972 5:0.037383178 6:0.046728972 7:0.039252336 8:0.052336449 9:0 10:0.059813084 11:0.097196262 12:0.03364486 13:0.059813084 14:0 15:0.056074766 16:0.035514019 17:0.044859813 18:0.08411215 19:0.052336449 20:0 21:0.063551402 22:0.028037383 23:0 24:0.048598131 25:0 
0.90817913876465106 1:0 2:0.04109589 3:0.01826484 4:0.02283105 5:0.01369863 6:0.10958904 7:0.01826484 8:0 9:0 10:0 11:0.11415525 12:0.0091324201 13:0.00456621 14:0 15:0.15068493 16:0.02283105 17:0.1369863 18:0.10958904 19:0.03196347 20:0 21:0.04109589 22:0.01826484 23:0 24:0.00456621 25:0 
0.029065676791025223 1:0 2:0.012477718 3:0.042780749 4:0.08912656 5:0.024955437 6:0.081996435 7:0.017825312 8:0.012477718 9:0 10:0.035650624 11:0.10160428 12:0.0071301248 13:0.0071301248 14:0 15:0.1087344 16:0.028520499 17:0.062388592 18:0.076648841 19:0.051693405 20:0 21:0.028520499 22:0.0071301248 23:0 24:0.01426025 25:0 
1.0597111206386309 1:0 2:0.020761246 3:0.041522491 4:0.076124567 5:0.051903114 6:0.065743945 7:0.020761246 8:0.076124567 9:0 10:0.051903114 11:0.11764706 12:0.024221453 13:0.051903114 14:0 15:0.041522491 16:0.051903114 17:0.044982699 18:0.055363322 19:0.079584775 20:0 21:0.048442907 22:0.01384083 23:0 24:0.048442907 25:0 
1.2793360885224097 1:0 2:0.037433155 3:0.048128342 4:0.088235294 5:0.034759358 6:0.088235294 7:0.029411765 8:0.061497326 9:0 10:0.072192513 11:0.093582888 12:0.013368984 13:0.032085561 14:0 15:0.032085561 16:0.040106952 17:0.042780749 18:0.048128342 19:0.053475936 20:0 21:0.077540107 22:0.0080213904 23:0 24:0.037433155 25:0 
1.3204955787916151 1:0 2:0.020304569 3:0.050761421 4:0.053299492 5:0.050761421 6:0.073604061 7:0.012690355 8:0.060913706 9:0 10:0.065989848 11:0.10406091 12:0.025380711 13:0.055837563 14:0 15:0.058375635 16:0.02284264 17:0.040609137 18:0.04822335 19:0.076142132 20:0 21:0.07106599 22:0.025380711 23:0 24:0.038071066 25:0 
1.2407706046573819 1:0 2:0.011553273 3:0.039794608 4:0.0436457 5:0.0436457 6:0.080872914 7:0.029525032 8:0.068035944 9:0 10:0.039794608 11:0.074454429 12:0.023106547 13:0.050064185 14:0 15:0.055198973 16:0.052631579 17:0.039794608 18:0.084724005 19:0.080872914 20:0 21:0.061617458 22:0.011553273 23:0 24:0.035943517 25:0 
0.5117275859173257 1:0 2:0.029220779 3:0.071428571 4:0.038961039 5:0.016233766 6:0.058441558 7:0.032467532 8:0.045454545 9:0 10:0.029220779 11:0.16883117 12:0.0097402597 13:0.038961039 14:0 15:0.055194805 16:0.058441558 17:0.051948052 18:0.064935065 19:0.038961039 20:0 21:0.055194805 22:0.0064935065 23:0 24:0.035714286 25:0 
0.58375581647607266 1:0 2:0.042035398 3:0.026548673 4:0.07300885 5:0.022123894 6:0.064159292 7:0.033185841 8:0.011061947 9:0 10:0.015486726 11:0.13274336 12:0.013274336 13:0.028761062 14:0 15:0.057522124 16:0.059734513 17:0.095132743 18:0.042035398 19:0.050884956 20:0 21:0.050884956 22:0.015486726 23:0 24:0.015486726 25:0 
0.0400230798077214 1:0 2:0.025236593 3:0.069400631 4:0.047318612 5:0.028391167 6:0.063091483 7:0.044164038 8:0.056782334 9:0 10:0.044164038 11:0.12933754 12:0.022082019 13:0.047318612 14:0 15:0.034700315 16:0.044164038 17:0.085173502 18:0.05362776 19:0.041009464 20:0 21:0.047318612 22:0.0063091483 23:0 24:0.031545741 25:0 
0.3326978602388373 1:0 2:0.034129693 3:0.051194539 4:0.051194539 5:0.020477816 6:0.088737201 7:0.058020478 8:0.044368601 9:0 10:0.04778157 11:0.1331058 12:0.020477816 13:0.037542662 14:0 15:0.061433447 16:0.054607509 17:0.040955631 18:0.068259386 19:0.023890785 20:0 21:0.058020478 22:0.013651877 23:0 24:0.0068259386 25:0 
0.70691262921511155 1:0 2:0.0085106383 3:0.029787234 4:0.055319149 5:0.038297872 6:0.059574468 7:0.012765957 8:0.0085106383 9:0 10:0.038297872 11:0.072340426 12:0.021276596 13:0.042553191 14:0 15:0.080851064 16:0.12765957 17:0.059574468 18:0.10638298 19:0.021276596 20:0 21:0.042553191 22:0.0042553191 23:0 24:0.021276596 25:0 
0.64536342560034932 1:0 2:0.014778325 3:0.064039409 4:0.093596059 5:0.044334975 6:0.039408867 7:0.014778325 8:0.044334975 9:0 10:0.02955665 11:0.083743842 12:0.024630542 13:0.078817734 14:0 15:0.068965517 16:0.034482759 17:0.034482759 18:0.083743842 19:0.049261084 20:0 21:0.098522167 22:0.014778325 23:0 24:0.034482759 25:0 
0.51386240675938721 1:0 2:0.029850746 3:0.054726368 4:0.07960199 5:0.049751244 6:0.059701493 7:0.019900498 8:0.064676617 9:0 10:0.019900498 11:0.099502488 12:0.024875622 13:0.069651741 14:0 15:0.094527363 16:0.029850746 17:0.039800995 18:0.064676617 19:0.034825871 20:0 21:0.07960199 22:0.0099502488 23:0 24:0.024875622 25:0 
1.7270362891481421 1:0 2:0.019543974 3:0.06514658 4:0.058631922 5:0.016286645 6:0.13029316 7:0.022801303 8:0.045602606 9:0 10:0.074918567 11:0.071661238 12:0.029315961 13:0.035830619 14:0 15:0.035830619 16:0.022801303 17:0.03257329 18:0.048859935 19:0.061889251 20:0 21:0.09771987 22:0.009771987 23:0 24:0.013029316 25:0 
0.36653948762890265 1:0 2:0.034482759 3:0.068965517 4:0.075862069 5:0.024137931 6:0.079310345 7:0.04137931 8:0.0068965517 9:0 10:0.044827586 11:0.12413793 12:0.013793103 13:0.037931034 14:0 15:0.048275862 16:0.075862069 17:0.051724138 18:0.079310345 19:0.04137931 20:0 21:0.062068966 22:0.037931034 23:0 24:0.020689655 25:0 
0.40854386020392008 1:0 2:0.035483871 3:0.05483871 4:0.064516129 5:0.04516129 6:0.077419355 7:0.048387097 8:0.025806452 9:0 10:0.04516129 11:0.093548387 12:0.0096774194 13:0.051612903 14:0 15:0.041935484 16:0.070967742 17:0.041935484 18:0.077419355 19:0.041935484 20:0 21:0.064516129 22:0.035483871 23:0 24:0.016129032 25:0 
0.5938571332179986 1:0 2:0.0043290043 3:0.051948052 4:0.060606061 5:0.017316017 6:0.038961039 7:0.03030303 8:0.03030303 9:0 10:0.1038961 11:0.1038961 12:0.017316017 13:0.073593074 14:0 15:0.086580087 16:0.038961039 17:0.056277056 18:0.1038961 19:0.064935065 20:0 21:0.060606061 22:0.0086580087 23:0 24:0.0043290043 25:0 
0.19067893587797652 1:0 2:0.041745731 3:0.058823529 4:0.079696395 5:0.056925996 6:0.064516129 7:0.028462998 8:0.045540797 9:0 10:0.060721063 11:0.098671727 12:0.024667932 13:0.032258065 14:0 15:0.043643264 16:0.041745731 17:0.04743833 18:0.05313093 19:0.045540797 20:0 21:0.055028463 22:0.0056925996 23:0 24:0.045540797 25:0 
0.71915886541087293 1:0 2:0.031311155 3:0.045009785 4:0.088062622 5:0.052837573 6:0.066536204 7:0.029354207 8:0.052837573 9:0 10:0.056751468 11:0.11545988 12:0.023483366 13:0.037181996 14:0 15:0.048923679 16:0.04109589 17:0.029354207 18:0.062622309 19:0.066536204 20:0 21:0.058708415 22:0.0058708415 23:0 24:0.04109589 25:0 
1.2872035639667867 1:0 2:0.035849057 3:0.041509434 4:0.056603774 5:0.039622642 6:0.071698113 7:0.028301887 8:0.032075472 9:0 10:0.020754717 11:0.10754717 12:0.030188679 13:0.032075472 14:0 15:0.086792453 16:0.043396226 17:0.073584906 18:0.075471698 19:0.050943396 20:0 21:0.049056604 22:0.0094339623 23:0 24:0.035849057 25:0 
0.26316389478085139 1:0 2:0.035714286 3:0.027777778 4:0.061507937 5:0.069444444 6:0.053571429 7:0.029761905 8:0.071428571 9:0 10:0.073412698 11:0.095238095 12:0.0079365079 13:0.055555556 14:0 15:0.043650794 16:0.047619048 17:0.029761905 18:0.081349206 19:0.057539683 20:0 21:0.069444444 22:0.013888889 23:0 24:0.035714286 25:0 
0.938612499162082 1:0 2:0.083969466 3:0.038167939 4:0.030534351 5:0.038167939 6:0.0076335878 7:0.0076335878 8:0.015267176 9:0 10:0.091603053 11:0.11450382 12:0.015267176 13:0.045801527 14:0 15:0.076335878 16:0.015267176 17:0.091603053 18:0.12977099 19:0.038167939 20:0 21:0.076335878 22:0 23:0 24:0 25:0 
0.81722797736011121 1:0 2:0.019911504 3:0.059734513 4:0.033185841 5:0.039823009 6:0.046460177 7:0.024336283 8:0.064159292 9:0 10:0.057522124 11:0.10176991 12:0.017699115 13:0.068584071 14:0 15:0.064159292 16:0.050884956 17:0.019911504 18:0.07079646 19:0.066371681 20:0 21:0.061946903 22:0.017699115 23:0 24:0.059734513 25:0 
1.1948144644100014 1:0 2:0.02866242 3:0.042993631 4:0.041401274 5:0.03343949 6:0.078025478 7:0.036624204 8:0.036624204 9:0 10:0.020700637 11:0.12738854 12:0.01433121 13:0.031847134 14:0 15:0.10031847 16:0.030254777 17:0.060509554 18:0.066878981 19:0.046178344 20:0 21:0.050955414 22:0.03343949 23:0 24:0.035031847 25:0 
0.83643429218465115 1:0 2:0.023054755 3:0.057636888 4:0.089337176 5:0.051873199 6:0.057636888 7:0.017291066 8:0.060518732 9:0 10:0.066282421 11:0.097982709 12:0.04610951 13:0.034582133 14:0 15:0.060518732 16:0.043227666 17:0.028818444 18:0.063400576 19:0.043227666 20:0 21:0.069164265 22:0.0057636888 23:0 24:0.017291066 25:0 
3.2305875098724361 1:0 2:0.031884058 3:0.057971014 4:0.049275362 5:0.037681159 6:0.092753623 7:0.026086957 8:0.057971014 9:0 10:0.046376812 11:0.066666667 12:0.028985507 13:0.04057971 14:0 15:0.055072464 16:0.031884058 17:0.043478261 18:0.063768116 19:0.072463768 20:0 21:0.063768116 22:0.011594203 23:0 24:0.023188406 25:0 
0.5939960174236395 1:0 2:0.028277635 3:0.035989717 4:0.046272494 5:0.038560411 6:0.15938303 7:0.015424165 8:0.01285347 9:0 10:0.010282776 11:0.10796915 12:0.017994859 13:0.020565553 14:0 15:0.10282776 16:0.033419023 17:0.089974293 18:0.06940874 19:0.025706941 20:0 21:0.051413882 22:0.023136247 23:0 24:0.017994859 25:0 
0.64303930420272581 1:0 2:0.010568032 3:0.068692206 4:0.11756935 5:0.031704095 6:0.071334214 7:0.029062087 8:0.033025099 9:0 10:0.071334214 11:0.081902246 12:0.015852048 13:0.035667107 14:0 15:0.055482166 16:0.047556143 17:0.050198151 18:0.060766182 19:0.050198151 20:0 21:0.07001321 22:0.018494055 23:0 24:0.025099075 25:0 
0.70456408206562593 1:0 2:0.018411968 3:0.022151899 4:0.045454545 5:0.034810127 6:0.021864212 7:0.031070196 8:0.075949367 9:0 10:0.10270426 11:0.089470656 12:0.023590334 13:0.038550058 14:0 15:0.020425777 16:0.070483314 17:0.094073648 18:0.066743383 19:0.048331415 20:0 21:0.057537399 22:0.012945915 23:0 24:0.044591484 25:0 
0.6145712167269195 1:0 2:0.018469657 3:0.073878628 4:0.058047493 5:0.055408971 6:0.042216359 7:0.029023747 8:0.058047493 9:0 10:0.08707124 11:0.13456464 12:0.031662269 13:0.073878628 14:0 15:0.063324538 16:0.021108179 17:0.039577836 18:0.063324538 19:0.044854881 20:0 21:0.044854881 22:0.0026385224 23:0 24:0.023746702 25:0 
0.28332154857735342 1:0 2:0.010647737 3:0.047027507 4:0.082519965 5:0.022182786 6:0.051464064 7:0.015971606 8:0.031055901 9:0 10:0.06122449 11:0.083407276 12:0.023957409 13:0.054125998 14:0 15:0.099378882 16:0.078083407 17:0.054125998 18:0.084294587 19:0.037267081 20:0 21:0.069210293 22:0.0070984916 23:0 24:0.023070098 25:0 
0.9657818302882879 1:0 2:0.037878788 3:0.015151515 4:0.12121212 5:0.026515152 6:0.11742424 7:0.049242424 8:0.03030303 9:0 10:0.022727273 11:0.075757576 12:0.03030303 13:0.041666667 14:0 15:0.049242424 16:0.079545455 17:0.018939394 18:0.14772727 19:0.056818182 20:0 21:0.015151515 22:0 23:0 24:0.015151515 25:0 
0.079395302718356056 1:0 2:0.01627907 3:0.030232558 4:0.053488372 5:0.030232558 6:0.10930233 7:0.023255814 8:0.048837209 9:0 10:0.023255814 11:0.093023256 12:0.018604651 13:0.018604651 14:0 15:0.097674419 16:0.039534884 17:0.062790698 18:0.12790698 19:0.039534884 20:0 21:0.055813953 22:0.020930233 23:0 24:0.018604651 25:0 
0.10051129800566889 1:0 2:0.022900763 3:0.033927057 4:0.04495335 5:0.03307888 6:0.06870229 7:0.016963528 8:0.038167939 9:0 10:0.030534351 11:0.13825276 12:0.024597116 13:0.018659881 14:0 15:0.075487701 16:0.04749788 17:0.055979644 18:0.072094996 19:0.05682782 20:0 21:0.099236641 22:0.012722646 23:0 24:0.027989822 25:0 
0.32912615548491553 1:0 2:0.024703557 3:0.061264822 4:0.064229249 5:0.044466403 6:0.075098814 7:0.014822134 8:0.078063241 9:0 10:0.056324111 11:0.089920949 12:0.0256917 13:0.042490119 14:0 15:0.041501976 16:0.035573123 17:0.043478261 18:0.055335968 19:0.063241107 20:0 21:0.076086957 22:0.010869565 23:0 24:0.022727273 25:0 
1.1260900633363298 1:0 2:0.023178808 3:0.049668874 4:0.082781457 5:0.059602649 6:0.086092715 7:0.0033112583 8:0.062913907 9:0 10:0.10264901 11:0.079470199 12:0.016556291 13:0.046357616 14:0 15:0.066225166 16:0.039735099 17:0.049668874 18:0.043046358 19:0.039735099 20:0 21:0.052980132 22:0.013245033 23:0 24:0.059602649 25:0 
1.9225606145550216 1:0 2:0.024221453 3:0.051903114 4:0.044982699 5:0.062283737 6:0.062283737 7:0.017301038 8:0.041522491 9:0 10:0.062283737 11:0.062283737 12:0.034602076 13:0.08650519 14:0 15:0.044982699 16:0.051903114 17:0.048442907 18:0.034602076 19:0.065743945 20:0 21:0.08650519 22:0.017301038 23:0 24:0.048442907 25:0 
2.0075937697251418 1:0 2:0.021582734 3:0.050359712 4:0.04676259 5:0.061151079 6:0.068345324 7:0.0071942446 8:0.04676259 9:0 10:0.082733813 11:0.10431655 12:0.028776978 13:0.050359712 14:0 15:0.071942446 16:0.039568345 17:0.028776978 18:0.053956835 19:0.050359712 20:0 21:0.071942446 22:0.010791367 23:0 24:0.053956835 25:0 
1.8459768533039569 1:0 2:0.022088353 3:0.058232932 4:0.06626506 5:0.040160643 6:0.074297189 7:0.042168675 8:0.058232932 9:0 10:0.086345382 11:0.078313253 12:0.02811245 13:0.03815261 14:0 15:0.03815261 16:0.032128514 17:0.046184739 18:0.058232932 19:0.054216867 20:0 21:0.068273092 22:0.0020080321 23:0 24:0.034136546 25:0 
0.19057149507740481 1:0 2:0.017817372 3:0.055679287 4:0.055679287 5:0.04454343 6:0.073496659 7:0.037861915 8:0.04454343 9:0 10:0.04454343 11:0.08908686 12:0.0155902 13:0.035634744 14:0 15:0.053452116 16:0.057906459 17:0.053452116 18:0.055679287 19:0.035634744 20:0 21:0.095768374 22:0.004454343 23:0 24:0.035634744 25:0 
0.64578831398290015 1:0 2:0.0039215686 3:0.023529412 4:0.066666667 5:0.035294118 6:0.050980392 7:0.02745098 8:0.054901961 9:0 10:0.078431373 11:0.10196078 12:0.02745098 13:0.031372549 14:0 15:0.047058824 16:0.074509804 17:0.043137255 18:0.043137255 19:0.050980392 20:0 21:0.090196078 22:0.0039215686 23:0 24:0.050980392 25:0 
0.88961423397131845 1:0 2:0.021276596 3:0.014184397 4:0.028368794 5:0.070921986 6:0.11347518 7:0 8:0.078014184 9:0 10:0.021276596 11:0.092198582 12:0.028368794 13:0.021276596 14:0 15:0.028368794 16:0.042553191 17:0.056737589 18:0.10638298 19:0.04964539 20:0 21:0.056737589 22:0 23:0 24:0.021276596 25:0 
0.13716692052041146 1:0 2:0.028901734 3:0.080924855 4:0.063583815 5:0.031791908 6:0.060693642 7:0.01734104 8:0.040462428 9:0 10:0.089595376 11:0.075144509 12:0.023121387 13:0.066473988 14:0 15:0.052023121 16:0.031791908 17:0.052023121 18:0.1416185 19:0.043352601 20:0 21:0.031791908 22:0.011560694 23:0 24:0.020231214 25:0 
0.80215701856291788 1:0 2:0.0168 3:0.06 4:0.0624 5:0.06 6:0.052 7:0.0176 8:0.0672 9:0 10:0.0624 11:0.0944 12:0.0208 13:0.0472 14:0 15:0.028 16:0.0432 17:0.0576 18:0.0552 19:0.0664 20:0 21:0.0592 22:0.0152 23:0 24:0.0432 25:0 
0.051206697681686494 1:0 2:0.016666667 3:0.075 4:0.061111111 5:0.036111111 6:0.038888889 7:0.030555556 8:0.066666667 9:0 10:0.077777778 11:0.10277778 12:0.036111111 13:0.033333333 14:0 15:0.038888889 16:0.05 17:0.05 18:0.063888889 19:0.05 20:0 21:0.066666667 22:0.011111111 23:0 24:0.013888889 25:0 
0.75486670225344954 1:0 2:0.0074074074 3:0.044444444 4:0.055555556 5:0 6:0.062962963 7:0.014814815 8:0.048148148 9:0 10:0.059259259 11:0.074074074 12:0.022222222 13:0.033333333 14:0 15:0.044444444 16:0.092592593 17:0.048148148 18:0.13333333 19:0.10740741 20:0 21:0.062962963 22:0 23:0 24:0.025925926 25:0 
0.33931824566000313 1:0 2:0.0099206349 3:0.043650794 4:0.057539683 5:0.01984127 6:0.033730159 7:0.031746032 8:0.031746032 9:0 10:0.057539683 11:0.075396825 12:0.01984127 13:0.033730159 14:0 15:0.10119048 16:0.067460317 17:0.045634921 18:0.125 19:0.081349206 20:0 21:0.077380952 22:0.003968254 23:0 24:0.003968254 25:0 
0.093949531410791223 1:0 2:0.027777778 3:0.022222222 4:0.12222222 5:0.027777778 6:0.027777778 7:0.027777778 8:0.05 9:0 10:0.094444444 11:0.094444444 12:0.022222222 13:0.05 14:0 15:0.05 16:0.055555556 17:0.072222222 18:0.077777778 19:0.038888889 20:0 21:0.061111111 22:0 23:0 24:0.0055555556 25:0 
0.14930676920354891 1:0 2:0.014285714 3:0.085714286 4:0.088571429 5:0.028571429 6:0.062857143 7:0.014285714 8:0.022857143 9:0 10:0.091428571 11:0.11428571 12:0.028571429 13:0.022857143 14:0 15:0.082857143 16:0.034285714 17:0.031428571 18:0.094285714 19:0.051428571 20:0 21:0.045714286 22:0.0057142857 23:0 24:0.02 25:0 
0.94230118282875375 1:0 2:0.010676157 3:0.049822064 4:0.085409253 5:0.017793594 6:0.067615658 7:0.0035587189 8:0.010676157 9:0 10:0.039145907 11:0.15658363 12:0.017793594 13:0.010676157 14:0 15:0.1886121 16:0.046263345 17:0.06405694 18:0.053380783 19:0.03202847 20:0 21:0.03202847 22:0.0071174377 23:0 24:0.024911032 25:0 
0.056975951810746779 1:0 2:0.0074738416 3:0.043348281 4:0.059790732 5:0.020926756 6:0.038863976 7:0.01793722 8:0.046337818 9:0 10:0.052316891 11:0.095665172 12:0.028400598 13:0.058295964 14:0 15:0.080717489 16:0.067264574 17:0.055306428 18:0.10463378 19:0.062780269 20:0 21:0.071748879 22:0.0059790732 23:0 24:0.025411061 25:0 
0.0060814634889489157 1:0 2:0.014245014 3:0.045584046 4:0.06980057 5:0.027065527 6:0.052706553 7:0.015669516 8:0.031339031 9:0 10:0.03988604 11:0.10968661 12:0.021367521 13:0.025641026 14:0 15:0.12108262 16:0.062678063 17:0.064102564 18:0.12108262 19:0.038461538 20:0 21:0.066951567 22:0.0056980057 23:0 24:0.0085470085 25:0 
0.48498955910894026 1:0 2:0.014388489 3:0.050359712 4:0.079136691 5:0.035971223 6:0.079136691 7:0.0071942446 8:0.057553957 9:0 10:0.086330935 11:0.086330935 12:0.014388489 13:0.0071942446 14:0 15:0.079136691 16:0.050359712 17:0.014388489 18:0.079136691 19:0.086330935 20:0 21:0.064748201 22:0.014388489 23:0 24:0.021582734 25:0 
1.1090276644378243 1:0 2:0.025559105 3:0.067092652 4:0.12779553 5:0.022364217 6:0.060702875 7:0.038338658 8:0.057507987 9:0 10:0.07028754 11:0.076677316 12:0.025559105 13:0.022364217 14:0 15:0.044728435 16:0.03514377 17:0.025559105 18:0.019169329 19:0.089456869 20:0 21:0.07028754 22:0.012779553 23:0 24:0.051118211 25:0 
0.38181457842016514 1:0 2:0.033163265 3:0.071428571 4:0.06377551 5:0.058673469 6:0.066326531 7:0.025510204 8:0.051020408 9:0 10:0.033163265 11:0.094387755 12:0.025510204 13:0.025510204 14:0 15:0.06377551 16:0.035714286 17:0.053571429 18:0.068877551 19:0.056122449 20:0 21:0.058673469 22:0.022959184 23:0 24:0.028061224 25:0 
0.24644900120736388 1:0 2:0.01459854 3:0.072992701 4:0.080291971 5:0.054744526 6:0.032846715 7:0.040145985 8:0.065693431 9:0 10:0.072992701 11:0.10583942 12:0.032846715 13:0.025547445 14:0 15:0.069343066 16:0.051094891 17:0.040145985 18:0.047445255 19:0.051094891 20:0 21:0.040145985 22:0.025547445 23:0 24:0.03649635 25:0 
0.24041488339989892 1:0 2:0.023041475 3:0.059907834 4:0.092165899 5:0.036866359 6:0.059907834 7:0.023041475 8:0.046082949 9:0 10:0.069124424 11:0.087557604 12:0.02764977 13:0.023041475 14:0 15:0.023041475 16:0.041474654 17:0.064516129 18:0.059907834 19:0.073732719 20:0 21:0.11059908 22:0.013824885 23:0 24:0.032258065 25:0 
0.93865656942968478 1:0 2:0 3:0.038095238 4:0.13333333 5:0.028571429 6:0.085714286 7:0.057142857 8:0.047619048 9:0 10:0.095238095 11:0.057142857 12:0.028571429 13:0.0095238095 14:0 15:0 16:0.066666667 17:0.1047619 18:0.038095238 19:0.028571429 20:0 21:0.047619048 22:0.019047619 23:0 24:0.0095238095 25:0 
1.2491803623867348 1:0 2:0.059625213 3:0.04088586 4:0.056218058 5:0.023850085 6:0.073821692 7:0.026689381 8:0.035207269 9:0 10:0.045428734 11:0.090289608 12:0.0096536059 13:0.031232254 14:0 15:0.067575241 16:0.053946621 17:0.060760931 18:0.086314594 19:0.066439523 20:0 21:0.064735945 22:0.02044293 23:0 24:0.019875071 25:0 
0.51332712707151806 1:0 2:0.065263158 3:0.056842105 4:0.063157895 5:0.027368421 6:0.094736842 7:0.022105263 8:0.018947368 9:0 10:0.043157895 11:0.057894737 12:0.014736842 13:0.036842105 14:0 15:0.066315789 16:0.042105263 17:0.064210526 18:0.086315789 19:0.066315789 20:0 21:0.063157895 22:0.023157895 23:0 24:0.031578947 25:0 
0.62782701953257003 1:0 2:0.054986021 3:0.023299161 4:0.05778192 5:0.018639329 6:0.10344828 7:0.022367195 8:0.021435228 9:0 10:0.0093196645 11:0.072693383 12:0.0065237651 13:0.018639329 14:0 15:0.1416589 16:0.069897484 17:0.095060578 18:0.096924511 19:0.050326188 20:0 21:0.040074557 22:0.023299161 23:0 24:0.016775396 25:0 
0.5770143826519224 1:0 2:0.04893617 3:0.042553191 4:0.040425532 5:0.031914894 6:0.09787234 7:0.040425532 8:0.010638298 9:0 10:0.0042553191 11:0.10638298 12:0.0085106383 13:0.023404255 14:0 15:0.10212766 16:0.055319149 17:0.091489362 18:0.04893617 19:0.040425532 20:0 21:0.063829787 22:0.025531915 23:0 24:0.031914894 25:0 
2.1289948069071145 1:0 2:0.014814815 3:0.055555556 4:0.07037037 5:0.055555556 6:0.074074074 7:0.024074074 8:0.048148148 9:0 10:0.066666667 11:0.10185185 12:0.025925926 13:0.02962963 14:0 15:0.037037037 16:0.062962963 17:0.031481481 18:0.072222222 19:0.042592593 20:0 21:0.064814815 22:0.0092592593 23:0 24:0.038888889 25:0 
0.22137292126701721 1:0 2:0.023114355 3:0.049878345 4:0.055961071 5:0.03892944 6:0.053527981 7:0.02189781 8:0.042579075 9:0 10:0.04136253 11:0.086374696 12:0.02189781 13:0.0486618 14:0 15:0.075425791 16:0.062043796 17:0.027980535 18:0.12408759 19:0.086374696 20:0 21:0.047445255 22:0.00486618 23:0 24:0.0097323601 25:0 
0.64422241180631579 1:0 2:0.0025231287 3:0.02607233 4:0.053826745 5:0.018502944 6:0.081581161 7:0.048780488 8:0.0084104289 9:0 10:0.032800673 11:0.074011775 12:0.012615643 13:0.022708158 14:0 15:0.18755257 16:0.053826745 17:0.054667788 18:0.12867956 19:0.040370059 20:0 21:0.036164844 22:0.0016820858 23:0 24:0.025231287 25:0 
0.9094840923167129 1:0 2:0.015384615 3:0.076923077 4:0.046153846 5:0.061538462 6:0.16923077 7:0 8:0.061538462 9:0 10:0.046153846 11:0.10769231 12:0.030769231 13:0.046153846 14:0 15:0.046153846 16:0.015384615 17:0.092307692 18:0.046153846 19:0.030769231 20:0 21:0.046153846 22:0 23:0 24:0.046153846 25:0 
0.96129569339708598 1:0 2:0.044776119 3:0.059701493 4:0.074626866 5:0.014925373 6:0.089552239 7:0.029850746 8:0.029850746 9:0 10:0.11940299 11:0.11940299 12:0.044776119 13:0.029850746 14:0 15:0.029850746 16:0 17:0.014925373 18:0.074626866 19:0.074626866 20:0 21:0.089552239 22:0 23:0 24:0.029850746 25:0 
0.87948833730489806 1:0 2:0.044897959 3:0.053061224 4:0.053061224 5:0.06122449 6:0.048979592 7:0.065306122 8:0.036734694 9:0 10:0.040816327 11:0.073469388 12:0.012244898 13:0.073469388 14:0 15:0.028571429 16:0.06122449 17:0.07755102 18:0.065306122 19:0.036734694 20:0 21:0.065306122 22:0.0040816327 23:0 24:0.020408163 25:0 
0.33663027542053015 1:0 2:0.031034483 3:0.044827586 4:0.055172414 5:0.062068966 6:0.055172414 7:0.020689655 8:0.031034483 9:0 10:0.05862069 11:0.086206897 12:0.027586207 13:0.051724138 14:0 15:0.072413793 16:0.055172414 17:0.04137931 18:0.048275862 19:0.051724138 20:0 21:0.065517241 22:0.013793103 23:0 24:0.062068966 25:0 
0.96098502215049664 1:0 2:0.02 3:0.02 4:0.06 5:0.02 6:0.04 7:0 8:0.06 9:0 10:0.16 11:0.04 12:0.02 13:0.04 14:0 15:0 16:0.04 17:0.06 18:0.08 19:0.04 20:0 21:0.1 22:0.02 23:0 24:0.06 25:0 
0.91188043293455112 1:0 2:0.00625 3:0.0625 4:0.10625 5:0.03125 6:0.0125 7:0.00625 8:0.05625 9:0 10:0.125 11:0.08125 12:0.025 13:0.05 14:0 15:0.06875 16:0.03125 17:0.01875 18:0.04375 19:0.0375 20:0 21:0.05625 22:0.03125 23:0 24:0.0375 25:0 
0.89399749221775293 1:0 2:0 3:0.044117647 4:0.11764706 5:0.014705882 6:0.044117647 7:0 8:0.058823529 9:0 10:0.10294118 11:0.11764706 12:0.014705882 13:0.014705882 14:0 15:0.058823529 16:0.029411765 17:0.10294118 18:0.044117647 19:0.014705882 20:0 21:0.058823529 22:0 23:0 24:0.058823529 25:0 
0.89295843908585526 1:0 2:0 3:0.046728972 4:0.08411215 5:0.093457944 6:0.037383178 7:0.0093457944 8:0.056074766 9:0 10:0.093457944 11:0.074766355 12:0.028037383 13:0.037383178 14:0 15:0.046728972 16:0.065420561 17:0.074766355 18:0.074766355 19:0.037383178 20:0 21:0.074766355 22:0 23:0 24:0.018691589 25:0 
1.0005884668839522 1:0 2:0 3:0.0098039216 4:0.058823529 5:0.039215686 6:0.058823529 7:0 8:0.068627451 9:0 10:0.078431373 11:0.088235294 12:0.019607843 13:0.039215686 14:0 15:0.058823529 16:0.039215686 17:0.039215686 18:0.039215686 19:0.068627451 20:0 21:0.12745098 22:0.019607843 23:0 24:0.049019608 25:0 
0.51582735923261536 1:0 2:0.051401869 3:0.070093458 4:0.060747664 5:0.023364486 6:0.056074766 7:0.028037383 8:0.065420561 9:0 10:0.074766355 11:0.13551402 12:0.03271028 13:0.03271028 14:0 15:0.03271028 16:0.051401869 17:0.060747664 18:0.051401869 19:0.028037383 20:0 21:0.042056075 22:0.023364486 23:0 24:0.03271028 25:0 
0.97462956536808043 1:0 2:0 3:0.0044444444 4:0.013333333 5:0.04 6:0.035555556 7:0.026666667 8:0.12888889 9:0 10:0.026666667 11:0.19555556 12:0.053333333 13:0.048888889 14:0 15:0.062222222 16:0.031111111 17:0.017777778 18:0.057777778 19:0.11555556 20:0 21:0.035555556 22:0.013333333 23:0 24:0.013333333 25:0 
0.97529279272780056 1:0 2:0.014925373 3:0 4:0.014925373 5:0.014925373 6:0 7:0.029850746 8:0.044776119 9:0 10:0.10447761 11:0.14925373 12:0.089552239 13:0.074626866 14:0 15:0.1641791 16:0.044776119 17:0 18:0.059701493 19:0.11940299 20:0 21:0.014925373 22:0.044776119 23:0 24:0.029850746 25:0 
0.80611017106669336 1:0 2:0 3:0.051136364 4:0.070075758 5:0.03030303 6:0.09280303 7:0.018939394 8:0.068181818 9:0 10:0.043560606 11:0.090909091 12:0.026515152 13:0.017045455 14:0 15:0.060606061 16:0.045454545 17:0.049242424 18:0.049242424 19:0.0625 20:0 21:0.089015152 22:0 23:0 24:0.024621212 25:0 
0.057103522521198803 1:0 2:0 3:0.035928144 4:0.065868263 5:0.035928144 6:0.065868263 7:0.017964072 8:0.02994012 9:0 10:0.023952096 11:0.11377246 12:0.017964072 13:0.035928144 14:0 15:0.047904192 16:0.041916168 17:0.053892216 18:0.053892216 19:0.05988024 20:0 21:0.095808383 22:0 23:0 24:0.011976048 25:0 
0.62700478294397843 1:0 2:0.018348624 3:0.033639144 4:0.082568807 5:0.051987768 6:0.076452599 7:0.0091743119 8:0.042813456 9:0 10:0.058103976 11:0.088685015 12:0.01529052 13:0.033639144 14:0 15:0.039755352 16:0.064220183 17:0.064220183 18:0.051987768 19:0.048929664 20:0 21:0.067278287 22:0.0091743119 23:0 24:0.033639144 25:0 
0.068231614433636387 1:0 2:0.013888889 3:0.038194444 4:0.083333333 5:0.020833333 6:0.048611111 7:0.020833333 8:0.059027778 9:0 10:0.048611111 11:0.11458333 12:0.017361111 13:0.03125 14:0 15:0.052083333 16:0.048611111 17:0.069444444 18:0.069444444 19:0.083333333 20:0 21:0.048611111 22:0.024305556 23:0 24:0.03125 25:0 
0.64744159497234655 1:0 2:0.0033670034 3:0.053872054 4:0.060606061 5:0.03030303 6:0.057239057 7:0.01010101 8:0.090909091 9:0 10:0.087542088 11:0.087542088 12:0.033670034 13:0.037037037 14:0 15:0.02020202 16:0.033670034 17:0.050505051 18:0.090909091 19:0.057239057 20:0 21:0.047138047 22:0.0067340067 23:0 24:0.037037037 25:0 
2.3420949360322521 1:0 2:0.0094339623 3:0.014150943 4:0.066037736 5:0.023584906 6:0.051886792 7:0.0047169811 8:0.047169811 9:0 10:0.08490566 11:0.10849057 12:0.028301887 13:0.033018868 14:0 15:0.047169811 16:0.04245283 17:0.061320755 18:0.099056604 19:0.061320755 20:0 21:0.11320755 22:0 23:0 24:0.023584906 25:0 
2.6671275457395387 1:0 2:0.06162465 3:0.045518207 4:0.045518207 5:0.041316527 6:0.073529412 7:0.029411765 8:0.037815126 9:0 10:0.043417367 11:0.078431373 12:0.021008403 13:0.06092437 14:0 15:0.052521008 16:0.036414566 17:0.047619048 18:0.084033613 19:0.055322129 20:0 21:0.056722689 22:0.021708683 23:0 24:0.036414566 25:0 
1.2211017317884545 1:0 2:0.059891107 3:0.045372051 4:0.05353902 5:0.026315789 6:0.085299456 7:0.037205082 8:0.029945554 9:0 10:0.037205082 11:0.078947368 12:0.010889292 13:0.025408348 14:0 15:0.075317604 16:0.038112523 17:0.074410163 18:0.08076225 19:0.05353902 20:0 21:0.06261343 22:0.020871143 23:0 24:0.024500907 25:0 
0.29576405724393717 1:0 2:0.057503506 3:0.03997195 4:0.055399719 5:0.022440393 6:0.10168303 7:0.02173913 8:0.023141655 9:0 10:0.016830295 11:0.089060309 12:0.016830295 13:0.017531557 14:0 15:0.082748948 16:0.053997195 17:0.07713885 18:0.077840112 19:0.050490884 20:0 21:0.062412342 22:0.023141655 23:0 24:0.017531557 25:0 
1.0274357013679827 1:0 2:0.063114754 3:0.029508197 4:0.052459016 5:0.037704918 6:0.086065574 7:0.029508197 8:0.03442623 9:0 10:0.068032787 11:0.07295082 12:0.012295082 13:0.042622951 14:0 15:0.062295082 16:0.053278689 17:0.050819672 18:0.090163934 19:0.043442623 20:0 21:0.054098361 22:0.019672131 23:0 24:0.03442623 25:0 
2.6336441912247905 1:0 2:0.045209903 3:0.048439182 4:0.040904198 5:0.029063509 6:0.099031216 7:0.03444564 8:0.032292788 9:0 10:0.06350915 11:0.082884822 12:0.010764263 13:0.027987083 14:0 15:0.052744887 16:0.039827772 17:0.064585576 18:0.077502691 19:0.060279871 20:0 21:0.060279871 22:0.01722282 23:0 24:0.033369214 25:0 
0.14634927075557944 1:0 2:0.02742616 3:0.061181435 4:0.080168776 5:0.040084388 6:0.03164557 7:0.016877637 8:0.073839662 9:0 10:0.054852321 11:0.13924051 12:0.016877637 13:0.061181435 14:0 15:0.048523207 16:0.040084388 17:0.052742616 18:0.061181435 19:0.046413502 20:0 21:0.063291139 22:0.0063291139 23:0 24:0.010548523 25:0 
0.50395994543832556 1:0 2:0.0083841463 3:0.025152439 4:0.043445122 5:0.020579268 6:0.064786585 7:0.035060976 8:0.023628049 9:0 10:0.037347561 11:0.041158537 12:0.024390244 13:0.042682927 14:0 15:0.1402439 16:0.077743902 17:0.056402439 18:0.13414634 19:0.049542683 20:0 21:0.051067073 22:0.0053353659 23:0 24:0.023628049 25:0 
0.59344312512791786 1:0 2:0.016528926 3:0.055096419 4:0.096418733 5:0.046831956 6:0.05785124 7:0.024793388 8:0.046831956 9:0 10:0.035812672 11:0.12396694 12:0.03030303 13:0.033057851 14:0 15:0.03030303 16:0.1046832 17:0.055096419 18:0.08815427 19:0.038567493 20:0 21:0.03030303 22:0.0082644628 23:0 24:0.027548209 25:0 
0.54093969719758372 1:0 2:0.022446689 3:0.03030303 4:0.04040404 5:0.021324355 6:0.063973064 7:0.039281706 8:0.024691358 9:0 10:0.066217733 11:0.065095398 12:0.019079686 13:0.041526375 14:0 15:0.12121212 16:0.049382716 17:0.058361392 18:0.15824916 19:0.049382716 20:0 21:0.054994388 22:0.0044893378 23:0 24:0.0078563412 25:0 
0.97529158820258322 1:0 2:0 3:0 4:0 5:0 6:0 7:0 8:0 9:0 10:0 11:0 12:0.012658228 13:0 14:0 15:0 16:1 17:0 18:0 19:0 20:0 21:0 22:0 23:0 24:0 25:0 
1.0202086979384464 1:0 2:0.0068027211 3:0.074829932 4:0.054421769 5:0.034013605 6:0.081632653 7:0.020408163 8:0.020408163 9:0 10:0.068027211 11:0.10884354 12:0.020408163 13:0.034013605 14:0 15:0.054421769 16:0.054421769 17:0.074829932 18:0.040816327 19:0.034013605 20:0 21:0.040816327 22:0.027210884 23:0 24:0.074829932 25:0 
0.38800187495300054 1:0 2:0.014792899 3:0.035502959 4:0.065088757 5:0.014792899 6:0.10650888 7:0.0088757396 8:0.065088757 9:0 10:0.068047337 11:0.11242604 12:0.023668639 13:0.023668639 14:0 15:0.053254438 16:0.020710059 17:0.068047337 18:0.056213018 19:0.023668639 20:0 21:0.065088757 22:0.0088757396 23:0 24:0.014792899 25:0 
0.76861138975354348 1:0 2:0.019662921 3:0.058988764 4:0.06741573 5:0.033707865 6:0.053370787 7:0.033707865 8:0.028089888 9:0 10:0.075842697 11:0.087078652 12:0.014044944 13:0.047752809 14:0 15:0.061797753 16:0.073033708 17:0.050561798 18:0.098314607 19:0.075842697 20:0 21:0.030898876 22:0.025280899 23:0 24:0.0084269663 25:0 
0.52675050402254864 1:0 2:0.018947368 3:0.031578947 4:0.061052632 5:0.063157895 6:0.050526316 7:0.018947368 8:0.021052632 9:0 10:0.023157895 11:0.14105263 12:0.014736842 13:0.018947368 14:0 15:0.088421053 16:0.052631579 17:0.075789474 18:0.086315789 19:0.061052632 20:0 21:0.08 22:0.012631579 23:0 24:0.010526316 25:0 
0.60310703187606274 1:0 2:0.016233766 3:0.042207792 4:0.081168831 5:0.029220779 6:0.051948052 7:0.035714286 8:0.055194805 9:0 10:0.058441558 11:0.13311688 12:0.019480519 13:0.016233766 14:0 15:0.064935065 16:0.048701299 17:0.084415584 18:0.051948052 19:0.035714286 20:0 21:0.055194805 22:0.0097402597 23:0 24:0.042207792 25:0 
0.55979818424834005 1:0 2:0.0055643879 3:0.050874404 4:0.058028617 5:0.030206677 6:0.059618442 7:0.065977742 8:0.022257552 9:0 10:0.047694754 11:0.077901431 12:0.015103339 13:0.026232114 14:0 15:0.14228935 16:0.043720191 17:0.078696343 18:0.10810811 19:0.050874404 20:0 21:0.031796502 22:0.0039745628 23:0 24:0.013513514 25:0 
0.68300301090161619 1:0 2:0.011080332 3:0.069252078 4:0.10526316 5:0.019390582 6:0.15512465 7:0.0055401662 8:0.016620499 9:0 10:0.049861496 11:0.077562327 12:0.011080332 13:0.033240997 14:0 15:0.069252078 16:0.04432133 17:0.083102493 18:0.083102493 19:0.024930748 20:0 21:0.052631579 22:0.011080332 23:0 24:0.011080332 25:0 
2.7778843621110649 1:0 2:0.0073349633 3:0.068459658 4:0.068459658 5:0.041564792 6:0.075794621 7:0.020782396 8:0.053789731 9:0 10:0.070904645 11:0.084352078 12:0.023227384 13:0.037897311 14:0 15:0.039119804 16:0.056234719 17:0.041564792 18:0.0599022 19:0.052567237 20:0 21:0.067237164 22:0.020782396 23:0 24:0.034229829 25:0 
0.21793300054836207 1:0 2:0.0092735703 3:0.055641422 4:0.063369397 5:0.040185471 6:0.071097372 7:0.037094281 8:0.040185471 9:0 10:0.054095827 11:0.10973725 12:0.018547141 13:0.040185471 14:0 15:0.060278207 16:0.051004637 17:0.038639876 18:0.083462133 19:0.057187017 20:0 21:0.072642968 22:0.010819165 23:0 24:0.029366306 25:0 
0.44264884479903599 1:0 2:0.037181996 3:0.046966732 4:0.090019569 5:0.033268102 6:0.072407045 7:0.033268102 8:0.039138943 9:0 10:0.046966732 11:0.11154599 12:0.019569472 13:0.033268102 14:0 15:0.064579256 16:0.029354207 17:0.054794521 18:0.056751468 19:0.046966732 20:0 21:0.066536204 22:0.02739726 23:0 24:0.02739726 25:0 
0.67864882716407005 1:0 2:0.027522936 3:0.024464832 4:0.033639144 5:0.085626911 6:0.070336391 7:0.04587156 8:0.039755352 9:0 10:0.048929664 11:0.12232416 12:0.021406728 13:0.018348624 14:0 15:0.064220183 16:0.048929664 17:0.036697248 18:0.06116208 19:0.070336391 20:0 21:0.067278287 22:0.027522936 23:0 24:0.04587156 25:0 
0.12222689975138376 1:0 2:0.018072289 3:0.030120482 4:0.030120482 5:0.078313253 6:0.072289157 7:0.039156627 8:0.063253012 9:0 10:0.051204819 11:0.10843373 12:0.021084337 13:0.021084337 14:0 15:0.063253012 16:0.027108434 17:0.045180723 18:0.063253012 19:0.075301205 20:0 21:0.069277108 22:0.030120482 23:0 24:0.045180723 25:0 
0.31572681979799677 1:0 2:0.0073937153 3:0.028650647 4:0.13123845 5:0.012014787 6:0.052680222 7:0.020332717 8:0.020332717 9:0 10:0.060998152 11:0.10536044 12:0.012014787 13:0.025878004 14:0 15:0.049907579 16:0.084103512 17:0.10720887 18:0.073937153 19:0.052680222 20:0 21:0.040665434 22:0.0073937153 23:0 24:0.0055452865 25:0 
0.97564537367194049 1:0 2:0.024608501 3:0.060402685 4:0.07606264 5:0.058165548 6:0.073825503 7:0.022371365 8:0.067114094 9:0 10:0.064876957 11:0.07606264 12:0.031319911 13:0.058165548 14:0 15:0.040268456 16:0.031319911 17:0.0089485459 18:0.080536913 19:0.03803132 20:0 21:0.07606264 22:0.0089485459 23:0 24:0.03803132 25:0 
0.41677348219324889 1:0 2:0.0043103448 3:0.043103448 4:0.090517241 5:0.056034483 6:0.077586207 7:0.017241379 8:0.025862069 9:0 10:0.025862069 11:0.081896552 12:0.025862069 13:0.051724138 14:0 15:0.030172414 16:0.043103448 17:0.060344828 18:0.099137931 19:0.047413793 20:0 21:0.077586207 22:0.030172414 23:0 24:0.025862069 25:0 
0.38636417654335403 1:0 2:0.010416667 3:0.041666667 4:0.067708333 5:0.0625 6:0.109375 7:0.015625 8:0.0052083333 9:0 10:0.020833333 11:0.088541667 12:0.020833333 13:0.015625 14:0 15:0.041666667 16:0.052083333 17:0.0625 18:0.046875 19:0.057291667 20:0 21:0.083333333 22:0.026041667 23:0 24:0.020833333 25:0 
0.45832424587197496 1:0 2:0.020725389 3:0.03626943 4:0.046632124 5:0.062176166 6:0.07253886 7:0.015544041 8:0.010362694 9:0 10:0.020725389 11:0.15025907 12:0.015544041 13:0.0051813472 14:0 15:0.067357513 16:0.046632124 17:0.098445596 18:0.051813472 19:0.062176166 20:0 21:0.051813472 22:0.03626943 23:0 24:0.025906736 25:0 
0.54680147139853175 1:0 2:0.020304569 3:0.045685279 4:0.055837563 5:0.040609137 6:0.060913706 7:0.025380711 8:0.030456853 9:0 10:0.010152284 11:0.07106599 12:0.040609137 13:0.030456853 14:0 15:0.12182741 16:0.060913706 17:0.10152284 18:0.10659898 19:0.030456853 20:0 21:0.025380711 22:0.010152284 23:0 24:0.030456853 25:0 
0.57797542822630887 1:0 2:0.024024024 3:0.027027027 4:0.081081081 5:0.033033033 6:0.078078078 7:0.012012012 8:0.021021021 9:0 10:0.018018018 11:0.12612613 12:0.012012012 13:0.006006006 14:0 15:0.13513514 16:0.033033033 17:0.11711712 18:0.081081081 19:0.021021021 20:0 21:0.057057057 22:0.021021021 23:0 24:0.009009009 25:0 
0.76688549663759564 1:0 2:0.0041322314 3:0.02892562 4:0.13842975 5:0.018595041 6:0.049586777 7:0.018595041 8:0.037190083 9:0 10:0.047520661 11:0.12396694 12:0.016528926 13:0.018595041 14:0 15:0.074380165 16:0.045454545 17:0.020661157 18:0.11983471 19:0.059917355 20:0 21:0.074380165 22:0.010330579 23:0 24:0.018595041 25:0 
0.50968403219610625 1:0 2:0.018404908 3:0.052147239 4:0.079754601 5:0.039877301 6:0.064417178 7:0.027607362 8:0.049079755 9:0 10:0.085889571 11:0.085889571 12:0.012269939 13:0.030674847 14:0 15:0.039877301 16:0.061349693 17:0.033742331 18:0.10429448 19:0.04601227 20:0 21:0.067484663 22:0.021472393 23:0 24:0.021472393 25:0 
0.21540480192857217 1:0 2:0.028735632 3:0.040229885 4:0.08045977 5:0.063218391 6:0.068965517 7:0 8:0.074712644 9:0 10:0.074712644 11:0.08045977 12:0.028735632 13:0.057471264 14:0 15:0.028735632 16:0.063218391 17:0.034482759 18:0.051724138 19:0.051724138 20:0 21:0.086206897 22:0.022988506 23:0 24:0.034482759 25:0 
0.080243186611539286 1:0 2:0.016949153 3:0.059322034 4:0.076271186 5:0.042372881 6:0.033898305 7:0.033898305 8:0.042372881 9:0 10:0.06779661 11:0.11016949 12:0.016949153 13:0.042372881 14:0 15:0.042372881 16:0.025423729 17:0.050847458 18:0.11016949 19:0.042372881 20:0 21:0.076271186 22:0.016949153 23:0 24:0.050847458 25:0 
0.30305814260145769 1:0 2:0.0054945055 3:0.045054945 4:0.071428571 5:0.06043956 6:0.068131868 7:0.01978022 8:0.053846154 9:0 10:0.031868132 11:0.14945055 12:0.026373626 13:0.016483516 14:0 15:0.061538462 16:0.045054945 17:0.049450549 18:0.063736264 19:0.047252747 20:0 21:0.079120879 22:0.012087912 23:0 24:0.025274725 25:0 
1.0403578575708261 1:0 2:0.006006006 3:0.054054054 4:0.057057057 5:0.027027027 6:0.051051051 7:0.027027027 8:0.033033033 9:0 10:0.039039039 11:0.11111111 12:0.015015015 13:0.036036036 14:0 15:0.084084084 16:0.021021021 17:0.1021021 18:0.042042042 19:0.084084084 20:0 21:0.096096096 22:0.024024024 23:0 24:0.033033033 25:0 
0.71872043909560712 1:0 2:0.0031055901 3:0.031055901 4:0.049689441 5:0.040372671 6:0.059006211 7:0.02484472 8:0.037267081 9:0 10:0.043478261 11:0.099378882 12:0.01552795 13:0.031055901 14:0 15:0.090062112 16:0.055900621 17:0.10559006 18:0.040372671 19:0.068322981 20:0 21:0.080745342 22:0.02173913 23:0 24:0.027950311 25:0 
0.49488665150513117 1:0 2:0.0089820359 3:0.04491018 4:0.065868263 5:0.02994012 6:0.077844311 7:0.020958084 8:0.011976048 9:0 10:0.038922156 11:0.14071856 12:0.011976048 13:0.01497006 14:0 15:0.10179641 16:0.056886228 17:0.077844311 18:0.041916168 19:0.04491018 20:0 21:0.089820359 22:0.020958084 23:0 24:0.017964072 25:0 
0.020065179961648381 1:0 2:0.019323671 3:0.038647343 4:0.06763285 5:0.04589372 6:0.057971014 7:0.02173913 8:0.016908213 9:0 10:0.033816425 11:0.12560386 12:0.026570048 13:0.043478261 14:0 15:0.065217391 16:0.055555556 17:0.070048309 18:0.053140097 19:0.026570048 20:0 21:0.077294686 22:0.014492754 23:0 24:0.048309179 25:0 
1.0660366777640391 1:0 2:0.02425876 3:0.045822102 4:0.035040431 5:0.061994609 6:0.04851752 7:0.040431267 8:0.029649596 9:0 10:0.02425876 11:0.14016173 12:0.016172507 13:0.040431267 14:0 15:0.083557951 16:0.056603774 17:0.075471698 18:0.04851752 19:0.051212938 20:0 21:0.064690027 22:0.016172507 23:0 24:0.029649596 25:0 
0.90148123292938331 1:0 2:0.021220159 3:0.061007958 4:0.039787798 5:0.050397878 6:0.047745358 7:0.029177719 8:0.071618037 9:0 10:0.061007958 11:0.095490716 12:0.031830239 13:0.045092838 14:0 15:0.042440318 16:0.050397878 17:0.045092838 18:0.063660477 19:0.045092838 20:0 21:0.050397878 22:0.021220159 23:0 24:0.068965517 25:0 
0.31712971873266005 1:0 2:0.025252525 3:0.042929293 4:0.035353535 5:0.045454545 6:0.080808081 7:0.012626263 8:0.017676768 9:0 10:0.02020202 11:0.15151515 12:0.0050505051 13:0.012626263 14:0 15:0.10606061 16:0.04040404 17:0.070707071 18:0.073232323 19:0.047979798 20:0 21:0.045454545 22:0.03030303 23:0 24:0.03030303 25:0 
0.60017653527049353 1:0 2:0.015037594 3:0.04887218 4:0.045112782 5:0.041353383 6:0.073308271 7:0.018796992 8:0.02443609 9:0 10:0.022556391 11:0.12969925 12:0.007518797 13:0.020676692 14:0 15:0.071428571 16:0.05075188 17:0.084586466 18:0.069548872 19:0.062030075 20:0 21:0.082706767 22:0.013157895 23:0 24:0.031954887 25:0 
0.52358597871888679 1:0 2:0.0080240722 3:0.054162487 4:0.074222668 5:0.042126379 6:0.066198596 7:0.033099298 8:0.03109328 9:0 10:0.042126379 11:0.10531595 12:0.017051153 13:0.039117352 14:0 15:0.067201605 16:0.06218656 17:0.084252758 18:0.067201605 19:0.032096289 20:0 21:0.06218656 22:0.024072217 23:0 24:0.03109328 25:0 
0.73047986396679676 1:0 2:0.017632242 3:0.052896725 4:0.027707809 5:0.037783375 6:0.083123426 7:0.022670025 8:0.042821159 9:0 10:0.027707809 11:0.10579345 12:0.025188917 13:0.047858942 14:0 15:0.085642317 16:0.050377834 17:0.068010076 18:0.078085642 19:0.037783375 20:0 21:0.075566751 22:0.0075566751 23:0 24:0.042821159 25:0 
0.079770322417463388 1:0 2:0.012755102 3:0.045918367 4:0.043367347 5:0.030612245 6:0.094387755 7:0.040816327 8:0.022959184 9:0 10:0.017857143 11:0.11734694 12:0.022959184 13:0.040816327 14:0 15:0.10459184 16:0.038265306 17:0.094387755 18:0.06122449 19:0.038265306 20:0 21:0.056122449 22:0.010204082 23:0 24:0.045918367 25:0 
0.24116666978121137 1:0 2:0.017492711 3:0.037900875 4:0.069970845 5:0.055393586 6:0.067055394 7:0.037900875 8:0.032069971 9:0 10:0.072886297 11:0.12536443 12:0.017492711 13:0.058309038 14:0 15:0.037900875 16:0.034985423 17:0.064139942 18:0.049562682 19:0.043731778 20:0 21:0.075801749 22:0.017492711 23:0 24:0.04664723 25:0 
0.69375131623667352 1:0 2:0.01312336 3:0.049868766 4:0.05511811 5:0.06824147 6:0.065616798 7:0.034120735 8:0.05511811 9:0 10:0.049868766 11:0.099737533 12:0.034120735 13:0.062992126 14:0 15:0.060367454 16:0.026246719 17:0.065616798 18:0.049868766 19:0.036745407 20:0 21:0.060367454 22:0.015748031 23:0 24:0.065616798 25:0 
0.78806966063173001 1:0 2:0.0098522167 3:0.054187192 4:0.039408867 5:0.064039409 6:0.088669951 7:0.0098522167 8:0.024630542 9:0 10:0.044334975 11:0.054187192 12:0.024630542 13:0.024630542 14:0 15:0.088669951 16:0.064039409 17:0.049261084 18:0.078817734 19:0.068965517 20:0 21:0.11330049 22:0.019704433 23:0 24:0.044334975 25:0 
0.72580712970921546 1:0 2:0.028735632 3:0.040229885 4:0.034482759 5:0.045977011 6:0.13793103 7:0.057471264 8:0.045977011 9:0 10:0.017241379 11:0.097701149 12:0.011494253 13:0.0057471264 14:0 15:0.045977011 16:0.063218391 17:0.057471264 18:0.068965517 19:0.051724138 20:0 21:0.051724138 22:0.040229885 23:0 24:0.028735632 25:0 
0.045211937375487732 1:0 2:0.027439024 3:0.039634146 4:0.12804878 5:0.036585366 6:0.045731707 7:0.021341463 8:0.030487805 9:0 10:0.048780488 11:0.082317073 12:0.030487805 13:0.033536585 14:0 15:0.079268293 16:0.036585366 17:0.036585366 18:0.094512195 19:0.057926829 20:0 21:0.067073171 22:0.0091463415 23:0 24:0.024390244 25:0 
0.35963721677193217 1:0 2:0.018292683 3:0.042682927 4:0.082317073 5:0.027439024 6:0.088414634 7:0.027439024 8:0.042682927 9:0 10:0.051829268 11:0.125 12:0.012195122 13:0.030487805 14:0 15:0.057926829 16:0.033536585 17:0.070121951 18:0.06097561 19:0.06402439 20:0 21:0.051829268 22:0.006097561 23:0 24:0.033536585 25:0 
0.99221940637922079 1:0 2:0.024 3:0.054 4:0.056 5:0.044 6:0.086 7:0.02 8:0.056 9:0 10:0.032 11:0.098 12:0.028 13:0.03 14:0 15:0.056 16:0.044 17:0.05 18:0.066 19:0.056 20:0 21:0.074 22:0.02 23:0 24:0.04 25:0 
0.87197102167836527 1:0 2:0.015473888 3:0.03868472 4:0.052224371 5:0.048355899 6:0.081237911 7:0.0058027079 8:0.059961315 9:0 10:0.027079304 11:0.11218569 12:0.017408124 13:0.036750484 14:0 15:0.067698259 16:0.030947776 17:0.044487427 18:0.083172147 19:0.058027079 20:0 21:0.065764023 22:0.01934236 23:0 24:0.036750484 25:0 
1.6548831880059636 1:0 2:0.03187251 3:0.035856574 4:0.079681275 5:0.023904382 6:0.043824701 7:0.03187251 8:0.055776892 9:0 10:0.06374502 11:0.06374502 12:0.035856574 13:0.055776892 14:0 15:0.035856574 16:0.035856574 17:0.047808765 18:0.075697211 19:0.075697211 20:0 21:0.10358566 22:0.011952191 23:0 24:0.023904382 25:0 
0.91360790064660635 1:0 2:0 3:0.047904192 4:0.077844311 5:0.035928144 6:0.11377246 7:0.035928144 8:0.011976048 9:0 10:0.023952096 11:0.041916168 12:0.023952096 13:0.011976048 14:0 15:0.089820359 16:0.065868263 17:0.095808383 18:0.16167665 19:0.02994012 20:0 21:0.017964072 22:0.02994012 23:0 24:0.011976048 25:0 
0.79666689238917654 1:0 2:0.078651685 3:0.033707865 4:0.08988764 5:0.056179775 6:0.056179775 7:0.033707865 8:0.06741573 9:0 10:0.056179775 11:0.12359551 12:0.033707865 13:0.04494382 14:0 15:0.02247191 16:0.04494382 17:0.033707865 18:0.04494382 19:0.033707865 20:0 21:0.033707865 22:0.033707865 23:0 24:0.011235955 25:0 
1.0514380906022602 1:0 2:0.045454545 3:0.079545455 4:0.090909091 5:0.068181818 6:0.10227273 7:0.011363636 8:0.011363636 9:0 10:0.10227273 11:0.11363636 12:0.022727273 13:0.011363636 14:0 15:0.022727273 16:0.034090909 17:0.056818182 18:0.034090909 19:0.034090909 20:0 21:0.068181818 22:0.022727273 23:0 24:0.011363636 25:0 
0.20976438497549554 1:0 2:0.0070733864 3:0.026525199 4:0.063660477 5:0.022988506 6:0.09106985 7:0.023872679 8:0.029177719 9:0 10:0.011494253 11:0.087533156 12:0.029177719 13:0.031830239 14:0 15:0.13527851 16:0.073386384 17:0.052166225 18:0.081343943 19:0.059239611 20:0 21:0.065428824 22:0.0026525199 23:0 24:0.013262599 25:0 
0.38581896941856825 1:0 2:0.038534428 3:0.044851548 4:0.056854075 5:0.033480733 6:0.080859128 7:0.015161087 8:0.032217309 9:0 10:0.037271004 11:0.096020215 12:0.013897663 13:0.029690461 14:0 15:0.083385976 16:0.044219836 17:0.072015161 18:0.078963992 19:0.058117498 20:0 21:0.062539482 22:0.023373342 23:0 24:0.017687934 25:0 
1.2870613226998877 1:0 2:0.0095238095 3:0.028571429 4:0.066666667 5:0.057142857 6:0.1 7:0.028571429 8:0.038095238 9:0 10:0.0095238095 11:0.1 12:0.023809524 13:0.028571429 14:0 15:0.052380952 16:0.080952381 17:0.061904762 18:0.047619048 19:0.042857143 20:0 21:0.095238095 22:0.014285714 23:0 24:0.033333333 25:0 
