svm_type c_svc
kernel_type rbf
gamma 16
nr_class 2
total_sv 3194
rho -0.016666477717340637
label 0 1
nr_sv 1637 1557
SV
0.94218210965240878 2:-0.782149 3:-0.542138 4:-0.471698 5:-0.896226 6:-0.714717 7:-0.815514 8:-0.580713 10:-0.446541 11:-0.63522 12:-0.815514 13:-0.786164 15:-0.807128 16:-0.949686 17:-0.633124 18:-0.72327 19:-0.596777 21:-0.667365 22:-0.928968 24:-0.821803 
0.99987207687248514 2:-0.9498 3:-0.721739 4:-0.621118 5:-0.804348 6:-0.845714 7:-0.859213 8:-0.594203 10:-0.720497 11:-0.409938 12:-0.807683 13:-0.559006 15:-0.809524 16:-0.917184 17:-0.710145 18:-0.515528 19:-0.544898 21:-0.624569 22:-0.780782 24:-0.765355 
0.51924299761566861 2:-0.919881 3:-0.805705 4:-0.602159 5:-0.885505 6:-0.755189 7:-0.759445 8:-0.740941 10:-0.944487 11:-0.454125 12:-0.826608 13:-0.740941 15:-0.691596 16:-0.888975 17:-0.390131 18:-0.2367 19:-0.555117 21:-0.733488 22:-0.882444 24:-0.877666 
0.75185163049482706 2:-1 3:-0.701124 4:-0.275281 5:-0.898876 6:-0.808876 7:-0.573034 8:-0.752809 10:-0.426966 11:-0.106742 12:-0.945069 13:-0.814607 15:-0.865169 16:-0.932584 17:-0.390449 18:-0.578652 19:-0.807045 21:-0.793071 22:-0.857237 24:-0.904494 
0.96454505195186213 2:-0.966694 3:-0.811538 4:-0.855769 5:-0.870192 6:-0.657308 7:-0.769231 8:-0.576923 10:-0.942308 11:-0.105769 12:-0.858974 13:-0.798077 15:-0.538462 16:-0.817308 17:-0.865385 18:-0.567308 19:-0.240425 21:-0.809295 22:-1 24:-1 
0.23834825650765576 2:-0.836996 3:-0.615686 4:-0.764706 5:-0.744118 6:-0.669647 7:-0.811765 8:-0.560784 10:-0.717647 11:-0.682353 12:-0.789107 13:-0.517647 15:-0.827451 16:-0.952941 17:-0.615686 18:-0.611765 19:-0.690213 21:-0.611111 22:-0.684429 24:-0.766667 
1.100643177130288 2:-0.85058 3:-0.626667 4:-0.776471 5:-0.735294 6:-0.676 7:-0.811765 8:-0.560784 10:-0.729412 11:-0.670588 12:-0.789107 13:-0.494118 15:-0.819608 16:-0.945098 17:-0.615686 18:-0.623529 19:-0.703682 21:-0.6 22:-0.701038 24:-0.777778 
2 2:-0.836996 3:-0.626667 4:-0.776471 5:-0.735294 6:-0.676 7:-0.827451 8:-0.545098 10:-0.729412 11:-0.670588 12:-0.808279 13:-0.505882 15:-0.819608 16:-0.945098 17:-0.615686 18:-0.623529 19:-0.703682 21:-0.6 22:-0.701038 24:-0.766667 
0.076078741818387766 2:-0.883396 3:-0.733861 4:-0.269307 5:-0.888614 6:-0.919802 7:-0.754455 8:-0.59604 10:-0.29901 11:-0.251485 12:-0.69989 13:-0.607921 15:-0.936634 16:-0.90099 17:-0.584158 18:-0.685149 19:-0.734754 21:-0.781188 22:-0.966453 24:-0.870957 
0.5006079657687259 2:-0.944132 3:-0.277419 4:0.379032 5:-0.927419 6:-0.777903 7:-0.935484 8:-0.83871 10:-0.612903 11:-0.225806 12:-0.921147 13:-0.612903 15:-0.887097 16:-0.975806 17:-0.689516 18:-0.709677 19:-0.778413 21:-0.725806 22:-1 24:-0.862903 
0.64215206478246545 2:-0.916868 3:-0.1488 4:0.344 5:-0.874 6:-0.79264 7:-0.936 8:-0.808 10:-0.592 11:-0.208 12:-0.882667 13:-0.688 15:-0.888 16:-0.984 17:-0.72 18:-0.736 19:-0.807662 21:-0.750667 22:-1 24:-0.932 
0.83829357872409505 2:-0.896215 3:-0.349813 4:0.595506 5:-0.91573 6:-0.781573 7:-1 8:-0.730337 10:-0.685393 11:-0.235955 12:-0.853516 13:-0.617978 15:-0.910112 16:-0.962547 17:-0.790262 18:-0.685393 19:-0.845636 21:-0.830212 22:-1 24:-0.872659 
0.16047685597214659 2:-0.925308 3:-0.796226 4:-0.67655 5:-0.793801 6:-0.738005 7:-0.849057 8:-0.816712 10:-0.902965 11:-0.296496 12:-0.828691 13:-0.814016 15:-0.762803 16:-0.90566 17:-0.537736 18:-0.61186 19:-0.731527 21:-0.602875 22:-0.703187 24:-0.770889 
0.66629913800288365 2:-0.895825 3:-0.873684 4:-0.639098 5:-0.898496 6:-0.658947 7:-0.699248 8:-0.879699 10:-0.729323 11:-0.0977444 12:-0.705931 13:-0.954887 15:-0.729323 16:-0.879699 17:-0.315789 18:-0.278195 19:-0.690111 21:-0.744361 22:-0.936311 24:-0.957393 
0.91674048730701851 2:-0.833736 3:-0.776 4:-0.76 5:-0.964 6:-0.55936 7:-0.872 8:-0.936 10:-0.376 11:-0.04 12:-0.843556 13:-0.856 15:-0.68 16:-0.936 17:-0.44 18:-0.616 19:-0.835139 21:-0.909333 22:-0.932235 24:-0.954667 
0.45721675359473474 2:-0.908847 3:-0.705263 4:-0.644737 5:-0.822368 6:-0.744211 7:-0.947368 8:-0.947368 10:-0.842105 11:-0.131579 12:-0.678363 13:-0.763158 15:-0.684211 16:-0.934211 17:-0.401316 18:-0.328947 19:-0.728847 21:-0.739035 22:-0.888545 24:-0.925439 
0.94313217421358819 2:-0.715302 3:-0.769863 4:-0.835616 5:-0.815068 6:-0.733699 7:-0.671233 8:-0.616438 10:-0.712329 11:-0.424658 12:-0.799087 13:-0.630137 15:-0.726027 16:-0.917808 17:-0.376712 18:-0.630137 19:-0.576556 21:-0.650685 22:-0.941982 24:-0.844749 
0.66203302582585233 2:-0.939628 3:-0.73159 4:-0.464052 5:-0.823529 6:-0.837647 7:-0.738562 8:-0.459695 10:-0.503268 11:-0.372549 12:-0.893488 13:-0.581699 15:-0.834423 16:-0.882353 17:-0.71024 18:-0.503268 19:-0.625861 21:-0.765432 22:-0.83391 24:-0.777778 
0.21927578823761723 2:-0.896602 3:-0.761194 4:-0.654584 5:-0.904051 6:-0.647676 7:-0.710021 8:-0.948827 10:-0.884861 11:-0.321962 12:-0.874911 13:-0.910448 15:-0.735608 16:-0.867804 17:-0.358209 18:-0.654584 19:-0.780303 21:-0.661692 22:-0.747147 24:-0.818763 
0.52667557850736746 2:-0.86061 3:-0.774648 4:-0.517103 5:-0.837022 6:-0.771831 7:-0.726358 8:-0.613682 10:-0.613682 11:-0.372233 12:-0.665549 13:-0.55332 15:-0.911469 16:-0.851107 17:-0.690141 18:-0.674044 19:-0.530075 21:-0.817572 22:-0.863653 24:-0.771965 
0.71042315860403438 2:-0.874043 3:-0.717172 4:-0.551515 5:-0.854545 6:-0.823273 7:-0.870707 8:-0.563636 10:-0.551515 11:-0.454545 12:-0.664198 13:-0.551515 15:-0.919192 16:-0.842424 17:-0.80202 18:-0.527273 19:-0.542053 21:-0.713805 22:-0.828877 24:-0.771044 
0.41448926798603702 2:-0.928433 3:-0.710744 4:-0.727273 5:-0.795455 6:-0.812562 7:-0.768595 8:-0.768595 10:-0.739669 11:-0.144628 12:-0.757576 13:-0.81405 15:-0.793388 16:-0.876033 17:-0.754132 18:-0.603306 19:-0.560031 21:-0.555096 22:-0.877491 24:-0.906336 
0.22319642373078125 2:-0.922948 3:-0.663094 4:-0.361476 5:-0.898761 6:-0.824732 7:-0.771486 8:-0.692619 10:-0.578362 11:-0.522245 12:-0.839344 13:-0.834681 15:-0.742164 16:-0.910516 17:-0.700961 18:-0.366026 19:-0.466925 21:-0.616111 22:-0.978588 24:-0.921217 
0.20659025209725426 2:-0.936676 3:-0.682633 4:-0.506399 5:-0.878656 6:-0.829707 7:-0.78245 8:-0.66362 10:-0.496801 11:-0.542048 12:-0.807841 13:-0.773766 15:-0.749543 16:-0.912706 17:-0.716865 18:-0.337751 19:-0.483554 21:-0.638711 22:-0.969029 24:-0.898995 
0.56033966116901335 2:-0.891075 3:-0.683019 4:-0.358491 5:-0.900943 6:-0.836981 7:-0.773585 8:-0.622642 10:-0.339623 11:-0.226415 12:-0.784766 13:-0.735849 15:-0.861635 16:-0.949686 17:-0.625786 18:-0.811321 19:-0.65438 21:-0.661426 22:-0.920089 24:-0.875262 
0.32509686593089687 2:-0.942109 3:-0.610028 4:-0.415042 5:-0.937326 6:-0.765348 7:-0.665738 8:-0.732591 10:-0.598886 11:-0.281337 12:-0.754875 13:-0.849582 15:-0.810585 16:-0.905292 17:-0.532033 18:-0.816156 19:-0.655583 21:-0.668524 22:-0.90562 24:-0.968431 
0.81186713949121236 2:-0.716596 3:-0.732727 4:-0.427273 5:-0.877273 6:-0.793818 7:-0.763636 8:-0.581818 10:-0.440909 11:-0.440909 12:-0.688889 13:-0.713636 15:-0.845455 16:-0.9 17:-0.793182 18:-0.727273 19:-0.625316 21:-0.613636 22:-0.961497 24:-0.871212 
0.12557788398252648 2:-0.807565 3:-0.58 4:-0.55 5:-0.775 6:-0.847 7:-0.8 8:-0.511111 10:-0.55 11:-0.55 12:-0.674074 13:-0.766667 15:-0.866667 16:-0.961111 17:-0.727778 18:-0.666667 19:-0.561135 21:-0.512037 22:-0.882353 24:-0.700926 
0.91394019101382062 2:-0.843147 3:-0.598491 4:-0.524528 5:-0.787736 6:-0.82883 7:-0.743396 8:-0.54717 10:-0.524528 11:-0.467925 12:-0.741719 13:-0.807547 15:-0.856604 16:-0.943396 17:-0.815094 18:-0.524528 19:-0.598217 21:-0.572327 22:-0.920089 24:-0.775472 
0.032185802882173695 2:-0.779438 3:-0.635311 4:-0.557164 5:-0.824168 6:-0.83589 7:-0.664255 8:-0.68741 10:-0.782923 11:-0.470333 12:-0.731146 13:-0.861071 15:-0.727931 16:-0.916064 17:-0.60492 18:-0.600579 19:-0.701771 21:-0.524361 22:-0.791606 24:-0.844187 
1.303879380491763 2:-0.823724 3:-0.643766 4:-0.587786 5:-0.782443 6:-0.851603 7:-0.755725 8:-0.531807 10:-0.496183 11:-0.603053 12:-0.601923 13:-0.770992 15:-0.816794 16:-0.949109 17:-0.715013 18:-0.618321 19:-0.615465 21:-0.509754 22:-0.892232 24:-0.726039 
0.48548671822299305 2:-0.905389 3:-0.804552 4:-0.553869 5:-0.713202 6:-0.862337 7:-0.890744 8:-0.502276 10:-0.599393 11:-0.171472 12:-0.688417 13:-0.754173 15:-0.854325 16:-0.927162 17:-0.70258 18:-0.672231 19:-0.68729 21:-0.630248 22:-0.858609 24:-0.716237 
0.54045604408319148 2:-0.768527 3:-0.732697 4:-0.656325 5:-0.849642 6:-0.690692 7:-0.579952 8:-0.732697 10:-0.842482 11:-0.412888 12:-0.88332 13:-0.642005 15:-0.818616 16:-0.918854 17:-0.749403 18:-0.412888 19:-0.590143 21:-0.688942 22:-0.919135 24:-0.90533 
0.32475091732750544 2:-0.91412 3:-0.547708 4:-0.35988 5:-0.88843 6:-0.836905 7:-0.819684 8:-0.831705 10:-0.271976 11:-0.580766 12:-0.886134 13:-0.864763 15:-0.67994 16:-0.932382 17:-0.566116 18:-0.416228 19:-0.739373 21:-0.76584 22:-0.949087 24:-0.893564 
0.087892035255403483 2:-0.909245 3:-0.611451 4:-0.344978 5:-0.886463 6:-0.916681 7:-0.767103 8:-0.666181 10:-0.234352 11:-0.537118 12:-0.829209 13:-0.717613 15:-0.788452 16:-0.910723 17:-0.690927 18:-0.280932 19:-0.630043 21:-0.755297 22:-0.97123 24:-0.89277 
0.22796125103487144 2:-0.749835 3:-0.626667 4:-0.683333 5:-0.9625 6:-0.73 7:-0.577778 8:-0.755556 10:-0.733333 11:-0.183333 12:-0.782716 13:-0.866667 15:-0.866667 16:-0.916667 17:-0.513889 18:-0.733333 19:-0.637459 21:-0.732407 22:-0.905882 24:-0.889815 
0.46791237815758502 2:-0.886058 3:-0.686842 4:-0.605263 5:-0.911184 6:-0.765526 7:-0.605263 8:-0.815789 10:-0.585526 11:-0.230263 12:-0.903509 13:-0.782895 15:-0.789474 16:-0.901316 17:-0.378289 18:-0.822368 19:-0.77404 21:-0.571272 22:-0.860681 24:-0.925439 
0.032299715409755528 2:-0.802443 3:-0.643346 4:-0.720532 5:-0.901616 6:-0.772091 7:-0.634981 8:-0.688213 10:-0.731939 11:-0.252852 12:-0.814111 13:-0.606464 15:-0.86692 16:-0.944867 17:-0.753802 18:-0.589354 19:-0.601691 21:-0.65526 22:-0.959741 24:-0.865336 
0.62263154841307722 2:-0.657423 3:-0.569231 4:-0.769231 5:-0.950549 6:-0.732967 7:-0.516484 8:-0.78022 10:-0.802198 11:-0.241758 12:-0.838828 13:-0.868132 15:-0.802198 16:-0.923077 17:-0.538462 18:-0.472527 19:-0.7358 21:-0.813187 22:-0.953458 24:-0.875458 
0.31883223180922521 2:-0.867865 3:-0.679564 4:-0.493188 5:-0.816076 6:-0.84109 7:-0.934605 8:-0.760218 10:-0.722071 11:-0.3297 12:-0.813503 13:-0.673025 15:-0.59673 16:-0.880109 17:-0.599455 18:-0.591281 19:-0.663091 21:-0.660309 22:-0.953839 24:-0.891916 
0.83741732848564809 2:-0.776527 3:-0.65 4:-0.631048 5:-0.909274 6:-0.787702 7:-0.580645 8:-0.620968 10:-0.685484 11:-0.256048 12:-0.862007 13:-0.600806 15:-0.879032 16:-0.943548 17:-0.731855 18:-0.703629 19:-0.646846 21:-0.640121 22:-0.948767 24:-0.908602 
0.24217297032310484 2:-0.880041 3:-0.684848 4:-0.688312 5:-0.785714 6:-0.747532 7:-0.757576 8:-0.584416 10:-0.818182 11:-0.142857 12:-0.873016 13:-0.688312 15:-0.930736 16:-0.887446 17:-0.484848 18:-0.532468 19:-0.643159 21:-0.656566 22:-0.926662 24:-0.877345 
0.70719749549869282 2:-0.941784 3:-0.552941 4:-0.420168 5:-0.905462 6:-0.836639 7:-0.630252 8:-0.731092 10:-0.672269 11:-0.243697 12:-0.876751 13:-0.621849 15:-0.865546 16:-0.915966 17:-0.647059 18:-0.647059 19:-0.509343 21:-0.761905 22:-0.822046 24:-0.857143 
0.13071328904804733 2:-0.837814 3:-0.569231 4:-0.598662 5:-0.924749 6:-0.707425 7:-0.67893 8:-0.839465 10:-0.819398 11:-0.197324 12:-0.836492 13:-0.839465 15:-0.826087 16:-0.886288 17:-0.391304 18:-0.658863 19:-0.678365 21:-0.753623 22:-0.97167 24:-0.962096 
1.1748096046531955 2:-0.8803 3:-0.709719 4:-0.507559 5:-0.737581 6:-0.853045 7:-0.913607 8:-0.585313 10:-0.520518 11:-0.416847 12:-0.725462 13:-0.688985 15:-0.818575 16:-0.943844 17:-0.652268 18:-0.546436 19:-0.614257 21:-0.608351 22:-0.908525 24:-0.853132 
1.1377068826261374 2:-0.785521 3:-0.583901 4:-0.647059 5:-0.791022 6:-0.78935 7:-0.77709 8:-0.455108 10:-0.758514 11:-0.442724 12:-0.455108 13:-0.739938 15:-0.900929 16:-0.869969 17:-0.631579 18:-0.77709 19:-0.744798 21:-0.807018 22:-0.947551 24:-0.666667 
0.21259368372604359 2:-0.91203 3:-0.537778 4:-0.447619 5:-0.885714 6:-0.773714 7:-0.949206 8:-0.593651 10:-0.409524 11:-0.333333 12:-0.844797 13:-0.828571 15:-0.974603 16:-0.892063 17:-0.577778 18:-0.638095 19:-0.651088 21:-0.748148 22:-0.973109 24:-0.802116 
2 2:-0.919679 3:-0.577971 4:-0.547826 5:-0.856522 6:-0.812174 7:-0.884058 8:-0.513043 10:-0.443478 11:-0.408696 12:-0.744928 13:-0.773913 15:-0.907246 16:-0.924638 17:-0.614493 18:-0.669565 19:-0.561964 21:-0.687923 22:-0.975448 24:-0.819324 
0.54702488135886973 2:-0.918016 3:-0.502959 4:-0.609467 5:-0.906805 6:-0.81787 7:-0.905325 8:-0.455621 10:-0.431953 11:-0.39645 12:-0.739645 13:-0.822485 15:-0.91716 16:-0.923077 17:-0.565089 18:-0.538462 19:-0.634185 21:-0.698225 22:-0.974939 24:-0.68146 
0.29654989251615838 2:-0.935457 3:-0.478261 4:-0.590062 5:-0.846273 6:-0.778634 7:-0.826087 8:-0.403727 10:-0.515528 11:-0.347826 12:-0.817805 13:-0.869565 15:-0.925466 16:-0.931677 17:-0.586957 18:-0.552795 19:-0.573342 21:-0.771222 22:-0.947388 24:-0.78882 
0.65375524875789948 2:-0.978283 3:-0.561129 4:-0.454545 5:-0.816614 6:-0.776552 7:-0.924765 8:-0.548589 10:-0.586207 11:-0.285266 12:-0.754789 13:-0.887147 15:-0.937304 16:-0.924765 17:-0.583072 18:-0.605016 19:-0.504729 21:-0.715778 22:-0.973446 24:-0.786834 
0.30492086305826771 2:-0.938146 3:-0.525 4:-0.508929 5:-0.832589 6:-0.783036 7:-0.845238 8:-0.440476 10:-0.535714 11:-0.410714 12:-0.694444 13:-0.866071 15:-0.910714 16:-0.919643 17:-0.5625 18:-0.642857 19:-0.611563 21:-0.780754 22:-0.97479 24:-0.806052 
0.38560158559402286 2:-0.928874 3:-0.747023 4:-0.716632 5:-0.815195 6:-0.614127 7:-0.967146 8:-0.655031 10:-0.827515 11:-0.61807 12:-0.678759 13:-0.852156 15:-0.597536 16:-0.86037 17:-0.61191 18:-0.494867 19:-0.661477 21:-0.755647 22:-0.982607 24:-0.66256 
0.56522696073020284 2:-0.914998 3:-0.656442 4:-0.466258 5:-0.875767 6:-0.791288 7:-0.852761 8:-0.435583 10:-0.503067 11:-0.392638 12:-0.670075 13:-0.834356 15:-0.92638 16:-0.92638 17:-0.677914 18:-0.484663 19:-0.557506 21:-0.774029 22:-0.92205 24:-0.756646 
0.83280463652164538 2:-0.909086 3:-0.750131 4:-0.724409 5:-0.722441 6:-0.727874 7:-0.706037 8:-0.75853 10:-0.889764 11:-0.393701 12:-0.833188 13:-0.795276 15:-0.695538 16:-0.900262 17:-0.62336 18:-0.574803 19:-0.675471 21:-0.576115 22:-0.844372 24:-0.776903 
0.084406205789242017 2:-0.879867 3:-0.7842 4:-0.514451 5:-0.878613 6:-0.737803 7:-0.799615 8:-0.568401 10:-0.641618 11:-0.398844 12:-0.698566 13:-0.803468 15:-0.776493 16:-0.949904 17:-0.581888 18:-0.768786 19:-0.536759 21:-0.563263 22:-0.820469 24:-0.748876 
0.61327979030124247 2:-0.969414 3:-0.703311 4:-0.774834 5:-0.796358 6:-0.78543 7:-0.92936 8:-0.81457 10:-0.748344 11:-0.536424 12:-0.719402 13:-0.827815 15:-0.545254 16:-0.935982 17:-0.884106 18:-0.357616 19:-0.408612 21:-0.68727 22:-0.953253 24:-0.943709 
0.43524237199970678 2:-0.861907 3:-0.590698 4:-0.242525 5:-0.895349 6:-0.784718 7:-0.86711 8:-0.813953 10:-0.66113 11:-0.461794 12:-0.77261 13:-0.700997 15:-0.893688 16:-0.900332 17:-0.465116 18:-0.322259 19:-0.63486 21:-0.830565 22:-0.915576 24:-0.849391 
0.85096447025444732 2:-0.950751 3:-0.774408 4:-0.459716 5:-0.776066 6:-0.815735 7:-0.810427 8:-0.43128 10:-0.545024 11:-0.50237 12:-0.721959 13:-0.729858 15:-0.810427 16:-0.947867 17:-0.635071 18:-0.488152 19:-0.723279 21:-0.489731 22:-0.879565 24:-0.771722 
0.52459883081368819 2:-0.967167 3:-0.787678 4:-0.50237 5:-0.754739 6:-0.815735 7:-0.867299 8:-0.450237 10:-0.530806 11:-0.459716 12:-0.791469 13:-0.772512 15:-0.810427 16:-0.933649 17:-0.668246 18:-0.417062 19:-0.723279 21:-0.436019 22:-0.899638 24:-0.78515 
0.84438727724887341 2:-0.823499 3:-0.643312 4:-0.388535 5:-0.742038 6:-0.876178 7:-0.949045 8:-0.643312 10:-0.464968 11:-0.121019 12:-0.501769 13:-0.923567 15:-0.949045 16:-0.910828 17:-0.55414 18:-0.656051 19:-0.868741 21:-0.639066 22:-0.892094 24:-0.747346 
0.92849386304596759 2:-0.822368 3:-0.712821 4:-0.307692 5:-0.740385 6:-0.896154 7:-0.948718 8:-0.435897 10:-0.423077 11:-0.115385 12:-0.811966 13:-0.884615 15:-0.923077 16:-0.897436 17:-0.641026 18:-0.730769 19:-0.7358 21:-0.673077 22:-0.891403 24:-0.745726 
0.77296218838217923 2:-0.864164 3:-0.70719 4:-0.411765 5:-0.735294 6:-0.872941 7:-0.843137 8:-0.111111 10:-0.490196 11:-0.333333 12:-0.808279 13:-0.843137 15:-0.973856 16:-0.908497 17:-0.588235 18:-0.647059 19:-0.685723 21:-0.666667 22:-0.889273 24:-0.740741 
0.23680706764471934 2:-0.888776 3:-0.717431 4:-0.697248 5:-0.896789 6:-0.784495 7:-0.633028 8:-0.743119 10:-0.683486 11:-0.325688 12:-0.910296 13:-0.614679 15:-0.623853 16:-0.90367 17:-0.630734 18:-0.463303 19:-0.684899 21:-0.70107 22:-0.961144 24:-0.844037 
0.69163270599112869 2:-0.904226 3:-0.780645 4:-0.612903 5:-0.782258 6:-0.805899 7:-0.870968 8:-0.317972 10:-0.474654 11:-0.599078 12:-0.707117 13:-0.723502 15:-0.843318 16:-0.907834 17:-0.564516 18:-0.557604 19:-0.699275 21:-0.516897 22:-0.902413 24:-0.817204 
0.96477077751423657 2:-0.852603 3:-0.68227 4:-0.489362 5:-0.648936 6:-0.931064 7:-0.77305 8:-0.489362 10:-0.617021 11:-0.361702 12:-0.722616 13:-0.574468 15:-1 16:-0.914894 17:-0.602837 18:-0.914894 19:-0.707694 21:-0.397163 22:-0.939925 24:-0.678487 
0.29941828020696609 2:-0.933548 3:-0.731415 4:-0.669065 5:-0.751799 6:-0.813525 7:-0.808153 8:-0.42446 10:-0.611511 11:-0.496403 12:-0.742073 13:-0.741007 15:-0.741007 16:-0.923261 17:-0.731415 18:-0.553957 19:-0.505813 21:-0.429257 22:-0.918747 24:-0.83693 
0.49867361001910926 2:-0.855674 3:-0.708333 4:-0.53125 5:-0.765625 6:-0.814375 7:-0.791667 8:-0.25 10:-0.625 11:-0.375 12:-0.694444 13:-0.53125 15:-0.854167 16:-0.927083 17:-0.78125 18:-0.65625 19:-0.785338 21:-0.557292 22:-1 24:-0.852431 
0.26611449538032178 2:-0.828131 3:-0.764885 4:-0.69084 5:-0.871183 6:-0.721756 7:-0.770992 8:-0.816794 10:-0.851145 11:-0.278626 12:-0.906701 13:-0.919847 15:-0.580153 16:-0.912214 17:-0.55916 18:-0.175573 19:-0.698489 21:-0.794529 22:-0.935339 24:-0.945929 
0.85319587021118004 2:-0.810201 3:-0.769863 4:-0.260274 5:-0.84589 6:-0.800274 7:-0.671233 8:-0.39726 10:-0.671233 11:-0.30137 12:-0.866058 13:-0.835616 15:-0.863014 16:-0.890411 17:-0.616438 18:-0.876712 19:-0.764753 21:-0.767123 22:-0.825947 24:-0.844749 
0.42129573807629184 2:-0.871936 3:-0.76338 4:-0.524648 5:-0.833627 6:-0.85169 7:-0.774648 8:-0.598592 10:-0.572183 11:-0.181338 12:-0.750391 13:-0.778169 15:-0.848592 16:-0.90669 17:-0.821303 18:-0.413732 19:-0.631143 21:-0.62588 22:-0.932891 24:-0.815434 
0.36794263911570929 2:-0.923367 3:-0.739823 4:-0.654867 5:-0.790929 6:-0.727611 7:-0.752212 8:-0.752212 10:-0.827434 11:-0.123894 12:-0.870206 13:-0.880531 15:-0.743363 16:-0.911504 17:-0.504425 18:-0.243363 19:-0.787237 21:-0.548673 22:-0.943779 24:-0.862094 
0.88527352252255209 2:-0.834115 3:-0.789282 4:-0.630559 5:-0.897377 6:-0.737697 7:-0.808438 8:-0.95439 10:-0.91106 11:0.265678 12:-0.910807 13:-0.958951 15:-0.63512 16:-0.901938 17:-0.561003 18:-0.705815 19:-0.765022 21:-0.68339 22:-0.874438 24:-0.916002 
0.59548757731776936 2:-0.895563 3:-0.718593 4:-0.577889 5:-0.796482 6:-0.820905 7:-0.718593 8:-0.839196 10:-0.909548 11:0.115578 12:-0.852596 13:-0.879397 15:-0.718593 16:-0.879397 17:-0.331658 18:-0.698492 19:-0.723851 21:-0.686767 22:-0.914868 24:-0.971524 
0.50082389317235354 2:-0.933707 3:-0.644976 4:-0.34689 5:-0.930024 6:-0.775215 7:-0.741627 8:-0.5311 10:-0.763158 11:-0.619617 12:-0.719298 13:-0.820574 15:-0.755981 16:-0.87799 17:-0.564593 18:-0.519139 19:-0.745281 21:-0.694976 22:-0.979735 24:-0.803429 
0.24850329997139095 2:-0.861076 3:-0.678075 4:-0.36631 5:-0.933824 6:-0.753102 7:-0.754011 8:-0.497326 10:-0.719251 11:-0.574866 12:-0.712418 13:-0.743316 15:-0.71123 16:-0.893048 17:-0.691176 18:-0.526738 19:-0.724497 21:-0.69697 22:-0.966027 24:-0.833333 
0.30789167302307785 2:-0.855171 3:-0.687805 4:-0.508711 5:-0.929443 6:-0.712125 7:-0.707317 8:-0.623693 10:-0.926829 11:-0.372822 12:-0.795587 13:-0.926829 15:-0.623693 16:-0.909408 17:-0.585366 18:-0.519164 19:-0.65295 21:-0.674216 22:-0.940972 24:-0.91115 
0.15659748106343124 2:-0.771459 3:-0.665155 4:-0.715464 5:-0.88866 6:-0.699381 7:-0.802062 8:-0.719588 10:-0.764948 11:-0.393814 12:-0.697595 13:-0.901031 15:-0.727835 16:-0.909278 17:-0.624742 18:-0.468041 19:-0.759224 21:-0.649485 22:-0.755488 24:-0.906529 
0.45465423775739294 2:-0.822064 3:-0.731507 4:-0.537671 5:-0.822774 6:-0.833562 7:-0.643836 8:-0.60274 10:-0.589041 11:-0.291096 12:-0.866058 13:-0.773973 15:-0.952055 16:-0.900685 17:-0.688356 18:-0.578767 19:-0.835327 21:-0.611872 22:-0.927478 24:-0.660388 
0.30342236564719088 2:-0.887049 3:-0.695652 4:-0.706522 5:-0.853261 6:-0.823913 7:-0.73913 8:-0.434783 10:-0.641304 11:-0.641304 12:-0.7343 13:-0.706522 15:-0.73913 16:-0.880435 17:-0.505435 18:-0.543478 19:-0.365346 21:-0.661232 22:-0.861893 24:-0.815217 
0.98327297286401572 2:0.00158934 3:-0.73012 4:-0.783133 5:-0.837349 6:-0.804819 7:-0.518072 8:-0.710843 10:-0.493976 11:-0.710843 12:-0.528782 13:-0.710843 15:-0.807229 16:-0.855422 17:-0.831325 18:-0.927711 19:-0.917239 21:-0.590361 22:-0.387668 24:-1 
0.91752227724010083 2:-1 3:-0.309589 4:-0.178082 5:-1 6:-0.822466 7:-0.890411 8:-0.561644 10:-0.753425 11:-0.342466 12:-0.732116 13:-0.671233 15:-0.671233 16:-0.890411 17:-0.712329 18:-0.835616 19:-0.717704 21:-0.689498 22:-0.767929 24:-0.844749 
0.9826488993779362 2:-0.94227 3:-0.02 4:0.15 5:-0.8875 6:-0.919 7:-0.866667 8:-0.8 10:-0.9 11:-0.65 12:-0.511111 13:-0.65 15:-0.8 16:-0.816667 17:-0.883333 18:-0.65 19:-0.771027 21:-0.763889 22:-0.788235 24:-0.905556 
0.98357203552695116 2:-0.936443 3:-0.794495 4:-0.449541 5:-0.752294 6:-0.673028 7:-0.926606 8:-0.926606 10:-0.669725 11:-0.449541 12:-0.730887 13:-1 15:-0.816514 16:-0.908257 17:-0.743119 18:-0.00917431 19:-0.747919 21:-0.584098 22:-0.922288 24:-0.896024 
0.27817559273263248 2:-0.797437 3:-0.781676 4:-0.649123 5:-0.833333 6:-0.772632 7:-0.516569 8:-0.65692 10:-0.812865 11:-0.426901 12:-0.8094 13:-0.74269 15:-0.773879 16:-0.91423 17:-0.467836 18:-0.602339 19:-0.651853 21:-0.701754 22:-0.818369 24:-0.756985 
0.091365129994735617 2:-0.907371 3:-0.708374 4:-0.558761 5:-0.925581 6:-0.832414 7:-0.8114 8:-0.676284 10:-0.579873 11:-0.567206 12:-0.803894 13:-0.666432 15:-0.748065 16:-0.891626 17:-0.598522 18:-0.0795215 19:-0.596356 21:-0.774689 22:-0.958273 24:-0.900305 
0.34008388387594768 2:-0.847023 3:-0.664353 4:-0.545741 5:-0.87224 6:-0.744479 7:-0.84858 8:-0.798107 10:-0.451104 11:-0.299685 12:-0.907466 13:-0.791798 15:-0.735016 16:-0.936909 17:-0.624606 18:-0.621451 19:-0.761637 21:-0.731861 22:-0.812952 24:-0.785489 
0.61205881110481952 2:-0.921277 3:-0.787879 4:-0.840909 5:-0.642045 6:-0.717727 7:-0.878788 8:-0.454545 10:-0.931818 11:-0.136364 12:-0.851852 13:-0.954545 15:-0.863636 16:-0.962121 17:-0.602273 18:-0.477273 19:-0.739803 21:-0.441919 22:-0.807487 24:-0.785354 
0.34861072513230762 2:-0.864694 3:-0.86875 4:-0.882813 5:-0.542969 6:-0.721562 7:-0.90625 8:-0.3125 10:-0.742188 11:-0.109375 12:-0.732639 13:-0.859375 15:-0.890625 16:-0.953125 17:-0.808594 18:-0.507813 19:-0.704839 21:-0.623698 22:-0.834559 24:-0.778646 
0.34755180173143935 2:-0.744097 3:-0.778364 4:-0.778364 5:-0.71504 6:-0.777731 7:-0.873351 8:-0.683377 10:-0.841689 11:-0.350923 12:-0.638816 13:-0.841689 15:-0.852243 16:-0.957784 17:-0.630607 18:-0.461741 19:-0.510638 21:-0.521548 22:-0.798851 24:-0.700967 
0.14857802064357764 2:-0.836996 3:-0.637647 4:-0.4 5:-0.911765 6:-0.784 7:-0.796078 8:-0.623529 10:-0.611765 11:-0.541176 12:-0.827451 13:-0.611765 15:-0.74902 16:-0.886275 17:-0.670588 18:-0.388235 19:-0.609399 21:-0.766667 22:-0.950173 24:-0.877778 
0.20971093170634564 2:-0.836354 3:-0.669291 4:-0.220472 5:-0.858268 6:-0.838425 7:-0.75853 8:-0.674541 10:-0.669291 11:-0.535433 12:-0.653543 13:-0.779528 15:-0.805774 16:-0.900262 17:-0.650919 18:-0.740157 19:-0.657442 21:-0.583552 22:-0.944419 24:-0.806649 
0.49961315407150036 2:-1 3:-0.663158 4:-0.323308 5:-0.864662 6:-0.866015 7:-0.819549 8:-1 10:-0.503759 11:-0.075188 12:-0.852966 13:-0.887218 15:-0.849624 16:-0.857143 17:-0.552632 18:-0.639098 19:-0.690111 21:-0.680451 22:-0.840778 24:-0.850877 
0.8905565588405786 2:-0.860047 3:-0.886869 4:-0.393939 5:-0.818182 6:-0.869091 7:-1 8:-0.838384 10:-0.393939 11:-0.0909091 12:-0.802469 13:-0.939394 15:-0.838384 16:-0.858586 17:-0.858586 18:-0.575758 19:-0.444913 21:-0.542088 22:-1 24:-0.771044 
0.40621436233699437 2:-1 3:-0.730633 4:-0.255696 5:-0.863291 6:-0.868759 7:-0.837975 8:-0.898734 10:-0.574684 11:-0.149367 12:-0.851477 13:-0.756962 15:-0.878481 16:-0.782278 17:-0.539241 18:-0.726582 19:-0.739144 21:-0.670042 22:-0.978555 24:-0.899578 
0.98030609178117301 2:-0.63282 3:-0.837431 4:-0.633165 5:-0.981196 6:-0.776257 7:-0.783594 8:-0.896195 10:-0.967011 11:-0.804706 12:-0.823669 13:-0.737409 15:-0.569826 16:-0.897955 17:-0.578183 18:-0.518364 19:-0.225006 21:-0.653544 22:-0.823025 24:-0.589986 
0.89238627404964177 2:-0.949014 3:-0.783625 4:0.109476 5:-0.962741 6:-0.537994 7:-0.874885 8:-0.941122 10:-0.867525 11:-0.619135 12:-0.865072 13:-0.955842 15:-0.790248 16:-0.902484 17:-0.478381 18:-0.608096 19:-0.665071 21:-0.734131 22:-0.85194 24:-0.973934 
1.8806511649197661 2:-0.963555 3:-0.712758 4:-0.609382 5:-0.779044 6:-0.852986 7:-0.800088 8:-0.496712 10:-0.531784 11:-0.295046 12:-0.830679 13:-0.677773 15:-0.850066 16:-0.898729 17:-0.769838 18:-0.483121 19:-0.549783 21:-0.689464 22:-0.931299 24:-0.809952 
0.84297145430822862 2:-1 3:-0.726829 4:-0.414634 5:-0.780488 6:-0.881463 7:-1 8:-0.609756 10:-0.341463 11:-0.121951 12:-0.761518 13:-0.926829 15:-0.804878 16:-0.926829 17:-0.658537 18:-0.341463 19:-0.748688 21:-0.51626 22:-0.8967 24:-1 
0.87702320032600134 2:-1 3:-0.776 4:-0.52 5:-0.82 6:-0.838 7:-1 8:-0.92 10:-0.64 11:-0.1 12:-0.706667 13:-0.94 15:-0.8 16:-0.84 17:-0.86 18:-0.46 19:-0.31308 21:-0.603333 22:-0.915294 24:-0.716667 
0.93777915156884228 2:-1 3:-0.6 4:-0.693878 5:-0.816327 6:-0.900816 7:-0.918367 8:-1 10:-0.632653 11:-0.326531 12:-0.70068 13:-1 15:-0.877551 16:-0.877551 17:-0.714286 18:-0.265306 19:-0.649531 21:-0.479592 22:-0.740696 24:-0.884354 
0.81061755894384635 2:-0.670111 3:-0.688889 4:-0.761905 5:-0.857143 6:-0.794286 7:-0.873016 8:-0.936508 10:-0.619048 12:-0.689594 13:-0.904762 15:-0.746032 16:-0.904762 17:-0.444444 18:-0.571429 19:-0.618378 21:-0.730159 22:-0.663866 24:-0.910053 
0.28120761122670251 2:-0.815754 3:-0.791489 4:-0.585106 5:-0.808511 6:-0.844894 7:-0.914894 8:-0.531915 10:-0.648936 11:-0.297872 12:-0.739953 13:-0.489362 15:-0.744681 16:-0.925532 17:-0.851064 18:-0.744681 19:-0.598079 21:-0.608156 22:-0.819775 24:-0.789007 
0.79200097274450976 2:-0.956154 3:-0.805063 4:-0.240506 5:-0.943038 6:-0.815443 7:-0.949367 8:-0.949367 10:-0.753165 11:-0.221519 12:-0.752461 13:-0.981013 15:-0.898734 16:-0.797468 17:-0.246835 18:-0.734177 19:-0.739144 21:-0.56962 22:-0.785555 24:-0.92827 
1.4577490750120143 2:-0.536813 3:-0.772093 4:-0.651163 5:-0.738372 6:-0.783372 7:-0.860465 8:-0.627907 10:-0.476744 11:-0.651163 12:-0.857881 13:-0.755814 15:-0.627907 16:-0.976744 17:-0.796512 18:-0.598837 19:-0.460848 21:-0.670543 22:-0.876881 24:-0.76938 
0.29938203053715673 2:-0.878462 3:-0.688889 4:-0.491228 5:-0.894737 6:-0.782105 7:-0.929825 8:-0.812865 10:-0.491228 11:-0.245614 12:-0.82846 13:-0.824561 15:-0.929825 16:-0.923977 17:-0.52924 18:-0.684211 19:-0.47778 21:-0.652047 22:-0.851393 24:-0.867446 
0.13448548307975144 2:-0.777722 3:-0.790374 4:-0.550802 5:-0.759358 6:-0.774759 7:-0.743316 8:-0.614973 10:-0.743316 11:-0.326203 12:-0.686275 13:-0.743316 15:-0.743316 16:-0.914439 17:-0.700535 18:-0.614973 19:-0.559196 21:-0.818182 22:-0.864108 24:-0.787879 
0.71696086587331131 2:-0.922161 3:-0.853184 4:-0.685393 5:-0.882022 6:-0.769438 7:-0.820225 8:-0.610487 10:-0.325843 11:-0.550562 12:-0.670412 13:-0.955056 15:-0.715356 16:-0.910112 17:-0.868914 18:-0.41573 19:-0.459726 21:-0.554307 22:-0.93655 24:-0.766542 
0.79475299470058403 2:-0.929668 3:-0.829442 4:-0.664975 5:-0.817259 6:-0.736853 7:-0.959391 8:-0.675127 10:-0.51269 11:-0.360406 12:-0.8511 13:-0.847716 15:-0.695431 16:-0.86802 17:-0.751269 18:-0.451777 19:-0.790786 21:-0.597293 22:-0.828008 24:-0.626058 
0.982998356252752 2:-1 3:-1 4:-0.75 5:-1 6:-0.595 7:-0.777778 8:-0.888889 10:-1 11:-0.5 12:-0.864198 13:-1 15:-0.611111 16:-0.861111 17:-0.611111 18:-0.5 19:-0.809189 21:-0.921296 22:1 24:-1 
0.8877887745589691 2:-0.738579 3:-0.89434 4:-0.660377 5:-0.745283 6:-0.816604 7:-1 8:-0.849057 10:-0.320755 11:-0.207547 12:-0.815514 13:-0.660377 15:-0.698113 16:-0.886792 17:-0.339623 18:-0.660377 19:-0.740785 21:-0.893082 22:-1 24:-1 
0.20904283421321274 2:-0.863398 3:-0.76338 4:-0.560563 5:-0.911268 6:-0.817465 7:-0.616901 8:-0.639437 10:-0.442254 11:-0.459155 12:-0.72457 13:-0.814085 15:-0.797183 16:-0.876056 17:-0.605634 18:-0.526761 19:-0.806501 21:-0.457277 22:-0.832974 24:-0.8723 
0.27436577063237172 2:-0.883894 3:-0.718436 4:-0.564246 5:-0.798883 6:-0.692291 7:-0.910615 8:-0.687151 10:-0.731844 11:-0.027933 12:-0.890751 13:-0.96648 15:-0.75419 16:-0.921788 17:-0.530726 18:-0.631285 19:-0.769748 21:-0.588454 22:-0.952678 24:-0.873371 
0.65697727664368999 2:-0.896602 3:-0.728358 4:-0.865672 5:-0.781716 6:-0.673582 7:-0.850746 8:-0.313433 10:-0.820896 11:-0.261194 12:-0.890547 13:-0.753731 15:-0.895522 16:-0.940299 17:-0.712687 18:-0.485075 19:-0.61553 21:-0.534826 22:-0.873573 24:-0.894279 
0.0021545119183677963 2:-0.827884 3:-0.808696 4:-0.73913 5:-0.762422 6:-0.657888 7:-0.826087 8:-0.354037 10:-0.720497 11:-0.515528 12:-0.696342 13:-0.832298 15:-0.850932 16:-0.950311 17:-0.76087 18:-0.608696 19:-0.594675 21:-0.419255 22:-0.815857 24:-0.876812 
0.20400373552028139 2:-0.959369 3:-0.917889 4:-0.771261 5:-0.749267 6:-0.667449 7:-0.741935 8:-0.507331 10:-0.841642 11:-0.384164 12:-0.569892 13:-0.788856 15:-0.753666 16:-0.953079 17:-0.733138 18:-0.577713 19:-0.617259 21:-0.468231 22:-0.801277 24:-0.817204 
0.94075043919985757 2:-0.957237 3:-0.516049 4:-0.333333 5:-0.611111 6:-0.88 7:-0.851852 8:-0.604938 10:-0.740741 11:-0.222222 12:-0.63786 13:-0.777778 15:-0.925926 16:-0.925926 17:-0.783951 18:-0.518519 19:-0.66078 21:-0.790123 22:-1 24:-0.755144 
0.46760447924171317 2:-0.897114 3:-0.889109 4:-0.613861 5:-0.821782 6:-0.823564 7:-0.881188 8:-0.524752 10:-0.584158 11:-0.108911 12:-0.564356 13:-0.762376 15:-0.861386 16:-0.910891 17:-0.653465 18:-0.70297 19:-0.693947 21:-0.551155 22:-0.706465 24:-0.831683 
0.14517590736857489 2:-0.846052 3:-0.751111 4:-0.68 5:-0.72 6:-0.712 7:-0.893333 8:-0.68 10:-0.84 11:-0.333333 12:-0.782716 13:-0.866667 15:-0.697778 16:-0.964444 17:-0.564444 18:-0.413333 19:-0.694702 21:-0.697778 22:-0.736471 24:-0.899259 
0.79208442315840122 2:-0.574617 3:-0.778947 4:-0.842105 5:-0.842105 6:-0.715789 7:-0.789474 8:-0.614035 10:-0.789474 11:-0.184211 12:-0.785575 13:-0.631579 15:-0.754386 16:-0.868421 17:-0.785088 18:-0.710526 19:-0.457695 21:-0.776316 22:-0.888545 24:-0.925439 
0.41247909173459257 2:-0.85903 3:-0.674419 4:-0.476744 5:-0.764535 6:-0.806919 7:-0.755814 8:-0.639535 10:-0.52907 11:-0.337209 12:-0.658915 13:-0.843023 15:-0.819767 16:-0.906977 17:-0.552326 18:-0.642442 19:-0.780345 21:-0.703488 22:-0.913817 24:-0.818798 
0.35696316129409622 2:-0.812259 3:-0.681301 4:-0.723577 5:-0.804878 6:-0.806829 7:-0.718157 8:-0.566396 10:-0.609756 11:-0.577236 12:-0.761518 13:-0.723577 15:-0.859079 16:-0.934959 17:-0.658537 18:-0.365854 19:-0.590454 21:-0.570009 22:-0.701578 24:-0.907859 
0.21037471861456655 2:-0.738579 3:-0.728302 4:-0.708895 5:-0.830189 6:-0.764205 7:-0.74124 8:-0.61186 10:-0.579515 11:-0.54717 12:-0.815514 13:-0.757412 15:-0.849057 16:-0.956873 17:-0.679245 18:-0.401617 19:-0.629693 21:-0.602875 22:-0.703187 24:-0.908356 
0.61143303608470401 2:-0.958267 3:-0.595181 4:-0.240964 5:-0.728916 6:-0.863373 7:-0.807229 8:-0.614458 10:-0.674699 11:-0.53012 12:-0.705489 13:-0.819277 15:-0.855422 16:-0.879518 17:-0.789157 18:-0.746988 19:-0.586193 21:-0.590361 22:-0.846917 24:-0.726908 
0.23302529998121208 2:-0.912308 3:-0.74481 4:-0.316456 5:-0.908861 6:-0.753924 7:-0.736709 8:-0.777215 10:-0.681013 11:-0.453165 12:-0.876231 13:-0.893671 15:-0.706329 16:-0.858228 17:-0.521519 18:-0.650633 19:-0.721754 21:-0.627004 22:-0.785555 24:-0.78481 
0.99033522118579986 2:-0.834399 3:-0.754582 4:-0.426295 5:-0.89243 6:-0.780558 7:-0.808765 8:-0.61753 10:-0.498008 11:-0.665339 12:-0.766268 13:-0.713147 15:-0.776892 16:-0.928287 17:-0.609562 18:-0.354582 19:-0.781061 21:-0.638778 22:-1 24:-0.774236 
0.65006576285229634 2:-0.961513 3:-0.657778 4:-0.6 5:-0.8 6:-0.748 7:-0.866667 8:-0.511111 10:-0.633333 11:-0.266667 12:-0.674074 13:-0.566667 15:-0.933333 16:-0.922222 17:-0.572222 18:-0.833333 19:-0.580216 21:-0.653704 22:-0.811765 24:-0.842593 
0.38762005353120527 2:-0.961513 3:-0.657778 4:-0.6 5:-0.85 6:-0.748 7:-0.866667 8:-0.466667 10:-0.566667 11:-0.233333 12:-0.674074 13:-0.566667 15:-0.933333 16:-0.933333 17:-0.611111 18:-0.833333 19:-0.580216 21:-0.653704 22:-0.811765 24:-0.842593 
0.64732241642078781 2:-0.920372 3:-0.581609 4:-0.724138 5:-0.87069 6:-0.73931 7:-0.862069 8:-0.356322 10:-0.551724 11:-0.413793 12:-0.719029 13:-0.724138 15:-0.885057 16:-0.91954 17:-0.517241 18:-0.793103 19:-0.486784 21:-0.641762 22:-0.805274 24:-0.772031 
1.0986688665149251 2:-0.897368 3:-0.654321 4:-0.585185 5:-0.8 6:-0.712 7:-0.881481 8:-0.901235 10:-0.614815 11:-0.688889 12:-0.879287 13:-0.688889 15:-0.802469 16:-0.901235 17:-0.671605 18:-0.214815 19:-0.643819 21:-0.650206 22:-0.686275 24:-0.902058 
0.43287649402139627 2:-0.920065 3:-0.72 4:-0.561538 5:-0.835577 6:-0.757 7:-0.861538 8:-0.738462 10:-0.584615 11:-0.584615 12:-0.755556 13:-0.780769 15:-0.830769 16:-0.884615 17:-0.596154 18:-0.273077 19:-0.70938 21:-0.727564 22:-0.885973 24:-0.912821 
1.2184561102832414 2:-0.878934 3:-0.630291 4:-0.615534 5:-0.833981 6:-0.817553 7:-0.891262 8:-0.704854 10:-0.499029 11:-0.627184 12:-0.81014 13:-0.743689 15:-0.813592 16:-0.91068 17:-0.673786 18:-0.137864 19:-0.639867 21:-0.680906 22:-0.884866 24:-0.845955 
1.3026865807233228 2:-0.959249 3:-0.736471 4:-0.452941 5:-0.854412 6:-0.695059 7:-0.811765 8:-0.694118 10:-0.594118 11:-0.241176 12:-0.827451 13:-0.788235 15:-0.858824 16:-0.870588 17:-0.65 18:-0.647059 19:-0.535319 21:-0.766667 22:-0.950173 24:-0.833333 
0.85211752789286554 2:-0.722894 3:-0.664 4:-0.61 5:-0.865 6:-0.757 7:-0.92 8:-0.56 10:-0.52 11:-0.4 12:-0.755556 13:-0.82 15:-0.92 16:-0.92 17:-0.65 18:-0.64 19:-0.450464 21:-0.546667 22:-0.872941 24:-0.773333 
0.80829617454176206 2:-0.899599 3:-0.744928 4:0.068323 5:-0.925466 6:-0.711553 7:-0.817805 8:-0.784679 10:-0.813665 11:-0.503106 12:-0.817805 13:-0.900621 15:-0.710145 16:-0.834369 17:-0.681159 18:-0.465839 19:-0.744005 21:-0.777088 22:-0.894775 24:-0.941339 
0.7566380771725667 2:-0.935256 3:-0.668536 4:-0.64486 5:-0.873832 6:-0.636636 7:-0.800623 8:-0.426791 10:-0.551402 11:-0.383178 12:-0.878159 13:-0.831776 15:-0.713396 16:-0.968847 17:-0.716511 18:-0.626168 19:-0.529214 21:-0.558671 22:-0.947224 24:-0.841121 
0.98294856798691832 2:-1 3:-0.855882 4:0.191176 5:-0.950368 6:-0.952353 7:-0.911765 8:-0.617647 10:-0.272059 11:-0.625 12:-0.892157 13:-0.889706 15:-0.955882 16:-0.875 17:0.363971 18:-0.382353 19:-0.848474 21:-0.8125 22:-1 24:-1 
0.48085459400178765 2:-0.865482 3:-0.532427 4:-0.52233 5:-0.772816 6:-0.861592 7:-0.798058 8:-0.502913 10:-0.592233 11:-0.51068 12:-0.696224 13:-0.720388 15:-0.84466 16:-0.867961 17:-0.537864 18:-0.708738 19:-0.839941 21:-0.680906 22:-0.802627 24:-0.790939 
0.062945649149187377 2:-0.95147 3:-0.808757 4:-0.732049 5:-0.91725 6:-0.649615 7:-0.842382 8:-0.807356 10:-0.802977 11:-0.637478 12:-0.614711 13:-0.755692 15:-0.481611 16:-0.808231 17:-0.733363 18:-0.348511 19:-0.690224 21:-0.833771 22:-0.951787 24:-0.80648 
0.42219852497291221 2:-0.941107 3:-0.784519 4:-0.728859 5:-0.919463 6:-0.630336 7:-0.770917 8:-0.792394 10:-0.78255 11:-0.642953 12:-0.56689 13:-0.795973 15:-0.536465 16:-0.820134 17:-0.743177 18:-0.304698 19:-0.77871 21:-0.819985 22:-0.95073 24:-0.825056 
0.45027692426791838 2:-0.601286 3:-0.597122 4:-0.395683 5:-0.870504 6:-0.743597 7:-0.741007 8:-0.697842 10:-0.611511 11:-0.568345 12:-0.718625 13:-0.676259 15:-0.877698 16:-0.895683 17:-0.672662 18:-0.730216 19:-0.752907 21:-0.704436 22:-0.817182 24:-0.745204 
0.68126817342524859 2:-0.605743 3:-0.658537 4:-0.426829 5:-0.862805 6:-0.894634 7:-0.691057 8:-0.772358 10:-0.658537 11:-0.54878 12:-0.761518 13:-0.707317 15:-0.837398 16:-0.861789 17:-0.601626 18:-0.634146 19:-0.76265 21:-0.677507 22:-0.84505 24:-0.689024 
0.33245878729480721 2:-0.899599 3:-0.594203 4:-0.185355 5:-0.910755 6:-0.861602 7:-0.884058 8:-0.676583 10:-0.304348 11:-0.633867 12:-0.880668 13:-0.697941 15:-0.795576 16:-0.938978 17:-0.684973 18:-0.340961 19:-0.669901 21:-0.65853 22:-0.94185 24:-0.887618 
0.046729945644394991 2:-0.85305 3:-0.830303 4:-0.545455 5:-0.795455 6:-0.734909 7:-0.684848 8:-0.781818 10:-0.781818 11:-0.327273 12:-0.703704 13:-0.8 15:-0.818182 16:-0.909091 17:-0.554545 18:-0.672727 19:-0.604501 21:-0.725253 22:-0.845989 24:-0.776768 
0.58715579869130874 2:-0.818648 3:-0.706806 4:-0.65445 5:-0.835079 6:-0.74555 7:-0.874346 8:-0.706806 10:-0.434555 11:-0.277487 12:-0.692845 13:-0.717277 15:-0.895288 16:-0.884817 17:-0.706806 18:-0.685864 19:-0.496499 21:-0.584642 22:-0.866954 24:-0.881326 
0.045789103512992702 2:-0.761115 3:-0.613793 4:-0.615764 5:-0.82266 6:-0.840394 7:-0.842365 8:-0.605911 10:-0.64532 11:-0.20197 12:-0.807334 13:-0.793103 15:-0.783251 16:-0.91133 17:-0.655172 18:-0.46798 19:-0.79697 21:-0.748768 22:-0.916546 24:-0.804598 
0.33478170143470948 2:-0.923026 3:-0.72 4:-0.566667 5:-0.8 6:-0.748 7:-1 8:-0.466667 10:-0.633333 11:-0.4 12:-0.619753 13:-0.833333 15:-0.933333 16:-0.922222 17:-0.611111 18:-0.533333 19:-0.427567 21:-0.590741 22:-0.811765 24:-0.811111 
0.75111389416941432 2:-0.886432 3:-0.571585 4:-0.639344 5:-0.852459 6:-0.752131 7:-0.868852 8:-0.387978 10:-0.639344 11:-0.0819672 12:-0.786278 13:-0.737705 15:-0.934426 16:-0.912568 17:-0.540984 18:-0.57377 19:-0.624634 21:-0.814208 22:-0.768563 24:-0.938069 
0.10766810276765328 2:-0.891189 3:-0.765445 4:-0.591623 5:-0.858639 6:-0.779476 7:-0.790576 8:-0.413613 10:-0.371728 11:-0.340314 12:-0.79523 13:-0.748691 15:-0.853403 16:-0.926702 17:-0.743455 18:-0.623037 19:-0.532463 21:-0.614311 22:-0.911303 24:-0.851658 
0.32413861232873259 2:-0.844322 3:-0.779775 4:-0.52809 5:-0.823034 6:-0.817978 7:-0.730337 8:-0.280899 10:-0.696629 11:-0.426966 12:-0.615481 13:-0.696629 15:-0.977528 16:-0.910112 17:-0.606742 18:-0.629213 19:-0.459726 21:-0.586142 22:-0.762062 24:-0.872659 
0.17673056376412952 2:-0.88766 3:-0.606486 4:-0.708108 5:-0.82973 6:-0.807351 7:-0.783784 8:-0.351351 10:-0.448649 11:-0.221622 12:-0.788589 13:-0.740541 15:-0.891892 16:-0.902703 17:-0.697297 18:-0.513514 19:-0.702954 21:-0.632432 22:-0.862639 24:-0.908108 
0.25950236920475384 2:-0.850213 3:-0.667027 4:-0.578378 5:-0.82973 6:-0.807351 7:-0.913514 8:-0.308108 10:-0.481081 11:-0.351351 12:-0.63003 13:-0.675676 15:-0.891892 16:-0.902703 17:-0.659459 18:-0.643243 19:-0.740084 21:-0.693694 22:-0.771065 24:-0.877477 
0.27898909776853026 2:-0.850213 3:-0.667027 4:-0.610811 5:-0.854054 6:-0.824865 7:-0.913514 8:-0.264865 10:-0.578378 11:-0.351351 12:-0.63003 13:-0.675676 15:-0.891892 16:-0.902703 17:-0.508108 18:-0.578378 19:-0.740084 21:-0.693694 22:-0.771065 24:-0.877477 
0.12054278748672517 2:-0.807153 3:-0.820128 4:-0.627409 5:-0.913276 6:-0.698201 7:-0.87152 8:-0.837259 10:-0.948608 11:-0.0299786 12:-0.91625 13:-0.93576 15:-0.601713 16:-0.931478 17:-0.415418 18:-0.563169 19:-0.72788 21:-0.733048 22:-0.909308 24:-0.963597 
0.46482801075832908 2:-0.846733 3:-0.776991 4:-0.628319 5:-0.830752 6:-0.706106 7:-0.876106 8:-0.539823 10:-0.482301 11:-0.415929 12:-0.870206 13:-0.615044 15:-0.858407 16:-0.955752 17:-0.643805 18:-0.561947 19:-0.604869 21:-0.636431 22:-0.925039 24:-0.899705 
0.28049735629067202 2:-0.890037 3:-0.688889 4:-0.587302 5:-0.821429 6:-0.802857 7:-0.915344 8:-0.619048 10:-0.587302 11:-0.349206 12:-0.767196 13:-0.571429 15:-0.883598 16:-0.925926 17:-0.537037 18:-0.634921 19:-0.727413 21:-0.610229 22:-0.887955 24:-0.865079 
0.72888016528486455 2:-0.897368 3:-0.792593 4:-0.6 5:-0.833333 6:-0.832 7:-0.940741 8:-0.881481 10:-0.244444 11:-0.511111 12:-0.927572 13:-0.866667 15:-0.762963 16:-0.866667 17:-0.118519 18:-0.644444 19:-0.643819 21:-0.706173 22:-1 24:-0.916049 
0.88904388538721568 2:-1 3:-0.646847 4:-0.459459 5:-0.918919 6:-0.795676 7:-0.855856 8:-0.927928 10:-0.135135 11:-0.567568 12:-0.647648 13:-0.891892 15:-0.63964 16:-0.873874 17:-0.747748 18:-0.621622 19:-0.690577 21:-0.795796 22:-1 24:-0.846847 
0.058969518783191108 2:-0.911862 3:-0.700763 4:-0.51145 5:-0.816794 6:-0.736183 7:-0.83715 8:-0.491094 10:-0.618321 11:-0.374046 12:-0.701442 13:-0.770992 15:-0.826972 16:-0.94402 17:-0.554707 18:-0.770992 19:-0.615465 21:-0.480916 22:-0.935339 24:-0.769296 
0.31113714260729497 2:-1 3:-0.668421 4:-0.486842 5:-0.822368 6:-0.808158 7:-0.894737 8:-0.736842 10:-0.605263 11:-0.407895 12:-0.807018 13:-0.684211 15:-0.868421 16:-0.907895 17:-0.493421 18:-0.605263 19:-0.728847 21:-0.47807 22:-0.944272 24:-0.925439 
0.12798987470939893 2:-0.885682 3:-0.732013 4:-0.455446 5:-0.858911 6:-0.775446 7:-0.815182 8:-0.683168 10:-0.752475 11:-0.287129 12:-0.757976 13:-0.772277 15:-0.742574 16:-0.864686 17:-0.584158 18:-0.60396 19:-0.841306 21:-0.663366 22:-0.916133 24:-0.794279 
1.719955970442502 2:-0.859693 3:-0.64557 4:-0.483544 5:-0.737975 6:-0.827747 7:-0.837975 8:-0.331646 10:-0.650633 11:-0.574684 12:-0.752461 13:-0.650633 15:-0.827848 16:-0.918987 17:-0.698734 18:-0.650633 19:-0.686973 21:-0.555274 22:-0.935666 24:-0.698734 
2 2:-0.953661 3:-0.625418 4:-0.538462 5:-0.714047 6:-0.848294 7:-0.705686 8:-0.598662 10:-0.498328 11:-0.538462 12:-0.771089 13:-0.67893 15:-0.879599 16:-0.959866 17:-0.602007 18:-0.638796 19:-0.609444 21:-0.545151 22:-1 24:-0.772575 
1.0001886631381518 2:-0.843443 3:-0.715254 4:-0.59322 5:-0.771186 6:-0.835254 7:-0.954802 8:-0.502825 10:-0.389831 11:-0.491525 12:-0.66855 13:-0.661017 15:-0.706215 16:-0.887006 17:-0.723164 18:-0.694915 19:-0.650719 21:-0.839925 22:-0.904287 24:-0.711864 
0.89317181499159237 2:-0.917034 3:-0.865868 4:-0.317365 5:-0.703593 6:-0.961198 7:-0.760479 8:-0.377246 10:-0.532934 11:-0.461078 12:-0.531603 13:-0.712575 15:-0.904192 16:-0.94012 17:-0.497006 18:-0.568862 19:-0.753202 21:-0.491018 22:-1 24:-0.898204 
0.98507463690400443 2:-0.953816 3:-0.514667 4:-0.64 5:-0.88 6:-0.7408 7:-0.946667 8:-0.68 10:-0.44 11:-0.52 12:-0.739259 13:-0.68 15:-0.893333 16:-0.92 17:-0.72 18:-0.48 19:-0.771027 21:-0.471111 22:-0.943529 24:-0.886667 
1.0747937592732666 2:-0.883708 3:-0.583693 4:-0.496403 5:-0.827338 6:-0.821295 7:-0.827338 8:-0.71223 10:-0.496403 11:-0.395683 12:-0.88276 13:-0.726619 15:-0.71223 16:-0.952038 17:-0.597122 18:-0.755396 19:-0.555232 21:-0.497202 22:-1 24:-0.823341 
0.42856662133109896 2:-0.847184 3:-0.505882 4:-0.705882 5:-0.779412 6:-0.849118 7:-0.764706 8:-0.764706 10:-0.514706 11:-0.382353 12:-0.904139 13:-0.808824 15:-0.686275 16:-0.931373 17:-0.588235 18:-0.647059 19:-0.59593 21:-0.458333 22:-1 24:-0.833333 
0.55237301566113628 2:-0.794635 3:-0.712253 4:-0.774704 5:-0.804348 6:-0.63502 7:-0.715415 8:-0.873518 10:-0.905138 11:-0.193676 12:-0.806763 13:-0.905138 15:-0.604743 16:-0.928854 17:-0.681818 18:-0.656126 19:-0.606311 21:-0.720026 22:-0.949779 24:-0.820817 
2 2:-0.882803 3:-0.694737 4:-0.763158 5:-0.847744 6:-0.72594 7:-0.699248 8:-0.714286 10:-0.740602 11:-0.244361 12:-0.852966 13:-0.763158 15:-0.631579 16:-0.943609 17:-0.592105 18:-0.605263 19:-0.625551 21:-0.701754 22:-0.77709 24:-0.765664 
0.30604364509129911 2:-0.789362 3:-0.754054 4:-0.746622 5:-0.779561 6:-0.633311 7:-0.567568 8:-0.743243 10:-0.847973 11:-0.361486 12:-0.801802 13:-0.807432 15:-0.743243 16:-0.925676 17:-0.621622 18:-0.64527 19:-0.628692 21:-0.684122 22:-0.81399 24:-0.856419 
0.18453115049570032 2:-0.799711 3:-0.742857 4:-0.734694 5:-0.793367 6:-0.702449 7:-0.605442 8:-0.659864 10:-0.836735 11:-0.214286 12:-0.70068 13:-0.826531 15:-0.748299 16:-0.928571 17:-0.642857 18:-0.622449 19:-0.661213 21:-0.62415 22:-0.769508 24:-0.874717 
0.033331725660789284 2:-0.841351 3:-0.700763 4:-0.770992 5:-0.785305 6:-0.67229 7:-0.78626 8:-0.770992 10:-0.816794 11:-0.416031 12:-0.869381 13:-0.770992 15:-0.725191 16:-0.90458 17:-0.652672 18:-0.656489 19:-0.580507 21:-0.589059 22:-0.838348 24:-0.805344 
1.2353802850674165 2:-0.902427 3:-0.733803 4:-0.714789 5:-0.833627 6:-0.680563 7:-0.746479 8:-0.661972 10:-0.809859 11:-0.450704 12:-0.84507 13:-0.788732 15:-0.739437 16:-0.911972 17:-0.47007 18:-0.609155 19:-0.588816 21:-0.74061 22:-0.746479 24:-0.720657 
0.93311676871199212 2:-0.715302 3:-0.897717 4:-0.863014 5:-0.938356 6:-0.644932 7:-0.853881 8:-1 10:-1 11:-0.315068 12:-0.910705 13:-0.972603 15:-0.39726 16:-0.954338 17:-0.0410959 18:-0.342466 19:-0.780437 21:-0.767123 22:-0.845286 24:-0.974125 
0.14285343447121121 2:-0.913559 3:-0.760428 4:-0.465241 5:-0.887701 6:-0.734332 7:-0.857398 8:-0.900178 10:-0.786096 11:-0.390374 12:-0.930283 13:-0.957219 15:-0.565062 16:-0.942959 17:-0.56328 18:-0.540107 19:-0.644908 21:-0.838384 22:-0.939604 24:-0.919192 
0.9342984552767567 2:-0.856173 3:-0.767474 4:-0.543253 5:-0.766436 6:-0.78699 7:-0.83391 8:-0.391003 10:-0.688581 11:-0.294118 12:-0.763168 13:-0.688581 15:-0.83391 16:-0.896194 17:-0.685121 18:-0.66782 19:-0.453316 21:-0.72549 22:-0.88276 24:-0.72549 
0.91324704008099644 2:-0.740676 3:-0.730481 4:-0.470588 5:-0.843583 6:-0.714118 7:-0.764706 8:-0.508021 10:-0.566845 11:-0.438503 12:-0.869281 13:-0.807487 15:-0.871658 16:-0.919786 17:-0.700535 18:-0.71123 19:-0.632663 21:-0.560606 22:-0.932054 24:-0.787879 
0.98433425234231453 2:-0.859337 3:-0.715736 4:-0.680203 5:-0.771574 6:-0.761523 7:-0.898477 8:-0.51269 10:-0.604061 11:-0.375635 12:-0.751833 13:-0.664975 15:-0.766497 16:-0.954315 17:-0.715736 18:-0.71066 19:-0.476965 21:-0.597293 22:-0.78501 24:-0.784264 
0.93983682064073815 2:-0.919963 3:-0.77715 4:-0.738126 5:-0.803594 6:-0.737972 7:-0.7638 8:-0.455712 10:-0.761232 11:-0.553273 12:-0.774069 13:-0.699615 15:-0.779204 16:-0.894737 17:-0.721438 18:-0.491656 19:-0.444468 21:-0.650834 22:-0.902137 24:-0.79632 
0.54367021306929275 2:-0.797568 3:-0.6 4:-0.766234 5:-0.926948 6:-0.810649 7:-0.74026 8:-0.636364 10:-0.824675 11:0.012987 12:-0.904762 13:-0.766234 15:-0.779221 16:-0.883117 17:-0.636364 18:-0.61039 19:-0.732369 21:-0.687229 22:-0.944996 24:-0.797619 
0.53260071702755973 2:-0.708793 3:-0.851327 4:-0.561947 5:-0.900442 6:-0.792124 7:-0.734513 8:-0.911504 10:-0.90708 11:-0.20354 12:-0.870206 13:-0.827434 15:-0.769912 16:-0.880531 17:-0.334071 18:-0.747788 19:-0.650461 21:-0.711652 22:-0.868818 24:-0.912242 
0.022490960845844499 2:-0.825169 3:-0.611356 4:-0.716088 5:-0.87224 6:-0.795584 7:-0.646688 8:-0.545741 10:-0.735016 11:-0.223975 12:-0.784087 13:-0.716088 15:-0.861199 16:-0.911672 17:-0.403785 18:-0.678233 19:-0.718298 21:-0.731861 22:-0.946558 24:-0.821241 
0.37250315084105279 2:-0.763561 3:-0.713311 4:-0.692833 5:-0.90785 6:-0.712491 7:-0.535836 8:-0.645051 10:-0.713311 11:-0.201365 12:-0.799772 13:-0.774744 15:-0.754266 16:-0.890785 17:-0.713311 18:-0.590444 19:-0.835889 21:-0.671217 22:-0.884361 24:-0.96132 
0.56420147309804802 2:-0.941041 3:-0.833191 4:-0.668085 5:-0.82766 6:-0.806979 7:-0.897872 8:-0.931915 10:-0.770213 11:-0.565957 12:-0.791962 13:-0.744681 15:-0.676596 16:-0.744681 17:-0.582979 18:-0.361702 19:-0.853847 21:-0.758865 22:-0.963955 24:-0.879433 
0.60553812467024382 2:-0.897621 3:-0.641379 4:-0.438424 5:-0.800493 6:-0.872315 7:-0.881773 8:-0.64532 10:-0.82266 11:-0.497537 12:-0.759168 13:-0.527094 15:-0.724138 16:-0.931034 17:-0.758621 18:-0.497537 19:-0.661616 21:-0.441708 22:-0.874819 24:-0.804598 
0.86485358053554018 2:-0.793204 3:-0.693532 4:-0.522388 5:-0.776119 6:-0.806567 7:-0.840796 8:-0.482587 10:-0.880597 11:-0.402985 12:-0.756772 13:-0.58209 15:-0.621891 16:-0.940299 17:-0.721393 18:-0.61194 19:-0.760774 21:-0.548922 22:-0.915716 24:-0.859038 
1.421013893961284 2:-0.864606 3:-0.635179 4:-0.648208 5:-0.92671 6:-0.57785 7:-0.81759 8:-0.635179 10:-0.550489 11:-0.570033 12:-0.713355 13:-0.785016 15:-0.856678 16:-0.954397 17:-0.771987 18:-0.70684 19:-0.57487 21:-0.446254 22:-0.917226 24:-0.926167 
0.59583357799355885 2:-0.761115 3:-0.613793 4:-0.544828 5:-0.891379 6:-0.743034 7:-0.668966 8:-0.944828 10:-0.731034 11:-0.255172 12:-0.865134 13:-0.772414 15:-0.806897 16:-0.848276 17:-0.637931 18:-0.524138 19:-0.715757 21:-0.648276 22:-0.678702 24:-0.882759 
0.33779679008409297 2:-0.75418 3:-0.692903 4:-0.612903 5:-0.796774 6:-0.749161 7:-0.612903 8:-0.793548 10:-0.729032 11:-0.43871 12:-0.905376 13:-0.690323 15:-0.832258 16:-0.858065 17:-0.706452 18:-0.535484 19:-0.711937 21:-0.634409 22:-0.699431 24:-0.908602 
0.39418765210357626 2:-0.97001 3:-0.709091 4:-0.636364 5:-0.922078 6:-0.873766 7:-0.757576 8:-0.757576 10:-0.376623 11:-0.376623 12:-0.830688 13:-0.558442 15:-0.65368 16:-0.922078 17:-0.606061 18:-0.376623 19:-0.553948 21:-0.656566 22:-0.926662 24:-0.975469 
0.45449250271902258 2:-0.7108 3:-0.670588 4:-0.521822 5:-0.743833 6:-0.790968 7:-0.772296 8:-0.635674 10:-0.635674 11:-0.40797 12:-0.758802 13:-0.806452 15:-0.825427 16:-0.916509 17:-0.667932 18:-0.681214 19:-0.687171 21:-0.688172 22:-0.95178 24:-0.741935 
0.8041036874412828 2:-0.783087 3:-0.747945 4:-0.471624 5:-0.762231 6:-0.784423 7:-0.765166 8:-0.577299 10:-0.659491 11:-0.307241 12:-0.770385 13:-0.776908 15:-0.804305 16:-0.917808 17:-0.794521 18:-0.624266 19:-0.54295 21:-0.667319 22:-0.950271 24:-0.767123 
0.34519821021775127 2:-0.75165 3:-0.767547 4:-0.660377 5:-0.821698 6:-0.767698 7:-0.773585 8:-0.743396 10:-0.875472 11:-0.354717 12:-0.704822 13:-0.807547 15:-0.65283 16:-0.913208 17:-0.484906 18:-0.54717 19:-0.65006 21:-0.722013 22:-0.920089 24:-0.796855 
0.65180542400449659 2:-0.752584 3:-0.844444 4:-0.630952 5:-0.6875 6:-0.826429 7:-0.761905 8:-0.428571 10:-0.559524 11:-0.428571 12:-0.922399 13:-0.666667 15:-0.825397 16:-0.904762 17:-0.791667 18:-0.511905 19:-0.604749 21:-0.606481 22:-0.882353 24:-0.797619 
0.96910757429411942 2:-0.418288 3:-0.78626 4:-0.816794 5:-0.828244 6:-0.975267 7:-0.938931 8:-0.877863 10:-0.450382 11:-0.312977 12:-0.850721 13:-0.725191 15:-0.694656 16:-0.969466 17:-0.358779 18:-0.221374 19:-0.737817 21:-0.56743 22:-1 24:-1 
1.753679209371906 2:-0.86206 3:-0.665487 4:-0.800885 5:-0.820796 6:-0.849469 7:-0.80531 8:-0.486726 10:-0.654867 11:-0.389381 12:-0.826942 13:-0.588496 15:-0.743363 16:-0.89823 17:-0.860619 18:-0.575221 19:-0.54408 21:-0.648968 22:-0.850078 24:-0.661504 
0.76373060353140598 2:-0.801437 3:-0.759236 4:-0.751592 5:-0.849522 6:-0.747197 7:-0.707006 8:-0.707006 10:-0.875796 11:-0.235669 12:-0.859873 13:-0.808917 15:-0.598726 16:-0.93949 17:-0.576433 18:-0.598726 19:-0.682792 21:-0.711253 22:-0.716748 24:-0.801486 
0.79075277730060922 2:-0.840285 3:-0.677233 4:-0.463977 5:-0.766571 6:-0.813256 7:-0.861671 8:-0.51585 10:-0.602305 11:-0.412104 12:-0.549151 13:-0.792507 15:-0.757925 16:-0.913545 17:-0.798271 18:-0.619597 19:-0.703061 21:-0.608069 22:-0.951178 24:-0.902017 
2 2:-0.779118 3:-0.675362 4:-0.704348 5:-0.830435 6:-0.699478 7:-0.791304 8:-0.536232 10:-0.721739 11:-0.6 12:-0.716586 13:-0.756522 15:-0.77971 16:-0.936232 17:-0.695652 18:-0.617391 19:-0.502232 21:-0.638647 22:-0.90179 24:-0.868599 
0.33706564187582377 2:-0.804102 3:-0.798458 4:-0.722365 5:-0.826478 6:-0.483599 7:-0.876607 8:-0.897172 10:-0.938303 11:-0.352185 12:-0.82405 13:-0.876607 15:-0.588689 16:-0.933162 17:-0.37018 18:-0.583548 19:-0.823414 21:-0.708655 22:-0.804022 24:-0.898029 
0.20446910135652263 2:-0.926788 3:-0.615324 4:-0.294584 5:-0.857332 6:-0.768877 7:-0.767503 8:-0.735799 10:-0.571995 11:-0.508587 12:-0.845002 13:-0.785997 15:-0.778071 16:-0.904888 17:-0.648613 18:-0.635403 19:-0.655179 21:-0.603258 22:-0.843344 24:-0.857772 
0.71296227562137104 2:-0.872448 3:-0.875949 4:-0.727273 5:-0.843354 6:-0.92916 7:-0.751438 8:-0.392405 10:-0.383774 11:-0.463176 12:-0.769339 13:-0.7687 15:-0.918297 16:-0.859033 17:-0.341484 18:-0.59954 19:-0.668002 21:-0.673955 22:-0.89034 24:-0.747315 
0.58577631831381138 2:-0.872049 3:-0.58628 4:-0.651715 5:-0.75066 6:-0.863219 7:-0.76781 8:-0.53562 10:-0.477573 11:-0.192612 12:-0.690413 13:-0.556728 15:-0.746702 16:-0.957784 17:-0.722955 18:-0.620053 19:-0.691883 21:-0.745822 22:-0.97765 24:-0.865435 
0.97588536607538512 2:-0.737589 3:-0.915152 4:-0.272727 5:-0.880682 6:-0.619545 7:-0.606061 8:-0.757576 10:-0.863636 11:-0.545455 12:-0.703704 13:-0.75 15:-0.80303 16:-0.840909 17:-0.867424 18:-0.113636 19:-0.609705 21:-0.914141 22:-1 24:-0.914141 
0.1835343363087443 2:-0.887224 3:-0.830698 4:-0.67907 5:-0.863953 6:-0.64586 7:-0.813953 8:-0.609302 10:-0.860465 11:-0.44186 12:-0.818088 13:-0.888372 15:-0.609302 16:-0.92093 17:-0.560465 18:-0.232558 19:-0.728427 21:-0.683721 22:-0.822709 24:-0.894574 
0.21164942032770898 2:-0.828862 3:-0.656917 4:-0.614625 5:-0.799901 6:-0.75668 7:-0.881423 8:-0.375494 10:-0.662055 11:-0.460474 12:-0.748792 13:-0.745059 15:-0.833992 16:-0.928854 17:-0.695652 18:-0.667984 19:-0.565584 21:-0.568841 22:-0.907928 24:-0.871212 
1.1650242701863778 2:-0.839425 3:-0.721854 4:-0.503311 5:-0.731788 6:-0.72106 7:-0.97351 8:-0.496689 10:-0.384106 11:-0.523179 12:-0.838116 13:-0.721854 15:-0.735099 16:-0.92053 17:-0.652318 18:-0.741722 19:-0.727052 21:-0.699779 22:-0.887807 24:-0.662252 
1.6195616071763252 2:-0.832202 3:-0.709343 4:-0.730104 5:-0.719723 6:-0.798201 7:-0.861592 8:-0.66782 10:-0.626298 11:-0.626298 12:-0.661669 13:-0.480969 15:-0.820069 16:-0.896194 17:-0.6609 18:-0.792388 19:-0.548392 21:-0.509804 22:-0.85345 24:-0.72549 
0.88037479216599124 2:-0.850482 3:-0.717986 4:-0.719424 5:-0.72482 6:-0.778561 7:-0.942446 8:-0.625899 10:-0.503597 11:-0.374101 12:-0.718625 13:-0.697842 15:-0.71223 16:-0.920863 17:-0.798561 18:-0.676259 19:-0.654069 21:-0.592326 22:-0.908591 24:-0.694245 
0.070770136611516779 2:-0.820493 3:-0.747409 4:-0.573896 5:-0.84453 6:-0.785451 7:-0.884837 8:-0.570058 10:-0.792706 11:-0.395393 12:-0.746641 13:-0.815739 15:-0.788868 16:-0.93858 17:-0.570058 18:-0.619962 19:-0.54513 21:-0.477927 22:-0.878063 24:-0.896673 
0.49105472882308998 2:-0.846979 3:-0.673896 4:-0.60241 5:-0.819277 6:-0.759277 7:-0.662651 8:-0.534137 10:-0.481928 11:-0.53012 12:-0.725123 13:-0.771084 15:-0.84739 16:-0.935743 17:-0.676707 18:-0.650602 19:-0.627574 21:-0.613119 22:-0.982991 24:-0.80656 
0.62558943450602023 2:-0.972833 3:-0.868235 4:-0.6 5:-0.841176 6:-0.834824 7:-0.780392 8:-0.560784 10:-0.529412 11:-0.388235 12:-0.73159 13:-0.811765 15:-0.811765 16:-0.85098 17:-0.698039 18:-0.741176 19:-0.649806 21:-0.488889 22:-0.966782 24:-0.711111 
0.89213464210161963 2:-0.852603 3:-0.920567 4:-0.829787 5:-0.680851 6:-0.63234 7:-1 8:-0.375887 10:-0.87234 11:-0.446809 12:-0.722616 13:-0.87234 15:-0.886525 16:-0.914894 17:-0.602837 18:-0.361702 19:-0.658976 21:-0.678487 22:-1 24:-0.879433 
0.32366620497117232 2:-0.799779 3:-0.546821 4:-0.618497 5:-0.856936 6:-0.803353 7:-0.861272 8:-0.676301 10:-0.462428 11:-0.549133 12:-0.773924 13:-0.601156 15:-0.791908 16:-0.936416 17:-0.635838 18:-0.150289 19:-0.702202 21:-0.819846 22:-0.902074 24:-0.885356 
0.28611436886154773 2:-0.883615 3:-0.664 4:-0.6256 5:-0.73 6:-0.83152 7:-0.8592 8:-0.4624 10:-0.6256 11:-0.4336 12:-0.796622 13:-0.7168 15:-0.888 16:-0.9136 17:-0.5968 18:-0.6688 19:-0.543885 21:-0.664533 22:-0.871247 24:-0.7552 
0.1147877039834601 2:-0.864679 3:-0.693109 4:-0.534455 5:-0.8242 6:-0.882214 7:-0.895822 8:-0.639718 10:-0.251221 11:-0.462832 12:-0.867366 13:-0.638633 15:-0.817689 16:-0.917526 17:-0.699946 18:-0.345632 19:-0.545284 21:-0.707904 22:-0.954039 24:-0.910834 
0.16452366619481651 2:-0.934022 3:-0.773333 4:-0.657143 5:-0.839286 6:-0.814857 7:-0.714286 8:-0.695238 10:-0.742857 11:-0.5 12:-0.883598 13:-0.785714 15:-0.533333 16:-0.885714 17:-0.333333 18:-0.542857 19:-0.689251 21:-0.730159 22:-0.939496 24:-0.905556 
0.015690685323089489 2:-0.785604 3:-0.68588 4:-0.582205 5:-0.825919 6:-0.818259 7:-0.829787 8:-0.752418 10:-0.477756 11:-0.500967 12:-0.754137 13:-0.837524 15:-0.682785 16:-0.880077 17:-0.675048 18:-0.419729 19:-0.8007 21:-0.682141 22:-0.918079 24:-0.693101 
0.75587505751566586 2:-0.948684 3:-0.751111 4:-0.666667 5:-1 6:-0.796 7:-0.881481 8:-0.614815 10:-0.644444 11:-0.555556 12:-0.782716 13:-0.8 15:-0.822222 16:-0.814815 17:-0.662963 18:-0.2 19:-0.262197 21:-0.64321 22:-1 24:-0.853086 
0.39166603976640618 2:-0.931273 3:-0.755556 4:-0.654762 5:-0.910714 6:-0.890714 7:-0.746032 8:-0.746032 10:-0.654762 11:-0.547619 12:-0.805996 13:-0.797619 15:-0.595238 16:-0.865079 17:-0.680556 18:-0.25 19:-0.441196 21:-0.561508 22:-0.966387 24:-0.977513 
0.20669154340650756 2:-0.807565 3:-0.875556 4:-0.266667 5:-0.875 6:-0.91 7:-0.777778 8:-0.6 10:-0.433333 11:-0.433333 12:-0.782716 13:-0.7 15:-0.8 16:-0.888889 17:-0.494444 18:-0.533333 19:-0.732865 21:-0.653704 22:-1 24:-0.968519 
0.35291557534695578 2:-0.901033 3:-0.52 4:-0.468571 5:-0.871429 6:-0.796343 7:-0.885714 8:-0.817143 10:-0.451429 11:-0.314286 12:-0.720635 13:-0.862857 15:-0.668571 16:-0.931429 17:-0.78 18:-0.434286 19:-0.646727 21:-0.740952 22:-0.951597 24:-0.886667 
0.9306383955837354 2:-0.926039 3:-0.720996 4:-0.487544 5:-0.919929 6:-0.780925 7:-0.97153 8:-0.914591 10:-0.765125 11:-0.0604982 12:-0.826018 13:-0.935943 15:-0.245552 16:-0.907473 17:-0.551601 18:-0.679715 19:-0.77999 21:-0.818505 22:-0.939711 24:-0.858837 
0.70489461692799282 2:-0.900321 3:-0.717986 4:-0.52518 5:-0.838129 6:-0.743597 7:-0.942446 8:-0.539568 10:-0.482014 11:-0.482014 12:-0.859313 13:-0.956835 15:-0.683453 16:-0.899281 17:-0.899281 18:-0.52518 19:-0.406976 21:-0.633094 22:-0.878121 24:-0.877698 
1.0101407186578344 2:-0.822935 3:-0.624281 4:-0.233227 5:-0.899361 6:-0.803323 7:-0.693291 8:-0.539936 10:-0.578275 11:-0.539936 12:-0.750089 13:-0.865815 15:-0.821086 16:-0.929712 17:-0.821086 18:-0.884984 19:-0.385503 21:-0.601704 22:-0.89175 24:-0.71033 
0.15165250422110327 2:-0.770256 3:-0.6 4:-0.617347 5:-0.735969 6:-0.785102 7:-0.795918 8:-0.591837 10:-0.80102 11:-0.433673 12:-0.750567 13:-0.846939 15:-0.744898 16:-0.928571 17:-0.625 18:-0.586735 19:-0.614484 21:-0.667517 22:-0.805522 24:-0.840986 
0.34998257912863123 2:-0.898866 3:-0.591241 4:-0.518248 5:-0.75365 6:-0.893577 7:-0.678832 8:-0.474453 10:-0.562044 11:-0.364964 12:-0.678832 13:-0.846715 15:-0.722628 16:-0.89781 17:-0.718978 18:-0.715328 19:-0.649019 21:-0.772506 22:-0.783598 24:-0.793187 
0.43578658676275861 2:-0.840377 3:-0.664516 4:-0.447005 5:-0.834101 6:-0.805899 7:-0.815668 8:-0.631336 10:-0.585253 11:-0.474654 12:-0.729647 13:-0.861751 15:-0.907834 16:-0.917051 17:-0.548387 18:-0.640553 19:-0.493515 21:-0.373272 22:-0.882895 24:-0.817204 
0.94074568863563879 2:-1 3:-0.786667 4:-0.2 5:-0.871429 6:-0.722286 7:-0.542857 8:-0.619048 10:-0.428571 11:-0.657143 12:-0.720635 13:-0.942857 15:-1 16:-0.866667 17:-0.266667 18:-0.771429 19:-0.803737 21:-0.730159 22:-0.838655 24:-0.946032 
0.41040682741743273 2:-0.586937 3:-0.771039 4:-0.662692 5:-0.892675 6:-0.760818 7:-0.786485 8:-0.718342 10:-0.727428 11:-0.458262 12:-0.905609 13:-0.812606 15:-0.729699 16:-0.892107 17:-0.574673 18:-0.482112 19:-0.543614 21:-0.633163 22:-0.826836 24:-0.887375 
0.47413913314911266 2:-0.547879 3:-0.681684 4:-0.621053 5:-0.876842 6:-0.693053 7:-0.823158 8:-0.848421 10:-0.741053 11:-0.652632 12:-0.855906 13:-0.778947 15:-0.734737 16:-0.915789 17:-0.550526 18:-0.482105 19:-0.544464 21:-0.642105 22:-0.803839 24:-0.821053 
0.64389952979747889 2:-0.619076 3:-0.869525 4:-0.653308 5:-0.916123 6:-0.664828 7:-0.821062 8:-0.828518 10:-0.944082 11:-0.56384 12:-0.936212 13:-0.888164 15:-0.433364 16:-0.860205 17:-0.334576 18:-0.418453 19:-0.654299 21:-0.772911 22:-0.802642 24:-0.904939 
0.60088078473993378 2:-0.660987 3:-0.761702 4:-0.757447 5:-0.856383 6:-0.682894 7:-0.676596 8:-0.914894 10:-0.974468 11:-0.361702 12:-0.916785 13:-0.859574 15:-0.591489 16:-0.889362 17:-0.359574 18:-0.706383 19:-0.722309 21:-0.638298 22:-0.78373 24:-0.819149 
2 2:-0.897368 3:-0.688889 4:-0.577778 5:-0.75 6:-0.76 7:-0.807407 8:-0.614815 10:-0.6 11:-0.388889 12:-0.746502 13:-0.822222 15:-0.851852 16:-0.874074 17:-0.77963 18:-0.566667 19:-0.707423 21:-0.632716 22:-0.921569 24:-0.77963 
0.37485112271271909 2:-0.839872 3:-0.720681 4:-0.664234 5:-0.824818 6:-0.826569 7:-0.824818 8:-0.659367 10:-0.751825 11:-0.481752 12:-0.785888 13:-0.708029 15:-0.698297 16:-0.875912 17:-0.804136 18:-0.255474 19:-0.406675 21:-0.731144 22:-0.958781 24:-0.94485 
0.6829974745787305 2:-0.982521 3:-0.853995 4:-0.67704 5:-0.916737 6:-0.735677 7:-0.609756 8:-0.932717 10:-0.803196 11:-0.555929 12:-0.876647 13:-0.863751 15:-0.24979 16:-0.892347 17:-0.617325 18:-0.227923 19:-0.72269 21:-0.795066 22:-0.985752 24:-0.857023 
0.93001185799528396 2:-0.893421 3:-0.569231 4:-0.723077 5:-0.723077 6:-0.451692 7:-1 8:-0.507692 10:-0.723077 11:-0.353846 12:-0.699145 13:-0.723077 15:-0.815385 16:-0.969231 17:-0.353846 18:-0.723077 19:-0.78864 21:-0.738462 22:-1 24:-0.738462 
0.97386197161003296 2:-0.689806 3:-0.665672 4:-0.552239 5:-0.932836 6:-0.709851 7:-0.761194 8:-0.761194 10:-0.283582 11:-0.283582 12:-0.562189 13:-0.820896 15:-0.880597 16:-1 17:-0.895522 18:-0.552239 19:-0.487373 21:-0.492537 22:-1 24:-0.830846 
0.86195182576590423 2:-0.688962 3:-0.702857 4:-0.681633 5:-0.72449 6:-0.841306 7:-0.477551 8:-0.706122 10:-0.755102 11:-0.559184 12:-0.880272 13:-0.559184 15:-0.885714 16:-0.877551 17:-0.457143 18:-0.608163 19:-0.747662 21:-0.629932 22:-0.965426 24:-0.884354 
0.46892607838565797 2:-0.785004 3:-0.748966 4:-0.668966 5:-0.72069 6:-0.821241 7:-0.834483 8:-0.751724 10:-0.648276 11:-0.482759 12:-0.730268 13:-0.689655 15:-0.710345 16:-0.889655 17:-0.710345 18:-0.710345 19:-0.644697 21:-0.628736 22:-0.883164 24:-0.648276 
0.9679361588065033 2:-0.861447 3:-0.888 4:-0.64 5:-0.91 6:-0.8704 7:-1 8:-0.52 10:-0.04 11:-0.76 12:-0.804444 13:-0.76 15:-1 16:-0.92 17:-0.58 18:-0.52 19:-0.725232 21:-0.433333 22:-0.830588 24:-0.66 
1.0129532195949074 2:-0.956702 3:-0.65 4:-0.3625 5:-0.859375 6:-0.9595 7:-0.95 8:-0.55 10:-0.25 11:-0.5125 12:-0.755556 13:-0.7 15:-0.725 16:-0.9375 17:-0.86875 18:-0.7375 19:-0.742405 21:-0.68125 22:-0.735294 24:-0.7875 
0.92744486848595131 2:-1 3:-0.752941 4:-0.294118 5:-0.933824 6:-0.857059 7:-1 8:-0.529412 10:-0.382353 11:-0.294118 12:-0.856209 13:-0.911765 15:-0.764706 16:-0.941176 17:-0.279412 18:-0.735294 19:-0.898982 21:-0.666667 22:-1 24:-0.666667 
0.98544533191323669 2:-1 3:-0.738318 4:-0.495327 5:-0.579439 6:-0.878879 7:-0.925234 8:-0.551402 10:-0.439252 11:-0.551402 12:-0.725857 13:-0.775701 15:-0.813084 16:-0.869159 17:-0.476636 18:-0.551402 19:-0.743208 21:-0.576324 22:-1 24:-0.894081 
1.0876050003928452 2:-1 3:-0.945098 4:-0.647059 5:-0.823529 6:-0.809412 7:-1 8:-0.45098 10:-0.529412 11:-0.470588 12:-0.808279 13:-0.764706 15:-0.764706 16:-0.921569 17:-0.72549 18:-0.764706 19:-0.528584 21:-0.277778 22:-0.83391 24:-0.722222 
0.58051020767895345 2:-0.643905 3:-0.607477 4:-0.635514 5:-0.89486 6:-0.818318 7:-0.775701 8:-0.476636 10:-0.551402 11:-0.186916 12:-0.680166 13:-0.803738 15:-0.869159 16:-0.897196 17:-0.574766 18:-0.691589 19:-0.807406 21:-0.761682 22:-0.802089 24:-0.814642 
0.98323135528756456 2:-1 3:-0.975111 4:-0.92 5:-0.82 6:-0.8848 7:-0.786667 8:0.0311111 10:-0.84 11:0.173333 12:-0.478519 13:-0.706667 15:-0.751111 16:-0.937778 17:-0.875556 18:-0.653333 19:-0.206226 21:-0.798519 22:-0.887059 24:-0.924444 
0.98331984574043929 2:-0.896602 3:-1 4:-0.910448 5:-0.932836 6:-1 7:-0.761194 8:-0.641791 10:-0.373134 11:-0.104478 12:-0.124378 13:-0.552239 15:-0.343284 16:-0.910448 17:-1 18:-0.641791 19:-0.179797 21:-0.915423 22:-0.62072 24:-0.830846 
0.93969500433091013 2:-1 3:-0.713636 4:-0.579545 5:-0.863636 6:-0.699318 7:-0.848485 8:-0.454545 10:-0.738636 11:-0.454545 12:-0.740741 13:-0.897727 15:-0.757576 16:-0.909091 17:-0.655303 18:-0.704545 19:-0.570675 21:-0.495581 22:-1 24:-0.86048 
0.29079865480955558 2:-1 3:-0.798802 4:-0.60479 5:-0.838323 6:-0.786587 7:-0.856287 8:-0.760479 10:-0.856287 11:-0.317365 12:-0.824351 13:-0.784431 15:-0.808383 16:-0.916168 17:-0.622754 18:-0.676647 19:-0.588671 21:-0.457086 22:-1 24:-0.932136 
0.42051401679639588 2:-0.872887 3:-0.811621 4:-0.504587 5:-0.766055 6:-0.752294 7:-0.926606 8:-0.657492 10:-0.651376 11:-0.46789 12:-0.850493 13:-0.798165 15:-0.840979 16:-0.87156 17:-0.550459 18:-0.688073 19:-0.663892 21:-0.618756 22:-0.922288 24:-0.809378 
0.099492172129650988 2:-0.903783 3:-0.786111 4:-0.5 5:-0.90625 6:-0.8425 7:-0.833333 8:-0.527778 10:-0.708333 11:-0.3125 12:-0.830247 13:-0.8125 15:-0.791667 16:-0.902778 17:-0.513889 18:-0.583333 19:-0.427567 21:-0.724537 22:-0.794118 24:-0.822917 
0.24752042650203959 2:-0.976675 3:-0.698316 4:-0.636364 5:-0.863636 6:-0.814545 7:-0.919192 8:-0.272727 10:-0.474747 11:-0.474747 12:-0.670782 13:-0.777778 15:-0.919192 16:-0.93266 17:-0.646465 18:-0.454545 19:-0.606814 21:-0.732884 22:-0.942959 24:-0.790123 
1.4723696701180415 2:-0.934645 3:-0.920755 4:-0.603774 5:-0.893868 6:-0.831887 7:-0.962264 8:-0.622642 10:-0.490566 11:-0.349057 12:-0.72327 13:-0.801887 15:-0.811321 16:-0.915094 17:-0.570755 18:-0.40566 19:-0.578776 21:-0.358491 22:-1 24:-0.866352 
1.7616667605328267 2:-0.573085 3:-0.745098 4:-0.726891 5:-0.814076 6:-0.761765 7:-0.764706 8:-0.697479 10:-0.739496 11:-0.529412 12:-0.794585 13:-0.634454 15:-0.789916 16:-0.927171 17:-0.666667 18:-0.495798 19:-0.619981 21:-0.678571 22:-0.816115 24:-0.793651 
1.0271948088331808 2:-0.585095 3:-0.745917 4:-0.678766 5:-0.881579 6:-0.72363 7:-0.702359 8:-0.760436 10:-0.77677 11:-0.526316 12:-0.893527 13:-0.84755 15:-0.69873 16:-0.923775 17:-0.479129 18:-0.515426 19:-0.63223 21:-0.645191 22:-0.823209 24:-0.861162 
0.50094771453036369 2:-0.601635 3:-0.776157 4:-0.667602 5:-0.899018 6:-0.670547 7:-0.826087 8:-0.814867 10:-0.899018 11:-0.465638 12:-0.835437 13:-0.894811 15:-0.669004 16:-0.892006 17:-0.460028 18:-0.532959 19:-0.653168 21:-0.64633 22:-0.803977 24:-0.900655 
0.8720987774135357 2:-0.562762 3:-0.834754 4:-0.685246 5:-0.830328 6:-0.721148 7:-0.763934 8:-0.72459 10:-0.591803 11:-0.562295 12:-0.879781 13:-0.744262 15:-0.75082 16:-0.893443 17:-0.644262 18:-0.459016 19:-0.701584 21:-0.693443 22:-0.833365 24:-0.804918 
1.8275199663438051 2:-0.686801 3:-0.728741 4:-0.754575 5:-0.869214 6:-0.679139 7:-0.724435 8:-0.741658 10:-0.618945 11:-0.502691 12:-0.894749 13:-0.832078 15:-0.78902 16:-0.920344 17:-0.547901 18:-0.534984 19:-0.585926 21:-0.658414 22:-0.854113 24:-0.810908 
0.25712043617789199 2:-0.810001 3:-0.657384 4:-0.518987 5:-0.81962 6:-0.897468 7:-0.864979 8:-0.409283 10:-0.670886 11:-0.164557 12:-0.834974 13:-0.632911 15:-0.805907 16:-0.919831 17:-0.630802 18:-0.632911 19:-0.681176 21:-0.64135 22:-0.946389 24:-0.940225 
0.073281478301018027 2:-0.948936 3:-0.869287 4:-0.683047 5:-0.90602 6:-0.761179 7:-0.695332 8:-0.70516 10:-0.727273 11:-0.535627 12:-0.867868 13:-0.837838 15:-0.572482 16:-0.820639 17:-0.750614 18:-0.34398 19:-0.594937 21:-0.638002 22:-0.968782 24:-0.867731 
0.40714862732274804 2:-0.941917 3:-0.859146 4:-0.739329 5:-0.907393 6:-0.790091 7:-0.719512 8:-0.810976 10:-0.775915 11:-0.753049 12:-0.761518 13:-0.743902 15:-0.439024 16:-0.844512 17:-0.605183 18:-0.195122 19:-0.659681 21:-0.71062 22:-0.954806 24:-0.866108 
0.43170878683956526 2:-0.885493 3:-0.69146 4:-0.421488 5:-0.789256 6:-0.812562 7:-0.801653 8:-0.625344 10:-0.785124 11:-0.256198 12:-0.703704 13:-0.801653 15:-0.878788 16:-0.790634 17:-0.614325 18:-0.471074 19:-0.735072 21:-0.828283 22:-0.929995 24:-0.843893 
0.54221531317306482 2:-0.844497 3:-0.830303 4:-0.757576 5:-0.90404 6:-0.792727 7:-0.685746 8:-0.802469 10:-0.602694 11:-0.609428 12:-0.813443 13:-0.750842 15:-0.515152 16:-0.901235 17:-0.59147 18:-0.0505051 19:-0.66078 21:-0.688365 22:-0.961973 24:-0.955481 
0.98291256979264352 2:-1 3:-1 4:-1 5:-1 6:-1 7:-1 8:-1 10:-1 11:-1 12:-0.876231 13:-1 15:-1 16:1 17:-1 18:-1 19:-1 21:-1 22:-1 24:-1 
0.90211901661954419 2:-0.952873 3:-0.580952 4:-0.673469 5:-0.846939 6:-0.73551 7:-0.836735 8:-0.836735 10:-0.591837 11:-0.346939 12:-0.800454 13:-0.795918 15:-0.782313 16:-0.891156 17:-0.47619 18:-0.755102 19:-0.766354 21:-0.768707 22:-0.769508 24:-0.575964 
0.56096721045195419 2:-0.89752 3:-0.801183 4:-0.609467 5:-0.933432 6:-0.654911 7:-0.928994 8:-0.47929 10:-0.591716 11:-0.325444 12:-0.768573 13:-0.857988 15:-0.786982 16:-0.95858 17:-0.523669 18:-0.662722 19:-0.837415 21:-0.631164 22:-0.924817 24:-0.916174 
0.61376272534963427 2:-0.863782 3:-0.669663 4:-0.595506 5:-0.848315 6:-0.827079 7:-0.730337 8:-0.775281 10:-0.544944 11:-0.477528 12:-0.862672 13:-0.713483 15:-0.752809 16:-0.853933 17:-0.646067 18:-0.410112 19:-0.479021 21:-0.824906 22:-0.785856 24:-0.952247 
0.23803561157843195 2:-0.868739 3:-0.823158 4:-0.633684 5:-0.715789 6:-0.836295 7:-0.848421 8:-0.831579 10:-0.861053 11:-0.153684 12:-0.855906 13:-0.886316 15:-0.646316 16:-0.894737 17:-0.469474 18:-0.482105 19:-0.580617 21:-0.546667 22:-0.893003 24:-0.940351 
0.19225600662278439 2:-0.887538 3:-0.763636 4:-0.512987 5:-0.868506 6:-0.831688 7:-0.714286 8:-0.558442 10:-0.649351 11:-0.201299 12:-0.809524 13:-0.902597 15:-0.74026 16:-0.902597 17:-0.409091 18:-0.688312 19:-0.754671 21:-0.687229 22:-0.917494 24:-0.760823 
0.6989084840828732 2:-0.961452 3:-0.715103 4:-0.651828 5:-0.86407 6:-0.806836 7:-0.472178 8:-0.82194 10:-0.713831 11:-0.532591 12:-0.852323 13:-0.842607 15:-0.430843 16:-0.91256 17:-0.449126 18:-0.351351 19:-0.650534 21:-0.81982 22:-0.966333 24:-0.923423 
0.62437377994770493 2:-0.923239 3:-0.612188 4:-0.368421 5:-0.912742 6:-0.497396 7:-0.955679 8:-0.867036 10:-0.700831 11:-0.534626 12:-0.891659 13:-0.800554 15:-0.722992 16:-0.911357 17:-0.418283 18:-0.501385 19:-0.828746 21:-0.701754 22:-0.906143 24:-0.937211 
2 2:-0.949186 3:-0.616626 4:-0.589242 5:-0.812958 6:-0.754425 7:-0.833741 8:-0.569682 10:-0.574572 11:-0.493888 12:-0.772888 13:-0.772616 15:-0.843521 16:-0.887531 17:-0.709046 18:-0.640587 19:-0.638905 21:-0.618989 22:-0.823961 24:-0.806031 
0.57463263790629648 2:-0.935756 3:-0.688408 4:-0.619784 5:-0.819165 6:-0.769645 7:-0.703246 8:-0.678516 10:-0.675425 11:-0.341577 12:-0.81865 13:-0.758887 15:-0.758887 16:-0.897991 17:-0.729521 18:-0.499227 19:-0.607171 21:-0.588357 22:-0.908355 24:-0.833591 
0.03979661781154168 2:-0.742416 3:-0.736986 4:-0.459883 5:-0.850294 6:-0.765401 7:-0.733855 8:-0.686888 10:-0.7182 11:-0.330724 12:-0.808654 13:-0.800391 15:-0.741683 16:-0.941292 17:-0.616438 18:-0.659491 19:-0.677376 21:-0.622962 22:-0.767929 24:-0.844749 
0.82525840633678904 2:-0.80933 3:-0.862997 4:-0.798165 5:-0.614679 6:-0.77211 7:-0.633028 8:-0.681957 10:-0.706422 11:-0.266055 12:-0.79069 13:-0.889908 15:-0.743119 16:-0.902141 17:-0.743119 18:-0.633028 19:-0.516845 21:-0.618756 22:-0.766865 24:-0.740061 
0.09007388975845089 2:-0.874801 3:-0.831325 4:-0.819277 5:-0.64759 6:-0.765783 7:-0.686747 8:-0.493976 10:-0.692771 11:-0.349398 12:-0.793842 13:-0.873494 15:-0.746988 16:-0.945783 17:-0.683735 18:-0.620482 19:-0.482741 21:-0.60743 22:-0.744862 24:-0.743976 
0.44068338613220898 2:-0.948779 3:-0.839556 4:-0.212569 5:-0.945933 6:-0.829316 7:-0.837338 8:-0.837338 10:-0.634011 11:-0.367837 12:-0.882522 13:-0.844732 15:-0.80037 16:-0.831793 17:-0.249538 18:-0.556377 19:-0.638129 21:-0.769563 22:-0.937371 24:-0.968577 
1.0923905444237294 2:-0.829521 3:-0.661745 4:-0.543624 5:-0.738255 6:-0.760805 7:-0.821029 8:-0.463087 10:-0.610738 11:-0.543624 12:-0.693761 13:-0.651007 15:-0.838926 16:-0.93736 17:-0.93736 18:-0.516779 19:-0.738755 21:-0.568978 22:-0.924201 24:-0.784489 
0.57384740839543424 2:-0.970139 3:-0.758621 4:-0.456897 5:-0.747845 6:-0.748621 7:-0.862069 8:-0.793103 10:-0.844828 11:-0.508621 12:-0.747126 13:-0.689655 15:-0.87931 16:-0.913793 17:-0.577586 18:-0.405172 19:-0.674305 21:-0.560345 22:-0.744422 24:-0.853448 
0.41178563626795694 2:-0.927837 3:-0.766667 4:-0.59375 5:-0.71875 6:-0.645625 7:-0.875 8:-0.958333 10:-0.875 11:-0.46875 12:-0.796296 13:-0.90625 15:-0.833333 16:-0.895833 17:-0.5625 18:-0.71875 19:-0.606452 21:-0.527778 22:-0.779412 24:-0.881944 
0.60431429932579273 2:-0.856422 3:-0.796891 4:-0.720207 5:-0.720207 6:-0.764974 7:-0.875648 8:-0.917098 10:-0.875648 11:-0.0984456 12:-0.848014 13:-0.968912 15:-0.73057 16:-0.906736 17:-0.310881 18:-0.689119 19:-0.5729 21:-0.70639 22:-0.692777 24:-0.853195 
0.63024487671852658 2:-0.859337 3:-0.744162 4:-0.664975 5:-0.817259 6:-0.80264 7:-0.796954 8:-0.756345 10:-0.939086 11:-0.573604 12:-0.602933 13:-0.817259 15:-0.51269 16:-0.878173 17:-0.28934 18:-0.360406 19:-0.790786 21:-0.856176 22:-0.914004 24:-0.827411 
0.57125565097018405 2:-0.83357 3:-0.848649 4:-0.513514 5:-0.851351 6:-0.747027 7:-0.903904 8:-0.831832 10:-0.891892 11:-0.243243 12:-0.882549 13:-0.963964 15:-0.459459 16:-0.933934 17:-0.18018 18:-0.513514 19:-0.855602 21:-0.676677 22:-0.82194 24:-0.948949 
0.81073141765526213 2:-0.971373 3:-0.838017 4:-0.169421 5:-0.916322 6:-0.839339 7:-0.85124 8:-0.702479 10:-0.714876 11:-0.256198 12:-0.838384 13:-0.88843 15:-0.702479 16:-0.909091 17:-0.855372 18:-0.280992 19:-0.588416 21:-0.578512 22:-0.912494 24:-0.894628 
1.2099665954272822 2:-0.872497 3:-0.707975 4:-0.521472 5:-0.820552 6:-0.791288 7:-0.779141 8:-0.607362 10:-0.484663 11:-0.484663 12:-0.880027 13:-0.815951 15:-0.840491 16:-0.877301 17:-0.763804 18:-0.374233 19:-0.683933 21:-0.617587 22:-0.818116 24:-0.878323 
0.71009737908893078 2:-0.800929 3:-0.774713 4:-0.517241 5:-0.715517 6:-0.776552 7:-1 8:-0.402299 10:-0.551724 11:-0.517241 12:-0.719029 13:-0.655172 15:-0.885057 16:-0.873563 17:-0.758621 18:-0.689655 19:-0.644697 21:-0.511494 22:-0.805274 24:-0.804598 
0.307486426219239 2:-0.961936 3:-0.747692 4:-0.571429 5:-0.728022 6:-0.779253 7:-0.841758 8:-0.569231 10:-0.808791 11:-0.103297 12:-0.742125 13:-0.901099 15:-0.753846 16:-0.90989 17:-0.653846 18:-0.617582 19:-0.675412 21:-0.551648 22:-0.897608 24:-0.856777 
0.98577427403696194 2:-0.958392 3:-0.697297 4:-0.657658 5:-0.878378 6:-0.834595 7:-0.783784 8:-0.735736 10:-0.765766 11:-0.333333 12:-0.853187 13:-0.783784 15:-0.663664 16:-0.957958 17:-0.285285 18:-0.747748 19:-0.42241 21:-0.455455 22:-0.796502 24:-0.812813 
0.65098217417823512 2:-0.978486 3:-0.826087 4:-0.701863 5:-0.818323 6:-0.80882 7:-0.801242 8:-0.701863 10:-0.73913 11:-0.403727 12:-0.848171 13:-0.813665 15:-0.639752 16:-0.888199 17:-0.26087 18:-0.757764 19:-0.530676 21:-0.542443 22:-0.815857 24:-0.841615 
0.35260992029108768 2:-0.937776 3:-0.748503 4:-0.60479 5:-0.865269 6:-0.747784 7:-0.832335 8:-0.904192 10:-0.766467 11:-0.155689 12:-0.882901 13:-0.91018 15:-0.592814 16:-0.886228 17:-0.45509 18:-0.748503 19:-0.691503 21:-0.491018 22:-0.822473 24:-0.898204 
0.12647038461464094 2:-0.866132 3:-0.783575 4:-0.594203 5:-0.793478 6:-0.812174 7:-0.826087 8:-0.864734 10:-0.797101 11:-0.246377 12:-0.740204 13:-0.73913 15:-0.73913 16:-0.888889 17:-0.509662 18:-0.681159 19:-0.817485 21:-0.561997 22:-0.877238 24:-0.726248 
0.55903701016215057 2:-0.831944 3:-0.743396 4:-0.789757 5:-0.721024 6:-0.842803 7:-0.67655 8:-0.762803 10:-0.854447 11:-0.15903 12:-0.841869 13:-0.757412 15:-0.665768 16:-0.886792 17:-0.471698 18:-0.708895 19:-0.648208 21:-0.633423 22:-0.863009 24:-0.831986 
0.35279971519144493 2:-0.852994 3:-0.658355 4:-0.761273 5:-0.77321 6:-0.845305 7:-0.766578 8:-0.427056 10:-0.633952 11:-0.427056 12:-0.688771 13:-0.729443 15:-0.830239 16:-0.899204 17:-0.68435 18:-0.618037 19:-0.690248 21:-0.714412 22:-0.820253 24:-0.609195 
0.352488081170649 2:-0.825059 3:-0.759596 4:-0.787879 5:-0.795455 6:-0.738182 7:-0.89899 8:-0.858586 10:-0.878788 11:-0.0909091 12:-0.950617 13:-0.924242 15:-0.575758 16:-0.919192 17:-0.505051 18:-0.560606 19:-0.670417 21:-0.742424 22:-0.743316 24:-0.828283 
0.037742754303866262 2:-0.798224 3:-0.728155 4:-0.68932 5:-0.621359 6:-0.842718 7:-0.87055 8:-0.71521 10:-0.572816 11:-0.300971 12:-0.683567 13:-0.825243 15:-0.779935 16:-0.915858 17:-0.592233 18:-0.61165 19:-0.599853 21:-0.614887 22:-0.862935 24:-0.761597 
0.15956980103380405 2:-0.895825 3:-0.726316 4:-0.729323 5:-0.81391 6:-0.762481 7:-0.849624 8:-0.804511 10:-0.864662 11:-0.221805 12:-0.926483 13:-0.87594 15:-0.714286 16:-0.898496 17:-0.407895 18:-0.582707 19:-0.573903 21:-0.531328 22:-0.888545 24:-0.818922 
0.22693992671795418 2:-0.944412 3:-0.69669 4:-0.554664 5:-0.810431 6:-0.785517 7:-0.735206 8:-0.751254 10:-0.747242 11:-0.368104 12:-0.833278 13:-0.765296 15:-0.731194 16:-0.875627 17:-0.410231 18:-0.59679 19:-0.779524 21:-0.647609 22:-0.796094 24:-0.823805 
0.42477370893004479 2:-0.87785 3:-0.703778 4:-0.833753 5:-0.829975 6:-0.73068 7:-0.81864 8:-0.657431 10:-0.833753 11:-0.365239 12:-0.753708 13:-0.712846 15:-0.657431 16:-0.899244 17:-0.523929 18:-0.531486 19:-0.740459 21:-0.571788 22:-0.935991 24:-0.757347 
0.22806780913157859 2:-0.911637 3:-0.742857 4:-0.739796 5:-0.862245 6:-0.694184 7:-0.673469 8:-0.816327 10:-0.892857 11:-0.295918 12:-0.77551 13:-0.755102 15:-0.581633 16:-0.923469 17:-0.339286 18:-0.632653 19:-0.737148 21:-0.681973 22:-0.913565 24:-0.739796 
0.13936121981253227 2:-0.878816 3:-0.787755 4:-0.580175 5:-0.750729 6:-0.782741 7:-0.696793 8:-0.74344 10:-0.562682 11:-0.247813 12:-0.82896 13:-0.650146 15:-0.848397 16:-0.930029 17:-0.55102 18:-0.702624 19:-0.699598 21:-0.570457 22:-0.851826 24:-0.735666 
1.0614235089849178 2:-0.909086 3:-0.720735 4:-0.669291 5:-0.692913 6:-0.787402 7:-0.727034 8:-0.559055 10:-0.700787 11:-0.401575 12:-0.666375 13:-0.622047 15:-0.75853 16:-0.947507 17:-0.540682 18:-0.700787 19:-0.747589 21:-0.657918 22:-0.866605 24:-0.628171 
0.729376349380498 2:-0.931747 3:-0.696552 4:-0.763547 5:-0.711823 6:-0.712709 7:-0.921182 8:-0.802956 10:-0.73399 11:-0.674877 12:-0.759168 13:-0.852217 15:-0.64532 16:-0.871921 17:-0.655172 18:-0.527094 19:-0.526262 21:-0.357964 22:-0.833092 24:-0.748768 
0.79099360060014678 2:-0.800929 3:-0.774713 4:-0.793103 5:-0.793103 6:-0.553103 7:-0.54023 8:-0.632184 10:-0.896552 11:-0.413793 12:-0.887612 13:-0.965517 15:-0.816092 16:-0.873563 17:-0.597701 18:-0.586207 19:-0.644697 21:-0.706897 22:-0.659229 24:-0.837165 
0.15216184352085999 2:-0.809912 3:-0.778049 4:-0.231707 5:-0.835366 6:-0.851829 7:-0.829268 8:-0.756098 10:-0.707317 11:-0.506098 12:-0.701897 13:-0.79878 15:-0.682927 16:-0.926829 17:-0.743902 18:-0.432927 19:-0.602089 21:-0.619919 22:-0.922525 24:-0.861789 
0.74058804890912 2:-0.892802 3:-0.783366 4:-0.686654 5:-0.782398 6:-0.736789 7:-0.953578 8:-0.520309 10:-0.837524 11:-0.326886 12:-0.829787 13:-0.779497 15:-0.729207 16:-0.938104 17:-0.688588 18:-0.500967 19:-0.6014 21:-0.627337 22:-0.836159 24:-0.791747 
0.072347871704412342 2:-0.679537 3:-0.641905 4:-0.436735 5:-0.840816 6:-0.858939 7:-0.858503 8:-0.695238 10:-0.616327 11:-0.428571 12:-0.880272 13:-0.812245 15:-0.793197 16:-0.866667 17:-0.666667 18:-0.306122 19:-0.61682 21:-0.737868 22:-0.976951 24:-0.899773 
1.3079903278862273 2:-0.779198 3:-0.799203 4:-0.521912 5:-0.89243 6:-0.858008 7:-0.74502 8:-0.553785 10:-0.61753 11:-0.61753 12:-0.649402 13:-0.665339 15:-0.856574 16:-0.928287 17:-0.665339 18:-0.545817 19:-0.480021 21:-0.413015 22:-0.898758 24:-0.864542 
0.045791534775163817 2:-0.780655 3:-0.79314 4:-0.556728 5:-0.905013 6:-0.760633 7:-0.788918 8:-0.620053 10:-0.651715 11:-0.588391 12:-0.716212 13:-0.778364 15:-0.788918 16:-0.915567 17:-0.48285 18:-0.588391 19:-0.637509 21:-0.416887 22:-0.9553 24:-0.880387 
0.91771326396670994 2:-1 3:-0.731737 4:-0.532934 5:-0.838323 6:-0.631377 7:-0.712575 8:-0.904192 10:-0.856287 11:-0.748503 12:-0.765802 13:-0.928144 15:-0.640719 16:-0.868263 17:-0.329341 18:-0.0299401 19:-0.794335 21:-0.898204 22:-0.74639 24:-0.932136 
0.89659768614378255 2:-0.455128 3:-0.811236 4:-0.460674 5:-0.747191 6:-0.817978 7:-0.730337 8:-0.460674 10:-0.662921 11:-0.258427 12:-0.670412 13:-0.730337 15:-0.910112 16:-0.910112 17:-0.764045 18:-0.730337 19:-0.768454 21:-0.808989 22:-0.714475 24:-0.93633 
1.0033437968807883 2:-0.685106 3:-0.554545 4:-0.454545 5:-0.693182 6:-0.668636 7:-0.909091 8:-0.909091 10:-0.386364 11:-0.318182 12:-0.777778 13:-0.931818 15:-0.909091 16:-0.931818 17:-0.602273 18:-0.795455 19:-0.765823 21:-0.613636 22:-0.807487 24:-0.935606 
0.16190716601026492 2:-0.950998 3:-0.851459 4:-0.618037 5:-0.896552 6:-0.704934 7:-0.809019 8:-0.766578 10:-0.931034 11:-0.474801 12:-0.714707 13:-0.809019 15:-0.458886 16:-0.853227 17:-0.634836 18:-0.511936 19:-0.593071 21:-0.629237 22:-0.977532 24:-0.924845 
0.54358327326344258 2:-0.733047 3:-0.748831 4:-0.658876 5:-0.849337 6:-0.738016 7:-0.878711 8:-0.742262 10:-0.776374 11:-0.423879 12:-0.864112 13:-0.821857 15:-0.666456 16:-0.91156 17:-0.495894 18:-0.526216 19:-0.600779 21:-0.64561 22:-0.802014 24:-0.899768 
0.86183603675866716 2:-0.934022 3:-0.84 4:-0.6 5:-0.742857 6:-0.676 7:-0.771429 8:-0.695238 10:-0.942857 11:-0.4 12:-0.767196 13:-0.828571 15:-0.790476 16:-0.838095 17:-0.566667 18:-0.714286 19:-0.705606 21:-0.460317 22:-0.878992 24:-0.811111 
0.5751860362585548 2:-0.598784 3:-0.718919 4:-0.722008 5:-0.913127 6:-0.787336 7:-0.567568 8:-0.660232 10:-0.722008 11:-0.212355 12:-0.62248 13:-0.791506 15:-0.891892 16:-0.899614 17:-0.594595 18:-0.467181 19:-0.708258 21:-0.737452 22:-0.901885 24:-0.846847 
0.49651403057015997 2:-0.849783 3:-0.735714 4:-0.303571 5:-0.822066 6:-0.826429 7:-0.765306 8:-0.489796 10:-0.517857 11:-0.502551 12:-0.800454 13:-0.739796 15:-0.729592 16:-0.913265 17:-0.714286 18:-0.563776 19:-0.667054 21:-0.783163 22:-0.92437 24:-0.833759 
0.20914551449362284 2:-0.94227 3:-0.813333 4:-0.45 5:-0.75625 6:-0.919 7:-0.866667 8:-0.533333 10:-0.325 11:-0.175 12:-0.755556 13:-0.75 15:-0.933333 16:-0.9 17:-0.591667 18:-0.6 19:-0.627918 21:-0.716667 22:-0.823529 24:-0.881944 
0.31374275877940838 2:-0.971724 3:-0.748571 4:-0.436735 5:-0.797959 6:-0.88098 7:-0.902041 8:-0.706122 10:-0.387755 11:-0.0938776 12:-0.760544 13:-0.755102 15:-0.934694 16:-0.893878 17:-0.685714 18:-0.681633 19:-0.7757 21:-0.537415 22:-0.930852 24:-0.861224 
0.43280010877661224 2:-0.945236 3:-0.867194 4:-0.478261 5:-0.857708 6:-0.667036 7:-0.841897 8:-0.841897 10:-0.501976 11:-0.312253 12:-0.845411 13:-0.952569 15:-0.588933 16:-0.905138 17:-0.501976 18:-0.667984 19:-0.755641 21:-0.843215 22:-0.933039 24:-0.932806 
0.23805544121131084 2:-0.850482 3:-0.879137 4:-0.395683 5:-0.935252 6:-0.860144 7:-0.856115 8:-0.741007 10:-0.52518 11:-0.374101 12:-0.753797 13:-0.935252 15:-0.568345 16:-0.841727 17:-0.597122 18:-0.438849 19:-0.60465 21:-0.775779 22:-0.939061 24:-0.877698 
0.9752404599955421 2:-1 3:-0.80177 4:0.141593 5:-1 6:-0.756283 7:-1 8:-1 10:-0.150442 11:-0.973451 12:-0.956735 13:-0.920354 15:-0.504425 16:-0.938053 17:-1 18:-0.60177 19:-0.696053 21:-0.899705 22:-1 24:-0.974926 
0.53887734934294385 2:-0.857456 3:-0.919342 4:-0.740741 5:-0.75 6:-0.766667 7:-0.950617 8:-0.111111 10:-0.777778 11:-0.296296 12:-0.778692 13:-0.814815 15:-0.777778 16:-0.950617 17:-0.798354 18:-0.567901 19:-0.604244 21:-0.533608 22:-0.860566 24:-0.720165 
0.90388100879566613 2:-0.796992 3:-0.815385 4:-0.714286 5:-0.934066 6:-0.774505 7:-0.619048 8:-0.970696 10:-0.758242 11:-0.0549451 12:-0.928368 13:-0.912088 15:-0.545788 16:-0.802198 17:-0.717949 18:-0.318681 19:-0.748381 21:-0.854701 22:-0.875889 24:-0.979243 
0.6209753641958552 2:-0.835056 3:-0.777778 4:-0.380952 5:-0.964286 6:-0.871429 7:-0.809524 8:-0.936508 10:-0.52381 11:-0.380952 12:-0.689594 13:-0.809524 15:-0.555556 16:-0.809524 17:-0.333333 18:-0.714286 19:-0.78193 21:-0.685185 22:-1 24:-0.955026 
0.77000094472807712 2:-0.944132 3:-0.683871 4:-0.564516 5:-0.854839 6:-0.973871 7:-0.612903 8:-0.870968 10:-0.612903 11:-0.564516 12:-0.921147 13:-0.854839 15:-0.645161 16:-0.83871 17:-0.435484 18:-0.0322581 19:-0.723016 21:-0.680108 22:-1 24:-0.908602 
0.76844578100691396 2:-0.927459 3:-0.618848 4:-0.685864 5:-0.764398 6:-0.64377 7:-1 8:-0.623037 10:-0.717277 11:-0.308901 12:-0.59046 13:-0.905759 15:-0.832461 16:-0.905759 17:-0.596859 18:-0.65445 19:-0.532463 21:-0.673647 22:-0.733908 24:-0.940663 
0.76180832974829549 2:-0.891755 3:-0.883333 4:-0.53125 5:-0.976563 6:-0.6625 7:-0.875 8:-0.916667 10:-1 11:-0.375 12:-0.796296 13:-0.90625 15:-0.354167 16:-0.895833 17:-0.197917 18:-0.65625 19:-0.856892 21:-0.793403 22:-0.867647 24:-0.911458 
0.93625488055495565 2:-0.923872 3:-0.815385 4:-0.472527 5:-0.901099 6:-0.928791 7:-0.824176 8:-0.648352 10:-0.274725 11:-0.274725 12:-0.247863 13:-0.736264 15:-0.78022 16:-0.846154 17:-0.692308 18:-0.67033 19:-0.622572 21:-0.750916 22:-1 24:-1 
0.12364250987471484 2:-0.785037 3:-0.786742 4:-0.610719 5:-0.828632 6:-0.840056 7:-0.763047 8:-0.559944 10:-0.746121 11:-0.280677 12:-0.862091 13:-0.64457 15:-0.887165 16:-0.901269 17:-0.723554 18:-0.407616 19:-0.554326 21:-0.496474 22:-0.904422 24:-0.856135 
0.20500542382136566 2:-0.894161 3:-0.642222 4:-0.666667 5:-0.825 6:-0.7795 7:-0.733333 8:-0.455556 10:-0.766667 11:-0.375 12:-0.782716 13:-0.633333 15:-0.872222 16:-0.936111 17:-0.611111 18:-0.533333 19:-0.599297 21:-0.598611 22:-0.952941 24:-0.842593 
0.23349815965524343 2:-0.893009 3:-0.827027 4:-0.548263 5:-0.843629 6:-0.856139 7:-0.799228 8:-0.675676 10:-0.513514 11:-0.235521 12:-0.773488 13:-0.687259 15:-0.814672 16:-0.868726 17:-0.837838 18:-0.65251 19:-0.681736 21:-0.715573 22:-0.918238 24:-0.737452 
0.10741311066962927 2:-0.859973 3:-0.666383 4:-0.412766 5:-0.865957 6:-0.817319 7:-0.812766 8:-0.710638 10:-0.208511 11:-0.597872 12:-0.750355 13:-0.821277 15:-0.72766 16:-0.931915 17:-0.664894 18:-0.380851 19:-0.612694 21:-0.801064 22:-0.918899 24:-0.951773 
0.94076860449115773 2:-0.940586 3:-0.596569 4:-0.444254 5:-0.899657 6:-0.727684 7:-0.917667 8:-0.849057 10:-0.361921 11:-0.680961 12:-0.865828 13:-0.763293 15:-0.67753 16:-0.890223 17:-0.855918 18:-0.403087 19:-0.516917 21:-0.650086 22:-0.970941 24:-0.99028 
0.68308831591685537 2:-0.867201 3:-0.499042 4:-0.271565 5:-0.798722 6:-0.875783 7:-0.948882 8:-0.642173 10:-0.42492 11:-0.42492 12:-0.71885 13:-0.674121 15:-0.808307 16:-0.897764 17:-0.798722 18:-0.635783 19:-0.736644 21:-0.637913 22:-0.972937 24:-0.855165 
0.96376076546520895 2:-0.837518 3:-0.701493 4:-0.219616 5:-0.875267 6:-0.772026 7:-0.863539 8:-0.590618 10:-0.360341 11:-0.577825 12:-0.749822 13:-0.744136 15:-0.820896 16:-0.910448 17:-0.61194 18:-0.71855 19:-0.736363 21:-0.565032 22:-0.927756 24:-0.830846 
1.2329633517819061 2:-0.868159 3:-0.748097 4:-0.657439 5:-0.680796 6:-0.742145 7:-0.750865 8:-0.598616 10:-0.605536 11:-0.564014 12:-0.797001 13:-0.678201 15:-0.771626 16:-0.934256 17:-0.6609 18:-0.657439 19:-0.643467 21:-0.568627 22:-0.88276 24:-0.754902 
0.34151021004170434 2:-0.915722 3:-0.632117 4:-0.722628 5:-0.835766 6:-0.77927 7:-0.610706 8:-0.454988 10:-0.751825 11:-0.284672 12:-0.738308 13:-0.883212 15:-0.766423 16:-0.931873 17:-0.403893 18:-0.649635 19:-0.632306 21:-0.72425 22:-0.97939 24:-0.820762 
0.52996085825974115 2:-0.850697 3:-0.734483 4:-0.327586 5:-0.844828 6:-0.87431 7:-0.862069 8:-0.689655 10:-0.612069 11:-0.25 12:-0.873563 13:-0.689655 15:-0.724138 16:-0.956897 17:-0.487069 18:-0.353448 19:-0.437436 21:-0.804598 22:-1 24:-0.926724 
0.59548210068446539 2:-0.89295 3:-0.728035 4:-0.827815 5:-0.930464 6:-0.749669 7:-0.770419 8:-0.84106 10:-0.933775 11:-0.205298 12:-0.740986 13:-0.788079 15:-0.443709 16:-0.94702 17:-0.474614 18:-0.456954 19:-0.696724 21:-0.674761 22:-1 24:-0.912436 
0.0012354630118505403 2:-0.685553 3:-0.809362 4:-0.557447 5:-0.846809 6:-0.875915 7:-0.68227 8:-0.72766 10:-0.676596 11:-0.523404 12:-0.736485 13:-0.710638 15:-0.631206 16:-0.929078 17:-0.553191 18:-0.370213 19:-0.66872 21:-0.766903 22:-0.987985 24:-0.823168 
0.96614345172197491 2:-0.966853 3:-0.517703 4:-0.397129 5:-1 6:-0.829474 7:-0.885167 8:-0.770335 10:-0.368421 11:-0.885167 12:-0.578947 13:-0.684211 15:-0.751196 16:-0.913876 17:-0.732057 18:-0.0813397 19:-0.737064 21:-0.647528 22:-0.878413 24:-0.972887 
0.74830250317003499 2:-0.967928 3:-0.714815 4:-0.277778 5:-0.9375 6:-0.655 7:-0.962963 8:-0.777778 10:-0.75 11:-0.694444 12:-0.864198 13:-0.888889 15:-0.425926 16:-0.935185 17:-0.287037 18:-0.638889 19:-0.65018 21:-0.632716 22:-0.882353 24:-0.973765 
0.68716686852669429 2:-0.967628 3:-0.854206 4:-0.75968 5:-0.93992 6:-0.604192 7:-0.813084 8:-0.898531 10:-0.835781 11:-0.523364 12:-0.327696 13:-0.723632 15:-0.316422 16:-0.842457 17:-0.696262 18:-0.431242 19:-0.729451 21:-0.791945 22:-0.971727 24:-0.939475 
0.60371042106045725 2:-0.980554 3:-0.819228 4:-0.776842 5:-0.892632 6:-0.622568 7:-0.814737 8:-0.758596 10:-0.793684 11:-0.671579 12:-0.382456 13:-0.705263 15:-0.301053 16:-0.862456 17:-0.715088 18:-0.364211 19:-0.725232 21:-0.773333 22:-0.976223 24:-0.968187 
0.93780818161246027 2:-0.984923 3:-0.664853 4:-0.43852 5:-0.857998 6:-0.795517 7:-0.730141 8:-0.825898 10:-0.399347 11:-0.804135 12:-0.904244 13:-0.823721 15:-0.786725 16:-0.932535 17:-0.131665 18:-0.0141458 19:-0.686065 21:-0.852013 22:-0.944697 24:-0.802684 
0.55669883636232975 2:-0.913688 3:-0.647475 4:-0.242623 5:-0.961639 6:-0.783292 7:-0.829508 8:-0.714098 10:-0.439344 11:-0.67541 12:-0.849326 13:-0.754098 15:-0.790164 16:-0.929836 17:-0.701639 18:-0.303607 19:-0.461725 21:-0.645137 22:-0.994446 24:-0.951694 
0.34836890291239603 2:-0.829648 3:-0.701639 4:-0.655738 5:-0.834016 6:-0.760984 7:-0.934426 8:-0.442623 10:-0.606557 11:-0.532787 12:-0.71949 13:-0.704918 15:-0.901639 16:-0.901639 17:-0.655738 18:-0.655738 19:-0.634018 21:-0.489071 22:-0.930569 24:-0.88388 
0.32544607383687868 2:-0.802871 3:-0.704065 4:-0.609756 5:-0.890244 6:-0.762927 7:-0.869919 8:-0.674797 10:-0.585366 11:-0.487805 12:-0.602529 13:-0.780488 15:-0.837398 16:-0.943089 17:-0.45935 18:-0.560976 19:-0.469452 21:-0.608401 22:-0.8967 24:-0.792683 
0.27706886485505755 2:-0.923407 3:-0.705376 4:-0.183378 5:-0.915936 6:-0.854243 7:-0.893252 8:-0.634007 10:-0.492185 11:-0.597408 12:-0.806159 13:-0.702631 15:-0.749905 16:-0.906977 17:-0.575677 18:-0.428136 19:-0.520754 21:-0.632736 22:-0.990312 24:-0.952472 
0.93954949639519791 2:-0.937021 3:-0.44 4:-0.781818 5:-0.795455 6:-0.823273 7:-1 8:-0.709091 10:-0.727273 11:-0.290909 12:-0.466667 13:-0.836364 15:-0.963636 16:-0.945455 17:-0.3 18:-0.345455 19:-0.625316 21:-0.742424 22:-0.922995 24:-0.89697 
0.76806956144923699 2:-0.881578 3:-0.904274 4:-0.538462 5:-0.769231 6:-0.667692 7:-0.931624 8:-0.452991 10:-0.538462 11:-0.282051 12:-0.582146 13:-0.74359 15:-0.931624 16:-0.948718 17:-0.641026 18:-0.435897 19:-0.589022 21:-0.806268 22:-0.927602 24:-0.709402 
0.97400618948581619 2:-0.890903 3:-0.735433 4:-0.102362 5:-0.929134 6:-0.897953 7:-0.622047 8:-0.748031 10:-0.716535 11:-0.433071 12:-0.538058 13:-0.574803 15:-0.748031 16:-0.889764 17:-0.173228 18:-0.76378 19:-0.945912 21:-0.643045 22:-0.933302 24:-0.910761 
0.98253149351985625 2:-0.874043 3:-0.643636 4:-0.236364 5:-0.877273 6:-0.646545 7:-0.563636 8:-0.563636 10:-0.945455 11:-0.509091 12:-0.2 13:-0.509091 15:-0.781818 16:-0.872727 17:-0.172727 18:-0.945455 19:-1 21:-1 22:-0.922995 24:-1 
0.088851988332435752 2:-0.83028 3:-0.800445 4:-0.532294 5:-0.739421 6:-0.884543 7:-0.821826 8:-0.625835 10:-0.706013 11:-0.158129 12:-0.847562 13:-0.786192 15:-0.7951 16:-0.919822 17:-0.625835 18:-0.55902 19:-0.663425 21:-0.634001 22:-0.641556 24:-0.79807 
0.85116082427963435 2:-0.947834 3:-0.721687 4:-0.159639 5:-0.939006 6:-0.814578 7:-0.86747 8:-0.650602 10:-0.575301 11:-0.439759 12:-0.926372 13:-0.891566 15:-0.777108 16:-0.870482 17:-0.483434 18:-0.611446 19:-0.617228 21:-0.675703 22:-0.987243 24:-0.863454 
1.7158046135570484 2:-0.918016 3:-0.668639 4:-0.760355 5:-0.780325 6:-0.741183 7:-0.775148 8:-0.609467 10:-0.733728 11:-0.298817 12:-0.840894 13:-0.742604 15:-0.686391 16:-0.931953 17:-0.710059 18:-0.627219 19:-0.6037 21:-0.673077 22:-0.786982 24:-0.723373 
0.086623611686299937 2:-0.882249 3:-0.76204 4:-0.660057 5:-0.745042 6:-0.807252 7:-0.728045 8:-0.750708 10:-0.745042 11:-0.303116 12:-0.639912 13:-0.88102 15:-0.750708 16:-0.909348 17:-0.444759 18:-0.76204 19:-0.669189 21:-0.422096 22:-0.856024 24:-0.77526 
1.3891775925456902 2:-0.936052 3:-0.741538 4:-0.658462 5:-0.799231 6:-0.785662 7:-0.778462 8:-0.68 10:-0.750769 11:-0.4 12:-0.819487 13:-0.741538 15:-0.772308 16:-0.901538 17:-0.612308 18:-0.612308 19:-0.598416 21:-0.555385 22:-0.752398 24:-0.677436 
0.80690220833279847 2:-1 3:-0.880851 4:-0.617021 5:-0.952128 6:-0.672553 7:-0.787234 8:-0.744681 10:-0.680851 11:-0.521277 12:-0.843972 13:-0.808511 15:-0.595745 16:-0.851064 17:-0.106383 18:-0.585106 19:-0.561541 21:-0.879433 22:-1 24:-0.879433 
0.34046874787854503 2:-0.863157 3:-0.820247 4:-0.407407 5:-0.811111 6:-0.704 7:-0.802469 8:-0.664198 10:-0.540741 11:-0.540741 12:-0.782716 13:-0.837037 15:-0.762963 16:-0.920988 17:-0.654321 18:-0.733333 19:-0.728624 21:-0.594239 22:-0.853595 24:-0.832099 
0.65444435390210587 2:-0.853228 3:-0.810169 4:-0.822034 5:-0.599576 6:-0.780339 7:-0.728814 8:-0.423729 10:-0.669492 11:-0.059322 12:-0.502825 13:-0.847458 15:-0.915254 16:-0.940678 17:-0.822034 18:-0.644068 19:-0.650719 21:-0.711864 22:-0.892323 24:-0.855932 
0.0484983284739176 2:-0.973759 3:-0.830303 4:-0.568182 5:-0.855114 6:-0.785227 7:-0.80303 8:-0.848485 10:-0.806818 11:-0.409091 12:-0.611111 13:-0.772727 15:-0.643939 16:-0.912879 17:-0.363636 18:-0.272727 19:-0.700774 21:-0.753157 22:-0.919786 24:-0.828283 
0.72807916639203829 2:-0.892871 3:-0.56701 4:-0.56701 5:-0.884021 6:-0.83299 7:-0.793814 8:-0.71134 10:-0.876289 11:-0.134021 12:-0.747995 13:-0.597938 15:-0.876289 16:-0.907216 17:-0.350515 18:-0.474227 19:-0.681326 21:-0.707904 22:-0.956337 24:-0.912371 
0.42452313143951464 2:-0.882582 3:-0.867119 4:-0.288136 5:-0.755932 6:-0.769356 7:-0.810169 8:-0.701695 10:-0.532203 11:-0.20678 12:-0.80113 13:-0.79661 15:-0.877966 16:-0.925424 17:-0.644068 18:-0.471186 19:-0.860287 21:-0.558192 22:-0.913858 24:-0.884746 
0.98299116163981703 2:-0.869289 3:-0.542138 4:-0.433962 5:-0.858491 6:-0.836981 7:-0.899371 8:-0.748428 10:-0.924528 11:0.320755 12:-0.385045 13:-0.924528 15:-0.798742 16:-0.949686 17:-0.603774 18:-0.509434 19:-0.740785 21:-0.750524 22:-0.893452 24:-0.928721 
0.76680805146056785 2:-0.953191 3:-0.725676 4:-0.432432 5:-0.847973 6:-0.786554 7:-0.851351 8:-0.837838 10:-0.554054 11:-0.493243 12:-0.851351 13:-0.756757 15:-0.635135 16:-0.864865 17:-0.822635 18:-0.584459 19:-0.605485 21:-0.636261 22:-0.871224 24:-0.923423 
0.61023688486442029 2:-0.963151 3:-0.821277 4:-0.255319 5:-0.912234 6:-0.856383 7:-0.886525 8:-0.77305 10:-0.553191 11:-0.553191 12:-0.861308 13:-0.712766 15:-0.687943 16:-0.893617 17:-0.689716 18:-0.223404 19:-0.610258 21:-0.688534 22:-0.954944 24:-0.899527 
0.52425423754206513 2:-0.755853 3:-0.827313 4:-0.84141 5:-0.861233 6:-0.842996 7:-0.54185 8:-0.753304 10:-0.894273 11:-0.23348 12:-0.78463 13:-0.84141 15:-0.647577 16:-0.876652 17:-0.444934 18:-0.365639 19:-0.697392 21:-0.675477 22:-0.850739 24:-0.85022 
0.97907263947961831 2:-0.705206 3:-0.721986 4:-0.191489 5:-0.648936 6:-0.862128 7:-0.77305 8:-0.716312 10:-0.319149 11:-0.531915 12:-0.791962 13:-0.787234 15:-0.716312 16:-0.943262 17:-0.702128 18:-0.829787 19:-0.658976 21:-0.919622 22:-0.819775 24:-1 
0.49813065183086241 2:-0.696769 3:-0.736027 4:-0.474747 5:-0.833333 6:-0.705455 7:-0.757576 8:-0.919192 10:-0.858586 11:-0.454545 12:-0.934156 13:-1 15:-0.59596 16:-0.89899 17:-0.457912 18:-0.575758 19:-0.745585 21:-0.637486 22:-0.714795 24:-0.942761 
0.35552139065503074 2:-0.705206 3:-0.761702 4:-0.46383 5:-0.82766 6:-0.820766 7:-0.795745 8:-0.523404 10:-0.514894 11:-0.514894 12:-0.667139 13:-0.795745 15:-0.829787 16:-0.889362 17:-0.642553 18:-0.719149 19:-0.561541 21:-0.686525 22:-0.85582 24:-0.831206 
0.20108647611892283 2:-0.751315 3:-0.85641 4:-0.753846 5:-0.746154 6:-0.850462 7:-0.917949 8:-0.405128 10:-0.8 11:-0.215385 12:-0.573789 13:-0.738462 15:-0.866667 16:-0.912821 17:-0.676923 18:-0.461538 19:-0.57728 21:-0.505983 22:-0.739367 24:-0.869231 
0.14131141664936472 2:-0.954423 3:-0.815789 4:-0.486842 5:-0.911184 6:-0.808158 7:-0.842105 8:-0.736842 10:-0.644737 11:-0.486842 12:-0.678363 13:-0.763158 15:-0.842105 16:-0.815789 17:-0.401316 18:-0.644737 19:-0.638463 21:-0.627193 22:-0.888545 24:-0.888158 
0.99745098642969887 2:-0.950868 3:-0.602837 4:-0.276596 5:-0.968085 6:-0.931064 7:-1 8:-0.659574 10:-0.361702 11:-0.276596 12:-0.65327 13:-0.744681 15:-0.914894 16:-0.929078 17:-0.751773 18:-0.744681 19:-0.610258 21:-0.839243 22:-1 24:-0.678487 
0.79673331740236308 2:-0.931068 3:-0.721393 4:-0.313433 5:-1 6:-0.74209 7:-0.920398 8:-0.920398 10:-0.970149 11:-0.402985 12:-0.951354 13:-1 15:-0.58209 16:-0.950249 17:-0.129353 18:-0.58209 19:-0.692424 21:-0.661692 22:-0.957858 24:-0.943615 
0.38723411428845533 2:-0.888264 3:-0.698925 4:-0.290323 5:-0.879032 6:-0.790968 7:-0.612903 8:-0.741935 10:-0.483871 11:-0.451613 12:-0.57945 13:-0.806452 15:-0.892473 16:-0.88172 17:-0.397849 18:-0.645161 19:-0.704551 21:-0.756272 22:-0.954459 24:-0.939068 
0.3724006609367263 2:-0.918975 3:-0.738012 4:-0.22807 5:-0.921053 6:-0.886316 7:-0.766082 8:-0.766082 10:-0.403509 11:-0.122807 12:-0.7141 13:-0.894737 15:-0.766082 16:-0.847953 17:-0.590643 18:-0.649123 19:-0.678634 21:-0.834308 22:-1 24:-0.900585 
0.85361260575145326 2:-0.870511 3:-1 4:-0.383178 5:-0.915888 6:-0.818318 7:-0.850467 8:-0.551402 10:-0.719626 11:-0.046729 12:-0.725857 13:-0.775701 15:-0.738318 16:-0.943925 17:-0.607477 18:-0.383178 19:-0.679009 21:-0.682243 22:-0.920836 24:-0.788162 
0.1950547345532386 2:-0.954323 3:-0.716923 4:-0.538462 5:-0.891209 6:-0.864703 7:-0.789011 8:-0.718681 10:-0.512088 11:-0.683516 12:-0.871062 13:-0.70989 15:-0.498901 16:-0.912088 17:-0.646154 18:-0.340659 19:-0.667863 21:-0.67619 22:-0.925533 24:-0.838095 
1.0576341957501001 2:-0.932413 3:-0.590244 4:-0.853659 5:-0.934146 6:-0.731317 7:-0.64878 8:-0.726829 10:-0.736585 11:-0.473171 12:-0.713821 13:-0.941463 15:-0.765854 16:-0.912195 17:-0.62439 18:-0.678049 19:-0.396851 21:-0.308943 22:-0.95868 24:-0.834146 
0.37265639857319383 2:-0.858174 3:-0.717795 4:-0.574803 5:-0.808661 6:-0.795906 7:-0.773228 8:-0.672441 10:-0.60315 11:-0.451969 12:-0.738233 13:-0.735433 15:-0.823622 16:-0.914961 17:-0.625197 18:-0.310236 19:-0.610565 21:-0.669816 22:-0.946642 24:-0.857218 
0.013627854781847649 2:-0.84054 3:-0.856777 4:-0.616368 5:-0.838875 6:-0.817698 7:-0.652174 8:-0.549872 10:-0.785166 11:-0.248082 12:-0.699915 13:-0.723785 15:-0.744246 16:-0.897698 17:-0.42711 18:-0.508951 19:-0.718907 21:-0.73913 22:-0.848353 24:-0.84058 
0.78127737232013494 2:-0.711641 3:-0.613401 4:-0.610152 5:-0.762437 6:-0.717117 7:-0.780711 8:-0.707614 10:-0.646701 11:-0.646701 12:-0.900733 13:-0.805076 15:-0.784772 16:-0.932995 17:-0.523858 18:-0.51269 19:-0.644336 21:-0.637563 22:-0.862407 24:-0.752623 
0.20747910770530173 2:-0.910418 3:-0.70069 4:-0.606897 5:-0.802155 6:-0.784931 7:-0.703448 8:-0.724138 10:-0.658621 11:-0.586207 12:-0.814559 13:-0.731034 15:-0.706897 16:-0.8 17:-0.698276 18:-0.441379 19:-0.650618 21:-0.702011 22:-0.963489 24:-0.887644 
0.2892565338781854 2:-0.86383 3:-0.793612 4:-0.572482 5:-0.856265 6:-0.785061 7:-0.547912 8:-0.665848 10:-0.793612 11:-0.425061 12:-0.807808 13:-0.734644 15:-0.764128 16:-0.906634 17:-0.363636 18:-0.55774 19:-0.696203 21:-0.596233 22:-0.875126 24:-0.846847 
1.1486213366104208 2:-0.199876 3:-0.77076 4:-0.649123 5:-0.822368 6:-0.739474 7:-0.789474 8:-0.730994 10:-0.622807 11:-0.596491 12:-0.899935 13:-0.754386 15:-0.760234 16:-0.906433 17:-0.621345 18:-0.622807 19:-0.638463 21:-0.58577 22:-0.876161 24:-0.875731 
0.0092585964691606036 2:-0.699932 3:-0.694162 4:-0.661017 5:-0.855932 6:-0.792542 7:-0.834275 8:-0.397363 10:-0.638418 11:-0.423729 12:-0.705378 13:-0.762712 15:-0.849341 16:-0.917137 17:-0.617702 18:-0.570621 19:-0.637782 21:-0.690521 22:-0.872383 24:-0.754551 
0.53223601722734115 2:-0.91888 3:-0.580328 4:-0.400468 5:-0.820843 6:-0.7926 7:-0.787666 8:-0.625293 10:-0.381733 11:-0.484778 12:-0.740481 13:-0.798595 15:-0.825137 16:-0.91413 17:-0.606557 18:-0.615925 19:-0.731881 21:-0.716888 22:-0.933875 24:-0.880562 
0.57264932251226441 2:-0.86638 3:-0.742433 4:-0.563798 5:-0.826409 6:-0.841365 7:-0.750742 8:-0.703264 10:-0.456973 11:-0.474777 12:-0.753379 13:-0.732938 15:-0.827893 16:-0.896142 17:-0.698813 18:-0.367953 19:-0.755399 21:-0.613254 22:-0.849188 24:-0.688922 
0.040558539320169194 2:-0.761936 3:-0.692096 4:-0.587629 5:-0.706186 6:-0.799588 7:-0.642612 8:-0.642612 10:-0.752577 11:-0.175258 12:-0.798396 13:-0.835052 15:-0.725086 16:-0.924399 17:-0.542955 18:-0.56701 19:-0.74034 21:-0.785796 22:-0.883566 24:-0.922108 
